sign,0,1,2,3,4,5,6,7,8,9,10,11,12,13,14,15,16,17,18,19,20,21,22,23,24,25,26,27,28,29,30,31,32,33,34,35,36,37,38,39,40,41,42,43,44,45,46,47,48,49,50,51,52,53,54,55,56,57,58,59,60,61,62,63,64,65,66,67,68,69,70,71,72,73,74,75,76,77,78,79,80,81,82,83,84,85,86,87,88,89,90,91,92,93,94,95,96,97,98,99,100,101,102,103,104,105,106,107,108,109,110,111,112,113,114,115,116,117,118,119,120,121,122,123,124,125,126,127,128,129,130,131,132,133,134,135,136,137,138,139,140,141,142,143,144,145,146,147,148,149,150,151,152,153,154,155,156,157,158,159,160,161,162,163,164,165,166,167,168,169,170,171,172,173,174,175,176,177,178,179,180,181,182,183,184,185,186,187,188,189,190,191,192,193,194,195,196,197,198,199,200,201,202,203,204,205,206,207,208,209,210,211,212,213,214,215,216,217,218,219,220,221,222,223,224,225,226,227,228,229,230,231,232,233,234,235,236,237,238,239,240,241,242,243,244,245,246,247,248,249,250,251,252,253,254,255,256,257,258,259,260,261,262,263,264,265,266,267,268,269,270,271,272,273,274,275,276,277,278,279,280,281,282,283,284,285,286,287,288,289,290,291,292,293,294,295,296,297,298,299,300,301,302,303,304,305,306,307,308,309,310,311,312,313,314,315,316,317,318,319,320,321,322,323,324,325,326,327,328,329,330,331,332,333,334,335,336,337,338,339,340,341,342,343,344,345,346,347,348,349,350,351,352,353,354,355,356,357,358,359,360,361,362,363,364,365,366,367,368,369,370,371,372,373,374,375,376,377,378,379,380,381,382,383,384,385,386,387,388,389,390,391,392,393,394,395,396,397,398,399,400,401,402,403,404,405,406,407,408,409,410,411,412,413,414,415,416,417,418,419,420,421,422,423,424,425,426,427,428,429,430,431,432,433,434,435,436,437,438,439,440,441,442,443,444,445,446,447,448,449,450,451,452,453,454,455,456,457,458,459,460,461,462,463,464,465,466,467,468,469,470,471,472,473,474,475,476,477,478,479,480,481,482,483,484,485,486,487,488,489,490,491,492,493,494,495,496,497,498,499,500,501,502,503,504,505,506,507,508,509,510,511,512,513,514,515,516,517,518,519,520,521,522,523,524,525,526,527,528,529,530,531,532,533,534,535,536,537,538,539,540,541,542,543,544,545,546,547,548,549,550,551,552,553,554,555,556,557,558,559,560,561,562,563,564,565,566,567,568,569,570,571,572,573,574,575,576,577,578,579,580,581,582,583,584,585,586,587,588,589,590,591,592,593,594,595,596,597,598,599,600,601,602,603,604,605,606,607,608,609,610,611,612,613,614,615,616,617,618,619,620,621,622,623,624,625,626,627,628,629,630,631,632,633,634,635,636,637,638,639,640,641,642,643,644,645,646,647,648,649,650,651,652,653,654,655,656,657,658,659,660,661,662,663,664,665,666,667,668,669,670,671,672,673,674,675,676,677,678,679,680,681,682,683,684,685,686,687,688,689,690,691,692,693,694,695,696,697,698,699,700,701,702,703,704,705,706,707,708,709,710,711,712,713,714,715,716,717,718,719,720,721,722,723,724,725,726,727,728,729,730,731,732,733,734,735,736,737,738,739,740,741,742,743,744,745,746,747,748,749,750,751,752,753,754,755,756,757,758,759,760,761,762,763,764,765,766,767,768,769,770,771,772,773,774,775,776,777,778,779,780,781,782,783,784,785,786,787,788,789,790,791,792,793,794,795,796,797,798,799,800,801,802,803,804,805,806,807,808,809,810,811,812,813,814,815,816,817,818,819,820,821,822,823,824,825,826,827,828,829,830,831,832,833,834,835,836,837,838,839,840,841,842,843,844,845,846,847,848,849,850,851,852,853,854,855,856,857,858,859,860,861,862,863,864,865,866,867,868,869,870,871,872,873,874,875,876,877,878,879,880,881,882,883,884,885,886,887,888,889,890,891,892,893,894,895,896,897,898,899,900,901,902,903,904,905,906,907,908,909,910,911,912,913,914,915,916,917,918,919,920,921,922,923,924,925,926,927,928,929,930,931,932,933,934,935,936,937,938,939,940,941,942,943,944,945,946,947,948,949,950,951,952,953,954,955,956,957,958,959,960,961,962,963,964,965,966,967,968,969,970,971,972,973,974,975,976,977,978,979,980,981,982,983,984,985,986,987,988,989,990,991,992,993,994,995,996,997,998,999,1000,1001,1002,1003,1004,1005,1006,1007,1008,1009,1010,1011,1012,1013,1014,1015,1016,1017,1018,1019,1020,1021,1022,1023,1024,1025,1026,1027,1028,1029,1030,1031,1032,1033,1034,1035,1036,1037,1038,1039,1040,1041,1042,1043,1044,1045,1046,1047,1048,1049,1050,1051,1052,1053,1054,1055,1056,1057,1058,1059,1060,1061,1062,1063,1064,1065,1066,1067,1068,1069,1070,1071,1072,1073,1074,1075,1076,1077,1078,1079,1080,1081,1082,1083,1084,1085,1086,1087,1088,1089,1090,1091,1092,1093,1094,1095,1096,1097,1098,1099,1100,1101,1102,1103,1104,1105,1106,1107,1108,1109,1110,1111,1112,1113,1114,1115,1116,1117,1118,1119,1120,1121,1122,1123,1124,1125,1126,1127,1128,1129,1130,1131,1132,1133,1134,1135,1136,1137,1138,1139,1140,1141,1142,1143,1144,1145,1146,1147,1148,1149,1150,1151,1152,1153,1154,1155,1156,1157,1158,1159,1160,1161,1162,1163,1164,1165,1166,1167,1168,1169,1170,1171,1172,1173,1174,1175,1176,1177,1178,1179,1180,1181,1182,1183,1184,1185,1186,1187,1188,1189,1190,1191,1192,1193,1194,1195,1196,1197,1198,1199,1200,1201,1202,1203,1204,1205,1206,1207,1208,1209,1210,1211,1212,1213,1214,1215,1216,1217,1218,1219,1220,1221,1222,1223,1224,1225,1226,1227,1228,1229,1230,1231,1232,1233,1234,1235,1236,1237,1238,1239,1240,1241,1242,1243,1244,1245,1246,1247,1248,1249,1250,1251,1252,1253,1254,1255,1256,1257,1258,1259,1260,1261,1262,1263,1264,1265,1266,1267,1268,1269,1270,1271,1272,1273,1274,1275,1276,1277,1278,1279,1280,1281,1282,1283,1284,1285,1286,1287,1288,1289,1290,1291,1292,1293,1294,1295,1296,1297,1298,1299,1300,1301,1302,1303,1304,1305,1306,1307,1308,1309,1310,1311,1312,1313,1314,1315,1316,1317,1318,1319,1320,1321,1322,1323,1324,1325,1326,1327,1328,1329,1330,1331,1332,1333,1334,1335,1336,1337,1338,1339,1340,1341,1342,1343,1344,1345,1346,1347,1348,1349,1350,1351,1352,1353,1354,1355,1356,1357,1358,1359,1360,1361,1362,1363,1364,1365,1366,1367,1368,1369,1370,1371,1372,1373,1374,1375,1376,1377,1378,1379,1380,1381,1382,1383,1384,1385,1386,1387,1388,1389,1390,1391,1392,1393,1394,1395,1396,1397,1398,1399,1400,1401,1402,1403,1404,1405,1406,1407,1408,1409,1410,1411,1412,1413,1414,1415,1416,1417,1418,1419,1420,1421,1422,1423,1424,1425,1426,1427,1428,1429,1430,1431,1432,1433,1434,1435,1436,1437,1438,1439,1440,1441,1442,1443,1444,1445,1446,1447,1448,1449,1450,1451,1452,1453,1454,1455,1456,1457,1458,1459,1460,1461,1462,1463,1464,1465,1466,1467,1468,1469,1470,1471,1472,1473,1474,1475,1476,1477,1478,1479,1480,1481,1482,1483,1484,1485,1486,1487,1488,1489,1490,1491,1492,1493,1494,1495,1496,1497,1498,1499,1500,1501,1502,1503,1504,1505,1506,1507,1508,1509,1510,1511,1512,1513,1514,1515,1516,1517,1518,1519,1520,1521,1522,1523,1524,1525,1526,1527,1528,1529,1530,1531,1532,1533,1534,1535
aquarius,0.013401588,0.0059548803,0.035953056,0.06832572,0.01622363,-0.015651762,0.010032543,0.04187064,-0.0105360355,0.026405357,0.002588943,0.015104759,0.0071856384,-0.008826649,0.007707778,0.045699663,0.01069765,0.042318188,0.03829025,0.033068854,-0.044978615,-0.061015766,-0.049081143,-0.011996783,0.016795497,0.008161542,-0.0025423237,0.05241289,0.029314421,0.021544483,0.019269446,-0.031204069,-0.009721746,-0.025211893,-0.0009875591,0.05922557,-0.040453404,0.0038103773,-0.016385244,-0.011996783,0.0030302757,0.0068313293,0.024528138,0.08980805,-0.0014646333,-0.016994407,-0.018436508,-0.043984063,0.045301843,0.023011448,0.048335228,-0.011586531,-0.006849977,-0.007589675,-0.044506203,-0.021295846,-0.00023931407,0.037668657,-0.024478411,0.019381333,-0.018921353,-0.02506271,-0.0104365805,-0.033267766,0.016198765,0.012991335,-0.008808001,0.018660283,-0.011555451,0.0036922744,0.031651616,0.02871769,0.029563058,0.03466014,0.027573954,-0.013401588,0.0056782705,0.0022128783,-0.019716993,-0.07165747,-0.026281036,0.00497276,-0.019443491,-0.0063060815,-0.036077373,-0.016497131,-0.032099165,-0.021283412,-0.003844565,-0.018685145,0.043461923,0.010734946,-0.012879449,0.016385244,-0.024068158,-0.009939305,0.018523531,0.003586603,0.022004463,0.0051623466,0.01844894,-0.01413507,-0.02426707,0.018871624,0.04326301,0.018163007,-0.003835241,-0.022874696,-0.0578332,0.036649242,-0.10084757,-0.007906688,-0.031228933,0.022613626,0.023670338,-0.01167977,-0.052711256,-0.008490988,0.05064756,0.029811697,-0.015278805,-0.018200302,0.0014452084,-0.0041615786,-0.016198765,-0.03838971,-0.01877217,-0.00841018,-0.05738565,-0.015216646,0.02231526,0.056391098,0.01321511,-0.0047738496,-0.00064296235,-0.03829025,-0.008708546,0.027076678,0.018573258,-0.016173903,0.029538196,-0.019281877,0.010803321,-0.04463052,0.009852281,-0.03055761,0.0021647047,0.03055761,0.0014778421,0.034535818,0.047390405,0.017491683,-0.048633594,0.010380637,0.05156752,-0.044605657,0.01517935,-0.02879228,0.030781385,-0.020711545,0.027026951,0.02623131,-0.012842153,0.002354291,0.06111522,-0.00066782616,-0.007825881,0.019194854,-0.0370222,-0.017429523,-0.021544483,-0.038712937,-0.00524937,0.03388936,0.009672019,0.0040186117,0.01092764,0.008845297,-0.013501043,0.0041709025,0.0289166,0.024242206,0.017839776,-0.004590479,-0.031005159,0.038364843,-0.041298773,0.008080735,-0.017218182,0.008584227,-0.04147282,0.024528138,0.021171525,-0.013501043,0.05161725,-0.014309117,0.046793673,0.03480932,0.002261052,0.012220558,-0.052760985,0.022812536,0.039359394,-0.045575347,-0.001378387,0.024640026,-0.006632419,0.0013574081,-0.039011303,0.029488467,0.05325826,-0.0044817,-0.011294382,-0.011045744,-0.016434971,0.011089255,-0.0038197013,0.06956891,-0.0130037675,0.014085343,-0.02650481,-0.03055761,0.04211928,-0.041721456,-0.0066821463,0.013339429,0.098162286,-0.040602587,-5.4875185e-05,0.0027505578,-0.010591979,-0.016720906,0.0030566934,0.00015772974,-0.021892576,-0.028767416,0.04114959,-0.02787232,0.04303924,0.02983656,0.039856672,0.011642475,-0.010815753,-0.025286485,0.008590443,0.04082636,-0.02695236,-0.06409888,0.013277269,0.051766433,0.040005855,0.03187539,0.04520239,0.050473515,0.022551468,-0.030035472,0.023210358,-0.0022765917,0.0007525185,-0.047663905,-0.0022688217,-0.03473473,-0.027176134,-0.03545578,0.02923983,-0.04619694,0.034635276,-0.029861424,-0.033939086,-0.08836595,0.0144583,-0.05698783,-0.029538196,0.013227542,-0.10149403,-0.037245974,0.0033317492,0.008982047,-0.0022921315,0.0468434,-0.03244726,-0.061264403,0.018821897,-0.058628842,0.026803177,0.013177814,0.036873017,-0.026405357,0.016658746,-0.012599731,-0.035157412,-0.037917294,0.011934624,9.353062e-05,-0.025398372,-0.00090752874,0.044431612,-0.052114524,0.009013128,0.011965704,0.041970097,-0.027847456,-0.024453547,0.019157559,0.054103628,0.033392083,0.002108761,0.009435812,0.023981135,0.0053146374,-0.009243118,-0.03160189,0.06762954,-0.016633883,-0.041273907,-0.0027458959,8.9160036e-05,-0.0048981686,0.016111743,-0.039160486,-0.03147757,0.03249699,0.02623131,0.00061460206,0.0017622218,-0.021109367,-0.00088888087,-0.011474644,-0.008155326,-0.022849832,-0.048235774,0.00096424925,0.010865481,0.018237598,-0.013923728,-0.034486093,0.006632419,-0.05390472,0.06941973,-0.06996673,-0.02374493,-0.03801675,-0.035779007,-0.07508868,-0.02394384,-0.00020668034,-0.021631505,-0.05842993,-0.030582475,0.01759114,-0.004745878,0.011891113,0.01714359,0.006197302,-0.018150574,0.034635276,0.04920546,-0.016845224,0.024988119,-0.017715458,0.01720575,-0.050921064,-0.0024755022,0.024652459,0.020823432,-0.022340124,-0.043536514,0.005451388,-0.049901646,-0.0104365805,0.004124283,-0.0010792443,-0.030731658,0.005081539,-0.060220126,0.042939782,0.009156095,-0.00018958648,0.055595458,0.049354643,0.023011448,0.009653371,-0.04572453,-0.035356324,-0.0030691253,0.012537572,0.0015625345,-0.05534682,0.04455593,-0.0154031245,0.009373653,-0.0012315351,-0.031850528,-0.009000695,0.0059206923,-0.011194926,-0.010623058,0.05325826,0.016845224,-0.05266153,-0.034063406,-0.0018383672,0.012518924,0.036027648,0.022029327,-0.0028888627,-0.0023993568,0.0051623466,0.003232294,0.0025190138,-0.038762666,-0.009690667,0.0358536,-0.004599803,0.0063154055,0.0042952215,0.027524227,-0.025448099,-0.040876087,0.016236061,-0.060021214,-0.020525068,0.003350397,-0.01871001,0.036649242,0.017628435,0.034510955,-0.015589603,0.04050313,-0.037320565,0.001246298,0.019381333,0.036674105,-0.00076417334,0.04246737,0.03376504,0.023371972,-0.006337161,0.026156718,-0.0636016,0.018237598,0.007129695,-0.06877327,-0.02879228,-0.025510259,-0.0016891845,-0.04291492,-0.023968704,-0.0942338,0.0179268,-0.011014664,-0.020388316,0.015527443,0.011027096,-0.03754434,0.05221398,-0.012543787,-0.016397675,0.05037406,0.008354237,-0.004627775,-0.04109986,0.006800249,0.022725513,0.061015766,0.031104615,0.0010807983,-0.048061725,-0.019480787,-0.008578011,0.037718385,0.028568506,0.0010466106,0.01003876,-0.04109986,0.019642401,0.008453692,0.008546932,-0.01537826,-0.023695203,-0.036201693,0.00080185756,-0.0013348752,0.014333981,0.034113135,-0.06663498,0.0047987136,0.015415556,0.02662913,0.01335186,-0.0005912923,-0.0071234787,0.022961719,-0.011400052,0.01636038,-0.007738858,0.027051814,0.0032664817,0.008596659,-0.021967167,0.024130318,-0.017578706,0.021706097,0.028941464,0.020599658,0.022103919,0.05221398,0.005836777,0.02231526,0.0303587,0.017777618,0.008049656,-0.022588763,0.034535818,0.0118103055,0.0013170044,0.015738785,0.0025143519,0.0060356874,-0.018274894,-0.02735018,0.0035679552,-0.012804857,0.028618233,0.0101071345,0.009336357,-0.016546858,0.012034079,-0.02165637,0.0063060815,0.0073286053,-0.007359685,0.0015089219,0.050672427,0.019082967,0.040080447,0.0114187,-0.0019176205,0.010803321,0.033963952,0.004382245,0.016173903,-0.010480092,0.029538196,-0.018374348,0.017280342,-0.008490988,-0.011412485,-0.011325461,0.021643938,0.044978615,-0.0131032225,0.031303525,-0.013028631,0.077674516,-0.034312043,-0.021494756,0.0019533623,0.015067463,0.029413875,-0.020326156,-0.005398553,0.025311349,-0.0062532458,-0.0193689,0.02670372,-0.00046697326,0.0038911847,0.00038150392,0.002996088,0.00017511497,-0.0013900418,0.0012812627,-0.03737029,0.030955432,0.037643794,-0.01766573,-0.024217341,0.0031235148,-0.01818787,-0.005361257,-0.017951664,-0.02851878,0.011915976,-0.03597792,0.03349154,0.015527443,-0.017678162,-0.024938392,0.022874696,0.035555236,0.0291901,0.014607483,0.030060334,-0.024528138,-0.028170686,-0.02851878,-0.016497131,-0.012630811,-0.036549788,0.019331604,-0.004689934,0.0151544865,-0.034535818,-0.0058896127,0.015353397,-0.02532378,0.0028344733,-0.013078359,-0.006837545,-0.009000695,0.018212734,0.037792977,-0.052760985,-0.028742554,-0.01003876,0.019020807,0.04520239,0.061413586,-0.018548395,-0.008658819,-0.005961096,-0.026877768,-0.021817984,-0.015800945,-0.010020112,-0.008571795,-0.004627775,0.054153357,-0.017765185,0.011170062,0.012587299,-0.014694506,-0.03408827,-0.011493292,0.0114808595,0.0010365096,0.0063029733,-0.015664194,-0.01622363,0.011729497,-0.025075143,0.005737322,0.007210502,0.033914223,0.013699954,-0.0090628555,0.002730356,-0.0038756449,0.0025749572,-0.03461041,-0.032298077,0.052114524,-0.0031359468,0.015813377,-0.044431612,0.0026526568,0.026455084,-0.0039036167,-0.0046339906,0.0017218181,0.014048047,-0.012338661,-0.0072042863,0.034560684,0.02165637,0.011654906,0.0020217379,0.024006,0.010734946,-0.00027214206,-0.019853745,0.03657465,0.015838241,0.001613039,0.012326229,0.026852904,0.005613003,0.018411644,-0.006268786,0.02067425,0.02440382,-0.00420509,-0.010741162,0.030706793,-0.032148894,0.029687377,-0.006346485,0.00199532,-0.00066394114,-0.019319173,0.008205054,0.011431132,0.033590995,-0.04480457,0.004714798,0.031726208,-0.014943144,0.042616554,-0.036674105,0.003611467,-0.0031701345,-0.015527443,-0.012941608,-0.022464443,-0.045500755,0.015999855,-0.024565434,0.06295514,0.0062843254,0.006856193,-0.04022963,0.0025112438,-0.016509563,-0.0047116904,-0.04211928,-0.013786977,0.046818536,-0.0022004463,-0.0046339906,-0.01989104,-0.022725513,-0.027375044,-0.0076456186,-0.0050349194,0.005109511,0.022539034,0.007365901,-0.032273214,0.011151414,-0.00071172626,-0.019306742,0.016521996,-0.006343377,0.013165383,-0.0045718313,-0.0012284272,0.0054420643,-0.0155523075,-0.017044134,0.023782225,-0.041273907,0.023011448,0.0016860764,-0.0019238365,0.018821897,-0.020761274,0.054998726,-0.036027648,0.00673809,-0.0077885855,0.010013895,-0.008975832,-0.027399909,0.001982888,-0.024167614,-0.03204944,-0.0013543001,0.020898024,-0.0042703575,0.021842849,0.028046366,-0.009479323,-0.0036767344,0.01217083,0.03838971,-0.0023511832,0.046296395,-0.007912904,0.0042890054,-0.0006806465,0.0021553808,-0.020985048,0.008845297,-0.040279355,0.0093114935,-0.029463604,0.051070247,0.0020683573,-0.023570882,-0.002722586,0.03015979,-0.007813449,0.0025329997,-0.013550771,-0.0015928372,-0.022103919,-0.02440382,0.0058305613,-0.045227252,-0.00518721,0.028419323,-0.0075275158,0.0012253191,-0.006986728,0.060816854,-0.026877768,-0.047017448,0.021320708,-0.008683682,0.019480787,-0.010803321,-0.016447404,-0.025808625,0.028543642,-0.033740178,-0.016708475,0.038837258,-0.000995329,0.0011856925,-0.0075150835,0.025659442,-0.014296685,0.015328533,-0.0025625254,-0.034784455,0.0035679552,0.007713994,-0.021594211,0.0036984903,0.042442508,-0.014955576,0.009597427,-0.0062718936,-0.005221398,-0.0004968875,-0.0027334641,-0.004257926,0.012369741,0.0060139317,0.014943144,0.01413507,-0.030532748,0.023570882,-0.0012999106,-0.022949288,0.00018307916,0.034709863,0.019654835,0.029712241,-0.030731658,-0.0125562195,0.010069839,0.012015431,0.011947056,0.008652602,-0.01026875,-0.03508282,0.0032602658,-0.03421259,-0.04868332,0.020127246,0.011213574,-0.0014661872,0.01246298,0.008186406,0.016248494,-0.026529675,-0.02061209,0.0155523075,0.05221398,0.02911551,0.040279355,-0.009808769,-0.025883216,0.019853745,0.02105964,-0.0053923368,-0.0011064392,0.0033286412,-0.01826246,0.009168526,-0.024478411,0.02277524,0.033218037,-0.0021849065,-0.014445868,-0.002229972,-0.01752898,0.020525068,0.04607262,-0.02446598,0.027996639,-0.0046930425,-0.023508724,0.027126405,0.009727962,0.008950968,-0.018498667,0.029911151,-0.016012287,0.01877217,0.0021553808,0.019493219,0.01720575,0.0035089038,-0.024192479,0.021532051,0.0035120118,0.026902633,-4.329312e-05,-0.059822302,-0.018100847,-0.02093532,0.008882592,0.0070426716,0.0592753,-0.025149735,0.01367509,0.044854295,0.010449012,0.008503419,0.0018445832,0.02963765,-0.03075652,0.006725658,-0.0040310435,0.02105964,-0.020251565,-0.007608323,-0.024515707,0.0028935247,0.008304509,0.0029587923,-0.013637794,-0.027101543,-0.035828736,-0.0029199426,0.0118103055,-0.019816449,0.023769792,-0.014060479,-0.033143446,-0.0057590776,0.009075287,0.04311383,0.0047396617,0.025199462,-0.0068126814,-0.019132694,-0.012543787,0.0020201837,0.0042610336,-0.038116205,0.052313436,0.020052655,-0.010361989,0.03921021,-0.017504115,-0.0033068855,0.028493915,0.030731658,0.0607174,0.0078880405,0.009653371,-0.013028631,-0.034113135,0.016981976,0.006094739,0.024689754,-0.012301365,-0.015850672,-0.017964095,0.0049043847,0.029936016,-0.0061848704,-0.018473804,-0.019804018,0.037345428,-0.03669897,0.0018849869,-0.035903327,0.04388461,-0.005532196,0.013612931,0.03461041,0.0130162,-0.02289956,0.06917109,0.026206445,0.046221804,0.069867276,-0.018759737,-0.033143446,-0.03426232,-0.023434132,-0.0024102347,0.016397675,-0.023173062,-0.0034498523,0.03500823,-0.020811,-0.012531355,-0.0016145931,0.00044366345,-0.004565615,-0.014769098,-0.045923438,0.042566825,0.020823432,0.0070364554,0.001877217,-0.009491756,-0.012730266,-0.035107687,-0.008739626,0.006862409,0.02113423,0.018349485,-0.018958647,0.01014443,0.0011934624,0.021619074,-0.00086634804,-0.017429523,0.0047893897,-0.0040621236,0.01164869,0.010815753,0.014968008,-0.0038507811,0.024391389,0.016211199,-0.0070178076,-0.007210502,-0.007111047,-0.0023993568,-0.006483236,0.0013208893,0.0029354824,0.034908775,-0.0035648474,0.01095872,-0.0012657228,-0.04848441,-0.0016021611,0.029389013,0.041174453,-0.01772789,-0.007832097,-0.05892721,0.017901937,-0.0097590415,0.023906544,0.022924423,-0.027126405,-0.010026327,-0.035779007,0.040378813,0.019990496,-0.03160189,0.013525907,0.02348386,-0.008596659,-0.0049292482,0.0005446726,-0.010492524,-0.015676627,0.015291237,-0.0124070365,-0.03553037,0.030681929,0.012966472,-0.02047534,-0.015664194,0.017765185,-0.00053301774,-0.0023325353,-0.017454388,-0.0030768954,0.03662438,0.00024960923,-0.030855976,0.000874118,-0.004158471,0.03533146,-0.019356469,-0.009572563,-0.0006946324,0.008658819,-0.011194926,0.0072850934,0.02996088,-0.0044319723,0.0023325353,-0.0077637215,0.007297525,-0.0064335084,-0.018797033,-0.008062087,0.006825113,-0.015726354,-0.008478556,0.0031452707,-0.007819666,0.020002928,0.032298077,0.0025361076,0.015614467,-0.0025858353,0.043088965,0.009137447,0.0065640435,-0.024702186,-0.014321549,0.0011926854,-0.01871001,-0.023769792,-0.021581778,0.0031623647,-0.0072726617,0.009516619,-0.0248638,0.013426452,-0.0069991597,0.0065143155,-0.006825113,-0.04067718,0.027524227,-0.016248494,0.0035306597,-0.015241509,0.024901096,0.035903327,-0.027996639,-0.0017808697,0.035381187,-0.005134375,-0.0020450475,0.020587226,-0.0020668034,0.006107171,0.022079054,-0.009957952,-0.020313725,0.0009580333,9.459899e-05,-0.046818536,0.010902776,0.023732498,0.010840617,0.009672019,-0.020263998,0.022812536,0.0124319,-0.030657066,0.028966328,0.08478556,-0.02851878,-0.055396546,0.024851369,-0.0053332853,-0.0006853085,-0.015825808,0.016696041,-0.002105653,-0.011107903,-0.044978615,0.010766026,-0.027897185,0.017939232,-0.0051592384,-0.0046495306,-0.015515012,0.017354932,0.0010955612,0.014731802,0.013202678,0.012525139,-0.014943144,-0.038315117,-0.00593934,0.015539875,0.015925264,-0.018299757,-0.02512487,0.036251422,0.009093935,0.014806393,-0.031054886,0.024988119,0.02420491,0.0033845848,0.009031775,0.018138142,0.015216646,-0.014557755,-0.009299061,-0.04057772,0.005227614,-0.027723137,0.016410109,0.017777618,-0.020301294,-0.004105635,-0.002354291,0.021631505,0.005961096,-0.01662145,-0.022452012,-0.012804857,-0.014383708,-0.002730356,0.0303587,0.04920546,-0.0022222023,-0.014619915,0.0030893271,0.04845955,-0.017814914,0.012419468,0.00038092118,0.000559824,0.00399064,0.04154741,-0.03761893,0.00081817445,-0.030483019,0.001365955,0.018436508,-0.030507883,0.014159935,0.010181726,-0.01662145,0.034013677,-0.012966472,-0.056838647,-0.00056603993,0.004975868,0.021793121,-0.0021600428,-0.022999015,0.00030186208,0.002975886,0.016347948,-0.010716298,0.014209662,-0.025112439,-0.0065391795,-0.0026511026,0.020164542,0.011567883,-0.0153036695,0.009187174,-0.04351165,-0.008490988,0.024901096,-0.0046526385,0.0263059,-0.021109367,0.022352556,0.019841313,-0.019406196,0.0042517097,-0.02289956,-0.033988815,0.016447404,-0.0010403947,0.0039937478,0.022489307,0.00446616,-0.04259169,0.0081366785,0.041249044,-0.05659001,-0.0072913095,-0.033988815,0.028170686,0.013376725,0.0030225057,-0.034137998,-0.030532748,0.0050566755,-0.0028189335,0.025932943,-0.0096595865,-0.036773562,0.026479946,0.031030023,0.011269517,-0.009572563,0.008820433,0.024254637,0.025373507,-0.0077885855,0.013401588,-0.0072913095,0.0024335445,-0.017466819,-0.011337893,0.022203373,-0.02859337,-0.0124319,-0.027424771,-0.050672427,0.03480932,0.045973167,0.003735786,-0.026778312,-0.0164847,-0.0027629898,0.044431612,0.021992031,-0.0020139678,-0.01916999,-0.008696114,0.020226702,-0.003586603,0.003835241,-0.0401799,0.018573258,0.014781529,0.020574795,0.0066510667,0.022911992,0.033392083,0.016559292,0.0076269708,-0.036475196,-0.03652492,-0.013874001,0.021308277,-0.027748002,-0.0059300163,-0.00014199561,-0.0019844421,0.0061631147,0.0023511832,-0.042367917,0.031552162,-0.0049883,-0.013699954,0.0039129406,0.03965776,-0.016807929,0.029936016,8.1972845e-05,0.008093167,0.006856193,-0.009522836,-0.0065205316,-0.01367509,0.028941464,-0.030681929,-0.0040186117,-0.06822627,0.027698273,0.017653298,-0.015477716,-0.02007752,-0.02335954,-0.015515012,-0.02277524,-0.006119603,-0.00821127,-0.013513476,0.017044134,0.0076456186,0.012494059,0.043213286,0.0076394025,0.01674577,0.0023169953,-0.018175438,-0.00014607483,-0.0007544609,-0.013687522,-0.0051903185,0.026330765,-0.028767416,-0.027946912,2.7558997e-05,0.014632346,-0.010231454,-0.0067940336,-0.007316173,-0.036077373,0.01818787,-0.023272516,0.004201982,0.0031763504,0.0033876929,0.026728585,-0.0494541,-0.0036798425,0.0077015623,-0.017044134,-0.043561377,-0.038439434,-0.013836705,-0.0010629274,-0.0076580504,0.019779153,-0.010250102,-0.019020807,-0.021556916,0.030333836,-0.028667962,0.019915905,-0.010517388,0.0029432524,-0.022128783,0.010442796,-0.013128087,0.0315273,-0.06588907,-0.0005858533,-0.0069370004,0.009435812,0.07374603,-0.0075212996,-0.010660354,0.008832865,-0.014682074,-0.015974991,0.028469052,0.0234217,-0.006094739,0.012164614,-0.037221108,-0.006225274,-0.011884896,0.026479946,0.022041759,-0.014184798,0.011474644,-0.015005304,-0.07374603,0.0032105383,-0.013190246,0.010318477,-0.027325317,-0.035903327,-0.0033721528,-0.034013677,0.005000732,-0.014309117,0.041721456,0.026778312,-0.025659442,-0.019294308,0.016298221,0.012083807,-0.0045469673,-0.008683682,0.024117887,-0.0027847455,-0.010741162,0.021793121,-0.023185493,-0.010393068,0.0047552017,0.040353946,0.013650226,0.006483236,-0.003359721,-0.013339429,0.02904092,0.010542251,0.028767416,-0.0032758056,0.0303587,-0.025485395,0.00033546705,0.0025159058,0.002873323,0.006088523,0.01943106,0.020562362,0.010417933,0.035107687,-0.012338661,0.0004001518,-0.04579912,-0.03381477,0.031452708,0.016733337,0.011455996,0.0049323565,-0.021880144,0.046743944,0.01897108,-0.009442029,0.012351093,-0.007216718,0.0060232556,-0.013128087,0.023608178,0.009889577,0.0030566934,0.0026402248,-0.028096095,0.0066821463,0.03553037,-0.009479323,-0.018498667,0.021283412,-0.005087755,-0.0011142091,0.036823288,-0.04888223,-0.011698418,-0.022066623,0.046420716,-0.013326997,0.012313797,-0.0055166557,-0.041895505,0.018337052,0.003605251,-0.018834328,-0.011978135,0.030209517,0.018113278,0.0056254347,-0.014706938,-0.00047940513,-0.024702186,-0.011400052,-0.019816449,-0.01174193,-0.041323636,-0.01708143,0.0023201033,0.009280413,-0.0722542,-0.0011647136,0.02466489,-0.01760357,0.034113135,0.0048360093,0.0016456728,0.0033348573,-0.007894256,-0.038961574,0.012494059
aries,0.021370262,-0.014625076,0.03240211,0.022164555,-0.061778337,-0.035352338,-0.017739208,0.055272702,-0.03772261,0.01558327,0.013805567,-0.010149298,-0.026678156,-0.020777693,0.0090208985,0.04942267,0.00074031565,-0.024799589,0.042387504,-0.0069343033,-0.005380389,-0.01877305,0.00915328,0.018672187,-0.008377899,-0.030914385,0.042790953,0.036461826,0.026350353,0.02242932,0.048287965,-0.032931637,0.00700995,-0.0035900779,-0.0235262,-0.015671525,-0.018596541,0.0006378771,-0.020298596,-0.011674845,0.01219807,0.035881866,0.055474427,0.05643262,0.01292302,-0.012563697,-0.008907428,-0.005648305,0.10348502,0.029477093,0.02584604,-0.018420031,0.035982728,0.052801568,0.003930489,-0.012803245,0.026047764,0.031242188,-0.0034230242,0.0891121,0.03842865,-0.02265626,0.012998667,-0.045035146,-0.0148646245,0.010155602,-0.011605502,-0.020311205,-0.035629712,0.01633974,0.014524213,0.002573572,0.022908416,0.054062348,0.01940344,-0.0027674173,0.0037350678,0.016150622,-0.023475768,0.020790301,0.00096449855,0.014940271,-0.020399459,0.03510018,-0.037268728,-0.014662899,-0.0051723598,0.00040542035,-0.053154588,-0.0046270713,0.016768405,0.02856933,0.01292302,-0.03852951,0.0069532148,-0.037193082,0.038983393,-0.018697403,-0.023135357,0.035781004,-0.007016254,0.025644314,-0.014751154,0.030510934,0.047960162,0.035755787,0.0005988716,0.02109289,-0.008270732,-0.0169197,-0.116496295,-0.0022378888,-0.00052440667,0.017487051,-0.027434625,-0.025329119,-0.041782327,-0.026728587,0.018735226,-0.02033642,-0.06556068,-0.011945914,-0.008390507,-0.007312538,0.015747173,-0.014902448,0.05401192,0.054213643,-0.051893804,-0.04616985,0.012097207,0.0051156245,0.035957515,-0.0038926657,-0.025215648,-0.077210315,0.012904108,0.016907092,-0.025228256,0.032301243,0.043370914,-0.032250814,-0.0025231407,-0.014826801,0.0021196904,-0.030889168,0.007873586,0.047178477,0.0002371847,0.0354532,-0.016327132,0.02942666,-0.049952198,0.017096208,0.018962167,-0.023437945,0.030208346,-0.050481725,-0.010199729,-0.021244183,-0.0035900779,0.025480412,-0.039739862,-0.014990702,0.056634344,0.0113029145,0.0025846038,-0.0029502308,-0.037268728,-0.045262087,-0.05950893,-0.052347686,0.060517557,0.013376901,0.00729993,0.03338552,0.037319157,0.02212673,-0.010899464,0.03991637,0.02977968,0.022996671,0.020575969,-0.009670201,-0.014221625,0.0029691425,-0.012828461,-0.05885332,-0.013339078,-0.033814184,-0.02652686,0.021282006,0.0057208003,0.002067683,0.0028005128,-0.0036688768,0.017600521,0.023627061,-0.033007283,0.026350353,-0.021824144,0.005071497,0.01558327,-0.02687988,0.018596541,0.007463832,0.0037445237,-0.0005314986,-0.01448639,0.013200392,0.056331757,-0.019617774,0.0053898445,0.037697393,-0.029124074,0.012784334,0.026249489,-0.007848371,0.024345709,-0.027661566,0.033713322,-0.016818836,0.032855988,0.023261435,0.004901292,0.005216487,0.08961641,-0.02218977,0.015431977,-0.0075583905,-0.05451623,-0.0086552715,-0.008277036,-0.005922525,-0.008163566,-0.019907754,0.02629992,-0.027535487,0.005471796,0.018621756,0.008541801,0.013238215,-0.010804906,-0.06808225,-0.01558327,0.01471333,-0.019542128,-0.010269073,-0.018319169,0.016793622,0.042009268,-0.0023277195,0.025719961,0.054768387,0.029729249,-0.024244845,0.039891154,-0.019781675,0.03308293,-0.02178632,0.029325798,0.0367392,-0.0079681445,-0.07584867,-0.01332647,0.015078957,0.02584604,-0.018029189,-0.01755009,-0.06677104,0.036310535,-0.035201043,-0.010741866,0.0048445566,-0.055423994,-0.02508957,-0.0020928988,0.047354985,-0.010174514,0.0064142304,-0.027585918,-0.0101619065,-0.015331114,-0.035024535,0.042084917,0.0029533827,0.038680803,-0.020147303,0.023677493,-0.010899464,-0.031242188,-0.016074976,0.02844325,0.04992698,0.009695416,-0.028720623,0.03182215,-0.027434625,-0.0177266,0.041782327,0.021546772,-0.0055474425,-0.011927001,-0.0018139507,0.02844325,0.056281324,0.032578617,-0.023274044,0.05111212,-0.015835427,0.01616323,-0.0035364947,0.034217633,-0.04566554,0.014549429,0.00017434257,-0.0105716605,0.038554724,0.018760443,-0.037445236,-0.01060318,0.021584595,0.016150622,-0.00013967104,0.015797604,-0.0061935936,0.040571976,0.006250329,-0.021761104,-0.021256791,0.004797277,-0.0022000652,-0.05219639,0.0026917704,-0.057743832,-0.01437292,0.004362307,-0.030006621,0.03946249,0.0055537466,-0.011712668,-0.00075410545,-0.0544658,-0.020954203,-0.02874584,-0.00016705367,0.048867926,-0.028065016,0.0014822073,0.011990041,-0.0037823473,-0.03517583,0.0027847532,0.008037488,-0.0064804214,0.00630076,-0.01097511,-0.014473782,-0.020424675,-0.002857248,-0.023248827,-0.052246824,-0.019340402,0.026779018,0.018457854,-0.004740542,-0.006089579,-0.023917042,-0.0826569,-0.028771054,0.055171836,-0.03852951,0.0041322145,0.0015428824,-0.06218179,0.06152618,-0.0042835083,-0.009392829,-0.0088633,0.028165879,0.022051085,0.01888652,-0.06102187,-0.016995346,-0.018672187,0.056583915,-0.016238878,-0.069696054,-0.020765087,-0.022530181,-0.017058386,-0.035125397,-0.013250823,-9.155447e-05,0.0017383037,0.020840732,-0.0028383364,0.08714528,0.025127394,-0.03910947,-0.017562699,-0.01132813,-0.010735562,0.030611796,0.0027138342,0.010073652,-0.007381881,0.0072621065,-0.028594544,-0.00041251225,0.0027406258,-0.016352348,0.026602509,0.04848969,-0.036134023,-0.016062368,0.027913723,-0.002294624,0.0057680793,0.010325808,0.0069532148,-0.019138677,0.04579162,-0.028670192,-0.007596214,0.004709022,0.07801721,-0.023917042,0.033183794,-0.033637673,-0.02067683,0.031544775,0.02004644,0.0048918356,-0.004935963,0.032982066,-0.026980743,-0.037067004,-0.027535487,-0.0064299903,0.011939609,-0.00417319,-0.07700859,0.014183802,-0.046371575,0.07852153,-0.019163892,-0.036764413,-0.03857994,-0.009052417,-0.0066569312,-0.0118513545,-0.021307223,0.006234569,-0.021256791,0.058248147,0.0068964795,-0.01825613,0.051994666,0.041051075,0.05017914,-0.004790973,-0.02363967,0.013944253,0.03262905,0.010779689,0.029653601,-0.032755125,-0.0023072318,-0.018067012,0.06036626,0.027585918,-0.002009372,0.017600521,-0.023564024,0.02254279,-0.0134525485,0.06379559,-0.013641666,-0.031670853,-0.0007119481,0.010659915,-0.021597203,0.03986594,0.018798266,-0.038630374,0.056281324,-0.0056924326,0.017676169,0.027308546,0.02218977,-0.0005133748,0.013414725,-0.012721295,0.0036215975,-0.03134305,-0.026930312,0.025644314,0.003943097,-0.023538807,0.043723933,0.0051313844,0.039815508,0.048061024,0.05728995,0.011447905,0.012614128,0.024320493,-0.0041227583,0.040168528,-0.00043024198,-0.017751817,-0.019630382,0.008377899,-0.010079956,-0.025543451,-0.010086259,0.0082896445,0.008447242,-0.017487051,-0.026022548,0.019201716,-0.021735888,0.034419358,-0.022921024,0.01135965,-0.018508285,0.078773685,0.01645321,-0.021168536,-0.0019841562,0.009821495,-0.0016358652,-0.015923683,0.0031062525,0.016579289,-0.020033833,0.016604504,-0.014297272,0.008964163,0.012160246,-0.018710012,0.019668205,0.01988254,-0.00074110366,0.021710673,0.0075583905,0.043850012,-0.021408085,0.021811536,0.025354333,-0.04750628,-0.024774374,0.0031472282,0.035024535,0.0015838579,0.00046451951,-0.030510934,-0.016907092,0.029704032,0.010262769,-0.026098195,-0.023261435,-0.0441526,0.01940344,0.018382207,0.0011622838,-0.06551025,0.010237553,-0.0004885532,0.009689113,0.0064804214,-0.007671861,-0.04432911,0.04970004,0.03870602,-0.0081068305,-0.014738547,-0.003224451,0.013679489,-0.024660904,-0.02131983,-0.009355006,-0.031771716,-0.030410072,0.03388983,1.612915e-05,0.005210183,0.02705639,0.026249489,-0.028367603,0.017575307,0.008176174,0.028644975,-0.037092216,-0.027283331,-0.02242932,-0.017171856,0.023173181,-0.056684777,0.01749966,0.0054780995,-0.0068145287,-0.01755009,-0.018861305,0.006215657,-0.005664065,0.015936289,0.008970466,0.031141326,-0.032704696,0.0011693757,0.03968943,-0.04291703,-0.016654935,-0.003084189,0.008661575,-0.00087230385,0.009676505,-0.020172518,0.00530159,0.018583933,-0.0049926983,0.033007283,0.041757114,-0.006389015,-0.021004634,-0.02044989,0.034394145,-0.027333762,-0.011756795,-0.013477764,-0.029653601,-0.035856653,-0.024736552,-0.011996345,0.011031846,-0.0090650255,-0.03401591,0.0044001304,0.0034230242,-0.0013009699,0.011952217,-0.0011796196,0.0038958176,0.0007032802,-0.014007293,0.019832106,-0.001359281,-0.0067767054,-0.032528184,0.032578617,0.03411677,-0.008100527,0.0009936541,-0.005210183,-0.015394153,-0.021080282,0.0006197533,0.060013242,0.0009668625,0.011561374,-0.014675507,-0.015280683,0.021761104,0.025871255,0.010155602,0.021332439,0.013729921,-0.0058090547,-0.016554072,0.013061706,0.009670201,-0.006423686,-0.022958847,-0.013742528,0.019252148,-0.0019226931,0.06076971,0.02276973,-0.021887183,-0.013931645,-0.029300584,-0.024244845,0.0034419359,0.016781013,0.015772387,-0.017827462,0.002720138,-0.021080282,-0.00059768965,0.029502308,0.016465819,0.00372246,-0.02549302,0.008598536,0.022681475,-0.012847372,0.026804233,-0.023097534,-0.0037350678,-0.026577294,-0.023425337,-0.008264429,-0.029023211,-0.07206632,0.01888652,0.01761313,0.043648288,-0.010287984,0.005456036,-0.05885332,-0.022971455,-0.010760778,-0.009115457,-0.015356329,-0.00955673,0.035276692,0.04606899,-0.02573257,0.008938947,0.025770392,-0.0019132373,-0.02705639,0.0044568656,-0.021811536,-0.012986058,-0.037218295,-0.0060643633,-0.00033410735,0.029325798,0.010029524,-0.0029943583,-0.06278697,0.01477637,0.024257453,-0.01645321,0.00921632,-0.009096545,-0.029401446,0.033990692,-0.029804897,-0.0118954815,0.0098404065,-0.004652287,0.023765748,-0.002010948,-0.00027579616,-0.019365618,0.0009849862,-0.0003709458,0.009827799,0.007091901,-0.012317844,0.006423686,-0.04523687,-0.008592232,-0.0031141324,0.03325944,-0.03134305,-0.013553411,-0.012273717,-0.044883855,-0.00075686345,0.010401455,0.06667017,0.046623733,0.016591897,0.012563697,0.00096371054,-0.028897133,0.009972788,0.012595216,0.006076971,-0.011334434,-0.02085334,-0.042387504,0.03893296,-0.0032402107,0.0011567678,0.06636759,-0.02740941,-0.046195067,-0.033158578,-0.004794125,0.0006382711,0.02555606,-0.008636359,-0.012450227,0.006366951,0.0021417541,0.02844325,-0.01173158,0.0067451857,-0.00675149,-0.020613791,0.030157914,-0.0301327,-0.00157519,0.029098857,0.044682126,-0.009512603,0.005380389,0.019567342,0.046548087,-0.0044001304,0.009626074,0.02629992,0.042740524,-0.011252483,-0.009355006,0.014070331,-0.017209679,-0.0041921013,0.027888507,-0.023980081,-0.004359155,0.036840063,-0.016554072,-0.027938938,0.065308526,0.0069216955,-0.014965487,-0.002430158,-0.0139064295,0.015684133,-0.026400784,0.01135965,0.04258923,-0.0054780995,0.009865622,-0.0041984054,-0.0020944749,-0.0048540123,0.015948897,-0.024093552,0.048187103,0.025152609,-0.0071801557,0.02700596,0.015671525,0.0063511916,0.021912398,0.032982066,0.015431977,0.0025389006,0.004939115,-0.019920362,0.010048436,0.012488049,-0.049094867,-0.02502653,0.048035808,-0.0023214156,-0.0056861285,0.00961977,0.0059887166,-0.034394145,-0.014246841,-0.007816851,0.002943927,0.023236219,0.029300584,-0.022782339,0.00441589,-0.056281324,0.011012934,-0.008213997,-0.04727934,0.037394807,-0.025543451,-0.019012598,0.013389509,0.0057712314,-0.0106662195,-0.0010661491,-0.014347704,0.0003295764,-0.013692097,-0.0012316268,0.010823817,0.023627061,-0.012822157,0.0047689094,-0.012759117,0.011548767,-0.04231186,-0.0033536812,-0.013578626,0.015318506,0.008302252,0.0048067328,-0.006357495,0.017991364,-0.020374244,-0.031292617,-0.04513601,0.01899999,0.0077349,0.005588418,-0.015041134,0.0018801418,-0.0051345364,-0.006111643,0.036234885,0.012815853,-0.042967465,-0.025013924,-0.03204909,0.017146641,0.026955528,-0.022328457,-0.027686782,0.003861146,-0.005954045,0.025921686,0.0047499975,0.023261435,-0.024812197,-0.02514,0.002363967,0.0023419033,0.019327793,0.0051250802,-0.016352348,0.009317182,-0.06041669,0.03376375,0.012847372,-0.0034923672,-0.009714329,0.03366289,0.009632378,0.0076088216,0.043370914,0.05098604,-0.016138015,-0.008409418,-0.006871264,-0.01260152,-0.022441927,0.0107103465,-0.010029524,-0.018407423,0.025190432,0.021988045,-0.005162904,0.009058721,-0.020210342,0.014209018,-0.011321826,-0.022921024,0.011315522,0.012109815,-0.0042614443,-0.0044095865,-0.02629992,0.057693403,0.01419641,-0.014322488,-0.013881214,0.009493692,-0.01028168,0.04589248,0.027132038,0.034848027,-0.009714329,0.01477637,0.039891154,0.0076277335,0.02067683,-0.0033788967,0.039311197,0.00027579616,0.012122422,0.029275367,-0.010912072,0.017096208,0.02786329,0.0034198721,0.013200392,0.057088226,0.017713992,0.0081068305,0.008264429,0.008648967,-0.042513583,0.04074849,-0.019806892,0.00054489437,0.021937614,-0.031948227,0.02080291,-0.009418044,-0.0034608478,0.01488984,-0.010092563,-0.07715988,-0.004655439,0.001575978,0.031443913,0.023917042,-0.013868607,0.012135031,-0.051414706,-0.03487324,0.0127654215,0.0036058377,-0.020928988,-0.031141326,0.007091901,-0.0013427333,-0.038277354,-0.009644985,0.0008202965,-0.007867282,0.01430988,0.005805903,-0.011397473,0.036007944,0.007961841,0.014852016,0.013339078,-0.0060517555,-0.019126069,0.003438784,-0.0084283305,-0.040420685,0.0009424348,0.019214325,0.019025207,0.018205699,0.020689439,-0.0441526,-0.0084283305,-0.025253471,0.030435286,0.0046207677,-0.030863954,0.0022757123,-0.03220038,0.017512267,-0.018974775,0.0045514246,-0.013654273,-0.060114104,0.020639008,0.0015547023,0.061929632,-0.006218809,0.0035396465,-0.008213997,0.067981385,0.03976508,0.016844053,0.022504967,-0.00657498,0.018029189,0.021395477,-0.02919972,-0.07302452,0.027989369,0.012160246,-0.051515568,0.0026429151,0.036991354,-0.011744188,-0.0154698,-0.025392158,-0.05436494,0.028367603,0.03209952,-0.026325136,0.023311866,-0.008516585,0.04579162,-0.02839282,-0.03325944,0.0061210985,0.03313336,0.045388166,-0.003435632,0.03343595,-0.023223612,0.021408085,-0.0074386164,-0.00064890896,-0.027560703,-0.01680623,-0.023211004,-0.0009006714,-0.011725277,-0.011063365,0.00718646,-0.015078957,0.01437292,0.012620431,0.01118314,-0.00038335664,0.010741866,0.0757478,-0.018760443,-0.009682809,-0.05451623,-0.022101516,0.006285,-0.025190432,-0.00729993,-0.019315187,-0.024736552,-0.0033978086,0.026930312,-0.031544775,0.013704705,0.013427333,0.021988045,-0.029124074,0.00744492,0.010672523,-0.023034494,-0.036487043,-0.0052038794,0.015431977,0.034747165,-0.013515587,0.0062408727,0.008856996,0.013881214,-0.00874983,0.0044221943,-0.01419641,0.008522889,0.009726936,0.03227603,-0.009657593,-0.0067577935,-0.0004885532,-0.04147974,0.013351685,-0.0034072644,0.0133138625,0.02056336,-0.003369441,-0.008920035,-0.00014075454,-0.03401591,0.005805903,0.080639645,0.008478762,-0.0009526787,3.4991637e-05,0.022101516,0.0018234066,0.00018281344,0.026249489,0.005295286,-0.01314996,-0.024320493,0.02718247,-0.019012598,0.036058377,-0.0191765,-0.029300584,-0.0002795391,-0.00036996082,-0.03777304,-0.009947573,0.008207694,0.022177162,-0.018508285,0.0011693757,0.02740941,0.023236219,0.011050758,-0.018104834,-0.028418036,0.03656269,0.0071927635,0.015356329,-0.030157914,-0.0011354921,0.023299258,0.032124735,-0.011775708,-0.0025420524,0.0064331423,0.0007789271,-0.030737875,-0.010401455,-0.017676169,-0.030914385,-0.030283993,-0.013061706,-0.00976476,0.0021890334,-0.015784996,0.034545437,0.005519075,-0.0018328624,0.019138677,0.008598536,-0.014940271,-0.008182478,0.023500985,-0.0045451205,-0.004009288,0.017424013,0.02821631,-2.1029457e-05,-0.027762428,-0.0025956358,0.0050431294,0.017096208,-0.0011228843,0.02937623,-0.03338552,0.012689775,-0.042664878,-0.034898456,-0.016844053,-0.026602509,0.002647643,0.012689775,0.02399269,-0.0012757542,-0.011252483,-0.059811518,-0.010306896,0.025240863,0.0062723923,-0.0016153775,-0.02560649,-0.004135366,-0.021055067,0.013124744,0.005525379,0.0044064345,-0.047481064,0.015936289,0.02874584,0.041782327,-0.0021858814,0.0013435213,0.002010948,-0.030737875,0.014788978,0.021798927,-0.0068649603,-0.004642831,-0.04460648,0.03603316,-0.026173843,-0.003794955,-0.010930983,0.007665557,-0.025707353,0.010552749,0.0072747143,0.022114124,0.024421355,0.006530853,-0.017701386,0.031216972,0.016818836,-0.010798601,-0.008712007,0.0036909406,-0.010647307,0.004781517,0.002945503,-0.018962167,-0.008781349,-0.013477764,0.0091091525,0.011567678,-0.047960162,-0.0025373246,-0.01899999,0.01830656,-0.010830121,0.011309218,-0.00820139,0.012998667,0.020865949,0.0071297246,0.005512771,0.021017242,-0.024585256,-0.0015192428,0.010729258,0.007741204,0.007842067,-0.036007944,0.005370933,-0.023135357,0.0071360283,0.009600858,-0.01060318,-0.0009093393,-0.009947573,-0.008277036,0.020727262,-0.0028919196,-0.013490371,-0.0013301254,-0.013099529,0.042135347,-0.002430158,0.014007293,-0.059357636,0.0013190936,0.012614128,0.022441927,-0.011945914,0.0118072275,0.031040462,-0.03373854,0.014788978,-0.04397609,-0.030510934,0.0015271227,0.0012954539,0.007987057,0.0033725929,0.060971435,0.0010905768,0.029905759,0.009644985,-0.03267948,-0.031998657,0.008957859,-0.01190809,-0.00457664,-0.032149952,-0.003586926,0.0081068305,0.0042173173,-0.025682138,0.016440602,0.012179158,0.037823472,0.037092216,0.020878557,-0.0162767,0.03308293,-0.030082269,-0.025871255,-0.018684795,0.0044568656,-0.01732315,0.0057932953,-0.01622627,0.0071990676,-0.01801658,0.0011016086,-0.0020235558,0.005812207,0.015936289,0.012658255,0.008869604,-0.00019020085,0.011586591,-0.007526871,0.016768405,-0.022214986,-0.0023828787,-0.008648967,-0.029830111,-0.008144654,-0.005370933,-0.020033833,0.018823482,0.06198006,-0.043723933,0.0027374737,-0.025303902,-0.028544113,0.0029659907,0.011265091,0.012614128,-0.040218957,0.01703317,0.0015428824,-0.028165879,0.009676505,-0.0076403413,-0.014763762,-0.0014751154,-0.00039754045,-0.02496349,0.02629992,-0.019050421,-0.022921024,0.014145979,-0.040546764,0.007652949,0.0075079594,7.426796e-05,0.011794619,-0.014536821,0.018873913,0.0029581108,0.02526608,-0.010199729,0.00055395626,-0.037924334,-0.014448566,0.01952952,0.0061274027,0.02584604,-0.008409418,0.0013821328,0.00531735,-0.0425388,0.008384203,0.021559378,-0.009695416,0.0067767054,0.003798107,-0.0007675013,-0.003999832,-0.018861305,0.0068397443,0.017978758,0.01923954,-0.011378561,-0.003438784,-0.044455186,0.042740524,-0.012109815,0.026173843,0.0088633,-0.030384855,0.0041984054,-0.008245517,0.014940271,-0.036764413,0.042564012,-0.0034230242,0.0017792792,0.017058386,-0.008686791,0.014990702,-0.00157913,0.012368276,-0.012588913,-0.011195748,0.014877233,0.008081615,0.0028982235,0.016667543,0.016717974,0.040698055,0.04357264,0.02740941,-0.001429412,-0.04107629,-0.013692097,-0.002354511,0.027762428,-0.028670192,0.022744514,0.0074197045,-0.0013718888,0.0019431809,0.00010371905,0.019731244,0.0031803236,0.036335748,0.020664224,-0.0073314495,0.031494346,-0.017373582,-0.027384194,0.010067347,0.008667879,-0.02977968,0.014284665,0.024761766,-0.0025499323,0.060214967,-0.014511606,0.006092731,0.034343712,0.020323813,-0.015747173,0.0024222783,0.021168536,-0.0243331,-0.015268075,0.008705703,-0.016528858,-0.012677167,0.0220763,-3.2307547e-05,-0.020172518,0.03842865,-0.0027548096,0.025505628,0.049800906,0.0060706674,-0.0103447195,0.019441264,0.02357663,0.027308546,-0.0055442904,-0.0071990676,-0.04589248,-0.023601847,-0.0019179652,0.008050095,-0.0026838905,0.008964163,-0.009436957,-0.02607298,0.0088380845,0.024433963,-0.026955528,0.009146976,0.007085597,-0.013339078,-0.032301243,-0.014814193,0.013086922,0.028140662,-0.018760443,-0.002518413,0.0051818155,0.028367603,0.042437937,-0.008302252,0.0067767054,-0.0032433628,0.0034576957,-0.014070331,0.014360311
cancer,0.03061675,0.00823605,-0.023118524,0.044053566,0.001237207,-0.013376832,0.013964692,0.026657686,-0.0046638953,-0.007354258,-0.013544792,0.011301324,-0.012824963,-0.035031702,0.02123497,0.03901476,-0.019915283,0.009267805,0.02867321,-0.006430477,-0.023118524,-0.041966062,-0.015848247,-0.007486227,-0.018511616,-0.010659476,-0.010083612,0.017371885,0.026201794,0.023418453,0.027041595,-0.042709883,-0.012429057,-0.033448078,-0.014984451,-0.011691231,-0.003644137,0.021210976,-0.029465022,-0.023466442,-0.02634576,0.014504565,0.056482624,0.032440316,-0.014624536,-0.016748033,-0.02634576,-0.032152385,0.04146218,0.021966798,-0.00010431904,-0.033472072,-0.00607956,0.022710621,-0.0055306903,-0.01406067,0.026777659,0.029249072,0.022722619,0.029776948,0.045541216,-0.02334647,-0.0029213082,-0.06257718,-0.016388118,-0.018667579,-0.020467153,0.014216633,-0.022782603,0.038222946,0.036471363,0.01684401,0.025817886,0.06392086,0.032320347,0.0026033835,0.037359152,-0.0012207109,-0.015236392,0.03702323,-0.014828488,-0.020923045,-0.027905392,0.024714146,-0.037335157,-0.02500208,-0.022566656,-0.019771317,-0.021126997,0.020599121,0.012477045,-0.0095737325,0.015896235,0.0022329711,-0.02884117,-0.05230761,0.010287563,-0.034983713,-0.022854587,0.028601225,-0.0055246917,0.018763555,0.010815439,0.048540503,0.0430698,0.026273778,-0.0028028362,-0.026153805,0.015428346,0.023682391,-0.09266605,-0.0053807255,-0.027545476,0.012992923,-0.015932227,-0.0014696519,0.0011622247,0.01781578,0.044437476,0.00046001605,-0.027185561,-0.011973164,-0.022122761,0.016244153,-0.0316725,-0.017755795,0.018211687,0.007156305,-0.07145508,-0.025961852,-0.014864479,0.04062238,0.039230708,-0.04290184,-0.028433265,-0.043477703,0.0029902917,0.0053807255,-0.045781158,0.01431261,0.06468868,-0.0151884025,0.019567365,-0.014492568,-0.0073422613,0.011295325,0.0023169513,0.014864479,0.01676003,-0.0077381674,-0.0061965324,0.055330895,-0.03973459,0.03534363,0.042709883,-0.014828488,0.029656976,-0.021606883,0.0010452524,-0.03512768,-0.02009524,0.033855982,-0.056098714,0.008122076,0.056338657,0.008763924,-0.0035631561,-0.01836765,-0.04513331,-0.063057065,-0.00014443454,-0.016448105,0.031240601,0.033472072,-0.013784735,0.010881423,0.033472072,0.021270962,-0.01836765,0.018967507,0.07275077,0.023358468,0.052259624,-0.03222437,-0.020203214,0.035775527,-0.0354636,0.0053387354,-0.04597311,-0.0058516143,0.0028868162,0.0022629641,0.046213053,-0.003953064,-0.0022629641,-0.036543343,0.0046728933,0.010953406,0.011661238,0.020227209,-0.028769186,-0.0033682024,-0.008715936,-0.0015641295,-0.0145645505,0.021031018,-0.02453419,0.0304008,0.022578653,0.002453419,0.045493226,-0.009237812,-0.006886369,0.019627351,0.008985871,0.010965403,0.0021819833,0.009345787,0.0249061,-0.017299904,0.0037461128,0.032992184,0.01342482,0.008446,-0.04657297,0.01511642,0.037695073,-0.016616065,-0.022266727,-0.005458707,-0.036087453,-0.0006527204,0.014384593,-0.025242021,-0.018679576,-0.0066824174,0.04491736,-0.0148404855,0.008799916,0.015860243,0.03488774,0.015800258,0.006232524,-0.034815755,0.03397595,0.010881423,-0.000869794,-0.033424083,0.0052007684,0.034911733,0.06070562,0.04369365,0.022722619,0.04369365,0.009387776,0.021055013,0.022218738,-0.0013376832,0.0145645505,-0.0041870084,0.006127549,0.0035481597,-0.014048672,-0.04995617,0.008715936,-0.016880002,0.025146045,-0.006442474,-0.015728274,-0.07582204,0.07251082,-0.049044386,-0.0052577546,0.00599558,-0.05864211,-0.042589914,-0.024138283,0.025865873,0.01667605,0.049284328,-0.035703544,-0.0118232,0.016316136,-0.056674577,0.04141419,0.0089498805,0.04208603,-0.052163646,0.04170212,0.004118025,-0.004639901,-0.014444578,0.009579731,0.03779105,0.020131232,-0.00987966,0.06742403,-0.038054988,-0.028745191,0.024270251,0.029441027,0.0004915086,0.0038900787,-0.012633008,0.03901476,0.05129985,0.0030592754,-0.013244863,0.02376637,0.0043849614,-0.07121513,-0.015692282,0.027257545,-0.06646426,0.0012484543,-0.0048828437,-0.00612155,0.027737431,0.017923756,-0.014660528,-0.03779105,0.02495409,0.021990791,0.023778368,-0.018067721,-0.025673918,0.022494672,0.0032992186,-0.03635139,-0.032200374,-0.043501697,0.005083796,-0.030160857,0.029656976,-0.008961878,-0.035655554,0.023610407,-0.033304114,0.059697863,-0.017251914,0.009045858,-0.03951864,-0.045205295,-0.052259624,-0.035439607,-0.0409583,0.03280023,-0.047652714,-0.01895551,0.01917146,-0.025865873,-0.014420585,0.031384565,-0.0035841512,-0.013388829,0.009393775,0.0282893,0.0014411587,-0.005764635,-0.014504565,-0.009387776,-0.04947628,0.010773448,0.038894787,0.0726068,-0.023754373,-0.018739562,0.017587835,-0.029297061,-0.02161888,0.04834855,-0.011583257,-0.0010437528,-0.013472809,-0.04990818,0.036879264,-0.027593466,-0.01739588,0.04378963,0.028217318,0.017359888,0.047268804,-0.056626588,-0.0038690837,-0.04256592,0.040502407,-0.055522848,-0.100296244,0.008074088,-0.042493936,0.005971586,-0.034575813,-0.02879318,0.030136863,-0.010407535,0.0316725,-0.005443711,0.07289474,-0.014276619,-0.06488063,-0.016112184,-0.060177747,0.009741693,0.036423374,0.009231813,0.0013489305,0.006958352,-0.019663343,0.0028358283,-0.058162224,0.009591728,-0.034047935,0.02500208,0.032752242,-0.011589255,-0.010791444,0.06464069,-0.008284038,-0.016724039,0.009345787,-0.00671241,-0.068479784,0.047820672,-0.004660896,-0.020467153,-0.05129985,0.048660476,-0.019795312,-0.0009800179,-0.040310454,-0.01114536,0.030472783,0.016280144,0.021115,0.03402394,0.025745902,-0.007822148,-0.019903285,0.015380357,-0.0017170933,0.028505249,-0.025338,-0.029584993,0.037311163,-0.06286511,0.04947628,-0.020215211,-0.06108953,-0.045397248,-0.0032782236,0.009807677,-0.032152385,-0.019519377,0.0055546844,-0.07188697,0.022578653,-0.024882106,0.0042619905,0.011295325,0.018043727,0.015548318,-0.024510195,-0.024054304,-0.0052337605,0.015728274,0.014984451,0.018235682,-0.025913863,-0.026009839,0.009447763,0.073950484,-0.00036235168,0.013364835,0.036471363,-0.025553947,0.022122761,-0.011031387,0.043381725,0.0039890553,-0.022242732,0.00662843,0.026441738,-0.057058487,0.02884117,0.025098056,-0.044101555,0.028985135,0.012213107,0.048780445,0.011835197,0.017743798,0.018067721,0.030832697,-0.010179589,0.01072546,-0.002141493,-0.035151675,0.034287877,-0.018643584,-0.0051737744,0.010659476,-0.0325123,0.044197533,-0.0092618065,0.06704012,0.027617458,0.018811544,0.01744387,-0.004276987,0.019483386,-0.005230761,0.022770608,0.0042859847,0.031216606,-0.0146845225,-0.024414217,0.02478613,0.045877133,-0.022542661,-0.031936437,-0.04436549,0.023838354,-0.020827068,0.014756505,-0.020155227,-0.0050478047,-0.0155003285,0.04868447,-0.007198295,-0.02376637,0.0049368306,0.0009770186,0.016460102,-0.022602648,-0.016076192,0.029321056,-0.024858113,0.018475624,0.018727565,0.02334647,-0.026393749,0.013976689,0.0150324395,0.05413118,0.01406067,0.03078471,0.045205295,0.022746613,-0.020587124,0.0054107187,0.08906691,-0.003821095,-0.013820726,-0.0194234,0.025409982,0.0043219766,0.018115709,-0.014372596,-0.024498198,0.044389486,-0.0052907467,-0.026417743,0.0013586782,0.007960115,0.00013674886,0.027281538,0.0037671078,-0.018859534,-0.0028613224,0.01080944,-0.01777979,-0.0004210253,0.02672967,-0.025385987,0.05062801,0.018163698,0.028721198,-0.0111153675,-0.016903996,0.01634013,0.0033831988,-0.013928701,-0.013712753,-0.010221579,-0.0070483307,0.020755084,0.009663711,0.0011292326,0.0046758926,0.023610407,0.00034941724,0.02867321,0.025649926,0.012920939,-0.03935068,-0.017935753,-0.03973459,-0.04995617,0.0015986214,-0.043717645,-0.0071443077,-0.009081849,-0.0005781131,-0.007924124,0.0026318766,-0.0058876057,-0.013064906,0.019303428,-0.023502434,-0.0022224737,-0.04251793,-0.019579362,0.017587835,-0.04033445,-0.0024099292,0.021810833,-0.016556079,0.029153096,0.025745902,-0.011415296,0.01199116,0.012273093,-0.03829493,0.011253335,0.013208872,0.014816491,-0.025433976,-0.009129838,0.040430423,-0.031696495,-0.0076781814,0.009045858,0.027857402,-0.009033861,-0.03397595,-0.019483386,-0.03203241,-0.0040220474,0.009741693,0.007198295,0.03702323,-0.012872951,0.019795312,-0.005599674,0.017371885,-0.01047352,-0.01250104,-0.007354258,0.011127365,-0.008416006,0.0060975556,0.026249783,0.04285385,-0.011733221,-0.019471388,-0.033999946,-0.00050725485,-0.00768418,-0.026321765,0.02419827,0.016316136,-0.0068923677,-0.010377542,-0.004297982,0.032656267,0.0409583,0.027353521,0.026441738,0.020287195,-0.0036471363,0.004420953,0.03052077,0.02756947,-0.0033082166,-0.0063944855,-0.0037221184,0.008002105,-0.0144085875,0.0249061,0.0103535475,0.003002289,-0.022854587,0.01545234,0.0022629641,0.031936437,-0.0111153675,0.036471363,0.016016206,-0.0019360415,-0.013112894,0.007618196,0.031024652,0.025194032,0.0037581099,-0.009741693,-0.01739588,0.0014194138,-0.03356805,0.013148886,0.0074742297,-0.018883528,-0.0007903128,0.0046069087,-0.0043279747,-0.01878755,-0.05058002,0.024042306,-0.0005758636,0.064592704,0.019999264,0.006472467,-0.07044732,0.013700755,-0.015896235,0.0042919833,-0.017215922,-0.01448057,0.019411402,-0.0006433476,-0.017839774,0.012800968,-0.00054137176,-0.021342944,-0.0053147413,-0.019915283,-0.016712042,0.011181352,-0.010857428,-0.024462206,-0.013112894,0.014492568,-0.01536836,-0.0034851746,-0.021390934,0.009297797,0.029752953,-0.0034011945,0.023910336,-0.056050725,-0.023826357,0.014168644,-0.038174957,0.028265305,0.0111513585,-0.019447394,0.04141419,0.005725644,0.0068983664,-0.046644952,-0.007798153,-0.009153832,0.008919887,0.0027203558,-0.036543343,0.002039517,-0.032296352,-0.010401537,-0.02128296,0.042301983,-0.04213402,0.0022524665,0.019963272,-0.031216606,0.00011144236,-0.009897656,0.041918073,0.021582888,0.011457287,-0.0012776974,-0.004918835,0.0028298297,0.027377516,0.008050093,-3.2359523e-05,-0.021942804,0.013292852,-0.004112026,0.0031552527,-0.015020442,0.0005822371,0.04208603,-0.024426214,-0.025481965,0.012764976,-0.0019465389,0.0058156224,0.015128417,-0.012680996,-0.018991502,-0.03018485,0.007702176,0.011793206,-0.020743087,-0.0043759635,0.008416006,0.029656976,0.035367623,-0.028361283,-0.012045147,0.029752953,0.010149596,-0.03090468,-0.015128417,-0.005434713,0.03685527,0.025769897,-0.004924834,0.035943486,0.024594175,-0.01781578,0.022854587,-0.00014255999,-0.009489752,-0.0013894209,-0.0037371148,-0.025529953,0.0017290905,0.01845163,-0.03906275,-0.06195333,0.03863085,-0.00024331736,-0.0019015496,-0.0040460415,0.012525033,-0.0016046199,-0.01578826,0.0282893,0.027617458,-0.006976348,0.015092425,-0.030856691,0.0013564287,-0.0026408746,0.011403299,-0.008733931,0.013844721,0.025026072,0.0009327791,0.03985456,-0.026105817,-0.008362019,0.005872609,0.022614643,0.0063285013,-0.001084993,0.01722792,0.0048738457,0.042062037,0.015332368,-0.044941355,-0.021318952,0.051683757,-0.008428004,0.016460102,0.018055724,0.0025358994,-0.018811544,-0.0004491436,-0.005116788,0.034863744,0.027185561,0.069823466,-0.009369781,0.015248388,-0.0076481886,-0.016736036,-0.032488305,0.01317288,0.010395538,-0.0049938173,-0.006868373,-0.008206056,-0.025985846,0.003188245,-0.011415296,-0.031000657,-0.009405772,-0.014324607,0.0206831,0.02879318,-0.0031762477,0.009111842,0.030664736,-0.011589255,0.026969612,-0.04484538,-0.013688758,-0.020911047,0.03563156,-0.014012681,-0.0034011945,0.014708516,0.02550596,0.007714173,-0.04134221,-0.026705675,0.012728985,0.007954116,0.003635139,0.007900129,0.006388487,0.0048288563,-0.024018312,0.021726854,0.01211713,-0.0050268094,-0.014072667,-0.024858113,0.031504538,-0.0017740799,-0.0026318766,-0.013976689,0.0035961482,-0.012824963,0.04345371,-0.005593675,0.028985135,-0.014324607,-0.020875055,-0.03340009,0.01659207,0.027425505,0.041222237,-0.0227946,-0.014048672,-0.059313953,-0.008523981,0.008937883,-0.009741693,0.020455156,-0.0024594176,-0.012489042,0.0077381674,0.019219449,0.047724698,0.005872609,-0.0048228577,-0.023454444,0.0016181167,0.018007735,0.0270176,-0.03112063,-0.05758636,0.02845726,0.038942777,0.01245305,0.02182283,-0.020083243,-0.0037761056,-0.021750849,-0.017839774,-0.0022239732,0.002297456,0.017107949,-0.009357784,-0.012716988,0.038894787,0.018007735,0.01756384,-0.042206004,0.00789413,-0.04669294,0.039830565,0.02529001,0.041822094,-0.010785446,0.022434687,-0.009033861,0.0042409957,0.007066326,-0.023106527,0.006814386,-0.009201821,-0.0005653661,0.019267436,0.032776237,0.003656134,0.050388064,0.02431824,0.0027278538,0.077069744,0.051827725,0.0054197162,0.0067244074,0.010389539,-0.031384565,0.04839654,-0.020275198,0.009897656,0.019555368,-0.027449498,0.0062145283,-0.00405204,0.0150324395,-0.0013369333,-0.018631587,-0.059121996,0.0075162197,0.020695098,-0.017431872,-0.013064906,-0.0005856113,-0.004924834,-0.0075942012,-0.021354942,-0.0117572155,-0.012645005,-0.005569681,-0.011493278,-0.005008814,-0.007330264,-0.022386698,-0.006742403,-0.028385278,0.011193349,-0.0022899576,0.015356363,0.004762872,0.023670394,-0.056146704,0.04952427,0.026633693,0.014696519,-0.017107949,0.011451288,-0.017383883,-0.052163646,0.0014629036,0.0024804126,0.044821385,0.0014246625,0.027377516,-0.020335184,-0.016052198,-0.039374676,0.019795312,-0.0031192612,-0.00565666,0.00014199762,-0.03863085,0.009333789,0.004483938,0.022530664,0.0011232339,0.0006868373,0.014132652,-0.037095215,0.09429767,0.0108034415,0.01836765,0.0023739378,0.0071383095,0.01744387,0.0041270223,0.0033262123,0.011259333,0.011475282,0.060897578,-0.03073672,-0.01169723,0.03373601,0.013028914,-0.049764212,-0.007846141,0.030424794,-0.004100029,-0.028649215,0.0026018838,-0.034575813,0.03625541,-0.007954116,-0.008134074,0.03507969,0.002790839,0.055762794,-0.031816464,-0.0181517,-0.04124623,0.020203214,0.012836959,-0.0122251045,0.030928675,-0.023310479,0.010701465,-0.010275566,0.0069223605,0.01587224,-0.017167933,0.022266727,-0.01325686,-0.0055786786,-0.017107949,-0.00096202217,-0.004273988,0.007246284,0.013016917,0.011523271,0.009525744,0.016568076,0.06516857,-0.023670394,0.01950738,-0.021354942,-0.0007258281,0.009543739,-0.018187692,-0.021354942,-0.012003157,-0.025865873,-0.027953379,0.033855982,-0.047340788,-0.01064148,0.023874346,0.020935042,-0.026633693,0.0058366177,-0.0026858638,-0.03774306,-0.0215349,0.028913151,0.048660476,0.046237048,0.0026963614,0.025314005,0.011007393,-0.0005931095,-0.022278724,0.0325123,0.003995054,-0.022002788,0.021330947,0.03591949,-0.0038360914,-0.012465048,-0.008224052,-0.032152385,0.035391618,-0.0037371148,0.028097345,-0.02917709,0.01570428,-0.00039740588,-0.014264622,-0.04484538,-0.0075822044,0.07351859,-0.01566829,-0.02812134,0.0019375411,0.027545476,-0.018895525,-0.008979873,-0.011559262,0.036975242,-0.010989397,-0.0181517,0.028505249,0.0025059064,0.041966062,-0.014960457,-0.007918125,0.010113604,0.006076561,-0.038606856,-0.00021538649,0.014552553,0.0031222606,-0.008847904,-0.027905392,-0.008967876,0.003146255,0.023166513,-0.036879264,0.014732511,0.024210267,0.035439607,0.01929143,-0.0032152385,-0.0016316136,0.02031119,0.017719803,-0.02545797,-0.018355653,-0.021031018,-0.00776816,-0.022194743,-0.044221528,-0.0036831277,-0.026057828,-0.029608987,0.0030262833,0.009819674,-0.007576206,0.00088928937,0.011463285,0.0077201715,-0.016280144,0.025074061,0.0075882026,-0.0059595886,-0.036423374,0.026657686,0.019939277,0.00388408,-0.01169723,-0.0037641085,-0.024354232,-0.0109774005,0.0037251178,-0.0015731275,0.0069043646,0.011679234,0.0118232,-0.026465733,0.046261042,-0.007900129,-0.014708516,0.018883528,-0.04067037,0.013292852,0.0055066957,-0.019795312,0.0021115,-0.018307664,-0.023838354,0.0020155227,0.03951864,0.021031018,0.027809413,-0.042062037,0.016712042,-0.0041960063,0.013808729,-0.023610407,-0.008080087,-0.051059905,0.014024679,0.036807284,0.0037371148,0.02651372,-0.01845163,-0.0048138597,-0.024762135,-0.007972112,0.03995054,-0.00043602174,0.012716988,-0.026633693,0.021666868,-0.004690889,0.020575127,-0.002427925,-0.02064711,-0.029584993,-0.012992923,0.0025823885,0.024930095,0.039782576,0.010533505,-0.014552553,0.012135126,0.017623825,-0.06262517,-0.0017785787,-0.00050538033,0.009225815,0.004061038,-0.0026018838,-0.0130049195,-0.0017155936,-0.019819306,0.009975637,0.028553238,-0.016880002,-0.008601963,0.0016960982,0.019459391,0.018019732,-0.0018145703,-0.0060645635,0.029153096,0.04650099,0.0073242653,0.009441764,0.012669,-0.013892709,0.0058516143,0.020767082,0.0018445632,-0.027641453,-0.012465048,-0.009453761,-0.026633693,0.008314031,0.019903285,0.00840401,-0.009405772,-0.036999237,0.00510779,-0.0025104054,0.020551132,-0.0058876057,-0.028361283,0.012237102,0.02208677,0.0063464968,-0.0051587783,-0.06742403,-0.007312268,0.007018338,0.03791102,0.027089585,0.030088874,0.0367353,0.014180642,0.041582152,-0.06665621,-1.6507809e-05,-0.007222289,0.024414217,-0.010125602,-0.002964798,0.030880686,0.02500208,0.023322476,0.009453761,-0.028769186,-0.048180588,0.010149596,-0.011511274,-0.0037131205,0.010737457,-0.017431872,0.009399774,0.022770608,-0.009897656,0.014180642,-0.005764635,0.011049383,0.014108659,-0.0006422229,-0.015680287,0.0037041227,-0.024690153,-0.012657003,-0.018739562,-0.0055366885,0.0018760556,-0.011625247,-0.013712753,0.033927966,-0.019111473,-0.025889868,-0.01587224,-0.0035811518,0.012680996,0.00671241,0.027497487,-0.038510878,0.0065204557,-0.006604436,-0.0055246917,0.008158068,0.005344734,-0.015992213,-0.02292657,0.016987976,-0.0105095105,-0.025577942,-0.005548686,0.03373601,-0.03133658,-0.010503512,-0.010011629,0.0041570156,0.04501334,0.0030862691,-4.2388398e-05,-0.02356242,-0.00020301442,-0.0012911942,-0.016820015,0.033328105,0.023622405,-0.010413534,-0.025793891,-0.04412555,-0.043597676,0.030544765,0.017767793,-0.009543739,0.03872683,-0.013820726,0.019543372,0.0070483307,-0.0063704913,-0.01169723,0.00544671,-0.02672967,0.007816149,-0.0048318557,-0.02267463,0.02267463,-0.04585314,-0.017143939,-0.0063464968,-0.001330185,0.04635702,-0.033855982,0.008493988,-0.002507406,-0.015776264,-0.0040880316,0.047268804,0.03361604,-0.014528559,0.017155936,0.0065804413,0.009981636,-0.025625931,0.047028862,0.013736746,-0.025409982,0.013784735,-0.002930306,-0.048036624,0.027377516,-0.013712753,0.020551132,-0.040790338,-0.041918073,0.018403642,0.005500697,0.008775922,-0.006232524,0.0059805834,0.019027494,-0.01169723,-0.01152927,0.0074082455,0.031432554,0.0025988845,0.007972112,0.0073602567,0.0040250467,0.008751927,-0.014360599,-0.0413662,0.016136179,0.011469283,0.0061245495,0.050676,0.010749454,-0.008871899,-0.008110079,0.011265332,0.0044899364,0.021438923,-0.034527823,0.022002788,-0.00460391,0.026873635,-0.018979505,0.027665447,0.0013106896,-0.0024984083,0.040934306,0.04986019,0.006448473,-0.01042553,-0.008595964,-0.012249099,-0.027353521,-0.021366939,-0.011703229,-0.0080201,-0.017935753,-0.02047915,0.035031702,0.008805915,0.012441053,0.010377542,0.011067378,-0.0058186217,-0.025433976,0.025026072,-0.0010520008,-0.0033622037,-0.02656171,-0.043429714,0.017131943,0.046141073,-0.0025643928,-0.013136889,0.02305854,-0.012680996,-0.007702176,0.057826303,-0.020119235,-0.019351417,0.011361309,0.040502407,0.021150991,0.029992897,0.0020650108,-0.039326686,-0.013268857,-0.0007539464,0.008350022,-0.029800942,0.017107949,0.00899187,-0.0084819915,-0.0012724486,-0.0017380883,-0.017695809,-0.0046578967,0.0059595886,-0.05129985,-0.01959136,-0.00017002223,0.008889895,0.015128417,-0.034575813,-0.00040565393,0.012716988,0.011091373,0.03567955,-0.005146781,0.011007393,0.013328843,-0.0058876057,-0.018991502,0.0061485437
capricorn,0.002564519,-0.019346263,0.0021258108,0.035269063,0.0028308225,-0.031919487,-0.025441999,0.04147563,-0.009279064,0.008897311,-0.014851428,-0.0100487275,-0.023816468,-0.01603363,0.053543955,0.038495492,-0.009531514,-0.0014538944,0.013669224,0.010467424,-0.029973777,-0.03433315,-0.010879964,-0.008170748,-0.021489007,0.006686837,0.037485693,0.044825204,0.04950476,0.0141494945,0.0022104736,-0.034924254,0.006329713,-0.03315095,-0.034973513,0.0054061166,-0.033594277,-0.020109769,-0.03371742,-0.029678227,0.013558393,-0.0027877213,0.048051637,0.043322824,-0.01749907,-0.028520653,0.0030986655,-0.04438188,0.051278066,-0.0001793316,0.010498211,-0.04408633,-0.004291644,0.053790245,-0.047017206,-0.03792902,-0.027166044,0.029678227,0.020528466,0.0494555,0.023754897,-0.007905984,0.010331963,-0.055268,-0.021291973,0.02765863,-0.027338449,0.03278151,-0.04915995,0.037781246,0.04179581,0.016267609,0.029998407,0.014765225,0.024838582,0.0010121076,-8.7597335e-05,0.0038791043,-0.021328917,-0.04408633,-0.023730267,0.003115598,-0.00578787,0.020503838,-0.0075919614,-0.027904922,-0.00010380837,-0.013090438,-0.011138571,0.015479473,0.022240197,-0.005279892,-0.00078659615,-0.022129366,-0.03598331,-0.028471394,-0.00046333746,-0.012431606,0.010596728,0.048371814,-0.004611824,0.024185907,0.0021658333,0.03886493,0.045096125,0.01397709,-0.04076138,-0.009279064,-0.043519855,0.008312366,-0.12117583,-0.015528732,-0.032658365,0.012905719,-0.009864008,-0.015959743,0.020602355,0.009777806,0.031747084,0.002926261,-0.040391944,-0.030392475,0.0011090852,0.022929817,-0.0063481852,0.0024352155,0.00043485992,-0.018053228,-0.04243617,-0.033175576,0.0008550962,0.022203254,0.050071232,-0.021156512,-0.011686572,-0.06837075,0.0014946866,-0.014161809,-0.013435247,-0.006853084,0.0482733,-0.022314087,-0.0050859367,-0.019801904,-0.0328554,-0.023964245,-0.012794887,0.008527872,0.019481724,-0.029702855,-0.007468815,0.032264296,-0.036820706,-0.0010097986,0.05797722,-0.059652004,-0.008146119,-0.05113029,0.012733314,-0.023545548,0.017105004,0.019826533,-0.04590889,-0.011360234,0.05113029,0.008940412,-0.016415384,0.032953914,-0.03248596,-0.015183923,-0.017129632,-0.039111223,0.02360712,0.022030849,0.007025489,0.01795471,0.01699417,0.0027276876,-0.013127382,-0.015824283,0.012117583,0.029998407,0.052263234,-0.02955508,-0.024025818,0.051179547,-0.027141416,-0.0146297645,-0.0047688354,-0.004648768,-0.0036882279,0.024850897,0.03214115,-0.014728282,0.0328554,-0.0038267672,0.03088506,0.02664883,-0.0038944976,0.030934317,-0.024764694,-0.0023428558,0.018570442,0.013878574,0.0013607652,-0.012043695,-0.014284955,-0.015701137,-0.0023228447,0.026427168,0.052016944,-0.06551376,-0.04822404,0.024604606,-0.031648565,0.015516417,-0.0015277822,0.032904655,0.01603363,0.012271516,0.0107691325,0.0308358,0.024148963,-0.0044271047,-0.011705044,0.020306803,0.09989617,-0.013558393,-0.0019626422,0.011027739,-0.02701827,0.024099706,0.011649627,-0.0079614,0.01333673,-0.012025223,0.055268,0.006415915,0.0053076,0.002479856,0.03630349,0.01926006,0.009703918,-0.05561281,-0.028126584,0.0043224306,0.0006803826,-0.028742315,0.006569848,0.047953118,0.058124993,0.037781246,0.02136586,0.0776806,0.038076796,-0.0037374862,0.022745097,0.000658832,0.022203254,-0.032830767,0.020897904,-0.0058155777,-0.03699311,-0.03507203,0.0007180961,-0.039382145,0.0149868885,-0.045022238,-0.0029401148,-0.0424608,0.041574147,-0.06659745,-0.004276251,0.011267874,-0.07516842,-0.0532484,0.008595603,0.00578787,0.014999203,0.046130557,-0.013275157,-0.030589508,0.023545548,-0.026821235,0.023951929,0.0133121,0.046499994,-0.045884263,0.04408633,-0.014679023,-0.03975158,-0.0012976527,0.009377581,-0.003694385,0.0065390617,-0.020072825,0.06423304,-0.033545017,0.012019066,0.01036275,0.012979606,-0.030712655,0.0009659278,0.007930613,0.050539188,0.07393696,0.042263765,-0.02605773,0.012517808,0.0011791246,-0.041377112,-0.02464155,0.029801372,-0.021218086,-0.022240197,-0.029062496,-0.014580507,0.020836331,0.032338183,-0.048002377,-0.04534242,0.02953045,0.016932597,0.008318524,0.001637844,-0.030466363,0.024740065,-0.020343747,0.004451734,-0.002145822,-0.0102950195,-0.02168604,-0.030737285,0.03275688,-0.052805077,-0.053149886,0.010787604,-0.047780715,0.050883997,-0.0020165185,-0.0070747472,-0.028249731,-0.0022751256,-0.044160217,-0.040687494,-0.0018518105,0.023052962,-0.056499463,0.006853084,0.019063028,0.0024229009,-0.013989405,0.046795543,-0.03539221,-0.011588055,0.041918956,-0.002555283,0.01038738,0.0100548845,-0.0030078453,0.005341465,-0.03566313,-0.037855133,0.03443167,0.03573702,-0.034751847,-0.044505026,0.036180343,-0.042534687,-0.050785482,0.04024417,-0.0022751256,-0.02861917,-0.014334214,-0.035318322,0.025146447,0.016895654,-0.0048550377,0.051918425,0.031919487,0.020109769,0.024974043,-0.046894062,-0.021993905,-0.02461692,0.018237948,-0.012530123,-0.07664618,0.028323619,-0.027831035,0.013792371,-0.038643267,-0.06822298,0.01933395,-0.011631155,0.024456829,-0.010017941,0.063247874,-0.017117318,-0.034751847,-0.04049046,-0.022141682,-0.00053453137,0.024444515,-0.0053383866,0.027560113,0.01736361,-0.0218215,0.0059787463,-0.017412867,0.0027707887,-0.040047135,0.028372878,0.04275635,-0.011618841,-0.021427434,0.033249464,-0.04049046,-0.046697028,0.020257546,-0.031673193,-0.049972717,0.055021707,-0.020602355,0.023828784,-0.039160483,0.08270497,-0.007949085,0.0014923776,-0.047780715,0.020787073,0.013558393,0.03896345,0.0052491054,0.047189612,0.026008472,0.031032834,-0.008232322,0.016464643,-0.016267609,0.014888372,-0.02038069,-0.043569114,0.015504103,-0.040712122,0.023988875,-0.04238691,-0.03787976,-0.07433103,0.002823126,-0.0009651581,-0.023951929,-0.0036266546,0.013287472,-0.041007675,0.019210802,-0.004343981,-0.0026738113,0.02765863,0.03822457,0.012037538,-0.001750215,-0.029456563,0.02568829,0.051869165,0.009038929,0.017671475,0.018558128,0.004522543,0.0038236885,0.06206567,0.04088453,-0.01885368,0.0074872873,-0.033323355,0.02664883,0.025084876,0.022363344,-0.026574943,-0.026008472,-0.023570176,0.0025737549,-0.028545283,0.022535749,-0.007721265,-0.041451,-0.012542438,-0.0056370157,0.053494696,0.022843614,0.011581897,0.002418283,0.0408599,-0.011267874,0.013718483,-0.016144462,-0.027855663,0.02760937,0.0007608124,-0.0015470238,-0.009352951,-0.022585008,0.042337652,0.02264658,0.061179016,0.02091022,0.032682993,0.018582758,-0.013324415,0.03726403,0.033668164,0.012314617,-0.008971198,0.01720352,-0.012918033,-0.041524887,-0.017375924,0.01781925,-0.001981114,-0.06270603,-0.016760193,-0.014075607,-0.014900686,-0.0014254169,0.02568829,0.0107752895,-0.0137800565,0.003943756,-0.028101956,0.0010667536,-0.008392411,-0.006092657,-0.016760193,0.009272907,-0.0024536874,0.039061964,-0.015848912,0.034874994,-0.015122349,0.011175515,-0.006225039,0.015824283,0.024062762,0.023927301,0.008651018,0.027363079,-0.0064959605,-0.00046295262,-0.03699311,0.015885856,0.048741255,-0.013730798,-0.0062896907,-0.0122161,0.049701795,-0.026845865,0.03376668,-0.04147563,-0.024715437,0.025294224,-0.027461596,0.00924212,0.00038117587,0.025491256,0.021587523,0.012757943,-0.012622482,-0.024321368,-0.015122349,-0.010196503,0.0043316665,0.020565411,0.026427168,-0.049627908,0.02512182,0.025515886,0.013681539,-0.006502118,0.008201535,0.020565411,-0.0068900282,-0.020639298,-0.019210802,-0.0047164983,-0.017942397,0.021673726,0.024309054,-0.009673132,-0.010904593,0.010855335,0.02219094,0.046795543,-0.017622218,0.007912141,-0.05792796,-0.0191246,-0.039382145,-0.028668428,0.0053753303,-0.047953118,-0.014765225,-0.0141371805,0.0036266546,-2.422035e-05,-0.03438241,-0.014063292,-0.0062219603,0.01093538,-0.026402539,-0.0033557331,-0.010929222,-0.0033434185,0.043051902,-0.038052168,-0.019592555,0.009980997,0.0063481852,0.05492319,0.025565146,-0.008263108,-0.006526747,0.016797138,-0.03342187,-0.00969776,0.0062373537,0.00860176,-0.019703386,-0.0069516012,0.050539188,-0.016834082,-0.013484506,0.0032202723,0.010726031,-0.015048462,-0.030220069,-0.033840567,-0.026427168,0.00024763925,-0.0062989267,0.0057109036,0.023065278,-0.0077951527,-0.0023644064,0.008534029,0.024518402,-0.00510133,-0.03206726,-0.0052491054,0.008047602,-0.0032572162,-0.0228313,0.006988545,0.03155005,-0.02953045,-0.0053291502,-0.021070309,0.015233181,0.014925316,-0.011618841,0.03975158,0.009759334,0.007875198,-5.387645e-05,-0.02573755,0.050736222,0.027436966,0.012794887,0.023754897,-0.005233712,-0.029284159,-0.03049099,0.034899626,-0.0007558096,0.023249997,-0.0026276314,0.027510853,0.01093538,0.00087895576,0.019026084,0.00812149,0.008860366,-0.015516417,-0.0077274223,0.0011452594,0.025639033,-0.01132329,0.04142637,-0.0049381615,0.005713982,-0.015528732,0.009143603,0.015885856,0.040662866,-0.0015932035,-0.03374205,-0.018902937,-0.013952461,-0.05113029,0.0071609495,-0.031279128,0.0076720063,0.016452327,0.016871026,-0.013102752,-0.0044578915,-0.07103071,0.031131351,-0.0034850365,0.06837075,0.0062342747,0.003891419,-0.060243107,0.00025071792,-0.013201269,-0.010350436,0.012450078,-0.029505823,0.02269584,0.0026722718,-0.00665605,0.007862883,0.005403038,-0.039012708,-0.024419885,0.010282706,-0.022449547,-0.006028005,-0.019346263,-0.0011675797,0.006785354,0.015097721,-0.031229869,0.008903468,-0.035884794,0.0077582086,0.01333673,-0.0059941397,0.02571292,-0.036377378,-0.041007675,0.021599839,-0.041869696,0.026821235,0.022683524,-0.017536014,0.01800397,-0.017548328,0.023373144,-0.049701795,0.00969776,0.019728016,0.00963003,0.030786542,-0.05241101,-0.02520802,-0.041746553,-0.041992843,-0.030269329,0.014284955,-0.02040532,-0.008269265,0.000908203,-0.037066996,0.0042362283,-0.031254496,0.06940518,0.021107253,0.027732518,-0.023447031,0.022104738,0.007684321,0.025084876,0.008460142,-0.011126257,-0.016021317,-0.0070993765,0.00818922,0.053149886,0.010233447,0.015541047,0.015208552,-0.009069716,-0.038717154,-0.0025660582,0.011674257,-0.00060226175,0.0016486193,-0.0102950195,-0.0075303884,-0.02994915,-0.0071917363,0.030047664,-0.004319352,0.0012761021,-0.0055939145,0.02994915,-0.005199847,-0.027338449,0.002880081,0.0040915315,0.0318456,0.0026938224,-0.0037190143,0.00017038427,0.022129366,-0.015036147,0.041697294,-0.00050297513,0.0062650614,-0.027486226,0.008958884,0.018742846,-0.010812233,-0.03879104,0.0041654194,0.0019041477,0.022769727,0.013398304,-0.015627248,-0.039776213,0.071424775,-0.001713271,0.024321368,-0.00345425,0.00917439,0.0009944054,-0.01946941,0.033692792,0.019703386,-0.017449813,0.011858976,-0.017831566,-0.0074565005,0.006311241,-0.0023967323,-0.014445046,0.008558659,0.029456563,0.025318852,0.034850366,-0.012487021,-0.011446437,0.021538265,0.0072902534,0.012610167,0.014691338,0.011717358,0.0057201395,0.03721477,-0.0014877596,-0.0532484,0.002852373,0.035835534,-0.0028154294,0.013213584,0.018927567,-0.024173593,-0.0038852617,-0.0053753303,0.02230177,0.017905453,0.054529123,0.048027005,-0.019297006,-0.023447031,0.0009566918,-0.0032695308,-0.03987473,0.0055631283,0.042953383,-0.025565146,-0.027781775,0.0040268796,-0.00023667155,0.009432997,0.0020319119,-0.03918511,0.0015177765,-0.04721424,0.04627833,0.02187076,0.007924456,-0.006625264,0.005713982,-0.0085094,0.009999469,-0.02800344,-0.011982122,-0.020651612,0.021193456,-0.005704746,-0.012068325,-0.0108922785,0.0019672601,0.025589773,-0.03440704,-0.024801638,0.027313821,0.022929817,0.022437232,0.0141371805,-0.0030016878,-0.0070747472,-0.022609636,0.013053494,0.012684056,-0.0062465896,-0.021833817,-0.03411149,0.01942015,0.0005206774,-0.0170188,0.0145066185,0.04433262,-0.0011906695,0.032239668,-0.007899826,0.025368111,-0.031353015,-0.026574943,-0.032264296,0.0022027772,0.026845865,0.019838847,-0.019161545,0.006009533,-0.054233573,0.022757413,0.0009028154,-0.044012442,0.022597322,-0.002022676,-0.024456829,-0.0069146575,0.043002643,0.0038113738,0.011557268,-0.0056862743,0.005812499,-0.026106987,0.020097455,0.01480217,-0.029456563,-0.05792796,0.048642736,0.033175576,0.015602619,0.0068407697,0.014974575,-0.0027446202,0.0030555644,0.015725765,0.023865728,0.0030601823,0.032362815,-0.018705903,-0.0073395115,0.038692527,0.027141416,0.009346794,-0.05113029,-0.0034788793,-0.0045902734,0.030170811,0.037485693,0.009457625,-0.021981591,0.011637313,0.01992505,-0.0028908562,0.015196238,-0.024124334,0.026525686,0.0052829706,0.012647112,0.028865462,0.0012214561,0.0025845303,0.05723834,-0.0035589242,0.0071978937,0.051031772,0.008207692,0.0151100345,-0.025023302,0.007684321,-0.0484457,0.018508868,-0.025565146,-0.0075303884,0.027387708,-0.014445046,-0.005547735,0.018287206,0.01544253,0.024493773,-0.0038944976,-0.059947554,0.022387974,0.033594277,0.022991389,0.00873722,-0.0044578915,-0.004137711,-0.02136586,-0.028225102,0.022252513,0.010061042,0.009919424,-0.026722718,0.013681539,-0.0060033756,0.015577991,-0.013262843,-0.0154671585,0.003054025,0.010756818,-0.0027938788,-0.00044640485,0.010479739,-0.039456032,0.04982494,0.013607652,0.030688025,0.0038329244,-0.014272641,-0.033003174,-0.029678227,-0.005704746,0.021131882,0.031870227,-0.005270656,0.020109769,-0.012049853,-0.017782306,-0.01605826,0.022104738,0.02566366,-0.0043932395,-0.007782838,-0.022683524,0.0070993765,-0.009851693,0.017105004,0.034850366,-0.025762178,-0.0101657165,-0.018237948,0.08743378,0.0064836456,0.009303693,0.010338121,0.026205504,0.008878839,0.011865133,0.0011706583,0.03248596,0.01477754,0.028052697,-0.002847755,-0.047066465,0.028791575,0.0011406414,-0.022141682,-0.009833221,0.013718483,0.012647112,-0.010898436,-0.016600104,-0.040219538,0.049923457,0.01157574,-0.020097455,0.03189486,-0.0032418228,0.04307653,-0.016809452,-0.02026986,-0.027215304,0.024666177,0.012745628,0.007604276,0.051278066,-0.0131766405,0.008934255,0.0049904985,-0.01720352,0.007998344,-0.031082094,0.000535301,-0.005830971,-0.0069023427,-0.010990796,-0.0006996242,-0.009888638,0.033668164,0.014038663,0.024875525,0.019099971,0.02038069,0.043051902,-0.021316601,0.013792371,-0.050637703,-0.0015524114,-0.0025829908,-0.011569583,-0.016304553,-0.01429727,-0.017486757,-0.03467796,0.0482733,-0.015873542,-0.01576271,-0.010350436,0.021636782,-0.027880292,-0.0020149793,-0.011520324,-0.036500525,-0.0125793815,-0.0011822032,0.058322027,0.032264296,0.007628905,0.0041531045,0.01974033,0.013385989,-0.0010575177,0.0376581,0.011200144,-0.0035096658,0.003411149,0.03315095,0.003642048,0.018705903,-0.018890623,-0.03856938,0.030170811,0.027289191,0.02026986,-0.009008142,-0.010011784,0.020651612,0.008355468,-0.025294224,0.01349682,0.078517996,-0.024013503,-0.037461065,0.021045681,0.013065808,-0.015725765,0.0004360144,0.006354342,0.020984108,0.01733898,-0.0042331493,0.007444186,-0.007838254,0.027904922,-0.014235697,-0.002456766,-0.008349311,0.0053660944,-0.00963003,0.010073356,0.01672325,0.020971792,-0.026919752,-0.0021181141,-0.016735565,0.004762678,0.023410087,-0.02086096,0.010147245,0.030934317,0.025540516,0.028274361,-0.040367313,0.002690744,0.02856991,0.006926972,-0.013915517,0.011748144,-0.017622218,-0.008072231,-0.008558659,-0.029973777,-0.011446437,-0.03433315,-0.02891472,0.0126963705,-0.0026938224,-0.01653853,0.020257546,0.013201269,0.01304118,-0.020922534,-0.0035404523,0.006089578,-0.010645987,-0.021698356,0.044751316,0.030392475,0.0023320806,-0.011692729,-0.00921749,-0.018496554,-0.008392411,0.017733049,0.006169623,0.01898914,-0.0054984763,0.017609902,-0.030441733,0.026402539,-0.007647377,-0.012019066,-0.006403601,-0.031131351,0.010190345,0.016353812,-0.0037713514,0.01349682,-0.046894062,-0.043569114,0.0010267312,0.0030078453,0.019666443,0.006668365,-0.022437232,0.020799387,0.005233712,0.004390161,-0.011692729,0.0066375784,-0.046155185,-0.005852522,0.00844167,0.025084876,0.020947164,-0.0017255857,-0.010375065,-0.025244964,-0.008152276,0.031303756,-0.00034326996,0.0030232384,-0.022868244,0.00061919435,-0.0016024396,-0.007875198,0.0035342951,-0.014679023,-0.02368101,-0.0014231079,0.0011752762,0.009235962,0.037165515,0.013385989,-0.020060511,0.018952195,0.040786013,-0.05300211,-0.0034450141,-0.02507256,0.040933788,0.023447031,-0.004870431,-0.031131351,-0.013755427,-0.012622482,0.031574678,0.029702855,-0.039061964,-0.016316867,0.02891472,0.013250528,0.02077476,0.004137711,0.024284424,0.021033365,0.023163794,0.01786851,0.028151214,-0.006372814,-0.0044671274,-0.00029997638,0.0023028334,0.0018010127,-0.01992505,-0.018545814,-0.009346794,-0.024444515,0.014050978,0.043175045,-0.008460142,-0.020417634,-0.0076720063,-0.013681539,0.00770895,0.004005329,-0.0141494945,-0.010744504,-0.002569137,0.023804154,-0.0011060066,-0.012419291,-0.06940518,-0.011237088,0.00013930911,0.032215036,0.008183063,0.017462127,0.044455767,-0.010806076,0.027215304,-0.043002643,-0.04009639,-0.010861492,0.0028185078,9.5149655e-05,9.490914e-05,0.028816203,0.014124866,0.011581897,0.008133804,-0.041032303,0.0040084077,0.018656645,-0.01789314,0.004230071,0.011889762,-0.030811172,-0.009057401,0.0064528594,-0.026574943,-0.0018364172,-0.020282174,0.008687962,-0.0051044086,-0.0005418431,0.0018225634,0.022720467,-0.037436437,-0.001082147,-0.011003111,0.02861917,-0.0045718015,-0.020959478,-0.008164591,0.012505493,-0.0033957555,-0.03529369,-0.0033372613,-0.001994968,0.018213319,0.010972324,0.03337261,0.0035373736,0.036057197,-0.006366657,-0.015565676,-0.017806936,0.010030256,-0.02120577,-0.022277143,0.0011898999,-0.03182097,-0.0044147903,-0.019087655,0.0175237,-0.04371689,-0.012622482,-0.030983577,-0.0012160684,0.013287472,-0.021575209,-0.014765225,0.010073356,0.014321899,-0.014445046,-0.053593215,0.019752646,0.030318586,0.0071917363,-0.047091097,-0.017548328,-0.031426903,0.030121554,-0.0046887905,0.0075919614,-0.0030124632,-0.033618905,0.009956367,0.013583022,-0.0013161247,0.018028598,0.010331963,-0.010122615,0.0055046338,0.0056585665,-0.020959478,0.029210271,-0.025318852,-0.021538265,0.02376721,0.0042085205,0.03376668,-0.015873542,0.001958024,-0.014309585,-0.0077582086,-0.0050520715,0.009291379,0.019198488,-0.0042793294,-0.00665605,0.0024598448,0.031697825,-0.016193721,0.037387177,0.009254434,-0.0072964104,-0.0039930143,-0.009857851,-0.047731455,0.026205504,-0.03691922,0.023016019,-0.023841098,-0.0398501,0.022498805,-0.024469145,0.025171077,-0.010079514,0.032732252,0.033889826,0.0034450141,-0.015233181,-0.0044578915,0.019530982,-0.007912141,-0.0072348374,-0.020208286,-0.0088480525,-0.0016532373,0.017277408,-0.019518668,-0.0032541375,0.015651878,0.01603363,0.023705637,0.030367846,-0.015011518,-0.024653863,0.042904124,-0.014420416,0.044972982,-0.020319117,0.04467743,-0.029333418,0.036426637,-0.0141371805,0.00748113,0.0050089704,0.012111425,0.042042103,0.01795471,0.0075796465,-0.022412602,-0.024764694,-0.015208552,-0.0021427434,0.0018133273,-0.0057847914,0.010104143,0.0014485068,-0.008429355,0.046894062,0.014014034,-0.0069208145,0.023964245,0.0015793496,0.010085671,-0.022240197,0.013853944,-0.0058032633,-0.006292769,0.002930879,-0.04950476,0.0009505345,0.02992452,0.0028646877,-0.026402539,0.035835534,-0.007185579,0.011083155,0.05625317,-0.032584477,-0.034210008,0.009377581,0.03755958,0.030146182,-0.0069146575,0.012517808,-0.02573755,-0.018077858,-0.0111632,-0.017055744,-0.015085406,0.041968215,-0.014568192,-0.038199943,-0.009888638,-0.018274892,-0.04182044,-0.0072902534,-0.026131617,-0.03790439,-0.037461065,-0.008731063,-0.0074996017,0.0062742974,-0.055070966,-0.0075365454,0.006141915,0.03918511,0.051918425,-0.004245464,0.019629499,0.003129452,-0.00089742773,-0.013853944,0.018533498
