sign,0,1,2,3,4,5,6,7,8,9,10,11,12,13,14,15,16,17,18,19,20,21,22,23,24,25,26,27,28,29,30,31,32,33,34,35,36,37,38,39,40,41,42,43,44,45,46,47,48,49,50,51,52,53,54,55,56,57,58,59,60,61,62,63,64,65,66,67,68,69,70,71,72,73,74,75,76,77,78,79,80,81,82,83,84,85,86,87,88,89,90,91,92,93,94,95,96,97,98,99,100,101,102,103,104,105,106,107,108,109,110,111,112,113,114,115,116,117,118,119,120,121,122,123,124,125,126,127,128,129,130,131,132,133,134,135,136,137,138,139,140,141,142,143,144,145,146,147,148,149,150,151,152,153,154,155,156,157,158,159,160,161,162,163,164,165,166,167,168,169,170,171,172,173,174,175,176,177,178,179,180,181,182,183,184,185,186,187,188,189,190,191,192,193,194,195,196,197,198,199,200,201,202,203,204,205,206,207,208,209,210,211,212,213,214,215,216,217,218,219,220,221,222,223,224,225,226,227,228,229,230,231,232,233,234,235,236,237,238,239,240,241,242,243,244,245,246,247,248,249,250,251,252,253,254,255,256,257,258,259,260,261,262,263,264,265,266,267,268,269,270,271,272,273,274,275,276,277,278,279,280,281,282,283,284,285,286,287,288,289,290,291,292,293,294,295,296,297,298,299,300,301,302,303,304,305,306,307,308,309,310,311,312,313,314,315,316,317,318,319,320,321,322,323,324,325,326,327,328,329,330,331,332,333,334,335,336,337,338,339,340,341,342,343,344,345,346,347,348,349,350,351,352,353,354,355,356,357,358,359,360,361,362,363,364,365,366,367,368,369,370,371,372,373,374,375,376,377,378,379,380,381,382,383,384,385,386,387,388,389,390,391,392,393,394,395,396,397,398,399,400,401,402,403,404,405,406,407,408,409,410,411,412,413,414,415,416,417,418,419,420,421,422,423,424,425,426,427,428,429,430,431,432,433,434,435,436,437,438,439,440,441,442,443,444,445,446,447,448,449,450,451,452,453,454,455,456,457,458,459,460,461,462,463,464,465,466,467,468,469,470,471,472,473,474,475,476,477,478,479,480,481,482,483,484,485,486,487,488,489,490,491,492,493,494,495,496,497,498,499,500,501,502,503,504,505,506,507,508,509,510,511,512,513,514,515,516,517,518,519,520,521,522,523,524,525,526,527,528,529,530,531,532,533,534,535,536,537,538,539,540,541,542,543,544,545,546,547,548,549,550,551,552,553,554,555,556,557,558,559,560,561,562,563,564,565,566,567,568,569,570,571,572,573,574,575,576,577,578,579,580,581,582,583,584,585,586,587,588,589,590,591,592,593,594,595,596,597,598,599,600,601,602,603,604,605,606,607,608,609,610,611,612,613,614,615,616,617,618,619,620,621,622,623,624,625,626,627,628,629,630,631,632,633,634,635,636,637,638,639,640,641,642,643,644,645,646,647,648,649,650,651,652,653,654,655,656,657,658,659,660,661,662,663,664,665,666,667,668,669,670,671,672,673,674,675,676,677,678,679,680,681,682,683,684,685,686,687,688,689,690,691,692,693,694,695,696,697,698,699,700,701,702,703,704,705,706,707,708,709,710,711,712,713,714,715,716,717,718,719,720,721,722,723,724,725,726,727,728,729,730,731,732,733,734,735,736,737,738,739,740,741,742,743,744,745,746,747,748,749,750,751,752,753,754,755,756,757,758,759,760,761,762,763,764,765,766,767,768,769,770,771,772,773,774,775,776,777,778,779,780,781,782,783,784,785,786,787,788,789,790,791,792,793,794,795,796,797,798,799,800,801,802,803,804,805,806,807,808,809,810,811,812,813,814,815,816,817,818,819,820,821,822,823,824,825,826,827,828,829,830,831,832,833,834,835,836,837,838,839,840,841,842,843,844,845,846,847,848,849,850,851,852,853,854,855,856,857,858,859,860,861,862,863,864,865,866,867,868,869,870,871,872,873,874,875,876,877,878,879,880,881,882,883,884,885,886,887,888,889,890,891,892,893,894,895,896,897,898,899,900,901,902,903,904,905,906,907,908,909,910,911,912,913,914,915,916,917,918,919,920,921,922,923,924,925,926,927,928,929,930,931,932,933,934,935,936,937,938,939,940,941,942,943,944,945,946,947,948,949,950,951,952,953,954,955,956,957,958,959,960,961,962,963,964,965,966,967,968,969,970,971,972,973,974,975,976,977,978,979,980,981,982,983,984,985,986,987,988,989,990,991,992,993,994,995,996,997,998,999,1000,1001,1002,1003,1004,1005,1006,1007,1008,1009,1010,1011,1012,1013,1014,1015,1016,1017,1018,1019,1020,1021,1022,1023,1024,1025,1026,1027,1028,1029,1030,1031,1032,1033,1034,1035,1036,1037,1038,1039,1040,1041,1042,1043,1044,1045,1046,1047,1048,1049,1050,1051,1052,1053,1054,1055,1056,1057,1058,1059,1060,1061,1062,1063,1064,1065,1066,1067,1068,1069,1070,1071,1072,1073,1074,1075,1076,1077,1078,1079,1080,1081,1082,1083,1084,1085,1086,1087,1088,1089,1090,1091,1092,1093,1094,1095,1096,1097,1098,1099,1100,1101,1102,1103,1104,1105,1106,1107,1108,1109,1110,1111,1112,1113,1114,1115,1116,1117,1118,1119,1120,1121,1122,1123,1124,1125,1126,1127,1128,1129,1130,1131,1132,1133,1134,1135,1136,1137,1138,1139,1140,1141,1142,1143,1144,1145,1146,1147,1148,1149,1150,1151,1152,1153,1154,1155,1156,1157,1158,1159,1160,1161,1162,1163,1164,1165,1166,1167,1168,1169,1170,1171,1172,1173,1174,1175,1176,1177,1178,1179,1180,1181,1182,1183,1184,1185,1186,1187,1188,1189,1190,1191,1192,1193,1194,1195,1196,1197,1198,1199,1200,1201,1202,1203,1204,1205,1206,1207,1208,1209,1210,1211,1212,1213,1214,1215,1216,1217,1218,1219,1220,1221,1222,1223,1224,1225,1226,1227,1228,1229,1230,1231,1232,1233,1234,1235,1236,1237,1238,1239,1240,1241,1242,1243,1244,1245,1246,1247,1248,1249,1250,1251,1252,1253,1254,1255,1256,1257,1258,1259,1260,1261,1262,1263,1264,1265,1266,1267,1268,1269,1270,1271,1272,1273,1274,1275,1276,1277,1278,1279,1280,1281,1282,1283,1284,1285,1286,1287,1288,1289,1290,1291,1292,1293,1294,1295,1296,1297,1298,1299,1300,1301,1302,1303,1304,1305,1306,1307,1308,1309,1310,1311,1312,1313,1314,1315,1316,1317,1318,1319,1320,1321,1322,1323,1324,1325,1326,1327,1328,1329,1330,1331,1332,1333,1334,1335,1336,1337,1338,1339,1340,1341,1342,1343,1344,1345,1346,1347,1348,1349,1350,1351,1352,1353,1354,1355,1356,1357,1358,1359,1360,1361,1362,1363,1364,1365,1366,1367,1368,1369,1370,1371,1372,1373,1374,1375,1376,1377,1378,1379,1380,1381,1382,1383,1384,1385,1386,1387,1388,1389,1390,1391,1392,1393,1394,1395,1396,1397,1398,1399,1400,1401,1402,1403,1404,1405,1406,1407,1408,1409,1410,1411,1412,1413,1414,1415,1416,1417,1418,1419,1420,1421,1422,1423,1424,1425,1426,1427,1428,1429,1430,1431,1432,1433,1434,1435,1436,1437,1438,1439,1440,1441,1442,1443,1444,1445,1446,1447,1448,1449,1450,1451,1452,1453,1454,1455,1456,1457,1458,1459,1460,1461,1462,1463,1464,1465,1466,1467,1468,1469,1470,1471,1472,1473,1474,1475,1476,1477,1478,1479,1480,1481,1482,1483,1484,1485,1486,1487,1488,1489,1490,1491,1492,1493,1494,1495,1496,1497,1498,1499,1500,1501,1502,1503,1504,1505,1506,1507,1508,1509,1510,1511,1512,1513,1514,1515,1516,1517,1518,1519,1520,1521,1522,1523,1524,1525,1526,1527,1528,1529,1530,1531,1532,1533,1534,1535
aries,0.03755458,-0.00576971,-0.0022482907,0.05083846,-0.009329052,-0.015700111,0.0035539246,0.03738122,-0.010092929,0.0044559496,0.0037056166,0.0669178,0.014627433,-0.0358643,0.0350625,0.05023169,-0.004301549,0.030576754,-0.003348057,0.04776128,-0.068391375,-0.060373377,-0.02470411,-0.012243704,0.021323547,-0.010266291,-0.0067448723,0.05660275,0.057902966,-0.00026292136,0.048541408,-0.03350224,-0.024855802,0.018473906,0.020565087,0.013403063,-0.020684274,-0.0049462398,-0.010526335,-0.00777421,0.003410359,-0.025830964,0.044185683,0.077016145,0.01871228,-0.048974816,-0.012514582,-0.04693781,0.047154512,0.019546585,-0.01234122,-0.04368727,0.012731285,0.0865944,-0.017314548,-0.015071674,-0.006712367,0.049711604,-0.011756122,0.021572756,0.0058888965,-0.03488914,0.021789458,-4.0589435e-05,-0.0025977239,0.0064144004,-0.027304543,0.02082513,-0.021377724,0.03270044,-0.0059484895,0.030100007,0.030468402,0.02476912,-0.019925814,0.043427225,0.03027337,-0.017802129,0.009345305,-0.06908482,-0.0030825962,-0.01717369,-0.020370055,0.0015683859,-0.0278463,-0.021399394,-0.06327719,0.003171986,0.020229198,-0.015125849,0.033718944,-0.035430893,-0.035474233,0.02472578,-0.013251371,-0.022450402,0.025635932,-0.012828801,-0.016317714,0.004564301,0.008207615,-0.0009663587,0.0006920943,-0.026589423,0.008592263,0.005439238,0.041996986,-0.016241869,-0.03517085,0.016989494,0.03192031,-0.00547987,-0.031205192,0.017498745,0.022927148,0.009610766,-0.02240706,0.009161107,0.037771285,0.042885467,0.013078009,-0.05647273,-0.011236036,0.010147105,-0.03748957,-0.07341888,0.020684274,0.015006663,-0.07211866,-0.008716866,-0.01592765,0.077146165,0.0017986326,-0.0041931975,-0.015873473,-0.040068332,-0.04776128,-0.00049469166,-0.009003998,0.019059004,0.015450904,-0.023642266,-0.0039033578,-0.03816135,0.034672435,-0.0011552963,0.046070997,0.020142518,0.044987485,0.0052198265,0.007546672,-0.015851803,-0.020543417,0.039613258,0.054089,-0.029189857,-0.04702449,-0.027586255,0.016079342,-0.00895524,0.010873059,0.006181445,-0.059463225,0.02240706,0.06683112,0.010277126,0.014930817,0.00034299976,-0.06639771,0.008072176,0.008559757,-0.019719947,0.023577256,0.02318719,0.015537585,0.020055836,-0.017617932,0.031530246,-0.026004326,-0.009464491,0.026806125,0.0071132667,0.0043448894,0.009599931,-0.006159775,-0.0262427,-0.041433558,0.0031367717,-0.010434235,0.037056163,-0.052182015,-0.017769624,0.029796625,0.03508417,0.042820457,-0.011441903,-0.0057588746,0.00073611207,-0.012937152,0.04063176,-0.11095179,0.021551086,-0.0019191734,-0.014584092,0.024010662,0.029254867,-0.011463574,1.8411267e-05,0.017617932,0.0011837386,0.07198864,0.021616096,-0.023013828,-0.06674444,-0.028366385,0.021269372,0.0039656595,0.01719536,-0.042061996,0.012633769,-0.029146515,-0.039526574,-0.00238373,0.033047166,0.006343972,0.0024338423,0.052918803,-0.044229023,-0.01635022,-4.8504164e-05,-0.052095335,-0.0074654086,-0.0012406231,0.0070049153,-0.02635105,0.022136183,0.020521747,-0.043383885,0.03824803,0.021551086,0.03748957,-0.015721783,-0.045680933,0.001668611,0.03512751,0.04167193,-0.040133342,-0.03512751,0.050188348,0.02314385,0.07276877,0.029124845,0.008603098,0.042040326,0.00937781,-0.039938312,0.0044071916,-0.03917985,0.034780785,-0.05582262,-0.0014370099,0.012157022,-0.02949324,-0.05036171,0.02109601,-0.040870134,0.0009819341,0.006154357,-0.0044315704,-0.07224868,0.019990826,-0.052182015,-0.039461564,0.04633104,-0.018105512,-0.03813968,-0.009231536,-0.013067174,-0.026372721,0.071208514,-0.02788964,-0.011756122,0.010493829,-0.02702283,0.046721105,0.021009328,0.04529087,-0.032418728,0.00031726633,0.0062789614,-0.0055367546,-0.022147018,0.04160692,0.030988488,-0.017650437,-0.0141831925,0.05040505,-0.016317714,-0.004604933,0.02882146,0.021464404,-0.015418398,0.01476829,0.018647268,0.05413234,0.013738953,-0.0104234,-0.004472202,0.027499575,0.003299299,-0.015212531,-0.059549905,0.0081534395,-0.00013857122,-0.014616598,-0.01552675,-0.010683444,-0.03428237,0.02635105,-0.009859974,-0.019199861,0.020077506,0.0068532233,0.019416563,-0.0032424144,-0.026481071,0.011149355,0.031248532,0.018831465,-0.038703106,-0.011192695,-0.012276209,0.0054636174,0.017357888,-0.03341556,0.0064631584,-0.008380977,-0.008570593,0.06358058,-0.031703606,0.02156192,-0.047414556,-0.05356891,-0.06388396,0.027412893,-0.0246391,0.044207353,-0.0671345,-0.00063419406,0.009876226,0.019308211,-0.005764292,-0.018582258,-0.007855473,-0.033220526,0.049148176,0.004537213,-0.01639356,0.02236372,-0.040285036,-0.022753784,-0.023620596,0.042018656,-0.020716779,0.03270044,-0.037879635,-0.009746205,-0.0038518908,-0.016209364,-0.04529087,0.0023688315,-0.025744284,-0.014638268,0.0066256854,-0.047111172,0.039634928,-0.02312218,0.008743955,0.0765394,0.038616423,0.05092514,-0.021930315,-0.076712765,-0.02875645,-0.004512834,0.008315966,-0.007817551,-0.018029666,0.046721105,0.002425716,0.008592263,-0.02151858,-0.00993582,-0.035452563,-0.0022035958,-0.0011871245,-0.04394731,0.040350046,0.01911318,-0.049148176,-0.060850125,-0.007920484,-0.03270044,0.044554077,0.0014708696,0.033935644,0.0023336173,-0.004786421,-0.00083227386,0.0142373685,-0.06080678,-0.035257533,0.026502742,-0.0102825435,-0.0029038165,0.0143457195,0.045160845,-0.025180856,-0.007221618,0.0060243355,-0.028561419,0.012417066,0.028604759,0.0016659021,-0.00038227713,0.041325208,0.02706617,0.028648099,-0.0430805,-0.05512917,0.028149683,-0.0020370055,0.026741115,0.03588597,-0.0006446906,0.02187614,-0.011669441,-0.019297376,0.015331717,-0.019199861,0.0061110165,0.0140748415,-0.031465236,0.025029164,-0.01478996,0.034845795,0.025744284,-0.01993665,-0.059549905,-0.011615266,-0.006999498,-0.015440068,-0.0016225616,-0.001931363,-0.006847806,0.032375388,-0.046677765,-0.024292374,0.048931472,0.06401398,0.010445071,-0.07055841,0.019167356,0.042647094,0.06982162,0.024184024,-0.0019530333,-0.056862794,-0.012460406,0.03456408,0.038746446,0.018473906,0.02955825,0.029146515,-0.03432571,0.041021824,0.02158359,0.03657942,-0.032852132,0.0047972566,-0.005477161,-0.028539747,0.016816132,0.014833301,0.020792626,0.0016659021,0.016426066,0.011831968,-0.014952487,-0.0041146427,0.02076012,0.05655941,-0.0030663435,-0.0067015314,0.0032830462,0.0021209777,0.018918147,0.00041918433,-0.037077837,-0.03341556,-0.02472578,-0.00519003,-0.008234703,0.031660266,0.020662604,0.017011164,0.012926317,-0.025289208,0.03202866,0.029948315,0.016198529,-0.00398733,-0.0028523495,0.037944645,0.003949407,0.009269459,0.013760623,-0.01274212,0.027369553,0.0034266117,-0.04063176,0.0067773773,-0.026957817,0.010472159,-0.013273042,0.011658606,-0.019416563,0.015537585,-0.0010584573,0.019882474,-0.030945148,0.0023864387,0.001357778,0.040285036,0.030186689,0.053178847,-0.013186361,0.0011424297,0.0031205192,0.029449899,0.009832886,0.025592592,0.009345305,-0.014584092,-0.02310051,0.005203574,0.008380977,-0.01728204,0.00031692773,0.0007252769,0.029124845,0.008478493,0.013294712,-0.009307382,0.03610267,-0.028214693,-0.012557923,-0.012590428,0.009182777,0.043448895,-0.032245364,0.0037543746,0.02877812,0.0076441886,0.0015521332,0.028929813,-0.00977871,-0.0074870787,0.022775456,0.020554252,-0.0045995153,-0.0043936474,-0.010623851,0.08174027,-0.0014288835,0.034174018,-0.02955825,-0.015050003,-0.016111847,-0.016870307,0.005452782,-0.031616926,-0.05257208,0.028539747,-0.01757459,0.00027528018,0.015710946,-0.012427901,-0.007497914,0.002995915,0.019427398,-0.0022916312,0.02236372,0.0063873124,0.0068044653,-0.02635105,-0.02476912,-0.016458571,-0.009459074,-0.041888636,0.00859768,0.017964656,0.023772288,-0.0382697,0.0047972566,0.00777421,-0.03818302,-0.0054636174,-0.025224196,-0.011886144,-0.018668938,-0.010125434,0.017314548,-0.032635428,0.01835472,-0.003261376,-0.005106058,0.037771285,0.032873802,0.0015115015,-0.014031501,0.010629268,-0.020662604,-0.024834132,-0.04167193,0.008792712,-0.020857636,-0.032332044,0.011078927,0.0366661,-0.013663107,0.036254365,-0.028583089,-0.059939973,-0.044359047,0.005693864,-0.018517246,0.026177688,-0.014378225,-0.024227364,0.014378225,-0.02632938,-0.0035701774,0.013868974,0.02316552,0.019167356,0.03198532,-0.013457239,0.005065426,0.02710951,-0.03118352,0.026437731,0.04685113,-0.004529087,-0.009204448,-0.00046421785,0.0015087926,-0.01666444,-0.021811128,-0.021020163,-0.0042663347,-0.020131683,-0.017141186,-0.024920812,0.036991153,0.026025996,0.015808463,-0.028258035,0.022558752,0.012211198,0.015505079,-0.04173694,0.017108679,0.0051223105,-0.00657151,0.017607097,0.012882977,0.0032397057,0.017043669,-0.017401228,0.003299299,0.02882146,-0.013771458,-0.013912315,0.033913974,0.008191363,0.046634424,0.004870394,-0.022082007,0.045117505,-0.015234201,-0.015223366,0.040090002,0.0052983817,-0.002590952,-0.009881644,0.023620596,-0.017585425,0.033957317,-0.03352391,0.01913485,0.018181358,0.0016036001,0.01599266,-0.009431986,-0.04680779,0.037944645,-0.016241869,0.050188348,-0.0032559584,0.029298207,-0.044164013,0.012677109,-0.031616926,-0.016436901,-0.027954651,0.008743955,0.05044839,-0.011485244,0.010114599,-0.024899142,-0.0017742536,-0.018614763,-0.0102825435,-0.0254409,0.004087555,0.025375888,-0.012070341,-0.027954651,-0.0074924966,0.0032261617,-0.0061489395,-0.004204033,-0.013034669,0.010049589,-0.006132687,-0.006473994,0.02316552,-0.031226862,-0.031703606,0.0052360795,-0.020532582,0.010342137,-0.0142265335,-0.03664443,-0.03179029,0.00042358608,0.031226862,-0.022602094,0.028604759,0.035365883,0.006436071,-0.023295542,-0.024790792,-0.005688446,0.0066311033,-0.02791131,-0.0026613802,-0.002657317,-0.0075791776,-0.0023850843,0.020185858,0.01599266,0.006495664,0.0070265858,0.024010662,-0.023577256,0.012666274,-0.004052341,-0.013630601,0.02236372,-0.012482077,-0.031270202,0.013587261,-0.05096848,0.012926317,-0.014659938,0.07861975,-0.010450489,-0.022092842,0.008716866,0.006132687,0.0040198355,-0.0058130505,-0.003900649,-0.033025496,0.0061110165,-0.02038089,0.020164188,-0.016913647,0.016534418,-0.0032803374,0.020608429,0.0057480396,0.020500077,0.040176682,-0.026546083,0.0671345,-0.00076726306,-0.005455491,0.017802129,-0.0208468,-0.00759543,-0.019687442,0.04316718,-0.01750958,-0.01666444,0.04063176,0.0064794114,-0.031010158,-0.019654937,0.03657942,-0.014670774,0.027477905,-0.0061489395,-0.08715783,-0.010818883,0.008906482,-0.035257533,-0.020012496,0.026611093,-0.0029254868,-0.0057859626,-0.0028225528,-0.0001609187,-0.011658606,0.010732202,0.003413068,0.0032695022,-0.022016997,0.005528628,-0.028193023,-0.00975704,0.0051683597,0.012113682,-0.0049841623,0.025029164,0.021811128,0.025917646,0.031335212,-0.015039168,-0.028539747,0.00080924924,0.005303799,0.0033968152,-0.0025828255,-0.00639273,-0.008321384,0.014519082,0.008895647,-0.004843306,-0.0007733578,0.0052712937,-0.018614763,0.02078179,-0.01013627,0.019958321,-0.031508576,-0.014356555,0.022472072,0.032548748,0.016740285,0.04063176,0.013663107,-0.038724776,0.020586759,-0.017422898,-0.023035498,0.037229527,-0.019828299,-0.0004415318,-0.016967822,0.00837556,0.010661773,0.020055836,0.0014329468,-0.05959325,-0.005731787,0.0022063046,0.012373725,0.016588593,2.3003502e-05,0.0068803113,0.018528081,-0.009394063,0.011116849,-0.0009318217,0.002871311,-0.00085529854,0.01801883,-0.00044796514,0.023382224,-0.012330385,0.001099089,0.03116185,-0.017498745,0.030923478,0.002263189,0.020640934,0.045030825,0.0142156985,-0.035712607,-0.011376892,0.0024555128,-0.008261791,-0.0059593245,0.05647273,-0.0045995153,0.006560675,0.047674596,0.008234703,0.0101200165,-0.012980493,0.013890645,-0.020716779,0.047327872,-0.0141615225,0.035257533,-0.051488567,-0.03187697,-0.029926645,-0.0074654086,0.029298207,-0.022970488,-0.017964656,-0.0016821548,-0.039959982,0.007828386,0.03751124,-0.010374643,0.005726369,0.020662604,-0.006408983,-0.013175525,-0.012113682,0.009264041,0.0067015314,0.0043340544,-0.0140748415,0.014302379,-0.00911235,0.045984317,-0.03428237,-0.01900483,0.01911318,0.039526574,0.009567425,0.01554842,-0.010607598,-0.026654433,0.011485244,0.0062247855,0.046027657,-0.0070211682,0.016577758,-0.0016659021,0.0017282042,-0.009870809,0.009746205,0.0108243,-0.0018595802,0.0077525396,-0.033783954,0.023035498,0.020814296,0.0021412938,-0.012135352,-0.020218363,0.0059376545,0.0025895974,-0.014464906,-0.012492912,0.019882474,-0.037121177,0.023273872,0.029926645,0.03807467,-0.02388064,0.026524413,0.022103677,0.022147018,0.045810953,0.0075791776,-0.0016956987,-0.036319375,-0.008272626,-0.00409839,0.03675278,-0.011723617,0.016241869,-0.0005092514,-0.014313214,0.002795465,0.018625598,-0.008830636,0.00757376,0.012308714,-0.06878144,0.00429884,-0.01314302,0.024184024,-0.030446732,-0.044033993,0.012471241,-0.0318553,0.016209364,0.016523583,0.018506411,0.003499749,0.026806125,0.01991498,0.016046837,0.0036920726,-0.002971536,-0.04234371,-0.007281211,-0.02160526,-0.006734037,0.0028144266,-0.022862136,0.00070225226,0.03978662,-0.020543417,-0.0062139505,0.011691112,-0.01882063,-0.0056830286,-0.028258035,0.03272211,-0.0077146166,0.022667104,-0.04370894,0.00019215436,-0.0010056361,-0.033285536,0.007449156,-0.0053227604,0.04208367,0.0009622955,0.0019977281,-0.016978659,-0.004902899,-0.019644102,0.0058726436,0.017888809,-0.026069338,-0.03036005,-0.010970575,0.031313542,0.038529743,-0.04058842,-0.023663936,-0.02240706,0.021594426,-0.015353387,-0.008516417,0.02388064,-0.011301047,0.030620094,-0.004832471,0.018127182,0.020695109,0.01350058,-0.0081642745,0.005742622,-0.007422068,-0.0021480657,0.017390393,-0.03343723,-0.03597265,0.05239872,0.0022347467,-0.025094174,-0.005265876,0.016761955,-0.0015385892,-0.0376846,-0.025202526,3.191286e-05,0.036319375,-0.034043998,0.024270704,0.015266706,0.024270704,0.03107517,-0.010818883,0.0100116655,-0.0029309043,-0.02236372,0.0009819341,0.011431068,-0.012222033,-0.0027602508,0.010835136,0.013825634,0.023035498,0.026632763,-0.022168688,0.0015561964,-0.04325386,0.027369553,0.0015182734,0.004025253,-0.02630771,-0.016111847,0.007335387,-0.028994823,-0.02622103,-0.007893397,0.006343972,0.0066636084,0.011290211,-0.019264871,0.0045534656,0.026112678,0.018788125,0.022775456,-0.02788964,0.024877472,-0.007909649,0.004626603,-0.01095974,0.015017498,0.047284532,-0.0033670184,0.0019733491,0.029059835,0.010255456,-0.043492235,0.030034997,0.02786797,-0.011376892,0.019102344,0.009161107,-0.0009473972,0.012969658,0.0066906963,-0.033805624,0.015288377,0.048368048,0.0065173344,-0.035387553,-0.011517749,0.0028983988,-0.012449571,-0.03508417,-0.0022103677,0.05673277,0.0025990782,-0.029861635,-0.014432401,0.003860017,-0.016447736,-0.020695109,-0.0035430894,0.005802215,-0.0042473734,-0.00819678,0.013641436,-0.028691439,0.015375058,-0.022493742,0.0034699521,-0.018853137,0.0040062913,-0.0100983465,0.015505079,0.016079342,0.0039358633,0.016783625,-0.05339555,0.01516919,0.012752955,0.011474409,-0.042820457,0.015678441,0.022862136,0.041325208,0.011723617,-0.03430404,0.0012413003,0.0142265335,-0.04472744,0.04160692,0.0072107827,0.009968325,-0.00942115,0.00487852,-0.04680779,0.026524413,-0.01352225,-0.027997991,0.03033838,-0.020153353,-0.040480066,0.0077146166,0.008554339,0.011853639,0.0015223366,-0.014562422,0.004147148,-0.003399524,-0.018723115,0.02476912,0.04165026,-0.017043669,-0.0140965115,-0.011214365,0.0065552574,-0.016837802,0.009567425,-4.643025e-05,0.0066040154,0.0142265335,0.016198529,-0.022212029,-0.0023620597,-0.032137014,0.0013022479,0.008559757,-0.05647273,0.009117767,-0.009735369,-0.008467658,0.023793958,-0.033047166,-0.014421565,-0.0053769364,0.00777421,0.01984997,-0.017877974,-0.01438906,0.0011119558,0.020261705,0.013825634,-0.008294296,-0.010499246,-0.018950652,-0.0049435305,0.014302379,0.0020952444,-0.0062410384,-0.0071078492,0.012872142,-0.017097844,-0.008424318,0.017802129,-0.011355222,0.012590428,-0.024985824,0.021691943,0.008473076,-0.0140748415,-0.008418901,-0.0059864125,-0.008521834,0.00044661076,0.016209364,0.012243704,0.0032586672,-0.016577758,-0.02953658,0.008018001,0.048931472,-0.045074165,-0.023013828,-0.009453656,0.013034669,-0.016956987,-0.011571925,-0.011745287,-0.0494949,0.008451406,-0.023728948,0.03116185,0.025115846,-0.034607425,0.01231955,0.01957909,0.020835966,-0.016913647,0.010363808,0.017726282,0.02697949,-0.021486074,0.025115846,0.018636433,0.005840138,-0.015830133,-0.009058174,0.015125849,-0.026871137,-0.0011701947,-0.050014988,-0.027737947,0.016566923,0.01753125,-0.001153942,-0.03982996,0.0050735525,-0.018538918,0.016501913,0.03922319,-0.01481163,0.030945148,-0.008104682,0.01478996,-0.0018284292,-0.013933985,-0.026892807,0.012590428,0.0069182343,0.008841471,-0.0035105841,-0.011756122,0.04061009,0.020435067,0.016447736,-0.050535075,-0.025787624,-0.03441239,0.031205192,-0.009502415,-0.033762284,-0.05040505,0.023447234,0.036081,-0.016090177,2.2982338e-05,-0.00779588,0.0057859626,-0.004312384,0.016068507,-0.033718944,-0.017856304,0.028951483,-0.01392315,-0.0041200602,-0.018419731,0.00070699264,0.013370558,0.01795382,0.02029421,-0.0022171396,0.010266291,-0.044207353,0.011355222,0.01314302,-0.008213033,0.00080247724,-0.04381729,-0.03352391,-0.013251371,0.014497411,-0.0254409,-0.005152107,-0.0026667977,0.010277126,0.019676607,0.024812462,0.01198366,0.014194028,-0.014735784,0.012731285,-0.021301877,0.0054744524,-0.010986827,4.4694934e-05,0.020066671,-0.029471569,-0.017520415,-0.005138563,-0.011452738,-0.028171353,-0.018788125,0.0043692687,-0.00033199534,0.012211198,0.022710444,0.008510999,-0.006056841,0.0054229856,-0.019459903,-0.021865305,0.015862638,0.012254539,0.009074426,-0.02468244,-0.021431899,-0.020543417,0.003646023,0.010786378,0.047197852,-0.00109164,0.013608931,0.0140856765,0.02552758,-0.030555082,-0.0022577713,-0.0063873124,-0.014302379,0.0016943443,-0.011463574,0.018918147,0.04236538,-0.05508583,0.011431068,-0.011496079,0.0009602639,0.09794963,-0.011626101,0.0040171267,-0.0034076502,-0.0045697186,-0.015440068,0.023728948,0.022992158,0.009014833,0.020261705,-0.010488411,0.012037836,-0.024574088,0.005230662,0.03508417,-0.02234205,0.014194028,-0.026719445,-0.0689548,-0.0014952488,-0.007687529,0.018961487,-0.025094174,-0.004737663,0.012146187,-0.023273872,-0.005867226,0.0067936303,0.042452063,0.02307884,0.01717369,-0.003196365,0.039548244,0.02162693,-0.0024961445,-0.004236538,0.007292046,0.0055692596,-0.024335716,-0.0015074383,-0.03896315,-0.011734452,0.021085175,0.057122838,0.027239531,-0.009968325,0.002446032,-0.024314044,0.009069009,0.021030998,0.0029742448,-0.037121177,0.029081505,-0.011268541,-0.008993163,-0.002922778,-0.005807633,0.03111851,-0.03822636,0.009025668,0.009096096,0.010526335,0.014519082,0.037012823,-0.021030998,-0.039461564,0.03187697,-0.0024920811,-0.0015291085,-0.0142698735,-0.06639771,0.026806125,-0.0008268563,0.012709615,0.028908143,-0.0033263867,0.0140640065,-0.016133517,0.0142590385,0.01835472,0.0038789785,0.0069182343,-0.018625598,-0.012482077,0.034087338,0.010613016,-0.022948818,0.051401883,0.002846932,0.004063176,0.048281364,-0.0033507657,0.00953492,-0.009215283,0.033220526,0.021171855,0.022255369,0.007405815,-0.00873312,-0.006246456,0.030815126,0.00022940015,-0.008213033,0.015104179,0.025375888,-0.02385897,-0.024205694,0.020424232,-0.009247788,-0.011236036,0.009740788,0.022840466,-0.023598926,0.0074762437,-0.009654106,0.014779125,-0.059506565,0.006712367,-0.0043042577,0.01635022,0.04689447,0.023728948,0.005715534,-0.009274877,-0.00030033643,-0.044424057,0.0028144266
gemini,0.014807397,-0.0024575426,0.006054343,0.029283373,-0.00087515736,-0.03141393,-0.009185083,0.018488532,-0.017683653,-0.017269379,-0.021554172,-0.005604558,-0.008480815,-0.02066644,0.048671473,0.038610492,0.02129377,-0.001716285,0.010374647,0.012475616,-0.021980284,-0.015505747,0.0006528541,-0.012901728,-0.0054092566,0.006021793,0.028999297,0.016192261,0.04261121,0.02029951,0.009705887,-0.028407475,0.008178986,-0.04514421,-0.035604037,-0.016618373,-0.02705812,0.0034148153,-0.017316723,-0.027318522,0.01956565,-0.00856367,0.051133454,0.04007821,-0.014085373,-0.036077492,-0.0027401377,-0.023909625,0.04341609,-0.013872317,0.012215215,-0.03394693,0.009202838,0.042137753,-0.024039825,-0.019376265,0.000839648,0.03868151,0.01183053,0.033497147,0.023211274,-0.011682575,0.0010127561,-0.060365885,-0.027863,0.021021532,-0.020571746,0.008972027,-0.047913942,0.02492756,0.050044503,0.02066644,0.028005036,0.025590401,0.011126261,-0.007983685,0.014440467,-0.0002609567,-0.010001798,-0.025969166,-0.024004316,0.007445126,-0.008853663,0.021175405,-0.0067290207,-0.030230287,-0.0024235127,-0.010285873,-0.017269379,0.029378064,0.035982803,-0.013801298,0.01552942,-0.025543055,-0.034041625,-0.05818798,0.007616754,-0.03212412,0.0004238928,0.05028123,-0.003169209,0.0113985,-0.014120882,0.037474193,0.03872886,0.013824971,-0.029022971,-0.02132928,-0.0368587,0.028289111,-0.12802303,0.009611196,-0.016476335,0.026016513,-0.0011888233,-0.016144915,0.034964867,0.003438488,0.020311344,-0.025708765,-0.04881351,-0.01622777,-0.00939814,0.0053234426,-0.018890971,-0.0032846143,0.02399248,-0.01039832,-0.053264014,-0.03588811,-0.0076522636,0.026111204,0.059371624,-0.038444784,-0.012475616,-0.07438024,0.013742116,-0.00623189,-0.023672896,-0.0013811656,0.039841484,-0.020867659,-0.00085888227,-0.02332964,-0.032005757,-0.0017725081,0.0037314403,0.005066,0.019802377,-0.028241765,-0.030017233,0.061928295,-0.01919872,0.011084833,0.046233166,-0.040267598,0.0039001096,-0.058661435,0.006545556,-0.03333144,0.0048914123,0.012676836,-0.04275325,-0.010658721,0.054400314,0.004672438,-0.019044844,0.019423611,-0.0393917,-0.042161427,-0.016926121,-0.014902088,0.017458761,0.025282653,-0.0011814255,0.015564929,0.021352952,-0.007894911,-0.02656099,0.00065322395,0.029946214,0.029614793,0.04168797,-0.013020093,-0.030419672,0.050707344,-0.027531577,-0.009676296,-0.016192261,-0.019234229,0.00473162,0.02746056,0.03681135,-0.00523171,0.015612275,-0.026040185,0.030845784,0.026087532,-0.00077528734,0.029236026,-0.0146535225,0.00869979,0.0023406576,0.0057258816,0.00010218184,-0.0090963105,-0.018251803,0.017778344,0.0149494335,0.0267267,0.05582069,-0.05245914,-0.01462985,0.027815653,-0.0052376282,0.029165007,-0.010451583,0.008895091,0.028596858,-0.0085755065,-0.007900829,0.01609757,0.019648504,0.0030034988,-0.049760427,0.02409901,0.06315929,-0.009114065,-0.01703265,0.0070249317,-0.035627708,-0.0007760271,0.02116357,-0.033307765,0.016286952,-0.0028940116,0.04715641,0.007320843,-0.011925221,-0.0033970606,0.029520102,0.018748933,0.025543055,-0.076226726,-0.019802377,0.0052908924,-0.0016437867,-0.03479916,0.0057229227,0.03188739,0.05454235,0.021400299,0.023376985,0.06779917,0.02615855,-0.006166789,0.011380745,-0.014191901,0.02525898,-0.022714144,0.017056322,0.008788562,-0.01752978,-0.05198568,0.023045564,-0.026087532,0.024075335,-0.025448363,0.014771887,-0.055962726,0.05241179,-0.057241064,0.018855462,0.0040835747,-0.05998712,-0.04346344,0.008924682,-0.007871238,0.035651382,0.05435297,-0.030206615,-0.028596858,0.0046635605,-0.040243924,0.023483513,0.02002727,0.03726114,-0.038515802,0.034302026,-0.00036766968,-0.042800598,0.0049772263,0.0077587916,-0.0015313404,-0.0070367684,-0.014310266,0.039628427,-0.011824612,-0.008788562,0.019115863,0.002016635,-0.018500369,-0.0024915724,-0.012558471,0.06888813,0.06178626,0.02019298,-0.016582863,0.016748574,0.0032076775,-0.040575344,-0.021956611,0.00606618,-0.05591538,0.0033941015,-0.02836013,-0.023838606,0.024903886,0.0072971703,-0.049239624,-0.024454102,0.039273333,0.03181637,0.012392761,-0.009918943,-0.028123401,0.025614074,-0.025306325,-0.014452303,-0.01986156,-0.018038746,-0.016511844,-0.03394693,0.045167886,-0.057903904,-0.054731734,-0.00094025786,-0.04268223,0.077741794,0.018512204,0.00038949313,-0.02435941,-0.018453022,-0.03768725,-0.06178626,0.00529977,0.035509344,-0.052837905,0.008001439,0.020938676,-0.016215933,-0.01716285,0.039273333,-0.03468079,-0.0014847345,0.02492756,0.0050837547,0.010055062,-0.012582145,0.0040510246,-0.0112623805,-0.047203753,-0.037403177,0.029614793,0.044907484,-0.0057643503,-0.035580363,0.040528,-0.03761623,-0.04133288,0.05354809,0.009409976,-0.007527981,-0.0029147253,-0.032313503,0.040433306,-0.005500989,-0.015434728,0.02542469,0.03688237,-0.0051074275,0.02389779,-0.043913223,0.002788963,-0.018772606,0.03193474,-0.025543055,-0.07513777,0.03539098,-0.02066644,0.019092191,-0.0391313,-0.06959832,0.030798437,-0.013860481,0.015020452,-0.007084114,0.08010908,-0.011345236,-0.03801867,-0.03247921,-0.056862295,-0.009043046,0.046706624,0.012546635,0.014984943,0.004915085,-0.02999356,-0.012582145,-0.0421851,0.0057791458,-0.028383803,0.01916321,0.046801314,0.004142757,-0.027247503,0.04045698,-0.01732856,-0.041972045,0.018879134,-0.023814933,-0.037710924,0.055631306,-0.03392326,0.021637026,-0.04059902,0.07509042,-0.036077492,0.0014551433,-0.03981781,0.014298429,0.00749839,0.04209041,-5.1368334e-05,0.04455239,0.04746416,0.01336335,-0.006444946,0.016121242,-0.009682215,0.034633446,-0.0331894,-0.041640624,0.032313503,-0.046896007,0.041403893,-0.023341475,-0.035248943,-0.07717364,-0.01033322,0.0008411276,-0.034231007,-0.019885233,0.021708045,-0.039912503,0.021814574,-0.026489971,-0.0075871632,0.004122043,0.035177924,0.024241045,-0.008113885,-0.022737816,-0.0018050583,0.0357224,0.016523682,0.032029428,-0.00479968,0.001782865,0.0059626107,0.057714522,0.037568886,-0.013694771,0.011422172,-0.02982785,0.009770988,0.0062437262,0.017446924,-0.019352593,-0.015635949,-0.008338777,0.017151013,-0.052932594,0.017091831,0.0041042883,-0.050802033,0.01663021,-0.014215574,0.04154593,0.024974905,0.01642899,0.011652983,0.02452512,-0.00993078,0.018488532,0.0033881832,-0.026584662,0.03647993,0.013150293,-0.0015283814,0.0026247324,-0.035509344,0.03479916,0.020003596,0.06742041,0.0066402475,0.04225612,0.029212354,-0.016642045,0.04493116,0.0049210032,0.00833286,-0.020074615,0.01826364,-0.007551654,-0.04291896,-0.01932892,0.027934017,0.00052709185,-0.047842924,-0.023755752,-0.00696575,-0.020820312,0.015044126,0.01166482,-0.008356532,-0.008261841,0.006871058,-0.021057041,-0.013943336,-0.0040303105,-0.00096688984,-0.01319764,0.0016733778,-0.026868736,0.025779784,-0.0051754867,0.03401795,-0.017719163,0.012203378,-0.01879628,0.023045564,0.031295568,0.024170026,0.011842366,0.03262125,0.020690111,0.032171465,-0.02852584,0.006439028,0.05567865,-0.02206314,-0.0267267,-0.0074392078,0.03792398,-0.018902808,0.020157471,-0.03719012,-0.026205895,0.019246064,-0.012309906,-0.012771527,0.0012287713,0.009557932,0.02116357,0.011327481,0.00523171,-0.033449803,-0.022950873,-0.0019840845,0.0021645904,0.00013926321,0.01806242,-0.041143492,0.032715943,0.041427568,0.016511844,-0.021341115,-0.014807397,0.020915003,-0.011658901,-0.008202658,-0.008522242,-0.012345416,-0.01299642,0.029709484,0.019305246,-0.009587523,-0.0015039687,0.02092684,0.016275115,0.06154953,-0.0078061377,0.014416793,-0.034775484,-0.031295568,-0.03702441,-0.050233886,0.002855543,-0.05861409,-0.0073563526,-0.03321307,-0.0028437066,-0.0023939216,-0.012179705,-0.01703265,-0.01989707,0.020240325,-0.028644204,0.012511126,-0.017707326,-0.011706247,0.039036606,-0.033781223,0.0006180845,0.019624831,0.0101793455,0.03269227,0.01186604,-0.007948175,-0.010783005,0.012807037,-0.03645626,-0.0039504147,0.010356892,0.01299642,-0.028999297,-0.006208217,0.043061,-0.017731,-0.0014847345,0.0042581623,0.0020314304,-0.022382723,-0.010836268,-0.022572106,-0.033497147,-0.0077292006,-0.0011658901,0.013410696,0.03898926,-0.017802019,0.0047434564,0.004234489,0.032834306,-0.012321742,-0.02136479,-0.017340396,0.00983017,-0.013043766,-0.011428091,0.018334659,0.03188739,-0.021956611,-0.019766869,-0.03285798,0.014511486,0.015801659,-0.0056371083,0.04488381,-0.0044653,-0.002339178,-0.005856083,0.0027371787,0.049665734,0.029946214,0.0066698384,0.02006278,-0.012617653,-0.01352906,-0.005891592,0.028502166,0.018985663,0.013659261,0.0073859436,0.0060069975,0.00403327,-0.008682035,0.029543774,0.004784884,0.017186522,-0.02656099,0.010818513,-0.00095209427,0.027034447,-0.0052257916,0.04994981,-0.007924502,0.0071018687,-0.018251803,-0.00037432768,0.02533,0.03932068,-0.01426292,-0.021743555,-0.01973136,-0.009226511,-0.029851522,0.0153282005,-0.031579643,-0.004915085,-0.0024974905,0.021790901,-0.0038172544,0.014002518,-0.07812056,0.022666799,0.0077587916,0.059892427,0.010055062,0.0063798456,-0.05066,-0.00027852642,-0.0024471856,-0.00055409374,-0.00956385,-0.036574624,0.03408897,0.0024146354,-0.004678356,0.0001429621,0.036432587,-0.038160708,-0.020133799,0.002075817,-0.0038616413,0.012676836,-0.016618373,-0.026134877,0.002259282,0.026111204,-0.02942541,0.017103668,-0.035106905,0.009386303,0.017884873,0.0004501549,0.01982605,-0.04526258,-0.03193474,0.020808475,-0.022939036,0.017754672,0.018216293,-0.026655681,0.03472814,-0.0062496443,0.00519916,-0.025732437,0.0038379682,0.012913565,0.008362451,0.035982803,-0.053737473,0.00041834445,-0.046114802,-0.046848662,-0.02599284,0.022797,-0.02999356,-0.0018716383,-0.0014551433,-0.030751092,0.0007220233,-0.0357224,0.056199454,0.04334507,0.030230287,-0.0203942,0.026821392,0.0029709483,0.018606896,0.013185803,0.0045067277,-0.012511126,-0.020915003,-0.0028940116,0.04374751,0.01003139,0.023353312,0.040575344,-0.015884513,-0.045712363,-0.013765789,-0.004483055,0.008510406,0.011925221,-0.0077351187,-0.009409976,-0.028975625,0.0035982803,0.021483153,-0.0132331485,0.005533539,0.02202763,0.024383083,0.0077292006,-0.03842111,0.013623752,0.007427371,0.031840045,-0.016192261,0.0053707883,-0.0119666485,0.0050896727,-0.020915003,0.018713424,0.009611196,0.00996629,-0.03508323,0.010433829,0.023211274,-0.013919663,-0.024998577,0.019518303,0.0018198539,0.0049239625,0.01822813,-0.012913565,-0.049002893,0.07797852,0.0029339595,-0.0068828943,0.0041871434,-0.00012243327,0.011848285,-0.016180424,0.032929,0.00393266,-0.021601517,0.009924862,-0.020346854,-0.018074255,0.004983145,-0.007557572,-0.009628951,0.014724541,0.013765789,0.013327841,0.03181637,-0.012203378,-0.013742116,0.014322102,0.01109667,0.0045836647,0.0039178645,0.030467017,0.00052080373,0.04625684,0.005101509,-0.051370185,-0.011759511,0.032715943,-0.009090392,0.014239247,0.023578204,0.0047079474,-0.00859918,3.9416296e-05,0.033639185,0.0136829335,0.049571045,0.058045942,-0.012345416,-0.022441905,-0.014736378,-0.009475077,-0.04779558,-0.009836088,0.03872886,-0.027839325,-0.033544492,-0.0066639204,-0.013860481,0.0099544525,-0.008551834,-0.04691968,0.007989602,-0.038137037,0.04462341,0.039959848,0.012144196,-0.0016822552,0.01806242,0.00047234824,0.01699714,-0.0368587,-0.015221672,-0.018358331,0.024406755,-0.0066402475,-0.0010534439,-0.0018109765,0.02345984,0.026040185,-0.026703026,-0.020619093,0.02116357,0.017222032,0.010392401,0.00479968,0.00559864,-0.016144915,-0.0028659,0.01573064,0.013256822,-0.02639528,-0.042208772,-0.03891824,0.01806242,-0.006894731,-0.021151733,-0.010895451,0.010416075,0.009155492,0.043913223,-0.014570667,0.035177924,-0.041830007,-0.016843265,-0.016180424,0.012866219,0.015458401,0.026679354,-0.025377344,-0.0035479753,-0.057572484,0.020264,-0.01956565,-0.034964867,0.023601877,0.011410336,-0.017174685,-0.0021853042,0.030822111,0.004272958,0.013304167,-0.006521883,0.010356892,-0.00074791553,0.013280495,-0.0039859237,-0.03146128,-0.05468439,0.029638465,0.027910344,0.009445486,0.010451583,0.0021187242,0.0010867339,0.00066099165,0.008522242,0.008155312,-0.00044904524,0.030822111,-0.016204098,0.0020965307,0.038965587,0.0382554,0.007628591,-0.04819802,0.0021808655,-0.01639348,0.048576783,0.027839325,0.02852584,-0.0100668995,0.02136479,0.038563147,0.0030449263,-0.0034296107,-0.027981363,0.02402799,-0.0017710285,0.0020817353,0.033402458,0.0013819053,0.012878056,0.055726,0.011173607,0.003252064,0.06642614,0.006947995,0.013753952,-0.003968169,-0.010345056,-0.05501581,0.0026173345,-0.03981781,0.012179705,0.027200157,-0.01752978,0.004702029,0.0156241115,0.015375546,0.026750373,-0.008628771,-0.04914493,-0.0042137755,0.020915003,0.018050583,0.010534438,0.009445486,0.0005626012,-0.008889172,-0.024087172,0.017044485,0.01679592,0.009794661,-0.03974679,0.012416434,-0.0055927215,0.011505027,-0.012428271,-0.016239606,0.004577746,-0.002738658,-0.008220413,0.016606536,0.013375186,-0.061312802,0.042066738,0.017873036,0.045404613,-0.0033852241,0.0042433664,-0.02402799,-0.0065869833,-0.019601159,0.015541256,0.030372325,-0.00042611212,0.034893848,-0.02656099,-0.015635949,-0.011528701,0.032763287,0.012854382,0.004527441,-0.009457322,-0.035177924,-0.010457502,0.0020698989,0.025685092,0.043250382,-0.030253962,-0.007794301,-0.025732437,0.080014385,0.0038971505,0.01822813,0.006711266,0.021554172,0.006658002,0.026774045,0.0010608416,0.038847223,0.01765998,0.022406396,-0.012511126,-0.032408196,0.023152092,0.00021509045,-0.032715943,-0.013316004,0.013244986,0.0022104566,-0.009084474,-0.020903166,-0.0681306,0.03981781,0.008078376,-0.011025651,0.03359184,-0.002583305,0.037237465,-0.02332964,-0.02299822,-0.030869456,0.020654602,0.023743914,0.006083934,0.03768725,-0.029022971,0.0065751467,-0.00041279613,-0.002786004,0.0019870438,-0.014026191,0.00031939914,0.0018450064,0.0031810454,-0.005160691,-0.0009513545,-0.005814655,0.014925761,0.029307045,0.015505747,0.020488892,0.013978845,0.047629867,-0.027034447,0.021139896,-0.05274321,-0.005000899,0.006888813,-0.018535879,-0.031911064,-0.018748933,-0.013552733,-0.026632007,0.052364446,-0.030561708,-0.023353312,-0.021471316,0.028123401,-0.040646363,-0.009368548,0.0003009047,-0.039604753,-0.016772246,0.0035154251,0.05975039,0.03688237,-0.0025078475,-0.0026380483,0.010185263,0.0013944815,0.0013678495,0.029543774,0.0062200534,-0.0017103667,0.010185263,0.03548567,-0.005648945,0.008048785,-0.012593981,-0.033781223,0.025377344,0.019553812,0.030561708,-0.015612275,-0.011084833,0.0076522636,0.0021172445,-0.04119084,0.006338418,0.07461697,-0.016902449,-0.025543055,0.019684013,0.037971325,-0.011072997,-0.012120523,0.0019988802,0.04194837,0.013919663,-0.014913925,0.028289111,0.0007915625,0.022074975,-0.006918404,0.0029679893,-0.008847745,-0.00569925,-0.025874475,0.02083215,0.011019733,0.00074828544,-0.023885952,0.0039800056,-0.010007717,0.018512204,0.02202763,-0.029378064,0.010410156,0.03155597,0.028809914,0.04007821,-0.016914284,-0.002038828,0.018535879,0.003882355,-0.004784884,-0.001226552,-0.033142056,-0.0010933919,-0.01896199,-0.027436886,0.0037994997,-0.047180083,-0.0229272,0.0009942616,0.0055601713,-0.0068059578,0.002788963,0.010859941,0.017506106,-0.021139896,0.0017991401,0.013552733,0.0010460461,-0.016713064,0.047535174,0.02079664,0.00030238426,-0.017139176,0.010623212,-0.019837886,-0.021577844,-0.002655803,-0.013351513,0.020820312,0.014168228,0.025022252,-0.04528625,0.032834306,0.008859581,-0.017186522,-0.010723822,-0.04187735,0.002919164,0.019920742,-0.007871238,0.0011562731,-0.028596858,-0.037805617,0.02046522,0.012511126,0.019601159,0.0051133456,-0.0382554,0.019246064,0.0048233527,0.0006325102,-0.023175765,0.0020965307,-0.03219514,0.0063265814,0.014416793,0.027105466,0.019589322,-0.015659621,-0.0056104762,-0.031295568,0.007445126,0.028218092,0.007433289,0.008605097,-0.03193474,0.016073896,-0.018003238,-0.0001839273,0.0025182043,-0.008972027,-0.019589322,-0.011321562,0.011250543,0.010132,0.032763287,0.0053737476,-0.02599284,0.017387742,0.021400299,-0.048908204,0.012404597,-0.01046342,-0.0005773967,0.019968089,-0.0047375383,-0.027697287,-0.008321023,-0.012522962,0.041711643,0.030940475,-0.04774823,-0.0026217732,0.011380745,0.009344876,0.02705812,-0.006995341,0.015233508,0.034846503,0.030111924,0.015576766,0.027010774,0.0051962007,-0.010090572,0.010717903,0.019541975,0.00086923916,-0.014535158,-0.027815653,-0.0044031586,-0.02002727,-0.010534438,0.04405526,-0.0041397978,-0.016050223,-0.027081793,-0.029804176,0.01409721,-0.009853843,-0.0292597,0.006800039,-0.0055749672,0.019092191,-0.003755113,-0.014618013,-0.066236764,-0.019068519,-0.0054299706,0.014558831,0.022003956,0.026679354,0.032715943,-0.01336335,0.03188739,-0.047700886,-0.019577485,-0.019636666,0.020749293,0.011942976,0.011286053,0.029969886,0.018500369,0.014322102,0.008007357,-0.03146128,-0.026797717,0.020843985,-0.02132928,0.018500369,0.014700868,-0.030230287,-0.025353672,0.0151743265,-0.026418952,0.012333578,-0.023199439,0.009605277,0.0076700184,-0.003488793,-0.0073563526,0.008054703,-0.03541465,-5.5899476e-05,-0.021033369,0.0072143152,0.0129372375,0.0042699985,-0.009344876,0.028170746,0.008960191,-0.05421093,-0.01009649,-0.011007897,0.007368189,0.012167868,0.02116357,0.0012901728,0.015908185,0.0229272,-0.013801298,-0.012889892,0.026253242,-0.010575866,-0.03089313,0.0023007095,-0.023554532,-0.014771887,-0.004835189,0.036030147,-0.036740333,-0.005489153,-0.023803096,-0.008818154,0.038965587,-0.011623392,-0.012665,-0.011771347,0.010380565,-0.013789462,-0.03835009,0.022548433,0.022134157,0.008036948,-0.02982785,-0.031603318,-0.034231007,0.021423971,-0.009759151,-0.001979646,0.0012243326,-0.034609772,0.029922541,0.025045924,-0.00027408774,-0.0056134355,0.008415715,-0.016677555,0.002586264,0.01776651,-0.02549571,0.025282653,-0.012901728,-0.014298429,0.035982803,-0.0006014395,0.04121451,-0.03681135,0.008273677,-0.0022947914,-0.010060981,-0.010788922,0.022536596,0.020678274,-0.015079635,0.0056371083,-0.00993078,0.00586496,-0.011789102,0.036764007,-0.0054033385,-0.012736018,0.012676836,-0.019624831,-0.042705905,0.047558848,-0.020488892,0.03335511,-0.019269736,-0.03621953,0.025874475,-0.021625191,0.021068877,-0.012167868,0.019541975,0.015458401,-0.00031403577,-0.015079635,-0.0037373584,0.027436886,0.0077469554,0.0025670296,-0.024170026,-0.016144915,-0.0028185542,0.020252163,-0.0050896727,0.01703265,0.013694771,0.008208577,0.05127549,0.018157111,-0.016180424,-0.014393121,0.02689241,-0.011286053,0.04914493,-0.02055991,0.04706172,-0.014925761,0.018074255,-0.020121962,0.021944774,-0.00067800656,0.0016881734,0.03408897,0.021613354,0.013706607,0.00013343745,-0.022915363,-0.01426292,0.0070367684,0.0036041983,-0.007001259,0.0027504945,0.01666572,-0.009374467,0.052364446,0.023590041,0.002482695,0.03531996,0.012617653,0.0015772067,-0.021932939,0.01883179,-0.0051133456,-0.013422532,-0.021222752,-0.017577125,0.020713784,0.03245554,-0.007906747,-0.020204816,0.017233869,0.00036434067,0.012238887,0.06505312,-0.02959112,-0.024738176,0.017884873,0.030680073,0.043510783,0.0056459857,0.008747135,-0.03513058,-0.024383083,-0.01752978,-0.010315465,-0.033118382,0.022051303,-0.008670198,-0.01426292,-0.0053293607,-0.018287312,-0.048434746,0.010883614,-0.020252163,-0.04225612,-0.0315323,-0.017884873,-0.0045481552,0.011818693,-0.050375924,-0.021648863,0.00969997,0.04029127,0.03259758,-0.0058028186,0.011528701,0.00036600517,-0.0032698188,-0.011552373,0.024998577
taurus,0.024156634,-0.001504948,0.020373687,0.06156004,-0.049242865,-0.029876243,0.020683553,0.021522773,-0.01838538,0.013208036,0.010386965,0.0027742686,-0.023072103,-0.008501947,0.031606328,0.0582548,-0.040385865,-0.023304503,0.04072155,0.006913884,-0.0241179,-0.01259476,0.0032987813,-0.013698658,-0.0025693052,-0.035195608,0.01705554,0.024879655,0.043355413,0.0047900113,-0.0060585253,-0.031244818,0.017378315,-0.009941533,-0.00014121496,-0.0025967413,-0.029876243,-0.030444331,0.0046479893,-0.018721068,-0.009270157,0.026338607,0.064245544,0.066311315,0.023110837,-0.021316197,-0.026428984,-0.0038184524,0.08583287,0.028068691,-0.0005705084,-0.00733995,0.008508403,0.043174658,-0.014292568,-0.022090862,0.038914,0.04128964,-0.014537878,0.056189027,0.041806083,-0.017262116,0.0021690617,-0.0006443437,-0.015247988,-0.026932517,-0.0146669885,0.01396979,-0.029695489,-0.016758583,0.04774518,0.0127303265,0.014047257,0.049836777,0.04562776,0.004050852,-0.029204868,-0.0008198537,-0.05861631,-0.042322528,-0.013020826,0.005525943,-0.0066814846,0.0193408,-0.03328477,-0.023317413,-0.027423138,-0.02362728,-0.042890612,0.008211448,0.0068364176,0.03090913,-0.006339341,-0.011252007,0.010219121,-0.024414856,0.030599264,-0.035737876,-0.021070885,0.030650908,0.0136211915,-0.00907649,0.0025499386,0.016474541,0.039559554,0.0081146145,-0.01586772,0.013220948,-0.0199218,0.011503774,-0.12373981,-0.011904017,-0.018876001,0.025344454,0.004641534,-0.029747132,-0.023575636,-0.027190737,0.011303652,-0.029463088,-0.03816516,-0.013453348,-0.0039572464,-0.039430443,0.005103105,-0.012704505,0.03643507,0.02016711,-0.056240674,-0.064245544,0.0010869517,0.025008766,0.018953469,-0.037906937,-0.019147133,-0.04154786,-0.011658707,-0.007055906,-0.030495975,0.027500603,0.035866987,-0.036202673,-0.02161315,-0.038371734,-0.025460653,-0.011258463,0.0056260037,0.038707424,-0.0035925086,0.013233859,0.0020286536,0.037054803,-0.0336721,0.015480387,0.06863531,-0.017688181,-0.005735748,-0.022723503,0.003347198,-0.035763696,0.013879413,0.018307913,-0.031606328,-0.0024063028,0.06682776,-0.009224968,-0.020063821,0.00030300696,-0.05143775,-0.020489886,-0.0060682083,-0.06300608,0.032406814,0.016035564,0.015971009,0.026519362,0.04059244,0.011439218,-0.019741043,0.022658948,0.046996336,0.021161264,0.019431178,-0.006000425,-0.00793386,0.0060778917,-0.0013895552,-0.039198045,-0.010399876,-0.032122772,-0.021109618,0.04560194,-0.02387259,-0.023975879,0.014047257,0.0064749075,0.014654078,0.0393788,-0.024298657,0.029463088,-0.0012999845,-0.005613093,0.019431178,-0.03137393,0.0048965276,0.026751762,-0.029282333,-0.015299632,0.009057124,0.007953227,0.070752725,-0.020954685,0.019353712,0.03651254,0.00013344813,0.016229229,0.011561873,-0.009922166,0.035350543,-0.01600974,0.013137026,-0.00064716797,0.063522525,0.010348232,-0.0042929347,-0.0012773902,0.07705334,-0.05469134,0.0018430569,0.028249446,-0.06341923,-0.0073334943,0.015790254,-0.010212665,-0.005074055,0.0070107174,0.03759707,-0.028326914,0.012091228,0.043277945,-0.009153957,0.032174416,-0.013014371,-0.05489792,0.0038862356,0.023110837,0.0012273598,-0.024995854,-0.04056662,0.048416555,0.013479169,0.02077393,0.028326914,0.02089013,0.03031522,-0.0090054795,0.035014853,-0.007055906,0.038939822,-0.0056453706,0.013104748,0.021587329,0.010464432,-0.100035064,0.023717657,0.022684772,0.0049320334,-0.03248428,-0.039275512,-0.07426454,0.033026546,-0.05670547,-0.01539001,0.032329347,-0.04464652,-0.030392686,0.010780754,0.019534467,0.012420461,0.0059132753,-0.013350058,-0.05143775,-0.037932757,-0.087382205,0.037158094,-0.0010482185,0.00081622245,0.001097442,0.0060552973,-0.004796467,-0.03782947,0.010419243,0.028507669,0.0063232025,0.016474541,-0.023059191,0.0070107174,-0.045576118,0.013233859,0.04619585,0.0021190313,-0.0060908026,-0.01611303,0.004680267,0.0352989,0.043123014,0.026041651,-0.026441896,0.028869178,0.011962118,0.003121254,-0.024079168,0.039585378,-0.06971984,-0.005299999,0.00686224,-0.014408767,0.043871857,0.0048287446,-0.040953953,-0.018591957,0.012956271,-0.0017236294,0.020657731,0.028817534,-0.010025455,0.02972131,-0.02005091,-0.025318632,-0.05334859,-0.011071253,-0.0097543225,-0.051360283,0.0076304493,-0.021329107,-0.026467718,0.017972225,-0.018656513,0.051153705,0.017417049,-0.003067996,-0.006946162,-0.04394932,-0.025254076,-0.039559554,-0.0024224417,0.0118330065,-0.0705978,-0.03271668,0.0074626054,-0.039223865,-0.040799018,0.01764945,0.034782454,-0.0068235067,-0.0058842255,0.010219121,-0.045317896,0.008062971,-0.0052386713,-0.02280097,-0.05634396,-0.01706845,0.033930324,0.020851398,-0.012200972,-0.015209254,-0.008521314,-0.061095238,0.0007004262,0.038862355,-0.021432396,0.0030260347,-0.010838853,-0.046867225,0.044904742,0.00078555866,-0.014615345,0.037571248,0.041108884,0.0027500605,0.020141287,-0.059700843,-0.0015154382,-0.02555103,0.06563994,-0.014008524,-0.055104498,-0.020025088,-0.029256511,-0.011975029,-0.028740069,-0.016397074,0.014253834,-0.010167477,0.02243946,0.00817917,0.058564667,0.011084164,-0.059752487,0.017494516,-0.029643843,-0.026803406,-0.0047771004,-0.014938122,-0.025228254,0.013375881,-0.021768084,-0.02280097,0.00024067063,0.0073593166,0.005738976,0.03651254,0.027397316,-0.009431546,-0.038397558,0.012982093,-0.01384068,-0.028920824,0.01169744,-0.010754931,-0.021161264,0.053090367,-0.009057124,-0.03235517,0.010593543,0.05846138,-0.0134662585,0.01659074,-0.03307819,-0.003189037,0.030108642,0.015880631,0.025099143,0.008876368,0.050714727,0.0019398901,-0.013659924,0.0041283183,-0.035608765,0.018824358,-0.00023340815,-0.037726182,0.020386599,-0.024685988,0.059545908,-0.035402186,-0.030883309,-0.05094713,0.0067524957,0.00692034,-0.039688665,-0.00907649,0.012523749,-0.04797758,0.03615103,-0.012717416,-0.032871615,0.051489394,0.04487892,0.026803406,0.011916929,-0.014395856,0.011271374,0.046583183,0.007088184,0.009722045,-0.021987572,0.010774298,-0.006171497,0.054949563,0.011064797,0.013350058,0.021742262,-0.020205842,0.023523992,-0.018708158,0.06817051,-0.055672586,-0.026080385,0.0001298169,0.0039766133,-0.03545383,0.032613393,0.0071075507,-0.057118624,0.058203157,0.012472105,0.013220948,0.02768136,0.042787325,0.02267186,0.015325454,-0.01324677,0.0398436,-0.01814007,0.00842448,0.017868938,-0.013853591,-0.019069668,0.057480138,0.0059552365,0.025460653,0.010064188,0.068686955,0.017481605,0.017675271,0.0063619358,-0.01074202,0.020309132,-0.009967355,-0.02161315,-0.0040282574,0.027603893,-0.0043768566,-0.027913759,0.0070300843,0.004470462,0.014873566,-0.04619585,-0.041573685,0.00486425,-0.028869178,0.028378557,-0.017326672,0.0047771004,-0.003841047,0.035479654,0.008669792,-0.025835074,-0.0034472588,0.0013516289,0.004344579,-0.0049513998,0.010419243,0.045782696,-0.01020621,0.014705722,0.009935077,0.013285503,0.0051547494,0.018062603,0.049449444,0.018721068,0.0059165033,0.029953709,0.022245795,0.017933493,-0.019160045,-0.004344579,0.032148592,-0.02540901,-0.013789035,0.0029582516,0.015596587,0.035634585,-0.0049836775,-0.030934952,-0.014873566,0.025731785,0.008204993,-0.020502798,0.0061618136,-0.038087692,0.021806818,0.030134466,-0.008456758,-0.05249646,-0.026235318,0.006523324,0.014951033,-0.0072366614,-0.021329107,-0.04583434,0.031348106,0.023175392,-0.0112326415,-0.008482581,0.018101336,0.0025128194,-0.021070885,-0.014098901,-0.002167448,-0.036383428,-0.018798536,0.041702796,0.022942992,-0.0021964977,-0.0005729293,0.0240017,-0.01838538,0.03591863,0.009973811,0.045266252,-0.042632394,-0.028326914,-0.0192246,-0.03078002,-0.008695614,-0.055930804,0.0068364176,-0.0018737208,0.0069913506,-0.022710593,-0.019172957,-0.008217904,0.00692034,-0.013634102,-0.0072495723,0.014809011,-0.023653101,-0.0018882457,0.023975879,-0.055569295,-0.02565432,0.020218754,0.011064797,0.013085381,0.030263575,-0.031761263,0.0106387315,0.014976854,-0.0024563333,0.016719852,0.047538605,0.01372448,-0.029411444,-0.018591957,0.025047498,-0.0033697924,-0.0028210713,0.0008836022,-0.016539095,-0.023343235,-0.0060972585,0.0037603525,-0.0066169295,-0.025990007,-0.028017048,0.015738608,0.0041702795,-0.015170521,0.01121973,0.007075273,0.012982093,0.008895735,-0.009773689,0.006758951,-0.006313519,-0.015738608,-0.008198537,0.011807185,0.050637264,-0.010315955,-0.0031018874,-0.027371494,-0.0002699223,-0.014176368,-0.0009868909,0.054226544,0.008198537,0.03186455,-0.020554442,-0.025705963,0.007766016,0.043510344,0.0119879395,0.025770519,0.02207795,0.013014371,0.0031761262,0.01766236,0.016526185,-0.01563532,-0.010464432,-0.008837636,0.033594634,0.007766016,0.052728858,0.009883433,0.0099027995,-0.014770278,-0.017752737,-0.01564823,0.013311326,0.0045479285,0.030805841,-0.005880998,0.014357123,-0.0051579773,-0.001504948,-0.005584043,0.037209738,0.011800729,-0.022284526,-0.00674604,0.0077014603,-0.01874689,0.009115224,-0.02100633,0.012188061,0.011297196,-0.021045063,0.004389768,-0.03328477,-0.06409061,0.010671009,0.0042897067,0.06455541,-0.008327648,0.033155657,-0.053865034,-0.00032681174,-0.023833858,-0.012200972,-0.032665037,-0.017352493,0.014408767,0.01730085,-0.03163215,0.013046648,0.037390493,-0.011484407,-0.003248751,0.0244665,0.0072753946,0.026725939,-0.039946888,-0.024337389,0.022942992,0.052935436,-0.01790767,-0.00091023126,-0.040489152,0.0128788045,0.01635834,-0.002853349,0.017739827,-0.02757807,-0.0073334943,0.037855294,-0.033981968,-0.0041121794,0.019741043,-0.0046899505,0.04175444,-0.0076885493,0.020515708,0.0052096215,-0.013543725,-0.00641358,0.010813031,-0.0104967095,-0.020334953,-0.017584894,-0.053038724,-0.00991571,0.006778318,0.025563942,-0.051411927,0.014292568,-0.003360109,-0.050869662,0.010541898,0.001659074,0.046015095,0.039972708,0.03377539,0.0024756999,0.008973202,-0.020838486,0.017223382,-0.0010853378,-0.011000242,-0.008508403,-0.009580023,-0.02827527,0.0587196,0.013272592,0.010290132,0.042864792,-0.014512056,-0.043484524,-0.023072103,-0.016138852,-0.018656513,0.011858828,-0.014137635,0.00596492,-0.014744455,-0.0293598,0.0052063935,-0.008986113,-0.007352861,0.008418025,-0.010315955,0.0136211915,-0.028146159,-0.01091632,0.008347014,0.035118144,-0.014512056,0.016087208,-0.0016719851,0.014641167,0.006155358,0.010922776,0.017998047,0.031038241,-0.015105966,-0.013117659,0.020915952,-0.020205842,0.012155783,0.017417049,-0.04211595,-0.002800091,0.00787576,-0.02018002,-0.020154199,0.07452276,0.011458585,0.0020738426,-0.0070494507,-0.0067137624,0.0026790495,-0.02339488,0.012220339,0.044362478,-0.00017732564,0.00070002273,0.012923993,-0.008695614,0.007804749,0.01163934,-0.018682335,0.009993177,0.050146643,0.00919269,0.027190737,0.018798536,-0.013440436,0.019457,-0.00014161842,0.018075515,-0.014951033,0.024195367,-0.011439218,0.0386816,-0.020218754,-0.039275512,-0.019663578,0.04178026,-0.017417049,0.008037148,0.03307819,-0.013104748,-0.026880872,-0.017171739,-0.0009659103,0.0010514462,0.04382021,0.04474981,-0.025099143,0.013233859,-0.052832145,0.022284526,-0.0128788045,-0.044130076,0.01850158,-0.013362969,-0.010154566,0.009954444,-0.00089651323,0.004725456,0.0033504257,-0.03369792,0.00584872,-0.050017532,0.029876243,0.01718465,0.0032794147,-0.015932275,-0.01695225,-0.02601583,0.0075465273,-0.036383428,-0.013401703,-0.0034795366,0.014537878,-0.011768451,0.017210472,-0.016577829,0.024621433,-0.009696223,-0.010128744,-0.04890718,0.025396097,-0.007766016,0.014589522,0.011497319,-0.029772954,-0.018540313,-0.0014823535,0.024828011,0.020322043,-0.028507669,-0.018178804,-0.0076175383,0.0140601685,0.0019205235,-0.010335321,-0.016681118,-0.013543725,-0.0027161688,0.02624823,0.0008351856,0.023059191,-0.038862355,-0.0298246,0.0008206606,0.011355297,-0.010180388,0.029385623,-0.036564182,-0.011942751,-0.05882289,0.027913759,0.02589963,-0.025370276,0.012420461,0.003305237,0.0007540879,0.002435353,0.031244818,0.06078537,-0.013066015,0.0055388543,-0.015093055,-0.027836293,-0.021057975,-0.009186234,0.01372448,-0.028326914,0.045782696,0.0154158315,-0.0041186353,0.0069526173,-0.03018611,0.0035892806,-0.021806818,-0.01684896,0.01730085,0.01706845,-0.025615586,0.020696465,-0.025150787,0.067963935,0.01932789,-0.0090054795,-0.053090367,0.0119879395,-0.0026257914,0.038268447,0.020322043,0.03067673,-0.023252858,0.036099385,0.005890681,0.014124723,-0.0011047045,0.0038313635,0.028791713,0.0015517507,0.025215343,0.016616562,0.0037764914,0.009799511,0.045756873,0.008915102,0.0034117533,0.058048222,0.005803531,-0.0023014003,0.009341167,0.0065265517,-0.021045063,0.04043751,-0.008185626,-0.0028323685,0.021187086,-0.021910105,0.01539001,-0.02375639,-0.0017316989,0.020722287,-0.009379901,-0.0623347,-0.0028081604,0.006155358,0.017287938,0.023239948,-0.024828011,0.020502798,-0.029618021,0.0005854369,0.030263575,0.020554442,-0.0011644182,-0.01026431,0.016229229,0.009986722,-0.03271668,-0.0073334943,-0.011258463,-0.0028146158,0.011038975,0.012271984,0.0043413513,0.051747616,0.0031099569,0.01200085,-0.000871498,-0.0032568204,-0.015622409,-0.0115360515,0.0031309372,-0.04366528,-0.0062166858,-0.001954415,0.03284579,0.029695489,0.00894738,-0.023097925,-0.020709375,-0.033956144,0.043742746,-0.021496952,-0.0291274,-0.004525334,-0.01719756,0.005667965,-0.011561873,0.03207113,-0.008508403,-0.080255285,-0.0039443355,-0.028456025,0.067292556,-0.008185626,0.011594151,-0.013440436,0.06078537,0.030031176,-0.00733995,0.017210472,-0.023343235,0.020192932,0.017520338,-0.01158124,-0.080152,0.023498168,-0.0032842564,-0.028352736,0.009037757,0.022762237,-0.0022529839,0.007830571,-0.020761019,-0.059907418,0.03209695,0.022516927,-0.015338365,0.011942751,0.007927404,0.01789476,-0.027991226,-0.0019576428,-0.018566135,0.04033422,0.029256511,0.015131787,0.04069573,-0.029850421,0.011632885,0.016074296,-0.023795124,-0.010154566,-0.003669975,-0.029979533,0.004318757,-0.00936699,-0.024673078,-0.0031244818,-0.00037240403,0.023562724,0.019521555,-0.0043639457,0.002940499,0.008999024,0.047099628,0.007882215,-0.00852777,-0.051747616,-0.01384068,-0.007914493,-0.021535685,-0.027035804,-0.023523992,-0.01140694,0.002964707,0.020218754,-0.04036004,0.009980266,0.032535926,0.0063716187,-0.040127642,-0.006184408,0.03578952,-0.020038,0.004063763,-0.021199996,0.014718633,0.03581534,-0.016978072,-0.0054194266,0.016384162,0.011607062,0.003979841,0.024311567,-0.0011208433,-0.00267098,0.0098447,0.03137393,-0.022646038,-0.0195732,0.015054321,-0.020038,0.014576611,-0.0053806934,0.014292568,0.008463214,-0.0029179044,-0.0005753501,-0.005006272,-0.037932757,-0.019650666,0.08139146,0.0077982936,-0.00883118,-0.0060423864,0.04092813,-0.0332073,-0.007720827,0.02064482,0.042090125,-0.011284285,-0.017236294,0.03736467,-0.017468693,0.028456025,0.0012943359,-0.017003894,-0.008973202,-0.011671618,-0.022826793,-0.011484407,0.01163934,0.010077099,-0.017856026,-0.0051902547,0.01730085,0.012775515,0.03008282,-0.02520243,-0.030650908,0.04165115,-0.007004262,0.019469911,-0.031348106,0.0056034094,0.017210472,0.021574417,0.0035150421,-0.0025644635,0.021819727,-0.0021706757,-0.026209496,-0.040489152,-0.014705722,-0.03974031,-0.012033128,-0.0009941533,-0.024324479,0.008159803,-0.01050962,0.024143724,0.021651885,-0.013298415,0.030573443,0.008133981,-0.011774907,-0.022762237,0.031089885,0.0016752129,0.018811446,-0.0059713754,0.031141529,-0.010109377,-0.029049935,0.016371252,-0.017856026,0.015131787,0.0151188765,0.0448531,-0.035841163,0.040024355,-0.028610958,-0.02698416,0.0032019482,-0.03424019,0.0043123015,0.018411202,0.008030693,0.005174116,0.002262667,-0.04942362,-0.0034182088,0.024079168,0.02445359,0.02161315,-0.029049935,0.003728075,-0.013091837,0.016267963,-0.01372448,-0.0017252433,-0.045782696,0.023717657,0.034834098,0.03999853,-0.004751278,-0.0115360515,-0.0003445645,-0.040773198,0.0015557853,0.023523992,-0.014615345,-0.0036441528,-0.02972131,0.02506041,-0.035608765,0.0049965885,-0.02316248,-0.0019560289,-0.03248428,0.013711569,0.0052612657,0.037571248,0.015686965,0.008437392,-0.009702678,0.037287205,0.009321801,-0.031838726,-0.0013556636,-0.025112053,-0.003811997,-0.00040891816,0.020838486,-0.028094513,0.010619365,-0.015093055,0.014834833,0.0195732,-0.019650666,-0.0014016593,0.011858828,0.0077595604,-0.013350058,-0.0010223963,-0.019637756,0.014938122,0.033568814,-0.003892691,0.009082946,-0.00346017,-0.047099628,0.013040192,0.008308281,0.027862115,-0.00022614567,-0.023653101,-0.006791229,-0.01706845,0.014434589,0.010361143,0.011148719,-0.0002771848,-0.015583675,-0.01240755,0.013879413,-0.017107183,-0.008250182,0.0016187269,0.0027952492,0.012672227,0.008844091,0.0053677824,-0.047693536,-0.002617722,-0.0026112662,0.027009983,0.010451521,0.0045866617,0.030134466,-0.019973444,0.03271668,-0.05040486,-0.006274786,-0.0077724713,0.008476125,-0.006465224,0.004525334,0.03439512,0.022271616,0.0006104521,0.018656513,-0.025525209,-0.030211931,0.013007915,0.0027161688,0.005064372,0.0033665646,-0.014163457,0.0027758826,0.0018027098,-0.015441654,-0.004383312,-0.010522531,0.025602676,0.024970032,0.012872349,-0.040799018,0.007849937,-0.035841163,-0.017378315,-0.018178804,0.0054484764,-0.015609498,0.00083760644,-0.00883118,0.024440678,-0.015661143,-0.0051095607,0.012956271,-0.0032713453,0.013879413,0.009070035,0.006675029,-0.0012144486,0.016203407,0.0046576727,0.003934652,0.0023514307,0.0006048035,-0.017830204,-0.029049935,-0.003122868,0.00033246036,-0.02972131,0.017417049,0.05789329,-0.028714245,0.004373629,-0.022361994,-0.033026546,0.019469911,0.018798536,-0.0073915944,-0.041031417,0.00028323685,-0.005613093,-0.03522143,-0.00925079,0.020799752,-0.025099143,-0.01850158,-0.018708158,-0.03770036,0.027733004,-0.013375881,-0.0039604744,0.008676247,-0.03152886,0.013853591,-0.0016526185,0.016552007,-0.014228012,-0.0098447,-0.0047415947,-0.0012491471,0.011432763,0.001912454,-0.0022142506,-0.024272833,-0.0033988422,0.017868938,-0.00015402517,0.04294226,0.0052935435,-0.0058325813,-0.0029582516,-0.026325695,0.015131787,0.03803605,0.0134662585,-0.011607062,0.015222166,-0.0295922,0.0062780133,-0.024324479,0.040540796,0.0028065464,0.00025943204,-0.02757807,-0.02899829,-0.047771003,0.022646038,-0.016745673,0.009805966,-0.0295922,-0.02529281,0.01307247,-0.03090913,0.0016042019,-0.019753955,0.050766375,0.005061144,-0.010109377,-0.003557003,-0.019844333,0.032535926,-0.015015588,0.003544092,-0.008979658,0.007714371,0.01026431,-0.00034395928,-0.0019366622,0.007578805,0.024608523,0.03139975,0.01824336,0.01300146,0.0054194266,-0.030883309,0.01116163,-0.0036086473,0.042864792,-0.026209496,0.04085066,0.003502131,-0.019895976,-0.01192984,0.008146892,0.024647254,0.0072237505,0.033620458,0.0293598,-0.028146159,0.018398292,-0.040979773,-0.021187086,-0.016926428,0.021187086,-0.010658098,0.008166259,0.023175392,-0.028197803,0.0682738,-0.039120577,0.023795124,0.02876589,0.032251883,0.008624603,0.00629738,0.02459561,0.0063167466,-0.015932275,0.0009070035,-0.023820946,-0.030495975,0.06455541,0.011916929,-0.019999266,0.020438243,-0.025744697,0.023898412,0.0537101,0.00029332365,-0.026364429,0.0085600475,0.025473565,0.023369057,0.015945187,0.015377099,-0.024298657,-0.00081945024,-0.012207428,2.4838702e-05,-0.023588546,0.028146159,0.00298246,0.008818269,0.01068392,-0.014395856,-0.010845309,-0.02614494,-0.00048577946,-0.025215343,-0.03139975,-0.020618998,0.018927647,0.023691835,-0.040540796,0.0023837085,0.006591107,0.0101932995,0.04999171,-0.0070817284,0.004641534,0.021380752,0.008095249,-0.035350543,0.00787576
