sign,0,1,2,3,4,5,6,7,8,9,10,11,12,13,14,15,16,17,18,19,20,21,22,23,24,25,26,27,28,29,30,31,32,33,34,35,36,37,38,39,40,41,42,43,44,45,46,47,48,49,50,51,52,53,54,55,56,57,58,59,60,61,62,63,64,65,66,67,68,69,70,71,72,73,74,75,76,77,78,79,80,81,82,83,84,85,86,87,88,89,90,91,92,93,94,95,96,97,98,99,100,101,102,103,104,105,106,107,108,109,110,111,112,113,114,115,116,117,118,119,120,121,122,123,124,125,126,127,128,129,130,131,132,133,134,135,136,137,138,139,140,141,142,143,144,145,146,147,148,149,150,151,152,153,154,155,156,157,158,159,160,161,162,163,164,165,166,167,168,169,170,171,172,173,174,175,176,177,178,179,180,181,182,183,184,185,186,187,188,189,190,191,192,193,194,195,196,197,198,199,200,201,202,203,204,205,206,207,208,209,210,211,212,213,214,215,216,217,218,219,220,221,222,223,224,225,226,227,228,229,230,231,232,233,234,235,236,237,238,239,240,241,242,243,244,245,246,247,248,249,250,251,252,253,254,255,256,257,258,259,260,261,262,263,264,265,266,267,268,269,270,271,272,273,274,275,276,277,278,279,280,281,282,283,284,285,286,287,288,289,290,291,292,293,294,295,296,297,298,299,300,301,302,303,304,305,306,307,308,309,310,311,312,313,314,315,316,317,318,319,320,321,322,323,324,325,326,327,328,329,330,331,332,333,334,335,336,337,338,339,340,341,342,343,344,345,346,347,348,349,350,351,352,353,354,355,356,357,358,359,360,361,362,363,364,365,366,367,368,369,370,371,372,373,374,375,376,377,378,379,380,381,382,383,384,385,386,387,388,389,390,391,392,393,394,395,396,397,398,399,400,401,402,403,404,405,406,407,408,409,410,411,412,413,414,415,416,417,418,419,420,421,422,423,424,425,426,427,428,429,430,431,432,433,434,435,436,437,438,439,440,441,442,443,444,445,446,447,448,449,450,451,452,453,454,455,456,457,458,459,460,461,462,463,464,465,466,467,468,469,470,471,472,473,474,475,476,477,478,479,480,481,482,483,484,485,486,487,488,489,490,491,492,493,494,495,496,497,498,499,500,501,502,503,504,505,506,507,508,509,510,511,512,513,514,515,516,517,518,519,520,521,522,523,524,525,526,527,528,529,530,531,532,533,534,535,536,537,538,539,540,541,542,543,544,545,546,547,548,549,550,551,552,553,554,555,556,557,558,559,560,561,562,563,564,565,566,567,568,569,570,571,572,573,574,575,576,577,578,579,580,581,582,583,584,585,586,587,588,589,590,591,592,593,594,595,596,597,598,599,600,601,602,603,604,605,606,607,608,609,610,611,612,613,614,615,616,617,618,619,620,621,622,623,624,625,626,627,628,629,630,631,632,633,634,635,636,637,638,639,640,641,642,643,644,645,646,647,648,649,650,651,652,653,654,655,656,657,658,659,660,661,662,663,664,665,666,667,668,669,670,671,672,673,674,675,676,677,678,679,680,681,682,683,684,685,686,687,688,689,690,691,692,693,694,695,696,697,698,699,700,701,702,703,704,705,706,707,708,709,710,711,712,713,714,715,716,717,718,719,720,721,722,723,724,725,726,727,728,729,730,731,732,733,734,735,736,737,738,739,740,741,742,743,744,745,746,747,748,749,750,751,752,753,754,755,756,757,758,759,760,761,762,763,764,765,766,767,768,769,770,771,772,773,774,775,776,777,778,779,780,781,782,783,784,785,786,787,788,789,790,791,792,793,794,795,796,797,798,799,800,801,802,803,804,805,806,807,808,809,810,811,812,813,814,815,816,817,818,819,820,821,822,823,824,825,826,827,828,829,830,831,832,833,834,835,836,837,838,839,840,841,842,843,844,845,846,847,848,849,850,851,852,853,854,855,856,857,858,859,860,861,862,863,864,865,866,867,868,869,870,871,872,873,874,875,876,877,878,879,880,881,882,883,884,885,886,887,888,889,890,891,892,893,894,895,896,897,898,899,900,901,902,903,904,905,906,907,908,909,910,911,912,913,914,915,916,917,918,919,920,921,922,923,924,925,926,927,928,929,930,931,932,933,934,935,936,937,938,939,940,941,942,943,944,945,946,947,948,949,950,951,952,953,954,955,956,957,958,959,960,961,962,963,964,965,966,967,968,969,970,971,972,973,974,975,976,977,978,979,980,981,982,983,984,985,986,987,988,989,990,991,992,993,994,995,996,997,998,999,1000,1001,1002,1003,1004,1005,1006,1007,1008,1009,1010,1011,1012,1013,1014,1015,1016,1017,1018,1019,1020,1021,1022,1023,1024,1025,1026,1027,1028,1029,1030,1031,1032,1033,1034,1035,1036,1037,1038,1039,1040,1041,1042,1043,1044,1045,1046,1047,1048,1049,1050,1051,1052,1053,1054,1055,1056,1057,1058,1059,1060,1061,1062,1063,1064,1065,1066,1067,1068,1069,1070,1071,1072,1073,1074,1075,1076,1077,1078,1079,1080,1081,1082,1083,1084,1085,1086,1087,1088,1089,1090,1091,1092,1093,1094,1095,1096,1097,1098,1099,1100,1101,1102,1103,1104,1105,1106,1107,1108,1109,1110,1111,1112,1113,1114,1115,1116,1117,1118,1119,1120,1121,1122,1123,1124,1125,1126,1127,1128,1129,1130,1131,1132,1133,1134,1135,1136,1137,1138,1139,1140,1141,1142,1143,1144,1145,1146,1147,1148,1149,1150,1151,1152,1153,1154,1155,1156,1157,1158,1159,1160,1161,1162,1163,1164,1165,1166,1167,1168,1169,1170,1171,1172,1173,1174,1175,1176,1177,1178,1179,1180,1181,1182,1183,1184,1185,1186,1187,1188,1189,1190,1191,1192,1193,1194,1195,1196,1197,1198,1199,1200,1201,1202,1203,1204,1205,1206,1207,1208,1209,1210,1211,1212,1213,1214,1215,1216,1217,1218,1219,1220,1221,1222,1223,1224,1225,1226,1227,1228,1229,1230,1231,1232,1233,1234,1235,1236,1237,1238,1239,1240,1241,1242,1243,1244,1245,1246,1247,1248,1249,1250,1251,1252,1253,1254,1255,1256,1257,1258,1259,1260,1261,1262,1263,1264,1265,1266,1267,1268,1269,1270,1271,1272,1273,1274,1275,1276,1277,1278,1279,1280,1281,1282,1283,1284,1285,1286,1287,1288,1289,1290,1291,1292,1293,1294,1295,1296,1297,1298,1299,1300,1301,1302,1303,1304,1305,1306,1307,1308,1309,1310,1311,1312,1313,1314,1315,1316,1317,1318,1319,1320,1321,1322,1323,1324,1325,1326,1327,1328,1329,1330,1331,1332,1333,1334,1335,1336,1337,1338,1339,1340,1341,1342,1343,1344,1345,1346,1347,1348,1349,1350,1351,1352,1353,1354,1355,1356,1357,1358,1359,1360,1361,1362,1363,1364,1365,1366,1367,1368,1369,1370,1371,1372,1373,1374,1375,1376,1377,1378,1379,1380,1381,1382,1383,1384,1385,1386,1387,1388,1389,1390,1391,1392,1393,1394,1395,1396,1397,1398,1399,1400,1401,1402,1403,1404,1405,1406,1407,1408,1409,1410,1411,1412,1413,1414,1415,1416,1417,1418,1419,1420,1421,1422,1423,1424,1425,1426,1427,1428,1429,1430,1431,1432,1433,1434,1435,1436,1437,1438,1439,1440,1441,1442,1443,1444,1445,1446,1447,1448,1449,1450,1451,1452,1453,1454,1455,1456,1457,1458,1459,1460,1461,1462,1463,1464,1465,1466,1467,1468,1469,1470,1471,1472,1473,1474,1475,1476,1477,1478,1479,1480,1481,1482,1483,1484,1485,1486,1487,1488,1489,1490,1491,1492,1493,1494,1495,1496,1497,1498,1499,1500,1501,1502,1503,1504,1505,1506,1507,1508,1509,1510,1511,1512,1513,1514,1515,1516,1517,1518,1519,1520,1521,1522,1523,1524,1525,1526,1527,1528,1529,1530,1531,1532,1533,1534,1535,1536,1537,1538,1539,1540,1541,1542,1543,1544,1545,1546,1547,1548,1549,1550,1551,1552,1553,1554,1555,1556,1557,1558,1559,1560,1561,1562,1563,1564,1565,1566,1567,1568,1569,1570,1571,1572,1573,1574,1575,1576,1577,1578,1579,1580,1581,1582,1583,1584,1585,1586,1587,1588,1589,1590,1591,1592,1593,1594,1595,1596,1597,1598,1599,1600,1601,1602,1603,1604,1605,1606,1607,1608,1609,1610,1611,1612,1613,1614,1615,1616,1617,1618,1619,1620,1621,1622,1623,1624,1625,1626,1627,1628,1629,1630,1631,1632,1633,1634,1635,1636,1637,1638,1639,1640,1641,1642,1643,1644,1645,1646,1647,1648,1649,1650,1651,1652,1653,1654,1655,1656,1657,1658,1659,1660,1661,1662,1663,1664,1665,1666,1667,1668,1669,1670,1671,1672,1673,1674,1675,1676,1677,1678,1679,1680,1681,1682,1683,1684,1685,1686,1687,1688,1689,1690,1691,1692,1693,1694,1695,1696,1697,1698,1699,1700,1701,1702,1703,1704,1705,1706,1707,1708,1709,1710,1711,1712,1713,1714,1715,1716,1717,1718,1719,1720,1721,1722,1723,1724,1725,1726,1727,1728,1729,1730,1731,1732,1733,1734,1735,1736,1737,1738,1739,1740,1741,1742,1743,1744,1745,1746,1747,1748,1749,1750,1751,1752,1753,1754,1755,1756,1757,1758,1759,1760,1761,1762,1763,1764,1765,1766,1767,1768,1769,1770,1771,1772,1773,1774,1775,1776,1777,1778,1779,1780,1781,1782,1783,1784,1785,1786,1787,1788,1789,1790,1791,1792,1793,1794,1795,1796,1797,1798,1799,1800,1801,1802,1803,1804,1805,1806,1807,1808,1809,1810,1811,1812,1813,1814,1815,1816,1817,1818,1819,1820,1821,1822,1823,1824,1825,1826,1827,1828,1829,1830,1831,1832,1833,1834,1835,1836,1837,1838,1839,1840,1841,1842,1843,1844,1845,1846,1847,1848,1849,1850,1851,1852,1853,1854,1855,1856,1857,1858,1859,1860,1861,1862,1863,1864,1865,1866,1867,1868,1869,1870,1871,1872,1873,1874,1875,1876,1877,1878,1879,1880,1881,1882,1883,1884,1885,1886,1887,1888,1889,1890,1891,1892,1893,1894,1895,1896,1897,1898,1899,1900,1901,1902,1903,1904,1905,1906,1907,1908,1909,1910,1911,1912,1913,1914,1915,1916,1917,1918,1919,1920,1921,1922,1923,1924,1925,1926,1927,1928,1929,1930,1931,1932,1933,1934,1935,1936,1937,1938,1939,1940,1941,1942,1943,1944,1945,1946,1947,1948,1949,1950,1951,1952,1953,1954,1955,1956,1957,1958,1959,1960,1961,1962,1963,1964,1965,1966,1967,1968,1969,1970,1971,1972,1973,1974,1975,1976,1977,1978,1979,1980,1981,1982,1983,1984,1985,1986,1987,1988,1989,1990,1991,1992,1993,1994,1995,1996,1997,1998,1999,2000,2001,2002,2003,2004,2005,2006,2007,2008,2009,2010,2011,2012,2013,2014,2015,2016,2017,2018,2019,2020,2021,2022,2023,2024,2025,2026,2027,2028,2029,2030,2031,2032,2033,2034,2035,2036,2037,2038,2039,2040,2041,2042,2043,2044,2045,2046,2047,2048,2049,2050,2051,2052,2053,2054,2055,2056,2057,2058,2059,2060,2061,2062,2063,2064,2065,2066,2067,2068,2069,2070,2071,2072,2073,2074,2075,2076,2077,2078,2079,2080,2081,2082,2083,2084,2085,2086,2087,2088,2089,2090,2091,2092,2093,2094,2095,2096,2097,2098,2099,2100,2101,2102,2103,2104,2105,2106,2107,2108,2109,2110,2111,2112,2113,2114,2115,2116,2117,2118,2119,2120,2121,2122,2123,2124,2125,2126,2127,2128,2129,2130,2131,2132,2133,2134,2135,2136,2137,2138,2139,2140,2141,2142,2143,2144,2145,2146,2147,2148,2149,2150,2151,2152,2153,2154,2155,2156,2157,2158,2159,2160,2161,2162,2163,2164,2165,2166,2167,2168,2169,2170,2171,2172,2173,2174,2175,2176,2177,2178,2179,2180,2181,2182,2183,2184,2185,2186,2187,2188,2189,2190,2191,2192,2193,2194,2195,2196,2197,2198,2199,2200,2201,2202,2203,2204,2205,2206,2207,2208,2209,2210,2211,2212,2213,2214,2215,2216,2217,2218,2219,2220,2221,2222,2223,2224,2225,2226,2227,2228,2229,2230,2231,2232,2233,2234,2235,2236,2237,2238,2239,2240,2241,2242,2243,2244,2245,2246,2247,2248,2249,2250,2251,2252,2253,2254,2255,2256,2257,2258,2259,2260,2261,2262,2263,2264,2265,2266,2267,2268,2269,2270,2271,2272,2273,2274,2275,2276,2277,2278,2279,2280,2281,2282,2283,2284,2285,2286,2287,2288,2289,2290,2291,2292,2293,2294,2295,2296,2297,2298,2299,2300,2301,2302,2303,2304,2305,2306,2307,2308,2309,2310,2311,2312,2313,2314,2315,2316,2317,2318,2319,2320,2321,2322,2323,2324,2325,2326,2327,2328,2329,2330,2331,2332,2333,2334,2335,2336,2337,2338,2339,2340,2341,2342,2343,2344,2345,2346,2347,2348,2349,2350,2351,2352,2353,2354,2355,2356,2357,2358,2359,2360,2361,2362,2363,2364,2365,2366,2367,2368,2369,2370,2371,2372,2373,2374,2375,2376,2377,2378,2379,2380,2381,2382,2383,2384,2385,2386,2387,2388,2389,2390,2391,2392,2393,2394,2395,2396,2397,2398,2399,2400,2401,2402,2403,2404,2405,2406,2407,2408,2409,2410,2411,2412,2413,2414,2415,2416,2417,2418,2419,2420,2421,2422,2423,2424,2425,2426,2427,2428,2429,2430,2431,2432,2433,2434,2435,2436,2437,2438,2439,2440,2441,2442,2443,2444,2445,2446,2447,2448,2449,2450,2451,2452,2453,2454,2455,2456,2457,2458,2459,2460,2461,2462,2463,2464,2465,2466,2467,2468,2469,2470,2471,2472,2473,2474,2475,2476,2477,2478,2479,2480,2481,2482,2483,2484,2485,2486,2487,2488,2489,2490,2491,2492,2493,2494,2495,2496,2497,2498,2499,2500,2501,2502,2503,2504,2505,2506,2507,2508,2509,2510,2511,2512,2513,2514,2515,2516,2517,2518,2519,2520,2521,2522,2523,2524,2525,2526,2527,2528,2529,2530,2531,2532,2533,2534,2535,2536,2537,2538,2539,2540,2541,2542,2543,2544,2545,2546,2547,2548,2549,2550,2551,2552,2553,2554,2555,2556,2557,2558,2559,2560,2561,2562,2563,2564,2565,2566,2567,2568,2569,2570,2571,2572,2573,2574,2575,2576,2577,2578,2579,2580,2581,2582,2583,2584,2585,2586,2587,2588,2589,2590,2591,2592,2593,2594,2595,2596,2597,2598,2599,2600,2601,2602,2603,2604,2605,2606,2607,2608,2609,2610,2611,2612,2613,2614,2615,2616,2617,2618,2619,2620,2621,2622,2623,2624,2625,2626,2627,2628,2629,2630,2631,2632,2633,2634,2635,2636,2637,2638,2639,2640,2641,2642,2643,2644,2645,2646,2647,2648,2649,2650,2651,2652,2653,2654,2655,2656,2657,2658,2659,2660,2661,2662,2663,2664,2665,2666,2667,2668,2669,2670,2671,2672,2673,2674,2675,2676,2677,2678,2679,2680,2681,2682,2683,2684,2685,2686,2687,2688,2689,2690,2691,2692,2693,2694,2695,2696,2697,2698,2699,2700,2701,2702,2703,2704,2705,2706,2707,2708,2709,2710,2711,2712,2713,2714,2715,2716,2717,2718,2719,2720,2721,2722,2723,2724,2725,2726,2727,2728,2729,2730,2731,2732,2733,2734,2735,2736,2737,2738,2739,2740,2741,2742,2743,2744,2745,2746,2747,2748,2749,2750,2751,2752,2753,2754,2755,2756,2757,2758,2759,2760,2761,2762,2763,2764,2765,2766,2767,2768,2769,2770,2771,2772,2773,2774,2775,2776,2777,2778,2779,2780,2781,2782,2783,2784,2785,2786,2787,2788,2789,2790,2791,2792,2793,2794,2795,2796,2797,2798,2799,2800,2801,2802,2803,2804,2805,2806,2807,2808,2809,2810,2811,2812,2813,2814,2815,2816,2817,2818,2819,2820,2821,2822,2823,2824,2825,2826,2827,2828,2829,2830,2831,2832,2833,2834,2835,2836,2837,2838,2839,2840,2841,2842,2843,2844,2845,2846,2847,2848,2849,2850,2851,2852,2853,2854,2855,2856,2857,2858,2859,2860,2861,2862,2863,2864,2865,2866,2867,2868,2869,2870,2871,2872,2873,2874,2875,2876,2877,2878,2879,2880,2881,2882,2883,2884,2885,2886,2887,2888,2889,2890,2891,2892,2893,2894,2895,2896,2897,2898,2899,2900,2901,2902,2903,2904,2905,2906,2907,2908,2909,2910,2911,2912,2913,2914,2915,2916,2917,2918,2919,2920,2921,2922,2923,2924,2925,2926,2927,2928,2929,2930,2931,2932,2933,2934,2935,2936,2937,2938,2939,2940,2941,2942,2943,2944,2945,2946,2947,2948,2949,2950,2951,2952,2953,2954,2955,2956,2957,2958,2959,2960,2961,2962,2963,2964,2965,2966,2967,2968,2969,2970,2971,2972,2973,2974,2975,2976,2977,2978,2979,2980,2981,2982,2983,2984,2985,2986,2987,2988,2989,2990,2991,2992,2993,2994,2995,2996,2997,2998,2999,3000,3001,3002,3003,3004,3005,3006,3007,3008,3009,3010,3011,3012,3013,3014,3015,3016,3017,3018,3019,3020,3021,3022,3023,3024,3025,3026,3027,3028,3029,3030,3031,3032,3033,3034,3035,3036,3037,3038,3039,3040,3041,3042,3043,3044,3045,3046,3047,3048,3049,3050,3051,3052,3053,3054,3055,3056,3057,3058,3059,3060,3061,3062,3063,3064,3065,3066,3067,3068,3069,3070,3071
aries,-0.05542388,-0.019241739,-0.026960809,-0.001490276,-0.007443389,-0.0011127128,0.007463366,0.013232691,0.0088617485,-0.033337433,-0.0045946846,0.058012888,0.0016880472,0.010220177,-0.037396736,-0.0037576528,-0.022965431,0.03583055,0.009261286,-0.043277934,-0.0318991,-0.041296225,0.0074513797,0.017915275,0.023908341,-0.028319238,0.02199056,0.026832957,0.0017779431,0.020680076,0.02443573,0.022326171,0.0059890714,-0.0109473355,-0.028143441,-0.009157406,0.025890049,0.05372984,-0.028095497,-0.032618266,0.00973274,-0.0028546974,0.025538456,0.013656202,0.03921863,0.020552224,-0.026065845,-0.003749662,0.0066562993,-0.03605429,-0.058843926,0.007095791,0.03995378,-0.0035838538,0.013080867,-0.0004217621,0.04919109,-0.072044656,0.02716857,0.028542979,-0.024867231,0.029869445,-0.037460662,0.020887835,-5.3313324e-05,-0.0027388316,0.059611037,0.021127557,-0.015901605,-0.04334186,-0.018698368,0.045866936,-0.0151185095,-0.011602577,0.018330794,0.03340136,-0.008845767,0.031467594,0.00030714468,-0.010843456,0.0731314,-0.03416847,0.021622986,-0.010140269,-0.023732545,0.0065604104,0.002806753,-0.062104154,0.02536266,0.035351105,0.009485027,-0.07210858,-0.025890049,-0.047944535,0.019241739,-0.009501008,0.035351105,0.023604693,-0.021575041,-0.004015355,0.0131288115,0.011059206,0.0042910357,-0.06705842,0.027024737,0.011786365,-0.005213968,0.020823909,0.018634442,-0.0558394,0.027679978,-0.027743904,0.008374312,0.009381147,-0.0067242207,0.016764605,0.02526677,0.016572827,0.014079711,0.0060010576,-0.0032921913,-0.0077630193,0.044013083,0.0077550285,0.010340038,0.01670068,0.006037016,0.01660479,0.046186566,0.024675453,0.00898161,0.03499951,-0.014031767,0.021383261,0.050565504,-0.00024846257,0.010116297,-0.032202747,-0.01882622,0.02357273,-0.009612879,-0.055487808,0.015701834,-0.025842104,-0.01523038,-0.017787423,0.012225856,0.0117064575,0.016237216,0.0055016354,-0.020072779,-0.002305333,0.015749779,0.016053429,0.029693648,-0.03624607,0.018378738,0.0020386416,-0.019609315,0.002055622,0.0054057464,-0.009013573,0.0002179978,-0.024387786,0.05062943,0.015054584,0.0109792985,-0.008170548,-0.016149318,0.064213715,-0.016460957,-0.02285356,-0.026577253,-0.04612264,0.021223446,0.0055695567,0.049255017,0.028415127,-0.019305665,0.009844611,-0.02927813,0.008126599,0.03688533,0.014942713,-0.024275916,0.036757477,0.029006444,0.005857224,0.0011506688,0.023205154,0.030604593,-0.032170784,0.00029266143,0.016253198,-0.023764508,-0.033689026,0.0070878,0.019273702,0.01956137,-0.02665716,-0.007219648,-0.0056334827,-0.023348989,0.049894277,-0.002183474,0.038867034,0.0109473355,0.0019827064,0.013312599,-0.030732447,0.0103799915,-0.03503147,0.025778178,0.03352921,-0.0010677647,0.019529408,-0.023396933,-5.0098293e-05,-0.008046691,0.010763548,-0.017467791,0.017691534,0.005865215,-0.014239526,-0.0034440157,0.011562623,0.021031668,0.028367182,0.0058172704,-0.02127139,-0.042382967,-0.025953975,0.07319532,0.0019237745,0.021830745,0.029517852,0.029421963,-0.020072779,-0.029230185,-0.013816017,0.033369396,-0.043405786,-0.013919896,0.02526677,0.016796568,-0.024227971,-0.04714546,0.06175256,0.014071721,0.038867034,0.013488396,0.02125541,0.010076343,-0.0075352825,0.012225856,0.029262148,0.019753149,0.008789831,-0.0096528325,0.039762,0.042478856,0.0019047963,0.043086156,0.034200434,0.037620477,-0.022294208,0.0028746743,0.028590923,-0.022374116,-0.026049864,0.025842104,0.0010887404,0.054912474,-0.010755558,-0.0014563153,0.014055739,0.018458646,0.0045707123,-0.009772695,-0.039058816,-0.021143539,-0.01733994,0.06948761,-0.046761904,-0.04311812,-0.00034210423,-0.010324056,-0.020376427,-0.028638868,-0.0046905736,-0.008014728,-0.02485125,0.028782701,-0.0028487043,0.042287078,0.0022573886,-0.026960809,-0.018362757,-0.048679683,-0.008741886,-0.0048184255,0.013919896,-0.0024311873,-0.029517852,-0.009956482,0.02833522,0.030173093,-0.014287471,-0.024579564,-4.9224305e-05,-0.015558002,0.032378543,-0.006017039,-0.020024834,0.0217828,0.0039334493,-0.00094041205,-0.004966255,0.007898862,-0.026401456,-0.038355626,-0.0027847784,-0.0049502733,-0.0067481934,0.012705302,-0.0026469377,-0.03733281,0.004402906,0.028638868,-0.023652637,-0.020807927,0.0054576863,0.006632327,0.03320958,-0.022501968,-0.018139016,-0.000706183,-0.0015731801,0.03480773,-0.025650326,-0.0009284259,-0.046857793,0.049734462,-0.006416577,-0.002453162,0.0062847296,0.014639065,-0.0318991,-0.0074713565,0.00412323,0.0010487867,0.017387884,0.005066139,-0.0031343738,0.027568107,-0.013680174,0.028383164,-0.009317221,-0.008582071,0.009508999,0.0059571085,-0.025762197,-0.045962825,0.022581875,0.028702794,-0.07466562,-0.0039873873,-0.011346873,0.04273456,-0.017899293,-0.037077107,0.026832957,0.03531914,-0.026944827,-0.016844513,0.027184552,-0.00056484656,-1.4475441e-05,-0.016397031,0.015989503,-0.06060189,-0.041935485,-0.026944827,-0.0010397971,-0.011994124,0.024611527,-0.042446893,-0.017835367,0.004490805,0.004554731,-0.020264557,-0.00756325,-0.027855774,0.016157309,0.0488395,0.00080556807,0.03236256,0.0052938755,0.0021595017,-0.0032802052,0.01986502,0.015893614,-0.0013154781,0.064309604,0.03458399,-0.0065723965,-0.001991696,0.0058851917,-0.020440353,0.029118314,-0.00040627999,0.0013564308,-0.0003575863,-0.02907037,0.013608257,0.009700777,0.048807535,0.0057693254,0.011874263,-0.012801191,0.005541589,0.026960809,0.0057693254,0.016141327,-0.027136607,-0.004418888,0.0016251199,0.007147731,0.002499109,-0.025234807,0.0074713565,-0.012257819,0.042031374,0.018442664,0.02803157,-0.036949255,-0.00013434458,-0.0018608472,-0.0056015197,0.028415127,-0.049734462,0.0077949823,-0.019273702,0.021127557,-0.02961374,0.03330547,-0.0067601795,-0.015901605,0.0005049159,-0.0071876845,-0.003300182,0.022869542,0.020568205,0.03066852,-0.020903816,-0.021175502,-0.036309995,0.024867231,-0.033177618,0.031659376,0.038227774,-0.010659668,-0.0008015727,-0.030828336,0.03117993,2.1818509e-05,0.009189369,0.036981218,0.01628516,0.026465382,-0.0028087506,-0.02104765,-0.012329736,0.040113594,-0.0001413365,-0.019881,-0.040465187,0.013368534,-0.004914315,-0.025282752,0.0232531,0.019065943,0.01618128,-0.0059690946,0.0130968485,-0.002479132,0.0009778687,0.00046321412,-0.0076191854,-0.020488298,0.015637908,-0.048392016,-0.0217828,-0.011338882,-0.037045144,-0.009844611,-0.006408586,-0.045515344,0.02146317,0.00086599815,0.02464349,0.011091169,0.018154997,0.050086055,-0.080610745,0.034296323,0.03688533,-0.036821403,0.01828285,-0.005997062,-0.014471259,0.04960661,0.039250594,-0.00356987,0.0025830118,0.012665348,0.029581778,0.007403435,-0.025746215,-0.040433224,-0.009181378,-0.008853758,0.009884565,-0.0017329952,-0.01627717,-0.00941311,-0.009429092,0.011770383,-0.023732545,-0.004490805,0.028638868,0.029118314,-0.014007795,0.016636753,-0.011722439,0.021287372,-0.0029246167,-0.028511016,-0.0063806185,-0.022438042,-0.012968997,0.0056294873,0.002061615,-0.014023776,-0.016844513,-0.0032382538,0.008973619,-0.0179792,-0.00056185,0.019097906,0.0059770853,-0.012185902,-0.0032402514,0.0035219255,0.00093841436,-0.012329736,-0.02886261,0.022134393,-0.02643342,-0.03551092,0.01153066,-0.022166356,0.019385573,0.006999902,-0.004990227,-0.019449499,0.028303256,0.027152589,-0.00055585697,-0.0279197,0.0036317986,0.0023452868,0.0046146614,-0.017915275,-0.00182389,-0.0066123502,-0.02167093,0.016636753,-0.011282947,-0.016189272,-0.009612879,-0.018730331,0.02136728,0.024675453,-0.028399145,0.0047305273,0.014511213,-0.03298584,0.03944237,-0.0077949823,-0.033497248,-0.00079358194,0.022246264,0.011434771,-0.009237314,0.017899293,-0.0010967312,0.016540864,0.02283758,-0.021958597,-0.051748134,0.013863961,0.00644854,-0.0027288431,-0.043501675,0.00011780122,0.008222488,-0.0074513797,0.008685951,-0.006037016,-0.025602382,0.0018598484,-0.0075033195,0.011187058,0.014878787,-0.0041272254,-0.0062247985,0.05551977,-0.01818696,0.0037996043,0.0013124816,0.023652637,0.016508901,-0.024355823,0.0014882783,-0.005809279,-0.023237117,0.0054297186,0.007886875,0.0054576863,-0.04672994,0.011458743,-0.014599111,-0.0025630349,0.004558726,-0.011227012,-0.01713218,0.009469045,0.017787423,0.0010957323,-0.021431208,0.0127932,-0.002235414,0.044332713,0.0027328385,0.0131927375,0.01205006,-0.0033900782,0.017579662,0.0109792985,-0.01077953,-0.010395973,0.0038235765,0.047529016,0.018762294,0.030556649,0.00044997942,-0.007487338,-0.0359584,0.0064445445,0.030620575,-0.02040839,0.024723398,-0.0029525843,-0.00085700856,0.016149318,0.022789635,0.031131985,-0.010324056,0.0058851917,-0.0037196968,0.030924225,0.023908341,0.0024771343,-0.004846393,-0.018762294,0.009445073,-0.006037016,-0.004077283,0.008821794,-0.0081665525,-0.008789831,0.0041791652,-4.4011584e-05,0.011978143,-0.01565389,-0.010547797,0.016197262,0.019881,-0.0117064575,0.0075113103,0.0070478464,0.00034035626,-0.027679978,0.014007795,-0.005573552,-0.0033880805,-0.066866644,0.022438042,-0.0069000176,-0.02242206,-0.0066043595,-0.031627413,-0.0053258385,0.047305275,0.038994886,0.0103799915,-0.026848938,-0.017499754,-0.015158463,0.0075592548,0.017771441,-0.027951663,0.004854384,0.0020516266,-0.011250984,-0.020903816,0.02622566,-0.04791257,0.006480503,-0.0052499264,2.4705794e-05,-0.0044948,0.016892457,-0.032602284,0.03140367,0.026401456,0.031116003,0.010491862,-0.0057693254,0.02093578,0.0036178147,0.011962161,-0.009540962,-0.009445073,-0.004882352,0.0051100883,0.036086254,0.0053977557,0.030908244,-0.025122937,-0.022549912,-0.026497345,0.06296715,0.024355823,0.025298733,0.03467988,-0.015462113,-0.011954171,0.009037545,-0.027871756,0.011059206,0.0049942224,-0.0014463267,-0.0068800407,0.017004328,-0.01077953,-0.0012016098,-0.009660823,0.026145753,-0.0050701345,-0.0027028732,0.0260179,-0.046154603,0.00417517,0.01756368,0.005377779,0.007455375,0.020104742,0.019481461,-0.03985789,0.00586921,0.027823811,-0.00012822666,-0.03298584,0.0044428604,-0.0089576375,-0.004854384,-0.0047345227,0.0066483086,0.010507843,-0.030284964,-0.014567148,-0.023093283,0.011778374,-0.029342055,0.017291995,-0.0010937346,0.0033101705,0.013360543,0.0011266966,-0.0019567362,-0.014695,0.012209875,0.0075792316,-0.021894671,0.020823909,-0.00027867762,-0.013472414,0.0015372216,0.0032082885,-0.016524883,0.026385475,-0.008054682,-0.024691435,-0.011690476,0.0051899957,-0.01004438,0.032857988,0.012337727,-0.004934292,0.0016990345,-0.024547601,-0.014862806,0.018266868,0.014998648,-0.0021035664,0.04199941,-0.0049183103,0.019689223,0.034839693,-0.012010106,0.0014852817,0.017084235,-0.0012115983,-0.00063726277,-0.006600364,-0.018794257,0.013352552,-0.027616052,-0.0132247005,-0.0032422491,0.03352921,0.0179792,0.027839793,0.031068059,0.008398284,-0.025890049,-0.010356019,0.014367378,0.011155095,-0.014639065,0.0042271097,0.03720496,0.02251795,0.01141879,-0.015062574,-0.0130009595,-0.031994987,-0.036501773,0.026385475,0.051236726,0.008550108,-0.022262245,-0.0058732056,0.015605946,-0.0055375937,-0.025234807,-0.0024751367,-0.009604888,-0.007946807,0.035702698,-0.001541217,-0.025618363,-0.0050141993,-0.039666113,0.014790889,0.004219119,0.03995378,0.0057053994,-0.027823811,0.021527097,-0.012337727,0.0403693,0.02886261,0.007127754,-0.0043629524,-0.03669355,0.021974578,0.009572925,-0.00055585697,-0.0036957245,-0.008821794,-0.012098004,-0.019002017,0.018011164,-0.0034879649,0.004958264,-0.010076343,-0.035638772,0.00096438435,6.8108704e-05,-0.023029357,-0.0025130927,0.00644854,0.024819287,0.0030205057,-0.009493018,-0.0024831274,0.013072876,-0.00856609,-0.0062487707,-0.01818696,-0.024275916,-0.01173842,-0.015829688,0.006987916,0.02127139,-0.026992774,-5.8369973e-05,0.01756368,-0.043917194,-0.0067242207,0.013616248,-0.0068440824,0.01829883,-0.014135647,0.016101373,0.014223545,-0.010843456,0.024068156,-0.02347684,-0.005401751,0.022182338,-0.0027508177,0.010811493,0.014495231,0.02833522,0.013999804,0.01871435,0.012425625,0.043629527,0.0102521395,0.0026209678,-0.026161734,-0.020120723,-0.03151554,0.028718775,-0.008438238,-0.0025130927,-0.0044468557,0.020440353,-0.04724135,-0.027679978,-0.028159423,-0.014127656,-0.00035808573,0.050917096,0.022725709,0.0077430424,0.0041312207,0.01586165,0.028894573,0.044013083,0.026721086,0.01807509,-0.036118217,-0.037716366,0.019928945,0.011139113,0.007595213,-0.02199056,-0.008062673,0.0034759787,6.5049746e-05,-0.0013404493,-0.0070718187,-0.009053526,0.00019352611,0.0055655614,-0.0046146614,0.0017649581,-0.005377779,0.011866272,0.021095594,0.0012875105,0.00771907,0.012801191,-0.016796568,0.0152783245,0.050789244,-0.0022334163,0.02526677,-0.005401751,0.020712039,-0.037300847,-0.006796138,0.013472414,-0.027839793,0.026289586,0.010963317,0.013208719,-0.03784422,-0.01638105,-0.011027243,-0.028367182,0.0007776004,-0.020712039,0.010571769,0.0060130437,-0.0021934623,-0.023620674,0.007826945,0.015837679,0.002792769,0.0031123993,0.04324597,0.031371705,-0.0327621,-0.019849038,-0.003781625,0.009341193,0.000809064,-0.0056654457,-0.0025630349,-0.0043190033,-0.0027448246,0.00096937857,0.011858282,0.012185902,0.0026309562,0.00016106367,0.008693942,0.01352835,-0.006600364,-0.0055335984,-0.02104765,-0.028095497,-0.026129771,-0.032794062,-0.00040253432,-0.00439092,0.01735592,-0.018762294,-0.022278227,0.0042151236,-0.011826319,-0.025234807,-0.044236824,0.007782996,0.029549815,0.008749877,-0.018250886,0.025027046,0.011986134,0.013072876,-0.020919798,0.018474627,0.01110715,-0.011658513,0.003370101,3.208788e-05,0.01395985,0.004295031,-0.013312599,0.029805519,0.015166454,-0.0070038973,0.0260179,-0.0103799915,-0.008238469,-0.008558099,-0.014295462,-0.009780685,0.006332674,0.032857988,-0.012002115,-0.0021854716,-0.015741788,-0.0021175502,-0.01828285,-0.04292634,0.0028866604,0.00761519,0.021015687,0.017611625,-0.034328286,-0.011274956,-0.009085489,0.017547699,0.0058292565,0.02008876,-0.017899293,-0.0039534266,-0.013720128,0.0131927375,-0.011227012,-0.0068960222,0.02274169,-0.005889187,-0.04634638,-0.002267377,0.024547601,-0.035351105,-0.011466734,-0.013144793,0.011954171,0.051524393,-0.0041791652,0.009141425,-0.013136802,-0.012321745,-0.004674592,-0.010172232,0.004834407,0.006752189,0.024403768,0.020680076,-0.00037656436,0.014663037,0.028910555,-0.021654949,-0.016013475,-0.004642629,-0.0056095105,0.016972365,0.017819386,0.013144793,-0.014870796,-0.0006941969,0.03375295,0.0010757555,-0.0030844316,0.0050701345,0.0021535086,-0.010635695,-0.021335317,0.0025410603,0.009876574,-0.0075912178,-0.0032742121,-0.014255508,0.039474335,-0.022933468,0.00093342015,0.007982765,-0.0069719343,-0.0018978044,0.01026013,-0.01965726,-0.02611379,-0.016780587,-0.0108834095,0.009948491,-0.017084235,-0.0033221566,0.027024737,-0.018794257,-0.011195049,-0.0069319806,0.012545486,-0.021127557,0.027024737,-0.006196831,-0.0038495467,0.005833252,0.020999705,0.009101471,-0.019417536,-0.016668716,-0.0012535498,-0.023636656,-0.00761519,0.0065604104,-0.011914217,0.0017319963,-0.015534029,-0.015062574,-0.010971308,0.0037656436,0.022406079,-0.01703629,0.016428994,0.0054696724,-0.00076561427,0.0077630193,0.00015020123,0.015925577,0.013448441,-0.0012325741,0.023700582,-0.005909164,-0.019513424,-0.012817172,0.0072875693,-0.005098102,-0.007918839,-0.0315475,0.00227337,0.011434771,0.008606044,0.02675305,-0.030508704,0.02115952,0.023716563,-0.0241161,0.024515638,-0.024515638,-0.016940402,-0.011242993,-0.013456432,-0.02676903,0.0043110126,-0.007307546,-0.015685853,0.012337727,0.006736207,-0.03132376,-0.020744001,-0.009780685,0.0030324918,-0.05158832,-0.011930198,0.016229225,0.021638967,-0.015350242,0.026289586,-0.01332858,0.031867135,0.0013534343,-0.0010377994,0.01618128,0.01756368,0.00036782448,-0.017164143,-0.020712039,0.020440353,0.034104545,-0.035894476,0.0070678233,-0.0025930002,-0.022645801,0.01194618,-0.010164241,0.006436554,0.0241161,0.012417634,-0.023444878,0.0021974577,-0.013208719,0.012034078,-0.008837776,-0.03384884,-0.0004629644,-0.011538651,0.011115141,-0.0075792316,-0.0241161,-0.0072156526,-0.006460526,8.521392e-05,0.025826123,0.016269179,-0.009245304,-0.019241739,-0.011498697,-0.009820639,0.0102841025,-0.017004328,-0.015621928,0.014870796,-0.019833056,0.011522669,-0.0002924117,0.04832809,0.024180027,-0.012321745,0.0019077929,0.00682011,-0.03551092,0.0279197,-0.015733797,-0.012585441,0.020552224,0.013576294,0.011970152,-0.015709825,0.02379647,0.009397129,0.017947238,-0.00014620586,0.021910653,-0.025298733,0.01807509,-0.03522325,0.008130594,0.0059131593,-0.012337727,0.036821403,0.01068364,0.005813275,0.011578605,0.044332713,-0.014998648,0.013088858,0.02253393,0.017899293,-0.01997689,-0.0063486556,0.028702794,-0.0015072563,0.020424372,0.022997394,0.004846393,-0.0049302964,0.0336251,0.010092325,0.010236158,-0.02389236,0.015925577,0.04704957,-0.009764704,-0.006352651,-0.009708768,0.005865215,0.00019527409,0.008725905,-0.021143539,-0.015022621,-0.010595742,-0.016780587,-0.040433224,-0.000902456,0.0038575374,-0.011570614,-0.023205154,0.0034140504,-0.009908537,-0.002569028,-0.017276013,0.0044069015,-0.025937993,-0.014695,-0.0004964257,-0.01745181,0.021207465,0.009860593,0.0039873873,0.0063047064,0.00026344522,-0.020807927,-0.0011836307,-0.00016543361,-0.019593334,0.017787423,0.008382303,-0.011474725,0.014207563,0.010451908,0.01765957,-0.016860494,-0.007475352,-0.014734954,-0.024275916,-0.0088617485,-0.012713293,-0.018410701,-0.01892211,0.001194618,0.009908537,0.021415226,-0.023812452,0.018442664,-0.005645469,0.007303551,-0.0040293387,-0.0125295045,-0.0251549,0.0046466244,-0.0116425315,-0.016844513,0.011115141,-0.021207465,0.030604593,-0.016413013,0.013040913,-0.004275054,-0.028255312,-0.030173093,-0.006504475,-0.011235002,-0.016444976,0.029262148,-0.017835367,0.020648113,-0.0009274271,0.01649292,0.014886778,0.008214497,-0.021335317,-0.0009983451,-0.004263068,0.006017039,0.020280538,0.036214106,-0.029661685,-0.006788147,0.03541503,0.028590923,0.014966685,0.011578605,-0.044908047,0.016460957,0.03522325,-0.007271588,0.0062128124,-0.015390196,-0.0009054525,-0.022246264,-0.00982863,-0.0053617973,0.0011996122,0.002105564,-0.008813803,-0.0066123502,-0.0056214966,0.0011256977,-0.0255864,0.013608257,0.040944632,-0.0308603,0.01248156,0.0015761766,0.0064125815,-0.01427948,-0.0068360916,0.0031024108,0.0082944045,-0.005421728,-0.0025350673,-0.00866997,0.008270432,0.02029652,-0.008598053,0.034008656,0.0015372216,-0.007455375,-0.013352552,-0.0063806185,-0.031643394,-0.0003413551,-0.02526677,0.0010797508,0.0043429756,-0.0023872382,-0.007886875,0.005865215,0.022342153,0.013808026,-0.007207662,0.02421199,0.018570516,0.013536341,0.016892457,0.0018968056,0.001490276,-0.01756368,0.009061517,0.010172232,0.006756184,-0.020648113,-0.0030344895,0.021511115,-0.01480687,-0.00067671714,-0.011362854,0.03407258,-0.014702991,-0.015054584,-0.018890146,0.014663037,0.019801093,0.0069639436,0.0009673809,-0.0070038973,-0.016652735,-0.030604593,0.0048184255,-0.012233847,-0.008574081,0.010356019,-0.027616052,-0.0038435536,-0.007115768,-0.018330794,0.031020114,0.0006707241,0.019129869,-0.0023792475,0.01479888,0.01997689,0.03765244,0.0010238156,0.016556846,0.018170979,-0.0054576863,0.015374214,0.015725806,-0.005657455,0.008478192,0.0036437847,-0.00032012965,-0.01786733,0.013464423,-0.013152784,-0.01745181,-0.0046066707,-0.001187626,-0.013304608,0.0060529974,-0.00013084862,0.021287372,0.004007364,0.0005026685,-0.016037447,0.012042069,-0.002343289,0.0016291153,0.014607102,-0.007854912,0.0048304116,-0.0082624415,0.010196204,0.0071996707,0.013424469,0.010819484,-0.023940304,-0.009221332,-0.03755655,0.014543176,-0.0283512,-0.0040613017,-0.005933136,0.0179792,-0.021686912,0.022821598,-0.0009838617,0.0056294873,0.0054377094,-0.011698467,0.01850659,-0.010491862,0.014495231,0.00039853895,0.012305764,0.039154705,0.014255508,-0.0077350517,-0.019017998,-0.007782996,-0.0008195519,0.02475536,-0.00027643022,-0.0038835073,-0.021894671,0.0033501242,-0.00919736,0.021543078,-0.038898997,-0.0030284964,0.018810239,0.002650933,0.017579662,0.005257917,-0.0009304236,0.0020306509,0.010835465,-0.0066682855,-0.008590062,-0.017771441,-0.0070038973,-0.009532971,-0.008438238,-0.0058811964,0.011914217,0.016540864,-0.024052175,-0.0072556064,-0.010931354,0.00046820834,0.011554632,-0.0152143985,0.02823933,0.011546642,-0.006260757,0.017787423,-0.007930825,0.008845767,0.00182389,-0.008182534,-0.014319434,-0.008630016,-0.007878885,-0.0010697624,0.003364108,-0.014367378,-0.01829883,0.0031343738,0.022134393,0.010723595,-0.0052099726,0.0137441,0.015006639,0.010707613,0.017116198,-0.01480687,0.01501463,0.024691435,0.009317221,0.014119665,1.2118792e-05,0.009157406,0.014207563,0.019401554,-0.0031423648,0.013296617,0.0019147848,0.0068041286,0.005701404,0.011378836,-0.0059491177,-0.009788676,0.008430247,-0.024164045,-0.010907382,-0.01627717,0.006308702,-0.003493958,0.003030494,-0.0061289095,0.0047544995,0.011762393,-0.0035598816,0.0029845473,-0.0065843826,0.011658513,0.010531816,0.000248962,0.00439092,-0.014415324,0.022294208,-0.0030005288,0.029166259,-0.012513523,-0.0010777531,-0.033593137,-0.023093283,0.0037137037,-0.010707613,-0.010723595,-0.013536341,0.008997591,0.00027393308,-0.027104644,-0.003018508,0.008066668,0.007335514,0.013784054,0.020568205,0.014415324,0.013863961,-0.004155193,0.004199142,0.018650424,-0.011770383,-0.01765957,0.009924519,-0.013344562,-0.0006961946,-0.01448724,0.0021914646,0.003461995,0.013200728,0.0046146614,0.031116003,-0.004450851,-0.00486637,-0.013887933,-0.0029146282,-0.0062687476,0.0055575706,3.6582678e-05,0.014255508,0.0033101705,0.0024911182,0.012225856,0.0123696895,0.017739478,0.014750935,0.025298733,0.0025730233,0.0055375937,-0.040017705,0.027248478,-0.014958695,0.0001472047,-0.0014523198,0.0083583305,-0.029054388,0.010707613,0.004978241,-0.028782701,0.010547797,-0.002650933,0.0016810552,0.006892027,-0.0014293464,-0.023045339,0.014407332,-0.009477036,0.0067122346,0.0021395248,-0.0012046064,0.037141033,-0.011546642,0.016221235,0.019385573,0.006704244,-0.00011130873,0.0018009165,-0.000496176,0.025826123,-0.009708768,0.005721381,-0.010931354,0.016245207,-0.0061488864,0.017180124,0.0018248889,0.019529408,-0.01807509,-0.019721186,0.00032911924,-0.007934821,-0.012976987,0.00973274,-0.0026629192,-0.03087628,0.00047270313,-0.015805716,-0.004410897,0.00075812294,0.0048703654,-0.024148064,0.01638105,-0.0026988778,0.018378738,0.02146317,0.01289708,0.009317221,0.0062687476,0.0336251,-0.004590689,0.0274882,-0.00687205,-0.015094537,0.0048304116,0.0015322274,-0.026081827,0.0073834583,0.012137958,0.018426683,-0.009956482,-0.0013883938,0.015693843,-0.0014113672,-0.002998531,-0.007878885,-0.010875419,-0.009948491,-0.01914585,0.00053188467,-0.0027907714,0.023668619,0.008853758,0.006049002,-0.0070158835,0.00554958,-0.029661685,0.019177813,0.031963024,-0.017004328,-0.010196204,0.021718875,-0.013232691,0.0036198124,-0.008973619,0.0029405982,0.010515834,-0.00898161,-0.019705204,0.010092325,0.016013475,-0.016053429,-0.0050501577,0.0005588535,-0.01986502,-0.013983822,-0.0027887737,-0.011346873,0.009013573,0.007966784,-0.01109916,-0.015805716,-0.046985645,-0.0027588084,-0.004482814,0.028143441,0.0075432733,0.005389765,0.008821794,-0.019785112,-0.02020063,0.0051020975,0.0069199945,-0.007171703,0.0060010576,-0.010332047,0.010571769,-0.0020126717,-0.0014003799,-0.008302395,0.012968997,0.0065004798,0.009724749,0.017116198,0.0039334493,-0.005329834,0.010971308,0.007603204,-0.017787423,-3.3430075e-05,-0.017851349,0.005845238,0.0037576528,-0.0137281185,-0.005465677,0.018858183,0.0058612195,0.002479132,0.015166454,0.0072875693,0.035862513,-0.0077110794,-0.028511016,0.012961006,-0.013919896,0.011187058,0.020440353,-0.006112928,-0.0006737206,0.015478094,0.006196831,0.003236256,0.010643686,0.0232531,0.010196204,-0.018970054,0.0009883567,-0.012225856,0.021031668,-0.007894866,-0.00011480469,7.737143e-06,-0.023237117,-0.0063366694,-0.01321671,-0.0037616482,0.0041911514,0.0022913492,-0.013600267,0.009493018,0.004662606,0.03720496,-0.013991813,0.031052077,0.014159619,-0.026593234,0.0029206213,0.0010857439,0.0066882623,0.017276013,-0.012289782,0.0031523532,-0.007790987,0.0005538593,0.016620772,-0.011962161,0.014359388,0.01205006,0.010012417,0.0028746743,0.0073954444,-0.0034240389,0.02357273,0.0034899625,-0.019177813,0.0048264163,0.023972267,0.0016990345,0.011778374,-0.016668716,-0.004790458,-0.01257745,-0.027232496,0.004714546,-0.008050687,-0.013816017,-0.007986761,-0.023940304,0.004047318,-0.023045339,0.0005228951,0.0103480285,0.0055895336,-0.011826319,-0.023668619,0.0017889304,-0.016684698,-0.0014912748,-0.0018268866,0.02737633,-0.0033661057,-0.012785209,-0.0009074502,-0.008638007,0.010859437,0.011714448,-0.010180223,-0.007970779,-0.0065084705,0.018043127,-0.011522669,-0.030205056,0.016620772,0.016428994,-0.008018724,-0.037620477,0.00887773,-0.0010023405,-0.015781742,0.0015182436,0.04049715,-0.0018798253,-0.0066882623,0.0054896493,-0.025394622,-0.010108306,-0.0048623746,0.00465062,0.007107777,-0.0015911593,-0.0015482089,-0.015062574,-0.004934292,0.0067601795,-0.01660479,0.007159717,-0.0031303784,-0.020871853,0.018666405,0.006764175,0.006468517,-0.0089896,0.014902759,-0.02061615,-0.0017050275,-0.035446994,0.0057373624,0.0089576375,-0.012018097,-0.0074793473,-0.011722439,0.004990227,-0.0025410603,0.0013674181,-0.0030264987,-0.009253295,0.011362854,0.0045067864,0.017723497,0.013863961,0.020552224,0.00073564897,-0.004566717,-0.0028327229,0.0007126755,0.005517617,-0.004694569,-0.0058372472,-0.022757672,-0.033816878,-0.004802444,-0.017851349,0.0074393936,-0.020472316,0.0109153725,0.025522474,0.03320958,-0.006288725,-0.008869739,0.013768072,-0.00059231475,0.0028407136,-0.010739576,0.037045144,0.026960809,0.014087702,0.0308603,0.0034460134,-0.04072089,-0.006176854,0.03223471,0.01036401,0.009341193,-0.010827474,0.00797877,-0.009780685,-0.01681255,-0.0118423,-0.008526136,-0.0013764077,-0.02769596,0.017084235,-0.008542118,0.022086449,-0.0039674104,0.004618657,0.0027188547,0.0010827474,-0.015901605,0.0051860004,0.022278227,-0.01860248,0.03268219,-0.030093186,-0.013816017,-0.0015392193,-0.01416761,0.014031767,0.01068364,0.013544331,0.011986134,0.007551264,0.007431403,-0.02274169,0.018170979,0.029054388,-0.009381147,-0.008098631,0.011354864,-0.0017429836,0.0076311715,-0.013240682,-0.0053937603,0.0013754088,-0.0130329225,0.031163948,-0.0032901936,0.011682485,0.011059206,0.019944927,-0.0131288115,-0.008598053,-0.012777219,-0.011123132,0.034967545,-0.00032312618,-0.015725806,0.005617501,-0.019833056,-0.016764605,-0.005170019,0.011898235,-0.0023512798,-0.015270334,-0.01311283,0.005389765,0.0068560685,-0.026129771,-0.007842926,0.007403435,-0.01786733,-0.0076191854,-0.006384614,0.0024371804,0.017803404,0.012961006,0.0068680546,0.0014153626,-0.0016670714,-0.0017230067,-0.0053937603,-0.01332858,-0.0023872382,-0.010563779,-0.022885524,-0.00835034,0.006884036,-0.013440451,0.014415324,-0.02072802,-0.019513424,-0.014023776,0.01860248,0.00036632622,-0.010276112,-0.0006087957,0.0021794785,-0.014631074,-0.020248575,0.00022910995,-0.0008345345,-0.017835367,-0.003430032,-0.0109473355,0.0074393936,-0.03076441,-0.017228069,0.010619714,0.009077499,-0.033912767,0.013272645,-0.00267091,0.0019607316,-0.009061517,0.007986761,-0.03752459,0.0020196636,-0.014607102,-0.022677764,-0.015909595,-0.01364022,0.007063828,0.014143637,0.011410799,-0.010955326,-0.006999902,-0.027775867,-0.0013194735,-0.01248156,0.0025450557,-0.012153939,-0.0061408957,-0.019896982,0.011586595,0.0036517754,0.022645801,0.027264459,-0.015470103,-0.0011087174,-0.04027341,-0.021415226,0.014311443,0.007659139,0.0022773654,-0.0030524686,0.018266868,-0.014894769,0.0020536243,0.004143207,-0.0053138523,0.01860248,0.022501968,-0.010523825,0.011258975,-0.01332858,0.011586595,0.0037916135,0.023221135,0.02760007,-0.024387786,0.00068570673,-0.009916528,0.004966255,-0.0063047064,0.016988346,0.0066562993,0.002261384,0.007443389,-0.010108306,-0.03944237,-0.030540667,-0.0049742456,0.0035878492,0.0071637123,-0.0019387571,0.02897448,-0.0013943869,0.016444976,0.0036917292,-0.0072276387,-0.012881098,-0.012881098,-0.02052026,-0.00079807674,0.014990658,-0.0010228168,0.007271588,-0.012817172,-0.007826945,-0.0021614993,-0.0066283317,-0.0046985643,-0.009029554,-0.013184747,-0.022326171,-0.01384798,-0.0036977222,0.008701933,0.002922619,0.016357077,0.009117452,-0.0022054485,-0.011338882,0.007435398,0.0035858515,0.0048104348,0.016684698,0.002986545,-0.021974578,0.008486182,-0.026273604,0.011187058,-0.02421199,0.017883312,-0.0029306097,0.00012198388,-0.0021674924,0.0020256566,0.028511016,-0.018762294,0.0024132081,0.029629722,-0.011810337,0.022342153,0.01248156,0.013304608,0.017899293,-0.002401222,0.019609315,0.008630016,0.012337727,-0.003398069,-0.0026749056,-0.0030864293,-0.01713218,0.00011361856,0.01226581,-0.00856609,0.008310386,0.012337727,-0.0018418692,0.002818739,-0.0009204352,-0.009461055,0.00017467292,-0.0027188547,0.0051660235,-0.009764704,-0.006320688,0.0027408293,0.0055335984,0.012289782,0.010196204,0.013488396,-7.600582e-06,-8.927172e-05,-0.0015751778,-0.011219021,-0.0061608725,-0.0075113103,0.00364778,-0.012697311,0.010140269,-0.0010298087,-0.010531816,-0.007990756,0.010843456,0.0037037153,0.011794356,-0.01703629,0.0019946925,-0.009676805,0.013440451,-0.009676805,-0.002505102,0.0014653049,-0.008310386,-0.020791946,-0.0009678803,0.009485027,-0.015094537,-0.008901702,-0.013504378,0.013368534,0.0067721657,-0.020056797,0.006644313,-0.008765859,0.0043629524,0.024355823,-0.0024891205,0.004502791,0.034232397,-0.00086100394,-0.0059810807,-0.0005768327,0.018043127,0.021926634,-0.0031903093,0.013040913,-0.018123034,0.012601422,-0.024819287,-0.019209776,0.01352835,-0.0081665525,0.03223471,-0.023812452,-0.0040293387,0.018810239,-0.005433714,-0.007431403,-0.007411426,-0.009788676,0.0007711079,-0.0014922736,0.0070358603,-0.0063806185,0.016109364,-0.0089896,-0.04040126,-0.010268121,-0.019337628,0.0039074793,0.010220177,0.009900547,0.014223545,-0.005773321,-0.0045507355,0.028606905,0.013320589,0.013488396,0.0015302297,0.014966685,0.002786776,-0.014750935,0.021303354,-0.0027088663,0.004410897,0.0027787853,-0.0012096006,0.009644842,-0.0029825496,-0.019161832,-0.0032442468,0.022070467,0.022454023,0.026465382,-0.011386827,0.022757672,0.0124975415,-0.021974578,-0.0006582385,-0.011147104,0.006784152,-0.0005308858,-0.01829883,0.0136961555,0.018362757,0.045099825,-0.01893809,0.0251549,-0.004526763,-0.013144793,0.0066483086,0.009325212,0.019002017,-0.0054896493,-0.026481364,0.010124288,-0.010611723,-0.02125541,-0.008486182,-0.0070398557,0.007635167,0.0028646858,0.018666405,0.006005053,0.007974775,-0.011930198,0.012809182,0.003653773,0.022661783,0.018554535,0.012441606,-0.010851447,-0.0077949823,-0.0073554907,0.004834407,-0.005701404,-0.01914585,0.011802346,-0.021239428,0.0021295364,0.004834407,-0.00982863,-0.03057263,0.000889471,0.0039614174,-0.002293347,0.01036401,0.009860593,-0.0006107934,-0.018202942,0.02400423,0.0046466244,-0.0025610372,-0.02769596,0.014543176,-0.009389138,-0.012409643,-0.018890146,0.0017839362,0.007695098,-0.005453691,0.023045339,-0.005201982,-0.00065074716,0.004694569,-0.0038755166,0.015054584,0.02357273,-0.0011396816,-0.002569028,-0.01818696,0.0059251455,0.002441176,-0.01829883,0.009884565,-0.008909693,0.0015102528,-0.0130648855,0.013991813,-0.011139113,-0.030380853,0.005010204,-0.009101471,0.0028327229,-0.019849038,0.01036401,-0.009612879,-0.0032782075,-0.0056734364,0.009405119,-0.030908244,-0.009820639,0.0056534596,-0.002369259,0.012273801,0.012801191,-0.0131607745,-0.0069399714,0.008725905,0.009053526,0.0036457824,-0.0130329225,-0.00846221,0.0002649435,0.008034705,0.0057693254,0.0089576375,0.0073435046,-0.006588378,0.015669871,-0.019673241,0.009508999,-0.003957422,0.010787521,-0.004283045,0.011794356,0.022597857,-0.009421101,-0.005118079,0.008869739,0.0006192836,0.007826945,0.01882622,-0.029374018,0.00051290664,0.01077953,0.019833056,-0.0003143863,0.014990658,0.0024032197,-0.0047105504,0.012034078,0.0016221234,0.0060410113,0.01205805,-0.008749877,0.011858282,-0.011650522,0.013688165,-0.006100942,-0.021654949,-0.0029405982,-0.005321843,0.0013074874,0.005933136,0.0067122346,0.010140269,-0.002612977,-0.027408293,0.01713218,0.012761237,0.0021674924,-0.009189369,0.012849135,0.009085489,0.0049422826,0.015685853,-0.014982667,-0.002157504,0.024611527,-0.00037231928,-0.011442762,-6.785899e-05,0.007751033,-0.013991813,-0.0023512798,-0.003230263,-0.004346971,0.0021435202,0.007747038,-0.01903398,0.011914217,0.0064525353,-0.0035738654,-0.0011017254,0.008446229,0.012641376,-0.025953975,0.010627705,-0.011882254,0.016508901,-0.007966784,0.00866997,-0.029006444,-0.012273801,-0.00549764,-0.0016580818,0.021239428,0.01775546,0.016397031,0.004346971,0.010691631,-0.015414168,0.022262245,-0.02959776,-0.013368534,-0.0131288115,0.008845767,0.009884565,-0.0063366694,0.01796322,-0.012201884,-0.010012417,-0.005225954,0.00481443,0.0060010576,0.0041951467,-0.01046789,-0.019193795,0.027008755,0.0037276875,0.012593431,0.01448724,-0.0053058616,-0.022901505,0.022645801,-0.012329736,0.021431208,-0.011322901,0.0012915059,-0.005034176,0.000526391,-0.023508804,0.026177716,-0.014431305,-0.00724362,0.03531914,0.020152686,-0.017819386,0.020424372,-0.016908439,0.013360543,0.025746215,0.0070878,0.0049422826,-0.0050501577,0.015629917,0.017371902,0.0073514953,-0.015174445,0.0011207035,0.011458743,0.010851447,0.022501968,0.009341193,0.009221332,-0.008717914,-0.00644854,-0.0060090483,-0.0041791652,-0.008102627,-0.0076431576,-0.0033241543,0.008406275,0.0016540864,0.025330696,-0.003358115,-0.009980454,0.007659139,0.004275054,0.006288725,0.005094107,0.01954539,0.015422159,0.020104742,-0.0009069508,-0.01713218,-0.0074833427,0.0270567,-0.026785012,0.007127754,-0.010012417,-0.02346086,0.007930825,0.018762294,-0.01925772,0.01628516,-0.0047624903,0.004211128,-0.012617404,0.00022224289,-0.010595742,0.010395973,-0.015869642,-0.010236158,-0.021015687,-0.022757672,0.0033621104,-0.01026013,0.02633753,0.0029006442,0.018522572,0.0065963687,0.0006627333,-0.015701834,-0.0151504725,-0.0014792887,0.018874165,0.010851447,0.0034220412,-0.0015771755,0.021287372,-0.006556415,0.010483871,-0.017164143,0.006852073,0.008174543,-0.012617404,0.023636656,0.004802444,-0.008901702,-0.0011746411,-0.005777316,-0.014575139,0.011562623,0.0066483086,-0.005669441,-0.022501968,-0.0013464424,0.012129967,0.00041651813,0.0024511644,0.018842202,0.005421728,0.00058082805,0.0052818893,-0.0026629192,-0.012473569,0.007055837,0.0022953446,-0.003186314,-0.021607004,-0.008630016,0.025090972,0.010747567,-0.004418888,-0.01976913,-0.00037007188,-0.028782701,0.0029785542,-0.014335415,0.013816017,0.007431403,-0.009213341,-0.004882352,0.004219119,-0.0063566463,0.016125346,-0.0037616482,-0.012457588,-0.026928846,-0.0036597662,-0.02823933,-0.001990697,0.021015687,-0.023348989,0.011698467,-0.0024711413,-0.018442664,0.011059206,0.01733994,0.012657357,0.009876574,0.019097906,-0.002517088,0.005553575,-0.013184747,0.0075552594,-0.005561566,-0.012569459,-0.0075992085,-0.026065845,0.0074154213,0.008422256,-0.025570419,-0.000484939,-0.009261286,-0.010012417,-0.0038095927,-0.0022653793,0.0023472845,-0.0056974087,-0.007239625,0.0058492334,-0.0011826318,0.0067242207,0.024547601,-0.019273702,0.0064964844,0.020791946,0.034839693,-0.00096937857,0.0073554907,-0.007551264,-0.01109916,-0.022230282,-0.011962161,-0.016668716,-0.006644313,-0.0039114747,-0.0003261227,0.0070038973,-0.013136802,-0.0013534343,-0.0118423,-0.006947962,-0.029405981,0.0011037231,0.0048264163,-0.014511213,-0.0072236434,0.009205351,-0.008086645,0.0014003799,0.0041631837,0.00093092304,0.027999608,0.008829785,-0.01997689,0.0038155857,0.00025557933,-0.0014143637,-0.011059206,0.021287372,-0.0042470866,0.013991813,0.003667757,-0.014495231,-0.011139113,0.016237216,0.00042475862,0.013280636,0.008182534,0.0010727589,-0.0005443702,-0.02464349,-0.006652304,-0.008190525,-0.0051460466,-0.005381774,0.0031643393,0.0011087174,-0.009213341,-0.009157406,-0.000719168,-0.0037776297,-0.008034705,0.007159717,-0.003294189,-0.0041711745,-0.016860494,0.0038095927,0.022693746,-0.0020076775,-0.00267091,0.0041591884,-0.011786365,0.003442018,0.009772695,-0.0006107934,-0.016476939,-0.006436554,-0.012273801,0.025538456,0.0031004131,-0.0018188958,-0.020919798,-0.015382205,-0.005182005,-0.0033021797,0.01257745,0.017052272,0.0038815096,-0.0063486556,0.0026808986,0.013903915,0.003268219,0.0028107483,0.011258975,-0.030237019,0.0021614993,0.0007456374,0.015110519,0.0059051686,-0.0073475,-0.005541589,0.004103253,0.0034560019,-0.00069319806,-0.037141033,-0.012881098,-0.00824646,0.0050181947,0.0040433225,0.002363266,-0.005809279,0.0060090483,0.03330547,-0.022773653,-0.009956482,0.010931354,-0.0017729489,0.049670536,-0.0116744945,-0.00046621065,-0.0017409859,0.008765859,0.00062277954,9.5701784e-05,0.020424372,-0.01670068,0.0028606905,-0.031499557,-0.010763548,0.01173842,-0.006049002,-0.037492625,-0.00027393308,0.0073475,-0.008909693,-0.011802346,-0.0034260366,-0.028143441,-0.0151265,-0.035798587,0.0010133277,-0.012881098,-0.004834407,-0.021862708,-0.012521514,0.004077283,-0.021686912,-0.0065644057,-0.005721381,-0.01956137,0.0046905736,0.02072802,-0.010459899,-0.030828336,0.011962161,-0.006196831,0.018027145,-0.004998218,0.01903398,0.006120919,0.01670068,-0.012937034,-0.023237117,0.014183591,0.007183689,-0.006300711,-0.00044623375,0.00962886,-0.020600168,0.023428896,-0.01638105,0.002479132,0.015318278,0.017403865,-0.005857224,0.0066043595,-0.015837679,-0.0037936112,-0.014870796,-0.008074659,0.0217828,-0.011666504,0.014846824,0.0013963846,0.007603204,-0.010899391,-0.023029357,-0.010308075,0.0064125815,0.0055575706,0.002029652,-0.0049223057,-0.0052179634,-0.015486085,0.007055837,0.01554202,-0.021031668,-0.0057813115,0.012785209,-0.00019502437,-0.005897178,-0.0082624415,0.015110519,-0.008254451,0.0103480285,0.0041511976,0.005409742,0.000282673,0.016476939,-0.0025410603,-0.01861846,-0.023540767,-0.011266965,-0.018154997,0.019529408,0.012849135,-0.015981512,0.01735592,0.017691534,-0.0029885427,-0.0033021797,-0.021622986,-0.00507413,0.005809279,0.0072875693,0.02568229,0.006568401,-0.0059770853,0.014551166,0.006029025,0.018170979,0.02199056,0.005118079,0.011083178,-0.013304608,0.012817172,-0.025522474,0.0015641904,-0.005581543,0.026481364,0.0023352983,-0.0038095927,-0.0035139348,0.0014533187,0.010571769,0.0002604487,-0.0054896493,0.021143539,0.013296617,-0.011666504,-0.010939345,0.0038355628,-0.012090013,0.0110112615,0.00177195,-0.03467988,0.0065284474,-0.028622886,-0.057181846,0.015925577,0.023189172,-0.005245931,-0.0020755988,0.0058372472,-0.01893809,0.01384798,0.008110617,-0.02939,0.0035518908,0.002389236,-0.016428994,-0.0055056307,-0.010300084,-0.00930923,-0.014151628,-0.0029785542,0.009133434,-0.017323958,-0.001220588,-0.0035299163,0.010715604,-0.008885721,0.006987916,0.002838716,-0.012217865,0.0021674924,-0.013336571,-0.01332858,0.034424175,0.014471259,-0.01448724,0.00814258,-0.005277894,0.006340665,-0.02547453,-0.028047552,0.0021115572,-0.0009074502,-0.013935878,-0.019928945,-0.0067322114,-0.019721186,-0.01692442,0.0023652636,0.002954582,-0.01724405,0.028542979,0.016444976,-0.02083989,0.0052938755,0.012785209,-0.019673241,-0.0014243522,0.009421101,-0.008789831,0.0034120528,0.01194618,0.016764605,-0.01786733,-0.01796322,-0.015589965
gemini,-0.040710688,-0.021813061,-0.028978704,-0.009519066,0.036003847,-0.027257545,0.0035740403,0.034458313,0.023024898,0.013382892,0.0074378676,0.035617463,0.015183085,0.022533137,-0.032631777,-0.014577166,-0.013988811,0.028170813,0.004649765,-0.05346132,-0.012987728,-0.009650786,-0.031946827,0.014945987,0.020952482,-0.017229157,0.016772524,0.026309151,-0.03301816,0.05117815,0.055463485,0.036038972,-0.0046717185,-0.01434885,-0.024658242,-0.012522313,0.03709274,0.0388139,0.0037299106,-0.0114421975,-0.03412462,-0.021848187,0.021883313,0.01336533,0.042291347,-0.0262389,-0.03203464,-0.03164826,0.023481533,-0.02365716,-0.019073257,-0.029804159,0.0423616,0.008948273,0.013637554,0.050581012,0.033720676,-0.06154023,-0.00010434804,0.010028388,-0.006379706,0.017518943,-0.025360757,0.030928181,0.016649583,-0.019933837,0.059573192,0.023235653,-0.024043543,-0.026256463,-0.041975215,-0.0067133997,-0.024219172,-0.03542427,0.013830746,0.017079873,-0.0064587384,0.00068550004,0.025641764,-0.0036728312,0.08036761,0.023393719,0.0061645606,-0.021040296,0.019178633,0.0077496083,0.021918438,-0.06621195,0.016430046,0.042677727,0.033984117,-0.046330802,-0.034282684,-0.021971127,-0.02235751,-0.012478406,0.0008029516,0.024500178,0.002322687,-0.056692883,0.01515674,0.023358593,-0.017088654,-0.048613973,0.021637432,0.035810653,-0.0010373059,0.055463485,0.0076793567,-0.0021273002,0.00492638,0.020671476,-0.015025019,-0.014489352,-0.011530012,0.0099317925,0.013444362,-0.010757246,0.0019933835,0.020987608,-0.019073257,0.016965713,0.04415301,-0.003885781,-0.012943821,0.004614639,0.003844069,0.0021273002,0.038287014,0.061926614,-0.026414528,0.055112228,-0.064455666,0.019020569,0.024675805,-0.0023446407,0.03407193,-0.0062479842,0.0013775862,0.005106399,-0.002248045,-0.0029483635,0.022533137,-0.045206778,-0.030348606,-0.01977577,0.0100108255,0.014129314,-0.0076705753,0.047595326,-0.011169974,0.01570119,0.015323588,-0.017018402,0.037549376,-0.045979545,-0.0027310234,0.017633103,-0.041307826,-0.0027946888,-0.016271982,-0.010028388,-0.04176446,0.03972717,0.0487896,0.035564773,0.025448572,-0.021338863,-0.016070008,0.06252375,-0.0148230465,-0.014015155,-0.035195954,-0.010572837,0.026572594,0.03726837,0.019916274,0.012267652,0.011679296,0.049878497,-0.02365716,0.018932754,0.029101644,0.024675805,-0.00917659,0.055920117,0.050791766,0.022375073,-0.0018276342,0.028996266,0.04404763,-0.013461925,-0.009448814,0.029681219,0.00052057387,-0.042115718,0.009027305,0.011582701,-0.015789004,-0.0243948,0.0054488746,0.0070558754,-0.010072296,0.06048646,-0.032227833,0.011047034,0.0017079873,-0.00461903,0.02198869,-0.013813183,0.031876575,-0.031261876,-0.007846204,0.01718525,-0.013400455,0.019881148,0.009870322,-0.0054532653,-0.023270778,-0.0019999696,-0.009361,0.03472176,0.011187537,-0.026256463,0.0028188375,0.0055454704,0.020530973,0.011600263,0.030770116,-0.01391856,-0.032245394,0.02636184,0.051669907,0.004147028,0.06378827,0.007846204,0.0028912844,0.008412606,-0.007121736,-0.0015147959,0.022445323,-0.017343316,-0.021268614,0.0071173455,0.028223502,-0.019108383,-0.056692883,0.0774873,0.027503425,0.03832214,-0.02716973,0.012636472,-0.0250095,-0.01305798,0.018634185,0.012741849,0.0031196014,0.021040296,-0.005185432,0.04039456,0.064455666,0.009984481,0.02211163,0.05163478,-0.0016926198,-0.029224584,-0.011609045,0.019600142,0.0021327888,-0.02704679,0.025975456,0.005396186,0.046155173,-0.03535402,0.008636532,0.014656199,0.022814143,0.0142259095,0.004392908,-0.0063050636,-0.031437505,0.015507998,0.021725247,-0.045417532,-0.004318266,0.013883434,-0.00014009119,-0.011117285,-0.06146998,0.0012217158,-0.02734536,0.0022304822,0.042783104,-0.015639719,0.02223457,0.010186453,-0.001490647,0.0009708964,-0.00942247,0.010028388,-0.030787678,0.0018891041,-0.020811979,-0.009721038,-0.01311945,0.039375912,0.020724164,-0.02169012,-0.032930344,-0.006862684,-0.00304935,0.018651748,0.009870322,-0.04158883,0.006665102,0.01817755,-0.014814265,-0.017088654,0.04650643,0.0048649097,-0.019424513,-0.0016673732,-0.030471547,0.0013205069,-0.0047331885,-0.013356549,-0.03572284,0.0066475393,0.0048956447,-0.034897387,-0.04601467,-0.018774688,-0.040710688,0.008087693,-0.018072173,-0.031929262,0.02211163,0.026537469,0.025536386,-0.00010764107,-0.012557439,-0.030629613,-0.027538551,-0.033966552,0.00013172139,0.0048034396,0.0029527543,0.01940695,-0.019635268,0.0018495878,0.0011163388,0.0100108255,0.045628287,0.00991423,0.047525074,0.0048341746,0.0053566694,-0.00027236142,0.023797663,0.03849777,0.011328039,-0.045312155,-0.048930105,0.017887764,0.008425778,-0.03863827,-0.0103093935,0.0006009788,0.043204613,-0.03386118,-0.044890646,0.044890646,0.053110063,-0.024219172,-0.02186575,0.027187293,-0.008588234,0.023762537,-0.037654754,0.02975147,-0.061926614,-0.024605554,0.00038638272,0.0076222774,-0.024412364,0.011389509,-0.014981112,0.0010581618,0.001845197,0.009352218,-0.042958733,-0.014463008,-0.054655593,-0.0027617584,0.01663202,0.008816551,0.019758208,-0.016869118,0.030787678,-0.002183282,0.011556356,0.009861541,-0.023270778,0.025097314,0.021795498,0.038462643,-0.008636532,-0.0006322626,-0.01859906,0.014884517,0.01009864,0.011257787,0.00025081946,0.0052205576,0.011793454,-0.00078154687,0.015147959,0.0032688857,-0.00856189,-0.032438587,-0.017668229,0.0063840966,-0.0061777327,0.013962466,0.0015960241,-0.01336533,-0.013321423,-0.009150245,-0.019143507,0.00622164,0.0022326775,0.009835197,0.0006322626,0.020355344,0.023955729,-0.025659326,-0.039621793,0.031560443,-0.021110548,-0.0010208407,-0.004133856,-0.02125105,-0.028416693,0.0016498104,-0.042045467,0.032614216,-0.016895464,-0.026309151,-0.028311316,0.009958137,-0.013154576,0.018880066,0.0005839648,0.041729335,-0.03839239,0.008263322,-0.017044747,-0.0054532653,-0.017299408,0.0052337297,0.0451014,0.010950438,0.00603723,0.004195326,0.020179717,0.0028188375,-0.017536506,0.022603389,0.020004088,0.030840367,-0.028328879,-0.029329961,-0.056025494,0.03400168,0.013154576,-0.018089736,-0.03473932,-0.005198604,0.0022502404,0.0015971218,0.003707957,0.0113631645,-0.006375315,0.0046848906,-0.02587008,-0.004322657,-0.026379403,0.017703354,-0.012487187,-0.021883313,-0.005685973,-0.06196174,-0.019038131,0.005137134,-0.035318892,-0.012478406,-0.024131358,-0.026695535,0.025395883,0.004759533,-0.008289666,0.0124169355,-0.0118197985,0.023569345,-0.060240578,0.022146756,0.015297243,-0.029488027,0.016043665,-0.015428965,-0.026414528,0.06431516,0.039270535,-0.012618909,0.019424513,0.027485862,0.022462886,0.010634307,0.009861541,-0.020811979,0.016658364,-0.019038131,0.0026256463,0.018247802,-0.030172978,-0.011652952,-0.0012425717,0.0032293692,-0.017518943,-0.02021484,0.016113916,0.021163236,-0.029698782,0.036741484,0.010643088,-0.0168779,0.024693368,0.0045751226,0.0041426374,-0.014814265,-0.016315889,-0.0005106948,-0.0050976174,0.014427883,0.00046623882,0.00819307,0.02353422,-0.017448694,0.006695837,-0.0016465173,0.009167808,-0.014594729,-0.007854985,0.02174281,-0.010959219,-0.01706231,-0.02925971,0.02353422,-0.02161987,-0.03549452,0.0355999,-0.023850352,0.00794719,0.015920725,-0.0020416814,-0.015393839,0.016149042,0.04731432,0.0101688905,-0.016473955,-0.031981952,-0.000825454,-0.0056288936,-0.007718873,0.022023816,-0.0014467399,-0.016175386,0.013084324,-0.012048116,-0.037057616,0.007064657,-0.022480449,0.011749547,0.022638515,-0.012856007,-0.00046925744,-0.015306025,-0.042677727,0.0064367848,-0.007275411,-0.01805461,0.009273185,0.035810653,0.01078359,0.010669432,0.018774688,0.006770479,0.010195235,-0.0013710001,-0.022708766,-0.035529647,0.014744014,0.014954768,-0.0058484296,-0.01589438,0.039446164,-0.00016698429,0.008184289,-0.0071612527,-0.009281967,-0.05163478,0.0034379282,0.007626668,0.01637736,0.022462886,-0.02051341,-0.015868036,0.013224827,-0.017966798,-0.0040504327,-0.0069329357,0.023920603,-0.0004969738,-0.025431009,0.02722242,-0.0011657343,-0.0036925895,-0.0075871516,-0.0026014973,-0.016219294,-0.019863585,0.006555334,-0.02211163,0.015736315,0.006577288,-0.012776975,0.0024807528,0.016473955,0.015674844,-0.005365451,-0.0061777327,0.018880066,-0.007508119,0.06659833,0.000777705,0.005102008,-0.009949355,0.02334103,0.03043642,0.0017014012,-0.039621793,-0.0211808,0.012759412,0.05451509,0.012943821,0.023955729,-0.004957115,0.00084740756,-0.032385897,0.0030581316,-0.0082808845,0.015525561,0.019178633,0.016359797,-0.021268614,-0.011240224,0.014919642,0.02039047,0.02026753,0.021813061,0.014182002,0.033492357,-0.009598098,0.007920845,-0.0042041074,-0.032719593,-0.022058941,-0.00077166775,-0.010151328,-0.0011262179,0.002711265,-0.010520148,0.012399373,0.004904426,-0.004878082,0.0035806263,-0.028890891,0.027450737,0.049808245,0.026344277,0.018001923,0.012768193,-0.010467459,-0.005958197,0.01584169,-0.024535304,-0.015288462,-0.044504266,0.032614216,-0.0052205576,-0.015789004,0.016526643,-0.024974374,0.019881148,0.04201034,0.05205629,0.016711053,-0.012276433,-0.005457656,0.005931853,-0.024254298,0.021971127,-0.021514492,0.0029988568,0.003505984,0.018493682,-0.0072798016,-0.01275063,-0.007846204,-0.0034335374,-0.018792251,0.008733128,-0.031507757,0.009501503,-0.025747139,0.010643088,0.0145244775,0.027942495,-0.01275063,-0.002544418,0.03856802,-0.018862503,0.012592564,-0.0152796805,0.010941656,0.0024105012,-0.023305904,0.04780608,0.008184289,-0.0093346555,0.0076178866,-0.03572284,-0.017668229,0.025237817,-0.0008660681,0.0023753757,0.015428965,-0.01213593,-0.01195152,-0.017378442,0.017510163,-0.010572837,0.043942254,-0.017966798,-0.031613134,0.028082998,0.0071612527,-0.0050054127,-0.005211776,0.016026102,-0.012856007,-0.014849391,0.021637432,-0.03303572,0.013760494,0.011292913,0.02488656,-0.020021651,0.040886316,0.028539633,-0.011257787,0.0047770957,0.012276433,-0.013224827,-0.020530973,0.033843614,0.0012118367,0.0047200164,-0.007336881,-0.01244328,-0.011380727,-0.013488269,-0.012557439,-0.015130396,-0.029312398,-0.0024258688,-0.0012118367,-0.017097436,0.005488391,0.03888415,7.772934e-05,0.0073763975,-0.008693611,0.014498133,0.008908756,-0.02729267,0.009905448,0.025676887,-0.008895584,-0.0028473772,0.005163478,0.0056903637,0.019968962,0.013971248,0.0032864485,-0.027433174,-0.013567302,-0.015920725,0.028047873,-0.01275063,0.012408154,-0.01318092,-0.00047008067,-0.0032513228,0.012171056,0.0027749306,-0.01441032,0.021725247,-0.022533137,0.020443158,-0.00093796605,-0.008179898,0.026748223,0.02471093,0.0012151297,-0.0067002275,0.004096535,-0.0006624488,0.023077587,-0.038076263,-0.004258991,-0.013014073,-0.00757837,0.021461803,0.0019736255,0.039867673,-0.0025114878,-0.02169012,-0.011450979,0.027995184,-0.014814265,-0.010897749,-0.031999514,0.022954646,0.028855765,0.008794597,0.01639492,-0.0009813244,0.013277516,-0.03589847,0.02962853,0.014278598,0.0011602459,-0.0032601042,0.007011968,0.0029417775,-0.012978947,-0.00030844758,-0.030594487,-0.0084213875,0.03073499,0.034633942,-0.003363286,-0.009685912,0.019758208,-0.038427517,0.015885599,-0.01447179,0.0325264,-0.02235751,0.0033918256,0.009606879,0.010405989,-0.0063665337,0.009273185,0.008267712,-0.007446649,-0.023622034,0.030014914,-0.0037935758,-0.008447732,-0.022761455,-0.009202934,-0.0017134757,-0.00010228989,0.014708888,-0.0023929384,0.0010148035,-0.012618909,-0.017720917,0.003659659,0.018124862,-0.022831706,-0.029470464,0.0039889626,-0.009044868,-0.0078242505,0.0061294353,-0.010414771,0.0011026177,-0.01817755,-0.023200527,0.004366564,-0.0003271081,0.009808852,-0.022129193,0.0026783347,0.0056025493,0.002581739,-0.0065509435,0.01719403,-0.05303981,-0.001036757,-0.018809814,0.0020405839,0.0041667866,0.011811017,0.00033918256,-0.00038418735,0.0015751682,0.02636184,0.012776975,0.0038352876,0.01515674,0.00054829026,0.009264404,0.014173221,0.023270778,0.0055410797,-0.0033105975,-0.006010886,0.043836877,0.024851434,0.015297243,-0.03368555,-0.0103884265,-0.02581739,0.02125105,0.01379562,-0.0089175375,-0.007938408,0.031894136,-0.037162993,-0.013330204,-0.020706601,0.011161192,0.0031569225,0.04935161,0.014515696,0.005795741,-0.026677972,-0.011635389,0.040956568,0.035582338,-0.0055762054,0.037549376,-0.03549452,-0.02673066,0.021795498,0.01817755,-0.0030559362,-0.015376276,-0.010924093,-0.0020405839,0.0063709244,-0.0067353533,-0.009887885,0.010493804,-0.0299271,0.015490435,0.0056903637,0.0027178512,-0.0017014012,0.012188619,0.002353422,0.025308069,0.0075125094,0.015490435,-0.022269696,0.0146035105,0.026958976,0.007464212,-0.0035828217,-0.021391552,0.005198604,-0.023639597,0.0010169989,0.022410197,-0.01232034,0.015016238,0.009958137,-0.0011262179,-0.014945987,-0.015183085,-0.016298326,-0.01842343,0.0009396125,-0.008452122,0.0051459153,-0.013584865,-0.008175507,-0.0058659925,0.006296282,0.020408032,0.0262389,-0.0049966313,0.053004686,0.0325264,-0.0061294353,-0.016842775,-0.0005222204,0.027556114,0.015683627,0.0089570545,-0.010177672,-0.0028320097,-0.025237817,-0.000842468,0.0076969196,-0.04313436,-0.00492638,0.03811139,0.005624503,-0.0031393596,0.007644231,-0.009448814,-0.02223457,-0.010247923,-0.014550822,-0.026555032,0.030629613,-0.0074115233,0.008329182,-0.019055694,-0.03979742,-0.004693672,-0.0063840966,-0.038076263,-0.01441032,0.031964388,0.027995184,0.005031757,-0.033176225,0.025571512,-0.00881216,0.017027184,-0.019196196,-0.009431251,-0.008250149,-0.022269696,0.0031678993,-0.009615661,-0.0016783499,-0.0037782083,-0.0069197635,0.033422105,0.0019363044,-0.0012831858,0.02815325,0.0055586426,0.006946108,-0.005945025,-0.017158905,-0.024219172,-0.00812721,0.035020325,-0.028047873,0.00954541,-0.0074071325,0.009387344,-0.0065377713,-0.017852638,0.007126127,-0.008592625,0.001170125,0.002518074,-0.03793576,-0.0019736255,-0.028627448,0.007275411,0.016087571,0.04503115,-0.010520148,0.0038879763,-0.011108504,0.018265365,-0.0061074817,-0.01657055,0.007815469,-0.02149693,-0.044890646,0.0057869595,0.018774688,0.013760494,0.0110645965,-0.03923541,0.02569445,0.046049796,0.002851768,-0.019020569,-0.0013128232,-0.026871162,0.0075300722,-0.009264404,0.0036706359,0.02021484,0.00025205436,0.045803916,0.008395043,-0.0050098035,0.030664738,-0.01774726,0.0046805,-0.013101887,0.016675927,0.004089949,-0.0059977137,0.0038221155,-0.019266447,-0.006269938,0.02169012,0.008790207,-0.012434498,0.020548536,0.008706784,-0.011626608,-0.006682665,0.006493864,0.0057210987,0.01830049,0.007991097,0.0010345617,0.022638515,-0.0015115029,0.024552867,0.008513592,0.005102008,-0.018318053,0.0059494157,-0.0412727,-0.004109707,-0.023411281,0.018493682,0.010739683,0.008860459,-0.00043522942,0.007481775,-0.007973534,0.0038396784,-0.006603632,-0.016702272,-0.02267364,0.0009560777,0.001425884,-0.014111751,0.0016596895,0.028328879,0.012206182,-0.02759124,0.00014969586,-0.016772524,-0.032561526,-0.0051766504,0.0016465173,-0.013286297,-0.01003717,0.014041499,-0.011530012,0.0012864788,-0.019424513,0.011126067,0.011407072,-0.0026695533,-0.010458678,0.0008995473,0.004116293,0.01256622,0.0059055085,0.030050037,0.022937084,0.021532055,-0.01003717,-0.013628772,-0.0065333806,-0.0022063332,-0.005444484,-0.004842956,-0.019389387,-0.0048824726,-0.003806748,0.008052567,0.018669311,-0.020495847,-0.0033566998,0.013936122,0.012943821,0.011415853,-0.02100517,-0.0039713997,0.019933837,-0.014533259,-0.023639597,-0.021040296,-0.013479488,-0.01798436,0.018528808,-0.0026519906,-0.035810653,-0.03572284,-0.0011580505,0.008882412,-0.01201299,-0.00068275584,0.01614026,0.03751425,-0.03370311,0.0077452175,-0.014954768,0.028486945,0.02458799,0.009167808,-0.0034115838,0.03185901,-0.011652952,0.0013655117,-0.01195152,0.014550822,0.040570185,-0.021409115,0.0017716526,-0.0029351916,-0.0030756942,0.0069768424,0.021426678,0.013066761,0.016236857,0.011494886,-0.008698002,-0.01625442,-0.034932513,0.008171117,0.0022502404,-0.028065436,-0.0060328394,0.0016926198,0.0077320454,0.014304942,-0.0025092924,-0.01854637,0.000665193,0.0154992165,0.0399028,-0.012302777,-0.0036311194,-0.029821722,-0.010959219,-0.0046673277,-0.0035191562,-0.011547575,-0.01859906,0.011977864,0.015472872,0.018037047,0.0055718147,0.06470154,0.035266206,-0.02186575,-0.0031130153,0.018388305,-0.039340787,0.004847347,0.020970045,0.003369872,0.029733907,-0.028451819,-0.00041602005,0.0032315645,0.0065948507,-0.009966918,0.015411402,0.015595811,0.006186514,-0.018159987,0.010002044,-0.03024323,0.02488656,0.028504508,-0.006805605,0.0437315,0.005308372,-0.03386118,0.033720676,0.019442076,-0.019231321,-0.017782386,0.013900997,0.0045751226,-0.023674723,-0.01859906,0.011319257,0.00076123985,0.019143507,0.019125944,0.03210489,0.02039047,0.02587008,-0.0037869897,0.005150306,-0.017237939,0.025887642,0.028241064,-0.0046058577,-0.013400455,0.0033084021,0.0032798625,0.0018803227,-0.011126067,-0.006722181,0.016061228,0.007244676,-0.021145673,-0.040640436,0.006915373,0.007692529,-0.028311316,-0.011793454,-0.021303738,0.028504508,-0.016315889,-0.008926319,0.0106869945,-0.02365716,0.018809814,-0.009615661,-0.024623116,0.019003006,-0.003216197,0.0040196977,0.018335616,0.033738237,-0.02999735,0.025975456,-0.00023284499,0.0030252011,-0.0067133997,0.0042370376,0.003776013,0.012829663,0.023024898,0.005637675,-0.021075422,-0.0041184886,-0.0019703323,-0.03386118,-0.0020987608,-0.01650908,0.0012941626,-0.033562608,0.004015307,-0.00917659,0.02555395,-0.026098397,0.00059164857,-0.012513531,-0.0006229324,0.008768253,-0.0062084678,-0.0099757,0.0021503516,-0.005536689,-0.003986767,-0.013444362,-0.02125105,0.014761576,-0.039375912,0.00059549045,0.00025246598,-0.034423187,-0.0004870947,-0.020530973,-0.01952989,-0.0058352575,0.0028385958,-0.012513531,-0.006072356,0.007029531,-0.005334716,0.014138095,-0.004164591,0.0066607115,0.0051415246,-0.03524864,-0.012891132,0.014796702,0.03164826,-0.010669432,0.0014796702,0.045171652,0.019003006,0.007244676,0.020548536,-0.02525538,-0.0026915069,0.015630938,-0.029101644,0.008030614,0.0027156558,0.03140238,-0.029417776,-0.013295079,-0.009000962,-0.014102969,0.01657055,0.011986646,-0.016236857,0.00080844,-0.0054005766,0.010818716,0.013900997,0.014717669,-0.02346397,0.0022052354,-0.0015960241,0.019248884,-0.014041499,-0.021409115,-0.0057430523,-0.027204856,-0.016842775,-0.0053566694,-0.011898831,0.005132743,0.0018605646,-0.005760615,0.02488656,-0.021092985,0.00062512775,-0.008373089,-0.0124959685,-0.03338698,-0.003165704,-0.01003717,-0.019582579,-0.018037047,-0.017597977,-0.014840609,0.020689039,0.035635024,0.03210489,-0.0075388537,0.0015345542,0.00850042,0.027696617,0.002667358,0.0052073854,-0.007060266,-0.009896667,0.0033786534,0.0124169355,0.008899975,0.010625525,-0.018089736,0.0174926,-0.009413688,0.015929505,0.007446649,-0.0005257879,0.011134848,-0.009369781,-0.0011690273,0.030348606,0.01835318,0.006981233,0.013005291,-0.0024061105,-0.005826476,-0.03270203,0.018458556,-0.0127155045,-0.010537711,0.002790298,-0.0020603419,-0.0032008297,-0.01952989,-0.017835075,0.0012041529,-0.004812221,0.03414218,-0.016763741,0.02223457,0.012680379,0.037619628,-0.01454204,0.028627448,0.020934919,-0.011582701,0.0092556225,0.027433174,0.00695928,0.00683634,0.0037430828,-0.0087463,-0.0039560325,0.016790086,-0.0004368759,-0.004601467,-0.0023929384,0.0048385654,-0.012153493,-0.008640923,0.008030614,0.007925237,0.0015202843,-0.0089570545,-0.009000962,0.010449897,-0.019038131,-0.010397208,0.02962853,0.016992059,0.013497051,0.0121974,0.011916394,0.006542162,-0.0085399365,0.0014489352,-0.043766625,-0.04194009,-0.046963066,0.014981112,-0.028715262,-0.009264404,0.014427883,0.004781486,-0.029066518,0.011609045,0.005879164,0.0012030553,-0.009466377,-0.012978947,0.020917356,-0.004597076,0.011047034,0.012671597,0.005931853,0.019986525,0.011916394,4.1471656e-05,-0.030014914,-0.0037847944,0.020249967,0.009958137,0.018792251,-0.005396186,-0.01928401,0.010572837,-0.0016498104,0.010599181,-0.023393719,0.0035916031,0.030295918,0.009229278,-0.0023270778,0.0055322982,0.0007524584,0.007064657,0.011793454,0.0015345542,-0.022743892,-0.025167566,-0.00029994056,0.006985624,0.004076777,0.0015378471,0.014111751,0.014041499,0.01650908,0.00714369,0.0100108255,-0.004206303,-0.00078429107,-0.01724672,0.020847104,0.020232404,0.004939552,0.004873691,0.0077276547,0.005475219,0.026713097,-0.0024895342,-0.007740827,-0.00640605,-0.007995488,0.006638758,0.014708888,-0.011714422,-0.010300612,0.004452183,0.02223457,-0.0038638273,-0.0019011786,0.010133765,0.018985443,0.007767171,0.025114877,-0.006880247,0.016842775,0.008474075,0.002193161,0.0027924934,0.005808913,0.0128735695,0.025097314,0.021303738,4.044258e-05,0.010151328,0.0067133997,0.00985276,-0.011231443,0.018440994,0.008557499,-0.016579332,-0.007991097,-0.016711053,0.0135497395,-0.023551783,-0.0046234205,0.0025312458,-0.0127945375,-0.002493925,0.0022041379,0.011837361,0.009887885,-0.009027305,-0.01515674,-0.0006767186,0.0025114878,-0.017510163,0.015191866,-0.024746057,0.02704679,-0.007850595,0.012206182,-0.0027244373,-0.0007541049,-0.02039047,-0.020302655,0.0017057919,-0.009211715,0.0035498913,-0.009782508,0.008087693,0.0004591039,-0.023709849,0.016456392,0.017659446,-0.0023270778,0.027134605,-0.0005109692,0.016913027,0.0041558095,-0.010880186,0.0068582934,0.014261035,-0.008013051,-0.010283049,0.014515696,-0.0110645965,0.008908756,-0.0045795133,0.0015576053,-0.0031678993,-0.007372007,0.006849512,0.02950559,0.0030449594,0.013532177,0.005396186,-0.00018976112,-0.019266447,-0.011775891,0.015349932,0.015481654,0.003986767,-0.0072271135,0.00079197483,0.008465295,-0.0019264253,0.0060767466,0.023604471,-0.0048034396,0.013268734,-0.020970045,-0.0068099955,-0.00017370758,0.0063884873,0.002981294,-0.016649583,-0.023692286,-0.009791289,-0.0038155294,-0.007828641,0.0040570186,-0.010414771,-0.00051426224,0.0067133997,0.015086489,-0.010195235,0.0262389,-0.005861602,0.0025027064,-0.010880186,-0.0064236126,0.012434498,0.010397208,-0.003585017,-0.00037924782,0.0057254895,0.0010148035,0.012961384,-0.008948273,0.0058220853,-0.008794597,0.014261035,-0.00069098844,-0.0021305934,-0.00591429,-0.0044192523,0.014032718,0.01663202,0.023288341,-0.016746178,-0.01066065,-0.006054793,-0.004676109,0.0061294353,0.0023117103,-0.020548536,-0.01847612,-0.0018528808,-0.026888724,0.015077707,0.00204717,-0.012452061,0.03326404,-0.0044916994,0.007688138,0.004002135,0.0018089737,0.005426921,-0.0011580505,0.028627448,0.00034275002,0.028434256,0.010792372,-0.0008951566,0.014041499,-0.006981233,-0.02414892,-0.0058747735,0.022375073,0.028205939,-0.011328039,0.0038726088,0.0037847944,0.015964631,0.023973292,-0.00221731,-0.02771418,-0.019635268,-0.001623466,-0.012671597,0.010476241,0.011029471,0.00800427,0.01651786,-0.0017178664,-0.004059214,0.0018517831,0.009905448,0.02722242,0.006757307,-0.010792372,0.014208347,0.002322687,0.0073456625,0.0007052582,-0.005058101,0.016833993,-0.012697942,-0.021918438,0.026449654,-0.02321809,-0.0052205576,-0.011187537,0.0018671507,-0.0063884873,-0.0076705753,0.0074686026,-0.026151085,0.01448057,-0.005901118,0.0007985609,0.0020658304,-0.030928181,0.008373089,-0.010932875,-0.014937205,-0.0124959685,0.0031920483,0.023481533,-0.01909082,-0.0026827254,-0.023182964,0.019248884,-0.0008775937,0.005795741,-0.017150125,0.0017321362,0.00021459609,-0.013892216,-0.0018517831,-0.014858172,0.006239203,0.0048385654,0.014884517,-0.0023841572,0.0069768424,0.017606758,-0.0006267743,-0.023622034,-3.6394893e-05,-0.010862623,0.007868158,-0.0036991755,-0.036425352,0.014059062,0.011424635,-0.0072490666,-0.00311082,0.009808852,-0.013110668,0.015104052,0.004842956,-0.017167687,0.014735232,-0.014559603,0.009229278,-0.012522313,0.0021031515,-0.00954541,0.019933837,0.012899914,0.015314806,0.013382892,0.01336533,0.0062567657,-0.01736088,-0.008755081,-0.004935161,0.013444362,-0.014858172,0.01805461,-0.0063401894,-0.004151419,-0.0054049673,-0.0022743891,-0.009923011,0.0357404,0.010063514,0.0011843948,-0.0039516417,0.0049790684,0.022023816,-0.0074203047,0.008039395,0.0052249483,-0.018950317,-0.0049483334,-0.01066065,0.008434559,0.0093346555,-0.008921929,0.0060504023,0.0065816785,-0.014621073,0.024746057,-0.030752553,0.019565016,-0.0076398402,0.006638758,-0.008013051,0.0017914108,-0.013189701,0.029347524,0.0019022763,-0.009273185,0.0030339826,0.03768988,-0.002605888,0.0032447367,-0.019055694,-0.012768193,-0.025044626,-0.02975147,0.0015378471,-0.00180129,-0.026291588,-0.0068582934,-0.023147838,-0.004324852,-0.018809814,-0.012469624,0.010713339,0.0009588219,0.015692407,-0.007244676,-0.0047902674,-0.018159987,-0.010212798,-0.029171895,0.010274268,0.0043007033,-0.015314806,-0.0014840609,-0.007521291,0.0039823763,0.012100805,-0.007833032,0.0004475783,0.0048341746,0.01952989,-0.0062787193,-0.025782265,0.013330204,0.0085794525,-0.0029044566,-0.015551905,-0.0035981892,0.008210633,-0.018792251,0.016772524,0.015437746,-0.017580414,0.0031217968,0.010423552,-0.022058941,-0.003246932,-0.003782599,0.022462886,0.010116202,-0.0069944053,0.009361,-0.009773727,0.004509262,0.031033559,0.004114098,0.008465295,-0.0065992414,0.0009906546,0.020566098,-0.022743892,-0.008307229,-0.0052512926,0.016298326,-0.0037518642,0.0043775407,-0.025712013,0.009071212,0.003732106,-0.022568263,0.0142259095,-0.012478406,-0.0077144825,0.0071656434,-0.008693611,0.010713339,0.010827498,0.008307229,-0.0007370909,-0.0004934064,0.012829663,0.009088775,0.005782569,-0.0015630937,-0.008364308,-0.021760372,0.008105256,0.004509262,-0.003240346,-0.03098087,-0.024306986,-0.010739683,-0.014700106,0.0014247863,-0.003916516,0.007464212,0.023586908,0.020811979,-0.0048385654,0.010116202,0.015736315,0.0038111387,0.004338024,-0.0010899944,0.020917356,0.021198362,0.0044785272,0.03786551,0.030647175,-0.036987364,-0.008834114,0.02144424,0.016342234,-0.0062787193,0.011846143,0.018370742,-0.025167566,-0.014463008,-0.018493682,-0.006265547,0.004759533,-0.028838202,0.017756043,0.010054733,0.021215925,0.00020526582,0.015332369,-0.0029483635,0.0016278567,-0.008741909,-0.02876795,0.024535304,-0.00095388235,0.01613148,-0.019319136,-0.0012019576,0.0038221155,0.0041206838,0.01750138,-0.019125944,0.012733067,0.0062743286,0.016605675,0.009598098,-0.0122588705,0.0054049673,0.027977621,-0.01817755,0.0027859074,0.020302655,0.018511245,-0.0015894381,0.0014105164,0.009448814,0.010774809,-0.0067441347,0.008390652,-0.014998675,0.02537832,0.0019780162,-0.004755142,-0.0041009258,0.00031393598,0.0013183116,0.0062743286,0.03321135,-0.002291952,-0.019670393,0.018019486,-0.0024961203,-0.029716345,-0.015789004,0.010730902,-0.013558521,-0.025448572,-0.012610127,0.0064236126,-0.0005757322,-0.020425595,-0.014664981,0.015964631,-0.032052204,-0.0027463909,0.0162632,-0.0049790684,0.0145244775,0.008983399,-0.019968962,0.0050976174,-0.0034401235,-0.008983399,0.02525538,-0.0044565736,-0.0061426074,-0.013865871,-0.03159557,-0.0060811373,0.00757837,-0.022515574,0.012223745,-0.014041499,0.0020790026,0.0008858263,0.007740827,-0.006783651,-0.0076047145,-0.0021415702,0.0034818354,-0.00689781,-0.009703475,-0.004131661,0.0045751226,0.010678213,-0.018950317,-0.013444362,0.0033808488,-0.008588234,-0.017896546,0.014094188,0.01601732,-0.018528808,0.0065465528,0.002353422,-0.0068407306,-0.0026958976,-0.0008913147,-0.02149693,0.013049198,-0.008509201,-0.013163357,-0.02291952,-0.0024983156,-0.012267652,0.0031130153,0.027029227,0.016825212,0.009396126,-0.013707805,0.006621195,-0.012803319,0.010432334,-0.0029373867,0.0030647176,0.004597076,-0.013154576,0.009202934,0.012127149,0.009958137,-0.019512327,0.012004209,-0.017027184,-0.0060811373,0.024833871,-0.0043621734,0.005440093,-0.020671476,0.0064763012,-0.014173221,0.0038945621,-0.0012480601,-0.004114098,0.018915191,0.004208498,-0.002298538,0.025079751,0.010458678,0.008847286,0.013830746,-0.008210633,0.0025531994,-0.0067309625,-0.01805461,0.020530973,0.028082998,-0.021040296,0.005857211,0.006880247,0.0047331885,0.001780434,-0.020039214,-0.030699864,-0.013444362,-0.0027683445,-0.006089919,0.010959219,-0.002875917,0.036390226,0.009527847,0.013259953,-0.0027002883,-0.015516779,-0.025308069,-0.006217249,-0.0006426906,0.0013567302,0.0038506552,0.0017826294,-0.0071788155,0.0025466133,-0.020109465,-0.013409236,-0.0054049673,-0.01639492,-0.018950317,0.00011251202,-0.018335616,-0.014427883,0.0075608073,0.012785756,-0.017914109,-0.0061645606,-0.0015894381,-0.02021484,-0.010809935,0.00461903,0.010458678,-0.0035674542,0.006313845,-0.0033281604,-0.018880066,0.0061645606,-0.0124169355,0.008891193,-0.018230239,0.028662574,0.0057430523,-0.0017551874,0.0048210025,-0.01896788,0.031138934,0.004078972,0.0049922406,0.034844697,-0.009764945,0.012030553,0.004921989,0.021092985,0.021409115,-0.0018880065,0.021777935,0.0006026253,0.022743892,0.019494765,-0.013567302,-0.0022469473,-0.0067485254,0.016192948,-0.0022721938,-0.026168648,-0.0046278113,-0.021461803,0.0077276547,-0.020091902,0.013163357,-0.0033347465,-0.0021163237,-0.019933837,0.017764824,0.008179898,-0.009562972,0.004046042,0.01743113,0.00037458268,0.0059362436,-0.019178633,-4.1763224e-06,0.013558521,-0.0027068744,-0.022287259,0.00875069,-0.0021207142,0.004759533,0.007850595,-0.008632141,-0.0018880065,0.004553169,-0.022304822,0.014770358,0.0016091962,0.0006190905,-0.0089570545,-0.007837422,-0.005584987,0.008983399,-0.0038155294,-0.018318053,-0.0089570545,0.019143507,-0.0237801,-0.0061118724,-0.0035586727,-0.02734536,-0.010247923,-0.01072212,0.011301694,0.008913147,0.010634307,0.014621073,0.0018550762,-0.009677131,0.012092023,0.006217249,0.00078429107,0.027538551,-0.008597015,-0.0018243411,-0.0019044717,0.0073105367,0.024096232,0.006621195,0.020144591,-0.0070514847,0.008184289,-0.03110381,-0.013435581,0.022691203,-0.022708766,0.025343195,-0.0019637463,-0.0077583897,0.018704437,-0.0008655193,-0.01601732,-0.0050668824,0.031191623,0.015534342,-0.008513592,-0.006085528,1.6422294e-06,0.015332369,-0.0090360865,0.00030103824,-0.01786142,-0.0144454455,-0.0068758563,0.03210489,0.0018408063,-0.011863706,0.008337963,0.0069768424,0.01896788,0.0039428603,0.022726329,0.011249006,0.0077891243,0.0060987,-0.008337963,0.008087693,-0.006981233,0.01558703,-0.01256622,-0.015446528,0.0152796805,0.013707805,0.0028473772,-0.005018585,0.030085163,0.011503668,0.018265365,-0.0060152765,0.036038972,0.015244555,-0.012926258,0.0052952,-0.019494765,-0.0045312154,-0.00727102,0.0016552988,-0.019055694,0.016096354,0.04464477,0.0019856999,0.0016080985,-0.0074115233,-0.0060504023,0.0023182963,0.0047024535,0.011679296,0.0039516417,-0.016500298,0.0003605873,-0.019810896,-0.010651869,-0.008386262,-0.02414892,-0.0065992414,-0.008676048,0.023499094,0.009220497,-0.008834114,0.006252375,0.020162154,0.00015834007,0.00016670987,0.01719403,0.0065202084,-0.0031064292,-0.018370742,-0.00017905876,0.004379736,-0.0012974556,-0.012864788,-0.0033896302,-0.010853842,-0.0041975216,0.0067924326,0.0010323663,-0.005650847,0.00047968538,0.0016860337,0.0074510397,0.016623238,0.0118197985,-0.008601407,-0.02803031,0.015306025,-0.0016432243,0.02161987,-0.010423552,0.009510284,0.016667146,6.428278e-05,-0.011556356,0.0072095506,0.009756164,-0.0023336639,0.0056815823,0.00030570338,0.00016657266,0.02088223,-0.022199444,0.007999878,0.01952989,-0.01324239,-0.010599181,0.016166605,0.009202934,0.023305904,-0.0064719105,0.009668349,-0.013075543,-0.0113631645,-0.017554069,0.010370864,-0.00046129926,-0.009000962,0.015068926,0.014577166,0.007609105,0.005185432,0.004553169,0.0010987759,0.0061952956,0.0013655117,0.01767701,-0.034405626,-0.0028539633,-0.004693672,-0.016034883,0.0049922406,-0.0106079625,-0.022252133,-0.0018430017,0.009826415,0.022076504,0.0059098992,0.007920845,0.0017409177,0.0021876725,-0.0077627804,-0.011196318,-0.0010054732,-0.00037156406,-0.012601346,-0.005132743,-0.019565016,0.0014182002,-0.0053127627,-0.0037496688,-0.0052249483,0.0056815823,0.026203774,0.002783712,0.0041492237,-0.005031757,0.011284132,-0.005567424,0.02297221,-0.011679296,-0.0071129547,-0.001671764,0.0019527695,-0.009123901,0.005167869,0.01730819,0.0043007033,0.015455309,0.013409236,0.009536629,0.02759124,0.008236977,-3.8658854e-05,-0.015920725,0.004392908,-0.011415853,-0.018880066,0.016596895,0.008926319,-0.004226061,-0.0062787193,-0.001814462,0.003400607,-0.017641883,-0.005365451,0.010730902,-0.020179717,0.021022733,-9.12445e-05,0.008114037,0.0120393345,0.0070997826,0.013101887,-0.0016410289,0.019617705,-0.0056596287,-0.007042703,-0.024535304,0.0063577523,0.0075915423,-0.012970165,-0.007547635,-0.007692529,-0.0045268247,0.0008369796,0.026572594,-0.011600263,0.006801214,-0.0059362436,-0.010230361,0.0017584804,0.002063635,-0.00067616976,-0.015068926,0.008970226,-0.022252133,0.0033918256,0.00505371,0.00807013,-0.022585826,-0.013110668,-0.01454204,-0.013988811,0.03338698,0.01700084,0.00029829406,0.016087571,-0.014664981,0.010230361,-0.006089919,-0.0069944053,0.0020746118,-0.0057123173,-0.009088775,0.02304246,-0.0035740403,0.0023270778,-0.00929953,-0.010247923,0.0030691084,0.006981233,-0.012759412,0.018634185,0.011969083,-0.01434885,0.0040855585,0.0002471148,-0.0063665337,0.009466377,0.007854985,-0.012557439,0.023323467,-0.021848187,0.00064104405,-0.019125944,-0.008346745,0.004812221,0.006542162,-0.020741727,0.021303738,-0.01859906,0.008285275,0.017668229,0.012522313,-0.011477323,0.013760494,0.0012546462,0.0038660227,0.039130032,-0.0026563813,-0.0026102788,-0.0073763975,0.03554721,0.0068846378,0.024500178,-0.007288583,0.013347767,-0.0002218682,0.0054181395,0.01884494,0.007257848,0.022322385,-0.01244328,-0.011169974,-0.021584744,-0.0048078303,-0.0007952679,-0.010827498,0.00037513152,0.007973534,-0.0039450554,0.00030954526,-0.007881329,-0.03235077,0.012759412,0.008166726,-0.0011218272,0.010581618,0.017773606,0.0062787193,0.013637554,0.01651786,-0.004342415,0.0033896302,0.01336533,-0.027854683,0.0078637665,-0.005321544,-0.034405626,9.2067756e-05,0.00037321058,-0.018230239,0.00317229,0.011029471,-0.0027705398,0.0026651626,0.004239233,-0.021725247,0.0004366015,-0.030945744,0.010792372,-0.023130275,-0.026818473,0.0028012746,-0.014190784,0.0127945375,-0.0028407911,0.012276433,-0.014805484,-0.0068714656,0.0040745814,-0.008245759,-0.010370864,0.006985624,0.037900634,-0.011477323,-0.01583291,0.014120532,-0.005839648,0.002397329,0.011029471,0.00149394,-0.007481775,-0.00868483,0.020899793,-0.0067616976,-0.010116202,0.00800866,0.0076486217,-0.024675805,-0.0021920633,0.030664738,-0.01232034,-0.0022085286,0.004021893,0.01299651,-0.010695776,-0.00837748,0.023270778,8.5550295e-05,-0.006155779,-0.021830624,-0.008355526,0.0072490666,0.010326956,0.0052864184,-0.012144712,-0.020776853,0.014427883,0.03591603,-0.004724407,0.0028166422,-0.0120393345,0.007508119,-0.023797663,0.0044631595,0.00037705246,0.01989871,0.008605797,0.006880247,-0.013602428,0.01447179,0.0106869945,0.010081077,-0.005549861,0.010379645,-0.0011481714,-0.014735232,0.0030625223,0.013936122,0.021637432,-0.018493682,0.0065333806,-0.02100517,-0.00046075042,0.010423552,0.030594487,-0.0073105367,0.015490435,0.014190784,0.004522434,-0.0006459836,-0.028557196,0.0012030553,0.012030553,0.0008265517,-0.0017936062,-0.035863344,0.004144833,-0.016473955,-0.02427186,-0.0031239921,-0.0014588144,-0.025272943,0.006103091,0.0035367191,0.011082159,0.0005949416,-0.0055762054,-0.0015806566,-0.0025597855,0.008035004,0.02815325,-0.014919642,0.004359978,0.007547635,0.031051122,-0.0051151803,0.0019769184,-0.014919642,-0.031437505,-0.011635389,-0.012092023,-0.014779139,0.0028188375,0.0026476,-0.001866053,0.0015641914,-0.0016673732,0.0027463909,-0.018037047,0.0034335374,-0.00948394,-0.009879104,0.002005458,0.005470828,0.0005965881,0.031332128,-0.022217007,0.007771562,-0.0042370376,0.0080833025,0.021918438,0.0060284487,-0.020811979,-0.0003540012,-0.008790207,0.0041360515,-0.004755142,-0.009009743,-0.0064543476,0.0068099955,-0.020689039,-0.016623238,0.006757307,0.012610127,-0.008733128,0.009966918,0.018265365,0.019301573,0.013602428,-0.010968001,-0.0074861655,0.006133826,0.011854924,-0.015639719,0.011749547,-0.001558703,-0.025905205,-0.007372007,-0.009879104,-0.0052556833,-0.008021832,-0.0047156257,0.011705641,-0.009123901,0.006348971,0.0016695686,0.008491638,0.008948273,-0.009966918,0.0025883252,-0.016737398,0.0034818354,0.023850352,0.010441115,-0.023130275,0.00449609,-0.010379645,-0.0060328394,-0.011907613,0.0014840609,-0.010537711,-0.021461803,-0.013154576,-0.009510284,-0.0049175983,0.007837422,0.003984572,0.0065158177,-0.00893071,0.022287259,0.010274268,-0.011802236,0.022498012,-0.023253215,-0.0028868937,0.0058703832,0.009396126,-0.0049439427,-0.00591429,-0.013022854,0.016992059,0.03793576,0.0015422378,-0.03147263,-0.024956811,0.00082600286,0.0023446407,-0.0030691084,0.008482857,-0.008232586,-0.0036684405,0.019758208,-0.03024323,0.0059845415,0.025799828,0.006054793,0.056938764,0.015622156,0.0050668824,0.010730902,-0.011784673,-0.0075739794,0.012531094,0.015815347,-0.009764945,0.0106869945,-0.034229998,-0.0035806263,0.01582413,-0.021971127,-0.028258627,-0.0039077345,0.0061426074,0.002421478,-0.01336533,0.006089919,-0.03473932,-0.017141342,-0.011319257,0.009308311,0.0006915373,0.007152471,-0.010379645,0.00046815976,0.0074686026,-0.008557499,0.016412484,0.009027305,-0.011055815,0.007885721,0.0037496688,-0.01680765,-0.019424513,0.0063665337,-0.009132682,0.021672558,-0.010124983,-0.011688078,-0.0063665337,0.021075422,-0.011090941,-0.030945744,0.008355526,0.01909082,-0.010318175,0.03073499,0.0074686026,-0.0042963126,0.024921685,-0.014568385,0.012697942,0.013619991,0.009510284,-0.006445566,0.011986646,-0.018581497,-0.010423552,-0.012171056,-0.0064236126,-0.009194152,-0.0023819618,0.017720917,0.007846204,0.005277637,-0.020706601,-0.0074378676,-0.017905327,-0.008043786,-0.017483817,0.0013688047,-0.010634307,-0.011196318,-0.022954646,0.005980151,0.030155415,-0.024535304,0.014682543,0.01583291,-0.0030515455,-0.0075125094,-0.014585948,0.00031448482,-0.008364308,0.010432334,-0.004812221,0.007029531,-0.009308311,0.026994102,0.0054620467,-0.012943821,-0.000822161,9.7761964e-05,-0.025676887,0.02100517,0.018247802,-0.008904366,0.012056897,-0.0018682483,-0.014269817,-0.011047034,0.0033171836,-0.023920603,-0.018107299,0.012469624,0.0005406065,-0.013233609,-0.00086497044,-0.014498133,-0.01152123,0.00016355405,0.013426799,0.0027727352,0.00837748,-0.005334716,0.0003803455,-0.011266569,-0.015068926,0.013110668,0.030541798,-0.016351014,0.011187537,0.0075388537,0.010915312,0.00634458,0.0051766504,-0.0021130305,0.0073895697,-0.00040943397,-0.0030471548,0.00015628194,0.010502585,-0.0032425413,0.01361121,0.008311619,-0.029821722,0.0027968842,-0.016851556,-0.043942254,0.0071041733,-0.00363551,-0.01595585,0.019125944,0.023622034,-0.0149020795,0.008118428,-0.0017914108,-0.01515674,0.012759412,-0.011099722,-0.0042655775,-4.126584e-05,-0.0077759526,0.013479488,-0.013233609,-0.021602307,0.0049966313,0.0006931838,0.01582413,0.0028539633,-0.006024058,-0.015411402,0.008399433,-0.008667267,-0.004485113,-0.011573919,0.008640923,-0.011670515,0.02334103,0.0002738707,-0.014454227,0.014199565,0.0022963427,0.02414892,-0.013391674,-0.016500298,0.018212676,-0.0064543476,0.0051107896,-0.01318092,-0.010546492,-0.01441032,-0.022058941,-0.0055937683,-0.0007244676,0.015929505,0.020970045,0.007925237,-0.023007335,-5.2551342e-05,-0.015507998,-0.026537469,-0.014700106,0.0028407911,0.008017441,-0.0068582934,0.005580596,0.020530973,-0.019354261,0.009949355,-0.023007335
