sign,0,1,2,3,4,5,6,7,8,9,10,11,12,13,14,15,16,17,18,19,20,21,22,23,24,25,26,27,28,29,30,31,32,33,34,35,36,37,38,39,40,41,42,43,44,45,46,47,48,49,50,51,52,53,54,55,56,57,58,59,60,61,62,63,64,65,66,67,68,69,70,71,72,73,74,75,76,77,78,79,80,81,82,83,84,85,86,87,88,89,90,91,92,93,94,95,96,97,98,99,100,101,102,103,104,105,106,107,108,109,110,111,112,113,114,115,116,117,118,119,120,121,122,123,124,125,126,127,128,129,130,131,132,133,134,135,136,137,138,139,140,141,142,143,144,145,146,147,148,149,150,151,152,153,154,155,156,157,158,159,160,161,162,163,164,165,166,167,168,169,170,171,172,173,174,175,176,177,178,179,180,181,182,183,184,185,186,187,188,189,190,191,192,193,194,195,196,197,198,199,200,201,202,203,204,205,206,207,208,209,210,211,212,213,214,215,216,217,218,219,220,221,222,223,224,225,226,227,228,229,230,231,232,233,234,235,236,237,238,239,240,241,242,243,244,245,246,247,248,249,250,251,252,253,254,255,256,257,258,259,260,261,262,263,264,265,266,267,268,269,270,271,272,273,274,275,276,277,278,279,280,281,282,283,284,285,286,287,288,289,290,291,292,293,294,295,296,297,298,299,300,301,302,303,304,305,306,307,308,309,310,311,312,313,314,315,316,317,318,319,320,321,322,323,324,325,326,327,328,329,330,331,332,333,334,335,336,337,338,339,340,341,342,343,344,345,346,347,348,349,350,351,352,353,354,355,356,357,358,359,360,361,362,363,364,365,366,367,368,369,370,371,372,373,374,375,376,377,378,379,380,381,382,383,384,385,386,387,388,389,390,391,392,393,394,395,396,397,398,399,400,401,402,403,404,405,406,407,408,409,410,411,412,413,414,415,416,417,418,419,420,421,422,423,424,425,426,427,428,429,430,431,432,433,434,435,436,437,438,439,440,441,442,443,444,445,446,447,448,449,450,451,452,453,454,455,456,457,458,459,460,461,462,463,464,465,466,467,468,469,470,471,472,473,474,475,476,477,478,479,480,481,482,483,484,485,486,487,488,489,490,491,492,493,494,495,496,497,498,499,500,501,502,503,504,505,506,507,508,509,510,511,512,513,514,515,516,517,518,519,520,521,522,523,524,525,526,527,528,529,530,531,532,533,534,535,536,537,538,539,540,541,542,543,544,545,546,547,548,549,550,551,552,553,554,555,556,557,558,559,560,561,562,563,564,565,566,567,568,569,570,571,572,573,574,575,576,577,578,579,580,581,582,583,584,585,586,587,588,589,590,591,592,593,594,595,596,597,598,599,600,601,602,603,604,605,606,607,608,609,610,611,612,613,614,615,616,617,618,619,620,621,622,623,624,625,626,627,628,629,630,631,632,633,634,635,636,637,638,639,640,641,642,643,644,645,646,647,648,649,650,651,652,653,654,655,656,657,658,659,660,661,662,663,664,665,666,667,668,669,670,671,672,673,674,675,676,677,678,679,680,681,682,683,684,685,686,687,688,689,690,691,692,693,694,695,696,697,698,699,700,701,702,703,704,705,706,707,708,709,710,711,712,713,714,715,716,717,718,719,720,721,722,723,724,725,726,727,728,729,730,731,732,733,734,735,736,737,738,739,740,741,742,743,744,745,746,747,748,749,750,751,752,753,754,755,756,757,758,759,760,761,762,763,764,765,766,767,768,769,770,771,772,773,774,775,776,777,778,779,780,781,782,783,784,785,786,787,788,789,790,791,792,793,794,795,796,797,798,799,800,801,802,803,804,805,806,807,808,809,810,811,812,813,814,815,816,817,818,819,820,821,822,823,824,825,826,827,828,829,830,831,832,833,834,835,836,837,838,839,840,841,842,843,844,845,846,847,848,849,850,851,852,853,854,855,856,857,858,859,860,861,862,863,864,865,866,867,868,869,870,871,872,873,874,875,876,877,878,879,880,881,882,883,884,885,886,887,888,889,890,891,892,893,894,895,896,897,898,899,900,901,902,903,904,905,906,907,908,909,910,911,912,913,914,915,916,917,918,919,920,921,922,923,924,925,926,927,928,929,930,931,932,933,934,935,936,937,938,939,940,941,942,943,944,945,946,947,948,949,950,951,952,953,954,955,956,957,958,959,960,961,962,963,964,965,966,967,968,969,970,971,972,973,974,975,976,977,978,979,980,981,982,983,984,985,986,987,988,989,990,991,992,993,994,995,996,997,998,999,1000,1001,1002,1003,1004,1005,1006,1007,1008,1009,1010,1011,1012,1013,1014,1015,1016,1017,1018,1019,1020,1021,1022,1023,1024,1025,1026,1027,1028,1029,1030,1031,1032,1033,1034,1035,1036,1037,1038,1039,1040,1041,1042,1043,1044,1045,1046,1047,1048,1049,1050,1051,1052,1053,1054,1055,1056,1057,1058,1059,1060,1061,1062,1063,1064,1065,1066,1067,1068,1069,1070,1071,1072,1073,1074,1075,1076,1077,1078,1079,1080,1081,1082,1083,1084,1085,1086,1087,1088,1089,1090,1091,1092,1093,1094,1095,1096,1097,1098,1099,1100,1101,1102,1103,1104,1105,1106,1107,1108,1109,1110,1111,1112,1113,1114,1115,1116,1117,1118,1119,1120,1121,1122,1123,1124,1125,1126,1127,1128,1129,1130,1131,1132,1133,1134,1135,1136,1137,1138,1139,1140,1141,1142,1143,1144,1145,1146,1147,1148,1149,1150,1151,1152,1153,1154,1155,1156,1157,1158,1159,1160,1161,1162,1163,1164,1165,1166,1167,1168,1169,1170,1171,1172,1173,1174,1175,1176,1177,1178,1179,1180,1181,1182,1183,1184,1185,1186,1187,1188,1189,1190,1191,1192,1193,1194,1195,1196,1197,1198,1199,1200,1201,1202,1203,1204,1205,1206,1207,1208,1209,1210,1211,1212,1213,1214,1215,1216,1217,1218,1219,1220,1221,1222,1223,1224,1225,1226,1227,1228,1229,1230,1231,1232,1233,1234,1235,1236,1237,1238,1239,1240,1241,1242,1243,1244,1245,1246,1247,1248,1249,1250,1251,1252,1253,1254,1255,1256,1257,1258,1259,1260,1261,1262,1263,1264,1265,1266,1267,1268,1269,1270,1271,1272,1273,1274,1275,1276,1277,1278,1279,1280,1281,1282,1283,1284,1285,1286,1287,1288,1289,1290,1291,1292,1293,1294,1295,1296,1297,1298,1299,1300,1301,1302,1303,1304,1305,1306,1307,1308,1309,1310,1311,1312,1313,1314,1315,1316,1317,1318,1319,1320,1321,1322,1323,1324,1325,1326,1327,1328,1329,1330,1331,1332,1333,1334,1335,1336,1337,1338,1339,1340,1341,1342,1343,1344,1345,1346,1347,1348,1349,1350,1351,1352,1353,1354,1355,1356,1357,1358,1359,1360,1361,1362,1363,1364,1365,1366,1367,1368,1369,1370,1371,1372,1373,1374,1375,1376,1377,1378,1379,1380,1381,1382,1383,1384,1385,1386,1387,1388,1389,1390,1391,1392,1393,1394,1395,1396,1397,1398,1399,1400,1401,1402,1403,1404,1405,1406,1407,1408,1409,1410,1411,1412,1413,1414,1415,1416,1417,1418,1419,1420,1421,1422,1423,1424,1425,1426,1427,1428,1429,1430,1431,1432,1433,1434,1435,1436,1437,1438,1439,1440,1441,1442,1443,1444,1445,1446,1447,1448,1449,1450,1451,1452,1453,1454,1455,1456,1457,1458,1459,1460,1461,1462,1463,1464,1465,1466,1467,1468,1469,1470,1471,1472,1473,1474,1475,1476,1477,1478,1479,1480,1481,1482,1483,1484,1485,1486,1487,1488,1489,1490,1491,1492,1493,1494,1495,1496,1497,1498,1499,1500,1501,1502,1503,1504,1505,1506,1507,1508,1509,1510,1511,1512,1513,1514,1515,1516,1517,1518,1519,1520,1521,1522,1523,1524,1525,1526,1527,1528,1529,1530,1531,1532,1533,1534,1535
aries,0.032085653,0.0045723324,0.037086345,0.03934554,0.023543863,-0.028684167,0.014481697,0.0024194333,-0.016931275,0.014799,-0.014342084,0.035512522,-0.005451261,-0.018035488,0.027719567,0.054880682,0.010090227,0.022769645,0.031146437,0.020345451,-0.021576585,-0.050743055,-0.05848524,-0.0020402565,0.015915906,0.0108581,-0.019279314,0.06696357,0.03929477,0.007215464,0.045437753,-0.034370232,-0.048153862,-0.0047658873,0.0032047576,-0.012742878,-0.023074254,0.013999397,0.0024844804,-0.009937922,-0.0056448155,0.012793646,0.08823554,0.03723865,0.013466328,0.008078528,-0.023937318,-0.014900536,0.042315494,0.012945952,-0.018200485,-0.017616648,0.0055972203,-0.014062857,-0.062495947,-0.04579313,0.0387617,0.03086721,0.0016547338,0.035055608,0.009144665,-0.03289795,-0.004223299,-0.04566621,0.019710846,0.01504015,-0.028506478,0.015230532,-0.04061475,0.02045968,0.046123125,0.015090918,0.026221897,0.051123817,0.037340187,-0.017959334,0.008719479,0.01281903,0.007856416,-0.042366263,-0.020954672,-0.0010796225,-0.02936954,-0.0048928084,-0.04188396,-0.017375497,-0.044092387,-0.005289437,-0.018949319,0.008414868,0.0126540335,0.028734935,0.04465084,-0.012882491,-0.006028752,-0.025473064,0.009836385,-0.033227943,0.015535142,0.02678035,0.0028097157,-0.022426957,0.015090918,0.01889855,0.05427146,0.017299345,0.009398507,-0.0353856,-0.030892594,0.0038647472,-0.115447424,0.015065534,-0.011575203,0.036781732,0.035639443,-0.01068041,0.0060858666,0.008966975,0.020002764,-0.01660128,-0.023442326,-0.038279403,-0.014088241,-0.0037759026,-0.034268696,-0.023150407,-0.012114619,0.0075835353,-0.0657959,-0.06462822,-0.006177884,0.039497845,0.02538422,-0.030714905,-0.027389573,-0.05013383,-0.02424193,0.016347436,-0.02461,0.019203162,0.025968056,-0.029826457,-0.02087852,-0.03376101,-0.0138978595,-0.038660165,-0.0056511615,0.027795719,0.020167762,0.022909258,-0.0014246893,0.049321536,-0.030105684,0.020535832,0.03218719,-0.03134951,0.042188574,-0.014710155,0.009328701,-0.026628045,0.009817347,0.02634882,-0.033380248,0.0071202735,0.03165412,0.023734245,-0.014037473,-0.0012636582,-0.055388365,-0.016512435,-0.009531775,-0.0497023,0.0015825474,0.02208427,-0.0020735734,0.008719479,0.045615442,0.022147732,-0.003588694,0.026298052,0.019228546,-0.0038901316,0.035715595,-0.051961496,-0.029217236,0.036730964,-0.039497845,-0.037568644,-0.042645488,0.00012870593,-0.012381153,0.014062857,0.032390263,-0.011035789,0.012527112,0.016588587,0.019926611,0.0009043128,-0.003585521,0.025054224,-0.027871873,-0.0130601805,-0.0045532943,-0.015078226,-0.007183734,0.024686152,-0.018454326,0.015116302,-0.0018673266,0.0036235973,0.072091185,-0.017096272,0.0018816052,-0.011771931,0.0022449167,-0.013072873,0.014570542,0.009373123,0.01660128,-0.0025209703,-0.010045805,-0.020675447,0.019710846,0.0031571623,-0.025498448,0.020675447,0.05523606,-0.032339495,0.0005596427,0.008097566,-0.034801763,0.003826671,0.018428942,-0.012013081,-0.007818339,-0.04404162,0.03454792,-0.036502507,0.02226196,0.030257989,-0.0021846294,0.018200485,0.014050165,-0.06554205,0.04091936,0.014760924,-0.007748533,-0.038000174,-0.019875843,0.038279403,0.08331101,0.013542481,0.022668108,0.02797341,-0.0031666814,-0.022122346,0.06335901,0.003017549,0.045107756,-0.030841826,0.012780954,-0.020650063,-0.015090918,-0.04751926,0.009189087,0.0007075851,0.018200485,-0.03302487,-0.018073564,-0.1011815,0.034624074,-0.07305578,-0.023366174,0.044930067,-0.04627543,-0.06417131,-0.01702012,0.034750994,0.0086687105,0.027440341,-0.029471079,-0.043077018,0.0057082763,-0.057977557,0.048280783,0.028861856,-0.013783631,-0.0114038605,0.02327733,-0.0007892906,-0.04571698,-0.02052314,-0.013732863,0.015903214,0.014697462,-0.00095666776,0.04693542,-0.031374894,0.0057558715,0.028633399,0.0040233987,-0.0013294985,-0.0024511637,0.008801978,0.035487138,0.036680195,0.014215163,-0.008116604,0.032923333,0.020789675,-0.026298052,-0.022008117,0.034319464,-0.055743746,-0.024698844,-0.0076977643,0.016347436,-0.009671387,0.009290624,-0.0029160122,-0.019101625,0.029547231,0.020167762,0.03640097,0.001794347,-0.008237179,0.044549305,-0.047265414,-0.035233296,-0.053053018,-0.021157747,-0.002048189,-0.01954585,0.041020896,-0.0090938965,-0.010299647,-0.0212339,-0.03947246,0.08468176,-0.010591566,-0.022287345,-0.057622176,-0.053053018,-0.067877404,-0.026704198,-0.005682892,0.0069298916,-0.0638667,-0.03893939,0.02213504,-0.046453122,-0.014189779,0.029141083,0.025066916,-0.005302129,0.028633399,0.04444777,-0.008452944,0.005327513,0.0015063947,-0.036375586,-0.027998794,-0.023607323,0.00785007,0.017832413,0.0016642528,-0.015788984,0.017426265,-0.04579313,-0.02858263,0.034979455,-0.0041312817,-0.008852746,0.026450356,-0.032212574,0.054728378,-0.002727217,-0.008078528,0.033126406,0.023899242,0.025828443,0.02250311,-0.069603525,-0.0045469482,-0.031451046,0.024635384,-0.0077421865,-0.06457745,0.03825402,-0.0099315755,0.0065300902,-0.0210689,-0.01847971,0.031501815,0.0029223582,0.0048610778,0.0077168024,0.0630544,0.0334564,-0.05889139,0.008199102,-0.046960805,-0.00902409,0.027948026,0.010877138,-0.0068156626,-0.017768953,0.014215163,-0.024660768,-0.0074756523,-0.01798472,-0.019418927,0.04361009,0.035715595,-0.00324918,0.013986705,0.038964774,-0.0037663835,-0.0049308846,-0.010807332,-0.03404024,-0.016042827,0.06797894,-0.041833192,0.006285767,0.006517398,0.051352274,-0.008414868,0.031806428,-0.009341393,-0.023150407,0.029572615,0.0310449,0.021348128,0.031171821,0.024254622,0.024800383,-0.031425662,0.021970041,-0.019507771,0.0300803,-0.03376101,-0.029801073,0.005410012,0.0034141773,0.036477122,-0.012926914,-0.012749224,-0.07782801,-0.006406342,-0.040944744,-0.021373512,-0.0020402565,0.01780703,-0.05422069,0.05361147,-0.032161806,-0.01798472,0.0511492,0.03543637,0.005349724,-0.030537216,-0.012673072,0.016512435,0.03959938,0.016715508,0.026298052,-0.031501815,-0.0019498253,-0.009131973,0.06686203,0.010344069,0.0036299434,0.007621612,-0.022173116,0.041427046,-0.034903303,0.032821797,-0.02995338,-0.043051634,-0.020015456,0.03459869,-0.040386293,0.031019516,0.025473064,-0.09036782,0.03500484,0.01438016,0.011092904,0.027364189,0.03454792,0.014634002,-0.0031079804,-0.012114619,-0.018568557,-0.0113975145,-0.017248577,0.012362114,-0.005908177,-0.018378174,-0.0057209684,0.009912537,0.04325471,0.010331377,0.07285271,0.033227943,0.05990676,-0.0030540389,-0.0049435766,0.028481094,-0.0029207717,0.012812684,-0.016448975,0.027795719,0.0059050038,-0.024521155,0.007539113,0.027237266,0.004039264,-0.01714704,-0.03652789,0.00085751066,-0.022096962,0.03833017,-0.016258592,0.024445003,-0.02375963,0.02148774,-0.0020957845,-0.009131973,0.0056321234,-0.011194441,-0.009112935,-0.0086687105,0.009119281,0.034065623,-0.00011690622,0.00063103583,-0.0012263751,0.021893889,-0.011911545,0.015205147,-0.001096281,0.041427046,-0.011740201,0.022363497,0.022833105,0.010800985,-0.018860474,0.005540106,0.07539113,-0.019926611,-0.02033276,0.006523744,0.04609774,-0.035030223,-0.005540106,-0.015014766,0.017159732,0.018073564,-0.005432223,-0.000566782,0.012120965,-0.025206529,0.022452341,0.019203162,0.014913228,-0.03508099,-0.027211882,0.016334744,0.018911242,-0.02263003,0.0011549819,-0.0334564,0.036299434,0.048356935,-0.015027458,-0.02563806,0.025130376,-0.0013731276,-0.013072873,-0.02467346,-0.027034193,-0.010451952,-0.014050165,0.018073564,0.013453636,-0.0011200786,-0.010458298,0.03622328,0.015141686,0.038101714,0.0071012354,0.017312037,-0.036756348,-0.02893801,-0.03358332,-0.030917978,-0.0036870579,-0.066202044,-0.007678726,-0.007272579,0.004305798,-0.019165086,-0.0032682181,-0.0025003455,-0.03513176,0.02117044,0.0014167568,0.0032777372,-0.011111942,-0.02136082,0.045310833,-0.07498498,-0.02015507,0.018923935,-0.009861769,0.026399588,0.04650389,-7.288047e-05,-0.013796323,0.008414868,-0.024597308,0.0048991544,0.011238863,-0.011575203,0.00090907235,-0.01864471,0.017426265,-0.006409515,0.0077231484,0.023239253,0.0151543785,0.00021814564,-0.0009757059,-0.015167071,-0.022617338,-0.0045913705,0.017527804,-0.012533458,0.017756261,-0.019000087,0.014634002,0.0009876047,0.033938702,0.01750242,-0.0138978595,0.015611295,-0.038000174,-0.006961622,-0.033887934,0.008966975,0.05422069,0.004981653,0.00851006,-0.019177778,0.0024146738,0.010344069,-0.0062096147,0.01486246,0.007526421,0.004264549,-0.031425662,-0.009633311,0.040005527,0.021563893,0.027668798,0.013364791,0.0031048073,-0.0013937523,-0.005559144,0.01864471,0.07117735,0.013364791,-0.014849768,0.014354776,0.031857196,-0.008833708,0.03670558,-0.038888622,-0.0157636,-0.0028335135,0.0059335614,-0.00428676,0.009849077,-0.014634002,0.034395617,0.0027065924,0.00063420885,-0.008859092,-0.013352099,0.016969351,0.037035577,0.0035696558,-0.03122259,-0.006301632,0.026856504,-0.014456313,0.02827802,-0.029141083,-0.014824384,-0.01016638,-0.025523832,0.005257706,-0.008433906,-0.06457745,0.027592646,-0.026704198,0.06259748,-0.00022528494,-0.0011430831,-0.046529274,-0.0033253327,-0.0381271,-0.0048261746,-0.028430326,-0.016550511,0.014392852,0.00553376,0.0011438763,-0.029166467,0.018010104,-0.0022353977,-0.005232322,-0.025917288,0.023226561,0.006599897,-0.008256217,-0.049245384,0.002498759,0.019000087,-0.024990764,-0.004645312,-0.002736736,0.02467346,0.018213177,-0.02117044,0.036680195,-0.03332948,-0.0236454,0.031755656,-0.03855863,0.012120965,0.006631627,-0.017286653,0.03477638,-0.003702923,0.011137326,-0.02063737,-0.0025860174,0.015915906,0.01106752,0.008808324,-0.025079608,-0.019279314,-0.0358679,-0.00998869,-0.008306986,0.039700918,-0.030968746,-0.011276939,0.026221897,-0.026069593,0.016766276,0.008554482,0.034877915,0.011270593,0.035284065,0.007412192,0.017680109,-0.0014929094,0.01859394,-0.016918581,0.012812684,-0.051631503,0.017286653,-0.017197808,0.027998794,0.016702816,-0.010058497,0.055743746,-0.0078818,-0.00051403046,-0.010540796,0.010134649,-0.02136082,-0.011562511,-0.0006278628,0.016525127,-0.039320156,-0.010528104,0.0149386125,-0.015979366,-0.009151011,-0.0059494264,0.033354864,0.011841738,-0.05914523,-0.023074254,-0.008947937,0.01600475,-0.018606633,-0.00051046076,0.017883182,0.021766968,-0.019152394,-0.01835279,0.02263003,0.030410293,-0.014405544,-0.0024067413,0.047138494,-0.014659386,0.00248924,-0.005086363,-0.02063737,-0.00186574,-0.006177884,-0.043127786,-0.051225353,0.04993076,-0.0047373297,0.002165591,0.003252353,0.004083686,-0.0034871572,-0.0075898813,0.010509066,0.0075771892,0.0084592905,0.006333363,0.0068854694,-0.012355768,0.010547143,-0.0126603795,-0.0069996985,0.025396911,0.016626664,0.001396132,-0.003709269,-0.04739234,-0.0084719835,-0.0028985606,0.021893889,-0.0072471946,-0.0020577083,0.020586602,-0.013783631,0.017007427,-0.020586602,-0.058688313,0.009170049,0.02551114,-0.009328701,0.016626664,0.041350894,0.013085565,-0.0024622693,-0.007278925,-0.013022104,0.010318685,0.05396685,0.056149893,-0.009277932,0.0010153687,-0.0368325,0.012082888,-0.0060858666,-0.024445003,-0.011150018,-0.01611898,0.017108964,-0.013682094,-0.0120257735,0.008097566,0.011213479,-0.042873945,-0.017515112,-0.017108964,0.016474359,0.05089536,-0.015662063,-0.0017324729,-0.0042359917,-0.005137131,0.028125715,-0.038609397,0.013669402,-0.011416553,0.0050292485,-0.022058886,0.0006528504,-0.02057391,0.025016148,0.035284065,-0.0138978595,-0.02858263,0.02683112,-0.0012660379,0.025460372,0.04201088,-0.018428942,-0.0143166995,-0.021589277,-0.0011478426,0.00908755,0.004432719,-0.026754966,-0.024635384,0.01798472,-0.0057241414,-0.0049499227,-0.019850459,0.016410898,-0.02004084,0.05990676,-0.018568557,0.025917288,-0.056657575,-0.01290153,-0.033532552,-0.003728307,0.021944657,-0.0057622176,-0.016385512,-0.0020180454,-0.040107068,0.0034871572,0.0036648465,-0.016436283,0.022071578,-0.0033983123,-0.0122288475,-0.008865438,0.016080903,0.034421,0.0057304874,0.012349422,0.003829844,-0.0029445693,-0.013390175,0.035588674,-0.006495187,-0.035157144,0.032872565,0.031958733,0.0036553275,0.033837162,0.00028696065,-0.022947334,-0.028201867,0.011378476,0.052799176,0.007856416,-0.017248577,0.019520463,-0.025523832,0.030029532,0.030359525,0.020713523,-0.03315179,0.00036608803,-0.035487138,0.06239441,0.027770335,0.039624766,0.009817347,0.004261376,0.033659473,-0.0005092709,-0.003588694,-0.022896565,0.016753584,0.019710846,0.0310449,0.031907964,0.048103094,0.011676741,0.054626837,-0.0036838849,0.02063737,0.07016198,0.0058351974,0.0044422382,-0.025016148,-0.029090315,-0.030105684,0.06894354,-0.016690124,0.03850786,0.030334141,-0.0072345026,0.00743123,0.00071512104,-0.012285962,0.0068220086,0.0028144752,-0.056099124,-0.0020830925,0.016080903,0.030156452,0.00057749095,-0.012330384,0.019685462,-0.038279403,-0.004508872,0.006336536,0.018885858,-0.014887844,-0.03581713,0.0027383226,-0.011752893,-0.004378778,-0.009366777,-0.031019516,0.019634694,-0.01804818,0.028125715,0.0011882988,0.0095254285,-0.0016206237,0.017616648,0.013364791,0.005800294,-0.023962703,-0.021741584,-0.0072598867,-0.024927303,0.004143974,-0.0055147214,0.04114782,0.008624288,0.01074387,0.0048959814,-0.03289795,-0.0039948416,0.040538598,-0.00210689,-0.025790367,-0.012089234,-0.05043844,0.011289631,-0.003150816,0.035030223,0.009411199,-0.05295148,0.012057504,-0.005127612,0.08574789,0.008548136,-0.027288035,-0.009195433,0.022769645,0.021741584,0.008598904,0.023010794,0.017362805,0.0022417437,0.016042827,-0.0029493289,-0.053103786,0.012425575,-0.00546078,-0.03622328,0.018454326,0.018149717,0.015319376,0.0036235973,-0.024394235,-0.039244004,0.06010983,0.00019752096,-0.0069425837,0.024876535,0.021271976,0.025701521,-0.03193335,-0.015433605,-0.017248577,0.013326715,0.0034236966,0.0024733748,0.033050254,-0.004328009,0.007653342,-0.004991172,-0.022274652,-0.000982052,0.0009503217,-0.0020672274,0.001396132,-0.018302022,-0.019888535,-0.005314821,-0.016943967,0.016144363,0.03939631,0.012590572,0.032111038,0.0049245385,0.0554899,0.009874461,-0.0070568128,-0.023518478,-0.014659386,0.007348731,-0.041985497,-0.006714126,-0.01954585,-0.008376792,-0.002847792,0.0047182916,-0.04066552,-0.00070917164,-0.00022786303,-0.0022814067,-0.019292006,-0.011441937,0.0028636572,-0.014253239,-0.018733554,0.010001382,0.03404024,0.037441723,-0.003718788,-0.009144665,0.009811001,-0.006231826,-0.020053534,0.026932657,0.024559231,-0.0038837856,0.018619325,0.013110949,-0.01050272,-0.00013604354,-0.0054925103,-0.028328788,-0.005007037,0.008795632,0.027998794,0.011219825,0.0016293495,0.02063737,-0.006961622,-0.026602661,0.007069505,0.07894492,-0.016918581,-0.033177175,0.009392161,0.011359438,-0.005305302,-0.03754326,0.031070285,0.031451046,7.243427e-05,-0.024038855,0.022249268,-0.008237179,0.012324038,-0.005118093,-0.0019482388,-0.0039821495,-0.0014762509,-0.0015063947,0.026196513,0.020650063,-0.013986705,-0.006444419,-0.04790002,0.0086687105,-5.2553267e-05,0.02467346,-0.0066570113,-0.006304805,0.041858576,0.020370835,0.014265931,-0.00407734,-0.0048007905,0.029344156,0.0029731267,0.03193335,0.0031048073,-0.007926222,-0.017959334,-0.03581713,-0.04119859,-0.00097015314,-0.016613971,-0.0059494264,-0.00085909717,0.0149386125,-0.012876145,-0.020446988,0.009392161,-0.012844414,-0.018390866,0.02117044,0.0021148226,-0.003820325,0.0005878033,0.027795719,0.0016372821,-0.015205147,0.008256217,0.005257706,0.020992748,-0.028988779,0.01793395,0.0015182936,-0.0030714904,0.012489036,0.038101714,-0.031679504,0.011143672,-0.013720171,-0.015319376,0.010686756,-0.044346232,0.016283976,0.0034300426,-0.020205839,0.008776594,-0.03429408,-0.050463825,0.022528494,0.027440341,0.029775688,0.032288726,-0.047011573,-0.0031301915,0.016766276,0.02888724,-0.027084962,0.0044644494,-0.03188258,0.010033113,0.043762393,0.012495382,0.0062159607,-0.024571924,-0.02285849,-0.040716287,-0.01233673,0.03688327,-0.0035728288,0.005321167,0.00556549,0.03447177,-0.0071202735,0.013288639,-0.01877163,-0.019152394,-0.00033753077,-0.009163703,0.0093096625,0.034750994,0.03706096,-0.005181554,-0.049448457,-0.0033189866,0.01468477,-0.03485253,-0.006298459,-0.022693492,0.017845105,8.611794e-05,0.00023877031,-0.019507771,-0.010775601,-0.0058320244,-0.002708179,0.035588674,0.010667718,-0.017375497,-0.0084719835,0.009189087,0.004645312,0.00556549,-0.020231223,0.010325031,0.020726215,0.0046992535,0.0039884956,0.023290021,-0.030638753,-0.0009170049,0.0037917676,0.008167372,-0.030257989,0.005682892,0.0057749096,-0.030004147,0.018314714,0.033304095,-0.007786609,-0.022947334,-0.01600475,-0.01877163,0.029344156,-5.0917173e-05,-0.009449275,-0.0030746635,-0.002606642,0.01798472,0.018251253,-0.007329693,-0.03982784,0.0120257735,0.017096272,0.01254615,0.0050355946,0.02695804,0.021183131,-0.002635199,0.007932568,-0.026374204,3.0689123e-05,-0.026602661,0.036629427,-0.026298052,-0.018885858,0.026729582,0.005575009,0.0060097137,-0.0029794727,-0.018365482,-0.02424193,0.010496374,-0.015674755,0.006599897,0.0059716376,-0.022820413,0.016080903,0.009734848,-0.0071456577,-0.0035030222,-0.0065554744,-0.0058923117,-0.011651357,0.012647687,-0.023429634,-0.018403558,-0.020104302,0.01901278,0.0038837856,-0.016258592,-0.009068512,-0.0068854694,-0.021893889,0.0030778365,0.0018371828,-6.479917e-05,-0.0040043606,-0.0011343573,-0.00818641,0.012926914,0.045056988,-0.0017562706,-0.0026637565,0.016296668,0.015674755,-0.009677733,0.018149717,-0.014240547,-0.018276637,0.006523744,-0.023315405,-0.032542568,0.018086256,0.044067003,-0.017705493,-0.018733554,-0.01991392,-0.021271976,0.02148774,0.017451651,0.0147482315,-0.037619412,0.01853048,0.0015373317,-0.036324818,0.028861856,0.009646003,0.0020830925,-0.040107068,-0.019990072,-0.04193473,0.03289795,0.013796323,0.013453636,0.02700881,-0.010750216,0.0069806604,0.022477726,-0.0027224575,-0.011486359,-0.01949508,-0.007907184,0.0033507168,-1.3795232e-05,0.00017649964,0.0047436757,-0.03665481,0.00033713414,-0.0012041639,0.00036945936,0.07838647,-0.029191852,0.026704198,0.0132759465,-0.01841625,-0.0070123905,0.028836472,0.010191764,0.011365784,0.009062166,0.0072662327,0.017794337,-0.03754326,0.04320394,0.010902522,0.012393845,0.023835782,-0.03581713,-0.06716664,0.025079608,-0.019076241,0.011778277,-0.04163012,-0.01960931,0.000792067,-0.0016785315,-0.0033221596,0.016575895,0.029648768,0.036629427,-0.009233509,-0.029064931,0.0058510625,0.030131068,-0.00046286537,0.003591867,0.0058954847,-0.0059303883,-0.01209558,-0.007627958,0.005130785,0.0099315755,0.010927906,0.049676917,0.035030223,-0.021741584,-0.018302022,-0.019342775,0.0034236966,0.003066731,0.05229149,-0.008199102,0.047316182,-0.0017895874,-0.0014944959,0.010210802,0.00383619,0.002071987,0.0012842828,0.026729582,0.038584013,0.020129686,-0.00542905,0.016588587,-0.027440341,-0.022871181,0.034750994,-0.025498448,-0.009487351,-0.000650074,-0.020624679,0.029978763,0.022046193,0.009208125,0.025244605,0.0048071365,0.0038647472,-0.0069108536,0.044498537,0.020434296,-0.0025320759,-0.009982344,-0.02700881,-0.0073677697,0.020434296,0.01413901,-0.037771717,0.030816441,-0.018682785,0.029978763,0.06792817,-0.011073866,-0.02876032,-0.005441742,0.027897257,0.015205147,0.013758247,-0.007761225,-0.018327406,-0.008167372,-0.008211795,0.0061937496,-0.021208515,0.0149386125,0.0043502203,0.0162459,-0.02015507,-0.007615266,-0.026881889,-0.007983337,-0.011568857,-0.04013245,-0.029572615,-0.010121957,0.008954283,0.02052314,-0.040208604,0.001281903,0.0065300902,0.0071520037,0.030714905,0.012006735,-0.0120194275,0.004324836,-0.010794639,-0.023353482,0.0032142766
gemini,0.02567573,0.001395575,0.019153554,0.04517106,0.04645271,-0.003273549,0.017629815,0.05787364,-0.01676114,0.023212114,0.026629848,0.016632976,-0.025960542,-0.031129867,0.035658363,0.040528636,-0.014397207,0.007910632,-0.0064046923,0.04542739,-0.026273835,-0.016049111,-0.019523809,0.00011592707,0.00077388546,-0.001422276,-0.01142093,0.049101453,0.013065714,-0.019466847,0.069436975,-0.031870376,-0.026017506,-0.030332394,-0.030275432,0.01573582,-0.037395712,-0.016604494,-0.00057273754,0.014169358,-0.027982702,0.0073196483,0.04594005,0.05812997,-0.019666215,-0.025234275,0.0066610225,-0.07433573,0.0016839463,0.030816574,0.0032343874,0.0041048415,-0.014909867,-0.044886246,-0.03964572,-0.06448126,0.020976346,0.050696395,0.018227918,0.029093467,0.0045783403,-0.038563438,0.009569657,-0.024095029,-0.0054398943,-0.02388142,0.009576777,0.048417907,-0.009534055,0.000787681,0.048047654,0.008757945,0.010523775,0.010253204,0.038962174,0.0026718853,-0.0011748463,-0.012040394,0.02617415,-0.02539092,-0.020591851,0.004012278,-0.005108801,0.016561773,-0.025875099,-0.021788059,-0.045541313,-0.0016367745,-0.030019103,0.00079302123,0.01398423,0.0057247053,-0.0017044172,0.01600639,-0.028082386,-0.02439408,0.023767496,0.025091868,0.0015290802,-0.003951756,-0.010060957,-0.048332464,0.009783265,0.038449515,0.029022263,0.027541244,0.0087152235,0.014034073,-0.011449411,0.020449445,-0.082823105,-0.023496926,-0.048873603,0.04132611,0.0129375495,-0.018441526,-0.020833941,0.012517453,0.027185231,0.0036366833,0.028367197,-0.040243827,-0.017487409,0.014738981,-0.011050675,-0.014653537,-0.033180505,-0.0012985611,-0.07348129,-0.024508005,0.017943107,0.052804,0.023909902,-0.022813378,-0.01654753,-0.056791358,-0.041468512,0.031044424,-0.040300786,-0.01650481,0.027441561,0.0033394115,0.0380223,-0.024678892,-0.02543364,-0.03936091,-0.012610016,0.034348235,-0.017743738,0.049101453,0.012154318,-0.0005607221,-0.00584575,-0.009534055,0.037737485,-0.029250111,0.03679761,0.0014196059,0.032183666,0.0004984196,-0.0036847452,0.028837135,-0.0523483,0.0008152721,0.036854573,0.039531797,0.028637769,0.017102914,-0.039417874,-0.017102914,0.0008655591,-0.05052551,0.018313361,0.0028018304,-0.009356049,0.014852905,-0.0007258236,0.047819804,-0.012702581,-0.01875482,0.008615539,0.0016563552,-0.01572158,-0.035943177,-0.040984333,0.059468582,-0.05992428,0.017800702,-0.0024369159,0.041810285,-0.039816607,0.003681185,0.07017748,0.014326004,0.05203501,-0.0051194816,0.032924175,0.016106075,0.0014641077,0.044316627,-0.033123545,-0.030788092,0.0035957417,-0.022485845,0.008786426,0.040671043,-0.02259977,0.017216839,-0.0076827826,-0.016390886,0.057190094,-0.04391789,-0.01753013,-0.01778646,-0.029079225,0.00093275675,-0.0067642666,0.0022606892,-0.00068666204,0.0482755,-0.007981834,0.009512695,0.023966864,-0.023254836,-0.044857766,-0.0013822245,0.04645271,-0.025006425,-0.013841826,-0.03531659,-0.0018583932,-0.05428502,0.0019705377,-0.005884912,-0.032838732,-0.028765934,0.034604564,-0.046595115,0.051152095,0.0139628695,0.03776597,-0.0012148978,-0.054228056,-0.022428883,0.013877426,0.009804626,-0.013799104,-0.041183703,-0.028595047,0.04297801,0.05941162,0.008765065,0.020762738,0.02665833,-0.012453371,-0.042550795,0.03833559,0.01673266,-0.0020613212,-0.021545969,-0.025177311,-0.035715327,-0.023183633,-0.045256503,-0.00065150566,-0.006988555,0.008174082,-0.012674099,-0.016533291,-0.072740786,0.023468444,-0.03990205,-0.03676913,0.04665208,-0.06579139,-0.052775517,-0.0032326074,0.057702754,-0.03987357,0.03682609,-0.0045106974,-0.037965335,0.04545587,-0.06522177,0.042009655,0.030930499,0.00057540764,-0.02339724,0.011057796,-0.03355076,-0.020691535,-0.014041193,0.030275432,0.011506373,-0.025561808,-0.01371366,0.027227953,-0.021531727,0.016604494,0.019110832,0.05001285,-0.020691535,-0.04596853,-0.018242158,0.0375666,0.04132611,-0.02133236,0.011634538,0.026758013,0.019082353,-0.028979542,-0.026971621,0.039019138,-0.01016064,0.0014062554,-0.0018370324,0.0012059975,-0.0012683,0.060778715,-0.01039561,-0.00941301,0.010189122,0.01395575,0.029364036,0.027868778,-0.0070526376,0.03429127,-0.008223924,-0.026074467,-0.038534958,-0.048816644,0.053686913,-0.013763502,0.059582505,-0.017487409,-0.013094196,-0.022300718,-0.037936855,0.06322809,-0.050183736,-0.025447883,-0.08755097,-0.023269076,-0.09552568,0.00304748,-0.01244625,0.0056428225,-0.06009517,-0.012780904,0.021731095,-0.04514258,-0.024280157,0.0018922145,-0.0062622866,-0.03827863,0.049614113,0.04690841,-0.03144316,0.014539612,-0.015707338,0.014290403,0.0021681255,0.015251641,0.037936855,0.03201278,0.026074467,-0.03150012,-0.029477961,-0.048560314,-0.047392588,0.012581536,-0.010737383,-0.011079157,-0.023183633,-0.043519154,0.023909902,-0.021460526,0.031841893,0.06254455,0.026587127,0.021460526,0.030417837,-0.05149387,-0.041240666,0.013478691,0.060778715,0.0010831726,-0.049785,0.032838732,-0.024821298,0.021403562,0.02563301,-0.049443226,0.018341843,-0.034746967,0.022172553,-0.03776597,0.0502407,0.046822965,-0.043832447,-0.0031863255,0.04924386,-0.008344969,0.051152095,0.022970024,0.037367232,0.008822028,-0.017587094,-0.02389566,-0.009968393,-0.017501649,-0.051949564,0.04619638,0.00862978,0.008829148,0.029307075,0.016932027,-0.027498523,0.01345733,0.013322045,-0.04801917,-0.024835538,0.04346219,-0.05172172,0.016818102,0.027057067,-0.010103678,-0.026587127,0.043063454,-0.06197492,0.019281719,0.0032842294,0.056591988,0.034348235,0.05986732,0.004371852,0.026814977,0.003143604,0.006305008,-0.007988955,-0.01549373,0.0068639503,-0.026985863,0.010003994,-0.04235143,0.035402033,1.2237982e-06,-0.016561773,-0.050041333,-0.026758013,-0.0007689903,0.031671006,0.006016637,0.0027626688,-0.03654128,0.045000173,0.003173865,-0.0028409918,0.022272237,0.02104755,0.007212844,-0.07997499,0.0152374,0.04497169,0.021432044,0.005457695,0.0046602236,-0.0045284983,0.0068603903,0.044088777,0.018797541,-0.009726303,0.0193102,0.052148934,-0.023539647,-0.0027608888,-0.0035263188,-0.00039473054,-0.0005540468,-0.007939112,-0.021004828,-0.010758744,0.029734291,0.03352228,0.013286443,-0.08800667,-0.0034106143,0.042835608,0.006828349,0.015038032,0.0059810355,0.0006737565,-0.0044857766,-0.01597791,0.012268243,-0.00079302123,0.020107672,-0.0013350525,0.018470008,-0.02512035,-0.017245319,0.018057032,-0.013841826,0.019595012,0.012068875,0.060323015,0.033066582,0.009669341,0.04690841,0.037936855,0.011748463,0.0030528202,0.0099755125,0.049955886,-0.01219704,-0.0082595255,0.048303984,0.038506478,0.019538049,-0.009697822,-0.021318119,-0.0017916405,-0.010445451,0.027996942,0.0034088343,0.013934389,-0.027327636,0.006554218,-0.04613942,0.004774148,0.040215343,-0.006237366,0.014710499,0.025761174,-0.0023016306,0.04240839,0.0056321416,-0.009804626,0.00064394035,0.034490637,0.03320899,0.00025499504,-0.0172738,0.02413775,-0.02789726,-0.0013804444,-0.004492897,-0.02486402,-0.023468444,0.04491473,0.037224825,0.0035085182,0.0060486784,-0.027498523,0.040984333,-0.010388489,-0.008971553,-0.02110451,0.024579208,0.029250111,-0.0002363043,0.005304609,-0.000836633,0.024508005,-0.014546733,0.006045118,0.013293563,0.028495362,0.010787225,0.038933694,-0.018327601,0.022656733,0.021403562,-0.031101385,0.0365128,0.034405194,0.008245285,-0.018113993,0.015280122,0.0018405925,0.002159225,-0.059240732,-0.026501684,0.011862387,-0.037481155,0.021531727,0.03708242,0.008765065,-0.049300823,0.01193359,0.007205724,0.028580805,0.0004183165,0.02056337,-0.0026647649,-0.014909867,-0.05026918,-0.014397207,-0.0076329405,0.002105823,0.0012504993,-0.0002994968,-0.019125074,-0.010217602,-0.0015433208,0.015066514,-0.019666215,0.017473169,-0.007497655,-0.02919315,-0.0070704385,-0.02183078,0.053373624,-0.03372165,-0.018370323,-0.008985794,-0.020420965,0.033351395,0.040955853,0.007832308,-0.012104477,0.012524573,-0.008829148,-0.051664755,-0.030332394,0.039959013,0.01015352,-0.038762808,0.040671043,-0.025049146,-0.013770622,0.044829287,-0.016319683,-0.017359244,-0.0064153727,0.011363967,-0.018982667,-0.0067678266,-0.03765204,-0.02741308,0.03577229,-0.006219565,-0.00014362941,-0.006746466,0.0639686,0.03551596,-0.0025276996,0.01828488,-0.012923309,-0.010694661,-0.011285645,-0.009484214,0.035857733,0.010253204,0.008088639,-0.04272168,0.019495327,0.031927336,-0.025889339,0.013307804,-0.0068105482,-0.007661422,-0.009833108,0.008992914,0.04517106,0.035145704,0.008757945,-0.012894828,0.041810285,-0.010616338,-0.0562787,-0.013144038,0.047563475,0.039474834,0.0048204297,0.011064916,0.009833108,-0.017629815,0.018484248,-0.027854538,0.011128998,-0.0021449844,0.014126636,-0.01091539,0.011591816,-0.033750128,0.04189573,-0.008209683,0.012325206,-0.0057496266,0.010943871,-0.023112431,0.02463617,0.030560244,-0.019694695,-0.03785141,0.04220902,0.033038102,0.0019634173,-0.056079328,-0.015863985,0.0021770257,-0.033123545,0.00091495604,-0.009932791,-0.010552255,0.015707338,0.012916189,0.04494321,-0.017302282,0.03372165,-0.023012746,0.01547949,0.0028071706,-0.030902017,-0.03602862,-0.00077299547,0.048446387,-0.0013546334,-0.0052974885,-0.030417837,-0.0018708537,-0.0038983535,0.012901948,-0.014240561,0.023240596,0.028908338,-0.0034301952,-0.0129375495,0.01801431,0.007853669,-0.026943142,3.304255e-05,-0.016647216,0.017587094,0.010075197,0.0025170192,0.014133757,0.004005158,-0.018555451,-0.016533291,-0.035857733,0.028851377,0.003916154,0.016191518,0.018669376,-0.023739016,0.043860927,-0.014767461,0.012360807,0.009291966,0.01396999,-0.012460491,0.006500816,-0.02766941,-0.020235837,-0.026117189,-0.00079747144,-0.0006497256,-0.008900351,0.022756416,0.030845055,-0.0061092004,0.00939165,0.007739745,0.03483241,-0.011805425,0.034120385,-0.026701052,0.01498107,0.030902017,0.045854606,-0.030845055,-0.019509569,6.803205e-05,0.011221562,-0.025718452,0.030503282,0.009249244,0.008416171,0.027384598,-0.0050732,-0.008601299,-0.0010867328,-0.011990552,-0.029791253,0.009313327,-0.05098121,-0.004952155,-0.0058742315,-0.017302282,0.03813622,-0.0082666455,-0.011093397,-0.01575006,0.012282484,-0.00024787476,-0.08054461,0.013065714,0.0034640164,-0.008772185,-0.032525443,-0.013678059,-0.019367162,0.03554444,3.7548355e-06,-0.0583863,-0.0116915,-0.004916554,-0.015621895,0.006272967,0.04084193,-0.006952954,-0.012111597,0.0013982451,-0.042152062,0.026743773,0.0010315506,-0.00966222,-0.046082456,0.052690074,-0.026473202,0.03295266,0.004421694,0.03355076,-0.016077593,-0.031357717,-0.0027235074,0.04189573,0.020107672,0.011477892,-0.014881386,0.0048133098,0.012246883,0.015251641,-0.03244,-0.01039561,0.01753013,-0.006016637,0.014432808,-0.018170957,-8.3496416e-05,-0.046851445,0.0284384,-0.011121878,0.0027537683,0.012909069,-0.0013679839,0.0043042097,-0.020107672,-0.049044494,-0.00088825496,0.044800803,-0.0048061893,-0.001984778,-0.028737452,0.035914693,-0.014326004,-0.010587857,-0.0012148978,0.019523809,0.017957347,0.06305721,0.0047100657,-0.0076543014,-0.01852697,0.0014044753,0.011876628,0.0070205964,-0.009840228,0.018726338,0.031158347,-0.029591886,0.015693098,0.017843423,-0.0022517887,-0.009363169,0.022628251,-0.029648848,-0.017202597,0.028481122,0.010424091,0.026216872,0.00021538849,-0.018099753,0.024009585,-0.0304748,0.023767496,-0.028125107,0.02335452,-0.015621895,0.007519016,0.030303914,0.012460491,0.025689973,-0.026188392,0.009818867,-0.015607655,0.015208919,0.03557292,-0.001498819,-0.021517487,0.0030581604,-0.032639366,0.0042935293,0.00888611,0.036683686,-0.034974817,-0.03275329,0.0068888715,0.03357924,0.017330762,-0.03352228,0.022642491,0.010267444,0.029762773,-0.013500052,0.017316522,-0.0340919,-0.034633044,-0.014162238,0.019979507,0.011919349,-0.01754437,-0.00067865173,-0.013500052,-0.024977943,-0.020705776,0.01677538,-0.033351395,0.03577229,-0.035715327,-0.021958945,-0.005286808,-0.017615573,0.020976346,-0.011285645,0.0042579276,0.0013626437,0.02005071,-0.007668542,0.016020631,-0.022927303,-0.024066549,-0.0022927304,-0.0051016808,0.037395712,0.03201278,-0.009982633,-0.003958876,-0.0005923183,0.0030884217,0.05738946,0.026515925,0.0050375983,0.013122677,-0.034690008,0.00044791013,0.029734291,0.0022998506,-0.023909902,-0.030360876,-0.033607725,0.012389288,0.030332394,-0.0018352523,-0.01293043,-0.03098746,-0.0038698725,-0.02617415,-0.0048204297,-0.018882984,0.014767461,-0.018313361,0.01905387,0.02870897,0.039731164,-0.023995345,0.06601924,-0.0028748133,0.053003367,0.0802598,0.017416205,0.009719183,-0.029221632,-0.008295126,-0.002337232,0.054256536,0.005407853,0.0014347365,0.017672537,-0.014546733,-0.01704595,0.013008753,0.023012746,0.019837102,-0.024693133,-0.068924315,0.011897989,0.019666215,-0.002337232,-0.009683581,0.011193081,0.019409884,-0.024977943,0.01268834,0.02512035,-0.013421728,0.00032842293,0.00062613963,-0.013286443,-0.013649577,0.010894029,-0.007412212,-0.02714251,-0.012211281,0.004108402,0.008316488,-0.015935188,0.020606091,-0.005229846,0.014247681,0.0018210118,0.0074050915,0.0010974132,-0.0039054737,-0.0009047206,0.0091282,0.018000068,0.0023532526,0.036740646,-0.001193537,0.021802299,-0.011477892,-0.04235143,0.010694661,0.03383557,0.036398873,-0.011463651,-8.3440784e-05,-0.050041333,-0.010530895,-0.027569726,0.01701747,0.005550259,-0.013820465,0.003072401,-0.020720016,0.04847487,0.019082353,-0.014867146,-0.012859226,-0.029221632,0.024151992,-0.015151957,-0.0040514395,0.0147532215,-0.02284186,0.012289604,-0.007917752,-0.008544337,-0.009078357,-0.01597791,-0.03528811,-0.0202928,0.019651974,-0.012403528,-0.021788059,0.01676114,-0.0202928,0.022642491,-0.009299086,-0.006426053,-0.014276163,-0.00038805528,-2.0262205e-05,-0.026273835,-0.018170957,0.017245319,0.02714251,-0.016276961,0.012168559,-0.008729463,0.024579208,0.009704942,-0.035857733,-0.008309367,-0.005995276,-0.010723142,-0.0033572123,0.014034073,-0.032924175,-0.0077041434,0.00787503,-0.011833906,0.008530096,0.021731095,-0.004446615,-0.0013181419,-0.0018548331,0.041525476,0.016675698,-0.017900385,-0.0054434543,0.004920114,-0.0147532215,-0.016832342,0.015693098,-0.0045106974,-0.005023358,-0.008444653,0.01295179,-0.0061305617,0.021631412,-0.0029655967,0.008565698,-0.018470008,-0.007483415,0.0057531865,-0.022642491,0.016120315,-0.018142475,0.008736584,0.020364001,-0.004282849,-0.013535653,0.05405717,-0.027484283,-0.010986593,-0.004727866,0.031072903,0.02056337,-0.006796308,-0.01777222,-0.018313361,0.011890869,-0.0032949098,-0.03357924,-0.00432201,0.02334028,0.0053686914,0.021432044,-0.015807023,0.014311763,-0.009569657,-0.023824459,0.0075047757,0.108627,-0.029848216,-0.014254802,-0.00020270549,0.009676461,-0.009548296,-0.058443263,0.011748463,0.006760706,0.0047812685,-0.047705878,0.0073837307,-0.029563405,0.019409884,0.0025828818,-0.012560175,-0.01677538,0.02388142,0.017558612,0.0091709215,0.016291201,-0.0037879893,0.0043504913,-0.016803863,0.011392449,-0.0052618873,0.007341009,-0.01704595,-0.0024173353,0.0087223435,0.04038623,0.039674204,-0.036712166,-0.0017604893,0.021901982,0.0013653138,0.013656698,0.009968393,-0.01671842,-0.0050732,-7.047965e-05,-0.021773817,-0.009206522,-0.008323608,0.001650125,0.020634573,-0.00405856,-0.0334938,-0.015194679,0.028751692,-0.003855632,-0.023539647,-0.013777743,-0.012987391,0.0074762944,-0.026202632,0.012602896,0.031898856,-0.00025499504,-0.008843388,-0.027626688,0.0386204,-0.018655134,0.014582334,-0.0043789726,-0.022443123,0.0027270673,0.0052761277,-0.012524573,0.009291966,-0.007237765,-0.018085513,0.023909902,-0.04087041,0.017387725,0.010623459,-0.0049307942,0.03332291,-0.051408425,-0.041212182,0.019224757,0.04240839,0.01117884,-0.0066147405,-0.03890521,2.0915824e-05,-0.012553055,0.004393213,-0.014582334,0.008615539,-0.035145704,0.022414643,0.026701052,0.0028748133,-0.0223292,-0.024835538,-0.010303046,-0.043547634,-0.0012389288,0.012289604,0.0027306275,-0.001677716,0.0022998506,0.016447848,0.005133722,-0.0078109475,0.013692299,0.005920513,-0.008295126,0.0049272343,-0.012973151,0.009327567,0.017487409,-0.002614923,-0.02258553,0.014639297,0.023553887,-0.025262754,-0.031557083,-0.040186863,0.015579173,-0.015892467,0.0011828566,0.0041368827,-0.013592616,0.019765899,-0.022913063,0.034860894,0.005005557,-0.034690008,0.054370463,0.033066582,0.009512695,0.004467976,-0.03244,0.011143239,0.0014009152,0.000240977,-0.01396999,0.008579938,-0.013727901,-0.00047082856,0.017131396,-0.009199402,-0.039930534,-0.019993747,-0.01622,-0.018840263,0.0020257197,0.021901982,-0.0087152235,-0.056705914,-0.030076064,-0.0041297628,0.013172518,-0.0057745473,0.02257129,0.0072769267,-0.007184363,-0.0080316765,-0.012218401,-0.008216804,-0.03244,0.0076329405,0.012852106,0.006237366,-0.0041368827,0.029876696,0.04161092,0.020335522,0.004421694,-0.01754437,-0.0041689244,-0.01649057,0.019894063,-0.022115592,-0.014390087,-0.03172797,-0.0014578775,0.0017640495,-0.024920981,0.00019970162,0.017202597,0.0036491437,-0.014012712,-0.008900351,0.022528566,-0.018897224,-0.0042935293,0.007675662,0.029150428,-0.010787225,-0.008288006,-0.0119122295,0.007725504,0.034234308,-0.008480254,-0.014382967,-0.016077593,0.007127401,0.0075474973,0.026729533,-0.022001667,-0.032810252,-0.027270675,-0.0167469,-0.0057709874,-0.0019669775,-0.0064046923,-0.0075474973,0.008323608,0.0375666,0.038506478,0.021944704,0.01906811,0.02158869,-0.023852939,0.001853053,-0.028310236,-0.00024787476,0.0017613794,0.01902539,-0.005714025,-0.030930499,0.01650481,0.017871903,0.0099755125,-0.0007596449,0.018555451,-0.01676114,0.02128964,0.0061590425,0.014525373,0.0002195049,-0.0019473967,0.015778542,-0.031671006,-0.0020631012,0.0055039767,-0.039047617,-0.06425341,-0.025875099,-0.0020666614,0.01876906,0.008337849,0.022742176,-0.015821263,-0.017102914,-0.023439962,0.025946302,-0.0112286825,0.013322045,-0.025262754,-0.0049841963,0.005051839,0.0026078026,-0.024166232,0.022799138,-0.022927303,-0.007312528,-0.03249696,-0.016134556,0.04747803,0.008992914,-0.011563336,-0.0020079191,-0.022400402,-0.024009585,0.034917854,0.029876696,-0.0022375481,0.031186828,0.0021983867,0.009220763,-0.035914693,0.036227986,0.012353687,0.016946267,0.022371922,-0.016590253,-0.03525963,-0.013022993,-0.011221562,0.009811747,-0.024151992,0.016390886,-0.0040692403,-0.009434371,0.015365565,-0.017487409,0.021745337,0.034433678,0.022898821,-0.003398154,-0.009612379,0.029420998,-0.006828349,-0.027826056,-0.008615539,-0.0070953593,-0.027327636,0.028153589,-0.02560453,-0.019281719,0.008273765,0.011549095,0.016077593,-0.020420965,-0.0002614478,-0.0037381472,0.0074549336,0.020463686,0.0074549336,-0.021788059,0.0006750916,-0.022015907,0.0043504913,0.0035458996,-0.0014623275,0.016262721,0.0045747804,0.029506443,0.010189122,0.011221562,0.021275397,0.009199402,-0.027284915,-0.04716474,0.011128998,-0.014069675,0.012261123,-0.031272274,-0.023710534,0.029036503,0.0043825326,-0.011727102,-0.013179639,0.0100823175,0.016419366,-0.017174117,0.0030332394,-0.0005460365,-0.012560175,-0.0056285816,0.01498107,0.031557083,0.024764335,0.006376211,-0.03124379,0.04186725,-0.016618734,-0.0020666614,0.021147233,-0.034006458,-0.008166961,-0.041183703,0.068924315,-0.009505575,0.024949463,-0.018954186,-0.010758744,0.014439928,-0.0065399776,0.0054185335,0.0007907961,0.019723177,0.018057032,0.014738981,-0.029164668,-0.0010110799,-0.008822028,-0.014895626,0.016091833,-0.0031863255,-0.017743738,0.001448087,-0.0077824667,0.031557083,-0.015052273,0.012033274,0.010096557,-0.011876628,0.036114063,2.4072668e-05,0.01572158,0.027384598,-0.024465283,-0.024550727,0.028765934
taurus,-0.010853151,0.0016013837,0.015228253,0.017585006,0.011644779,-0.0232533,-0.0121946875,0.026323123,-0.036571976,-0.009028179,-0.0052301795,0.010230727,-0.035121668,-0.014249293,0.053661462,0.034469027,0.018128872,0.0056320364,0.017754208,0.021452498,0.003257154,-0.015252424,0.025380421,0.011572263,0.0049189674,0.005662251,0.034009762,0.03185847,0.047449302,0.015566658,0.030698223,-0.03197933,0.0045140893,-0.005127449,-0.03234191,-0.046579115,-0.012351804,-0.010581219,-0.03038399,0.011372846,-0.030118098,-0.0013415365,0.08779208,0.029634662,0.0039853305,-0.050035685,-0.004317693,0.013391193,0.058350794,-0.014442668,0.005668294,-0.046965864,-0.021017406,0.018539794,-0.029392945,-0.034396514,-0.0031846385,0.055981956,0.03683787,0.069808245,0.035363387,0.0065022223,0.012847328,-0.051050905,-0.031495895,0.018854028,-0.02961049,-0.0009857574,-0.030988285,0.022697348,0.05564355,0.01650936,0.021960108,0.011747509,0.035387557,-0.005396361,-0.021935934,0.013983403,0.0015145162,-0.01577212,0.02378508,0.013814201,0.0005502868,0.041962296,-0.005221115,-0.046458255,0.004601712,-0.00076632254,-0.025622139,0.028353555,-0.006768112,-0.02212931,0.030166443,-0.018926542,-0.013814201,-0.046144024,0.025549624,-0.0045866044,-0.025791341,0.03949677,0.026999934,0.00020338329,0.004344886,0.039279222,0.02789429,0.023349987,-0.012823155,0.0061396444,-0.0064357496,-0.01851562,-0.11022354,0.012895671,-0.0013861033,0.0077470713,0.016642304,0.010599347,0.006610995,-0.023615878,0.025307905,-0.027725087,-0.020243907,-0.0017041139,-0.026734043,0.024159743,0.0019745363,0.0040246095,0.011457447,0.010859194,-0.05922098,-0.030939942,0.0016436843,0.015445799,0.046144024,-0.055981956,-0.0008225976,-0.07802667,-0.008435968,-0.006181945,-0.031375036,0.0027963785,0.035024982,0.0024821446,0.012206774,-0.016787335,-0.04217984,-0.01473273,0.004344886,-0.009934622,-0.0030169464,0.00079313817,-0.028474415,0.043823525,0.0035170012,0.012714382,0.015892977,-0.06342688,0.039279222,-0.038481552,0.02881282,-0.021537099,0.017560834,0.028450243,-0.06275007,0.00594627,0.050519124,0.01931329,0.017391631,0.014805245,-0.055546865,-0.04624071,-0.011971098,-0.036306087,0.047618505,-0.009227596,-0.033623014,0.026226435,0.0440169,0.03843321,-0.03925505,5.079861e-05,0.021670045,0.003946051,0.008176121,-0.019542923,-0.030214787,0.04969728,-0.029707178,-0.026371466,-0.015868805,-0.00809152,0.012641867,0.032196876,0.055546865,0.007360322,0.031133316,0.02082403,0.012944015,0.024993671,-0.015699603,0.046845004,-0.008381582,-0.0049582464,-0.0106899915,0.009197381,0.027193308,0.011747509,-0.0005993858,-0.023809252,0.02869196,0.0054205325,0.061251417,-0.039134193,-0.03763554,0.022649003,-0.025356248,0.0021920828,-0.022890722,-0.016497273,0.052646246,0.012859413,0.015143651,0.021077836,0.030504849,0.010121954,-0.055691894,-0.0050730626,0.06062295,0.0020682022,-0.0029398988,0.0064417925,-0.026734043,0.034323998,0.030335646,-0.01254518,0.027870119,-0.020425195,0.024667352,-0.019506667,0.027435027,-0.0136691695,0.0032420466,0.0008097563,0.01340328,-0.07807501,-0.02331373,-0.00017137449,-0.012798984,-0.027966807,0.012992358,0.034348167,0.08866227,0.031689268,-0.016932366,0.05167937,0.0024670374,0.009934622,0.029586319,-0.014043833,0.048827097,-0.029320428,0.031278346,0.011221772,-0.025017843,-0.06284676,0.007040045,-0.039811004,0.003332691,-0.014358067,-0.014805245,-0.049987342,0.06719769,-0.05221115,0.0023869681,0.02869196,-0.03396142,-0.06265338,-0.026589012,0.018249732,0.025597967,-0.01420095,-0.013330764,-0.006015764,0.02603306,-0.039327566,0.028063493,0.012309504,0.01565126,-0.024461892,0.009408885,-0.01473273,-0.057528954,0.012786898,0.033647187,0.02088446,-0.016557703,-0.026395638,0.04437948,0.014152606,-0.003136295,0.020799858,0.012738554,-0.038215663,0.0045110676,-0.023168698,0.04488709,0.07333733,0.029828038,-0.011711251,0.040221922,-0.015445799,-0.03369553,-0.05815742,0.0009041775,-0.04955225,0.014768988,-0.0137175135,-0.03671701,0.025549624,0.014805245,-0.03263197,-0.021815076,0.0022343835,0.014358067,0.031375036,0.0042512203,-0.0029716243,0.035725962,-0.0077470713,-0.057142206,-0.024220172,0.009227596,-0.004000438,-0.037224617,0.060091168,-0.06400701,-0.0064538782,-0.009288025,-0.04256659,0.065457314,0.011959013,0.018527707,-0.0489963,-0.025936373,-0.040125236,-0.042735793,0.0030003283,0.042518247,-0.046458255,-0.030287301,-0.0037617409,-0.032076016,-0.016726905,0.019893415,-0.027749259,-0.038288176,0.03328461,-0.0143338945,-0.010393887,0.004154533,-0.007414709,-0.0036499463,-0.032438595,-0.026153918,0.000880761,0.042276528,-0.00058729993,-0.036644492,0.01328242,-0.03633026,-0.04520132,0.037200443,0.0030471613,0.01902323,-0.020787774,-0.034299824,0.02948963,-0.006393449,-0.016678562,0.026661528,0.022262255,-0.010260941,-0.00096460705,-0.048174456,0.0071609044,0.010865238,0.024353119,0.0009124866,-0.052549556,0.00680437,-0.0069675297,0.0034384427,-0.018201387,-0.047932737,0.022588575,-0.02121078,-0.0012244543,-0.01955501,0.089097366,0.020364767,-0.050567467,0.008635386,-0.009940665,-0.012557265,0.0061940313,-0.006671425,0.016473101,0.0004834366,-0.017294943,-0.037538853,-0.034783263,0.017439974,-0.036789525,0.020401023,0.05989779,-0.012037571,-0.015482057,0.03321209,-0.021283295,-0.007898145,-0.016303899,-0.027435027,-0.03425148,0.08025047,-0.04389604,0.009608302,-0.00723342,0.06753609,-0.014225122,0.008176121,-0.04585396,0.011264073,0.008955663,0.037611365,0.03579848,0.018866112,0.032825343,0.029272085,0.002294813,-0.007475138,0.024824468,-0.0061215158,-0.006913143,-0.0465066,-0.0027873141,-0.04280831,0.055981956,0.02327747,-0.027435027,-0.03147172,0.0049522035,0.004695378,-0.017766295,-0.035218354,0.014950276,-0.05404821,0.040608674,-0.022467716,-0.00296256,-0.0005627504,0.020703172,0.03860241,-0.010683948,-0.0048192586,0.037417993,0.04292917,0.0019367678,0.061348103,0.00087773957,0.012400148,0.016690647,0.058882575,0.00527248,-0.011294288,-0.002121078,-0.036958728,0.017149912,-0.010025267,0.056175333,-0.0025455959,-0.035822652,0.005000547,0.0021135244,-0.04027027,0.03420314,0.014696472,-0.06874468,0.005580671,-0.022165567,0.043751013,0.029828038,0.011783767,0.016461017,0.011445361,-0.010617476,-0.0042361133,0.00047210604,-0.022673177,0.031278346,-0.004217984,-0.03038399,-0.0037315262,-0.0074026226,0.064973876,0.03173761,0.057915702,0.0233379,0.02644398,0.014478926,0.000117082294,0.047135066,0.0019337464,-0.0053570815,0.0010967967,0.021428326,-0.013028616,-0.047231756,0.013705427,0.027072448,0.003952094,-0.027169136,-0.01730703,-0.0028069536,-0.023978455,6.4961794e-05,0.015034878,0.009354498,-0.039085846,0.030722395,-0.012919842,0.0036439032,-0.0044657453,-0.0015167823,-0.01434598,0.01162665,-0.018974885,0.030770738,-0.014817331,0.042349044,-0.03463823,0.009288025,-0.0077228993,0.009584131,0.03659615,0.010291156,0.015578744,0.03768388,0.004647034,0.012212817,-0.038288176,0.010587261,0.053468086,-0.042494077,-0.030625708,-0.011572263,0.019639611,-0.0044657453,0.009880235,-0.042083155,-0.034154795,0.025597967,-0.016400587,0.022080965,-0.013729599,0.016195126,0.024244344,0.024643179,-0.004214963,-0.04718341,0.0014593742,0.011415146,0.0115299625,0.008750202,0.02869196,0.0076745558,0.043412603,0.022552317,0.014853589,-0.0016482166,-0.01783881,0.0143822385,-0.02100532,-0.011795852,-0.022371028,-0.02370048,-0.03265614,0.0318343,0.014865675,0.010333457,-0.010611433,0.010200512,0.0008686751,0.0440169,-0.023978455,0.029320428,-0.042276528,-0.031157488,-0.030964114,-0.041913953,0.027531713,-0.025283733,0.0036862039,-0.0034082278,-0.012375977,-0.001054496,0.00072062266,-0.0042058984,-0.0075295246,0.029924724,-0.019506667,0.009976923,-0.011928798,-0.030698223,0.029513804,-0.022503974,0.0266857,0.0404153,-0.01007361,0.0155304,-0.005296652,-0.00014097086,-0.004369058,0.011264073,-0.03171344,-0.02370048,0.024099315,0.034589887,-0.03683787,-0.02760423,0.03161675,0.00046002012,-0.034396514,0.023627963,0.020618571,-0.0155304,0.0071548615,-0.022467716,-0.028522758,-0.017077398,-0.0051032775,-0.016315985,0.026975762,-0.0042512203,0.006248418,0.011572263,0.015627088,0.0021815076,-0.017923411,-0.003909793,-0.0025969609,-0.014781074,-0.045926474,0.03645112,0.025525453,0.013294506,-0.007892102,-0.01671482,0.022020536,0.03567762,0.0008361942,0.033913076,-0.02399054,0.0074328375,-0.010538918,-0.004562433,0.035097495,0.023869682,0.0011587371,0.011112998,-0.019011144,-0.0074086655,-0.024643179,0.044331133,0.024099315,0.008846889,-0.0010696035,0.004713507,0.008587042,-0.01976047,0.0056411005,-0.007922317,-0.0062967613,-0.027459199,0.0040880605,0.016195126,0.0037285048,-0.008055262,0.06357191,-0.015953407,0.0055444133,-0.0043781227,0.015482057,0.012666038,0.043775182,0.012629781,-0.032583624,-0.028329384,-0.0021996365,0.0102972,0.00036050018,-0.08160409,-0.004462724,-7.978592e-05,-0.0086293435,-0.0069010574,0.010315328,-0.040197752,0.022769863,-0.001971515,0.033792216,0.017645435,0.028885337,-0.043702666,0.01612261,-0.0072938493,-0.011415146,-0.0065989094,-0.023156613,0.009964837,0.017826725,-0.0055081556,-0.02721748,0.04109211,-0.027289996,-0.020159306,0.03038399,-0.008798546,-0.014539355,-0.012098,0.00092155096,0.014031746,0.019506667,-0.015119479,-0.012786898,-0.041358,0.025912201,0.0038463422,0.006459921,0.021416241,-0.010460359,-0.054870054,0.024667352,-0.011318459,0.016521445,0.010617476,-0.015385369,0.01526451,0.0011738444,0.0031906816,-0.016823594,0.020219736,0.034541544,0.009360541,0.01275064,-0.0379256,-0.030021412,-0.04217984,-0.0377564,-0.0045171105,0.026903246,-0.040608674,0.018394763,-0.020956976,-0.031230003,-0.01798384,-0.0266857,0.05361312,0.031205831,0.013971318,-0.011245944,0.02020765,-0.016038008,0.03768388,-0.0043207146,-0.009825849,-0.033598844,0.009022135,0.0006465964,0.022141395,0.012013399,0.028039321,0.050519124,-0.030988285,-0.016497273,-0.038819958,-0.010109868,-0.020993235,0.024365203,-0.0041001467,-0.02200845,-0.007946488,-0.015107393,0.016485188,-0.02121078,0.010593304,0.029973067,-0.011475576,0.02748337,-0.039400082,0.0097231185,0.010738336,0.03142338,0.0024534406,0.025187045,0.030214787,0.013693341,-0.007837716,0.010949839,-0.008647472,0.025791341,-0.040802047,0.019518752,0.032148533,-0.0111009125,-0.049407218,0.026830731,-0.030770738,0.026661528,-0.0056652725,-0.016956538,-0.048319485,0.08493981,0.0022555338,0.016062181,0.011820025,0.00019488538,0.031375036,-0.01718617,0.029175397,0.04346095,-0.024280602,0.013258249,-0.03751468,-0.013173647,0.009203424,0.011167385,-0.0038584282,0.021102007,0.0032360037,0.0037164188,0.00058843294,0.008097563,-0.0008694305,0.032027673,0.017174084,-0.0055021127,0.004039717,0.039061677,0.008290937,0.034348167,0.009874192,-0.02973135,0.004063889,0.027144965,-0.016690647,-0.027507542,0.025211219,0.013644998,-0.021102007,-0.0036257743,0.027990978,0.00637532,0.049407218,0.04771519,-0.021887591,0.00019601843,-0.02973135,-0.0064357496,-0.02813601,0.0023461783,0.032946203,-0.023023667,-0.014865675,0.014781074,-0.00037296378,0.023736736,0.004583583,-0.039037503,-0.005275502,-0.03381639,0.013729599,0.012140301,0.005471898,-0.008230508,0.01499862,-0.0045866044,-0.005432619,-0.041962296,-0.013753771,-0.025138702,0.040487815,-0.008145906,-0.0007463052,-0.013306592,0.016134696,0.03210019,-0.021174522,-0.01242432,0.002793357,0.00079238275,0.026927417,0.028861163,-0.0047074636,-0.019748384,-0.016062181,-0.009843977,0.011838153,-0.035121668,-0.026129747,-0.017294943,-0.0115299625,-0.01757292,-0.028595274,-0.022213912,0.005145578,0.0059704417,0.038940817,-0.01698071,0.035943512,-0.05196943,-0.015578744,0.00090266677,0.010617476,0.013258249,0.015554572,-0.023507103,0.01665439,-0.026951589,0.0075295246,-0.02370048,-0.028329384,0.023325816,0.007934403,-0.0045533683,-0.016908195,0.044911258,0.00825468,-0.0036590106,-0.0065747374,-0.005314781,0.00361671,0.011656865,0.0111976,-0.052162807,-0.035387557,0.01591715,0.01446684,0.023652134,-0.039835174,0.025066188,0.02186342,-0.013499967,-0.008792503,0.037732225,0.004399273,0.01446684,-0.0011897072,0.004341865,0.029102882,0.029030368,0.014926105,-0.034517374,0.029151225,-0.013439537,0.068696335,0.03500081,0.028885337,-0.0027253737,0.022576489,0.011409103,0.006985659,0.002711777,-0.016618133,-0.017174084,0.00852057,0.0007878506,0.038118973,0.014877761,0.008907319,0.031012457,-0.030480677,0.0034837648,0.050567467,0.03381639,0.019542923,-0.009016092,-0.011838153,-0.04162389,0.04014941,-0.026903246,0.008810632,0.009584131,0.0049703326,0.0027374597,0.023349987,-0.007378451,0.021488756,0.0241114,-0.058495827,-0.01499862,0.025211219,0.028667789,0.032777,0.0051939217,0.01943415,-0.007046088,-0.032076016,0.010889409,-0.0009041775,-0.03236608,-0.04387187,0.0052180937,0.003163488,-0.036112715,-0.019869244,-0.026323123,0.0018627415,0.008303023,0.027024105,-0.017645435,0.017754208,-0.01704114,0.030794911,0.0064417925,0.049092986,0.0022087009,0.019011144,-0.009523701,-0.013185733,-1.03273194e-07,0.0101823835,0.026927417,0.006459921,0.02399054,-0.009209467,-0.011137171,0.0105147455,0.023966368,0.000101030695,-0.0019518752,0.003465636,-0.020364767,-0.012629781,0.0046500554,0.017923411,0.042083155,-0.02629895,0.014491011,0.017609177,0.08851724,-0.015397456,-0.0031453592,0.004103168,0.010109868,0.03384056,0.018708996,0.01928912,0.026105575,0.012309504,0.030166443,7.8605655e-05,-0.04810194,0.006949401,-0.027144965,-0.027338339,-0.0115299625,0.016219297,0.012641867,-0.005831454,-0.037708055,-0.065215595,0.036161058,0.026999934,-0.012883585,0.028716134,0.0129077565,0.034976635,-0.020123048,-0.030746566,-0.022310598,0.016593961,0.02029225,-0.003447507,0.03768388,-0.021500843,0.013777942,-0.0096747745,-0.014974448,-0.01890237,-0.013850458,-0.0013679744,-0.0057861316,0.00048872415,-0.010472445,0.008496398,-0.01301653,0.019651698,0.032293566,0.026830731,-0.0037466334,0.0009253278,0.045128804,0.0015545507,-0.00010575175,-0.048319485,0.010363672,0.0014110305,0.00020130601,0.00088680396,-0.0033598843,-0.024776125,-0.025259562,0.043775182,-0.020993235,-0.02180299,-0.029973067,0.021077836,-0.018310161,-0.0048071723,0.0067076827,-0.020666914,-0.01172938,0.005686423,0.05201778,0.043920215,0.008804589,0.0018446128,0.022685261,0.009197381,-0.026226435,0.014660214,0.010321371,0.0076201693,0.013367021,0.04046364,0.002376393,0.013971318,-0.013004445,-0.041237142,0.0055444133,-0.0018038227,0.01742789,-0.018612308,-0.016231384,0.004601712,-0.009142994,-0.042349044,0.015433713,0.07338567,-0.024280602,0.0039974162,0.027314167,0.03234191,-0.005462833,-0.037998114,0.010629562,0.04085039,0.012738554,-0.032027673,0.01626764,-0.01559083,0.0013966785,-0.017488318,-0.0019095745,-0.022238083,0.0005839007,-0.02017139,0.031640925,0.0032783044,-0.026323123,-0.025017843,0.016412672,0.022745691,0.0032964332,0.019047402,-0.013125303,0.011028397,0.017585006,0.014092176,0.029924724,-0.023072012,-0.011554134,0.026758214,0.009590173,0.016533531,-0.0057891533,-0.017355373,0.007360322,-0.021440413,-0.013004445,0.0017041139,-0.030891597,-0.038795784,0.013753771,0.010617476,-0.020993235,0.004057846,0.0224798,0.021657959,-0.026105575,-0.006049,0.012798984,-0.00039959056,-0.009100693,0.059124295,0.009034221,-0.0050791055,-0.020485625,-0.013572482,-0.026951589,-0.018914456,-0.021500843,-0.0014004554,0.008665601,0.0049522035,0.022093052,-0.04150303,0.040125236,0.012345762,-0.011209685,-0.0056290147,-0.024183916,0.009952751,0.034517374,0.010635605,0.0115299625,-0.023905938,-0.033743873,0.024280602,0.02509036,0.021126179,0.019724213,-0.049939,0.014188863,-0.014019661,0.011372846,-0.029441288,0.0040608672,-0.05312968,0.00942097,0.020981148,0.016436843,0.0046681846,-0.012871499,-0.034904122,-0.023555448,-0.0029776671,0.027797604,-0.004375101,-0.0013083003,-0.03234191,0.01783881,-0.020787774,-0.006919186,0.011493705,0.009118822,-0.018950714,-0.014430582,0.022443544,0.0019141068,0.010200512,0.01440641,-0.03265614,0.043920215,0.017681694,-0.021585444,-0.028740305,-0.0016331092,-0.0014676832,0.021283295,0.024087228,-0.02206888,-0.015663344,-0.0047255927,0.025815513,0.03683787,-0.011596435,-0.015965493,0.02194802,0.019929674,0.01532494,-0.008224465,0.008236551,0.016618133,0.019470409,0.022975324,0.0027978893,0.022455629,-0.017887153,0.016424758,0.028619446,-0.03159258,0.0045986907,-0.017512491,-0.0104361875,-0.026250606,-0.014055919,0.03420314,0.01565126,-0.031665098,-0.012297418,-0.018600222,0.012762726,-0.015191995,-0.027797604,0.0127022965,-0.0114030605,0.036644492,-0.011832111,-0.0013543778,-0.05564355,-0.007511396,-0.0014163181,0.015494143,0.016412672,0.021259123,0.040125236,-0.012001313,0.018769426,-0.020002188,-0.031761784,-0.021972192,-0.000608828,0.00551722,0.0036227528,0.016376413,0.020376852,0.016968625,-0.012236988,0.005275502,-0.026226435,0.018201387,0.0061336015,-0.026830731,-0.01863648,-0.02709662,-0.001095286,0.019990103,-0.010321371,0.00062657916,0.00064848486,0.0037738269,0.024824468,0.012521007,0.0072817635,0.024655266,-0.023543362,0.004444595,0.00067303434,0.026129747,-0.016231384,0.010291156,-0.0060882797,0.026758214,-0.0009925558,-0.038360693,-0.005082127,-0.017585006,0.0008611214,0.013777942,0.034178965,0.021162437,-0.0065566087,0.021198694,-0.010526831,-0.009662689,0.0377564,-0.027120793,-0.033091236,0.011904626,-0.014503097,-0.044911258,0.021416241,0.052356184,-0.050954215,-0.023942197,-0.012859413,-0.0045443038,0.016074266,0.017548747,0.020304337,-0.025380421,0.02192385,-0.0046983995,-0.031955156,0.015179909,0.014684387,0.0035381515,-0.030770738,-0.011820025,-0.02292698,0.033623014,0.0051153633,0.010841065,-0.00621216,-0.021102007,0.05037409,0.011554134,0.008278851,-0.0038402993,-0.014164692,-0.015034878,0.0121946875,0.035580933,-0.010865238,0.021561272,0.0012743087,-0.014019661,0.0069373148,-0.004323736,0.016968625,-0.035750136,0.000941946,-0.01093171,-0.029223742,-0.001732818,0.0233379,0.008345324,-0.0023899896,0.0056139072,0.027265823,-5.2923086e-05,-0.0048192586,0.047642674,0.007831672,0.012085915,0.012333676,0.003912815,-0.035580933,0.041599717,-0.0018627415,0.03541173,-0.0010733802,-0.02588803,0.02656484,-0.019832985,0.017174084,-0.009934622,0.015554572,0.01949458,-0.00078558445,-0.010593304,0.0011904626,0.035387557,-0.017089482,-0.004323736,-0.039617628,-0.001953386,-0.0025516388,0.01093171,-0.0014306701,0.019325377,0.014829418,0.037369646,0.042856652,0.013439537,-0.027700916,-0.02644398,0.00037825137,0.0025894071,0.033671357,-0.029247914,0.045902304,-0.0059946137,0.0035925382,-0.0068164556,0.009227596,-0.005940227,0.012726468,0.026492326,0.029296257,0.015469971,0.014321809,0.007626212,-0.02364005,-0.0136691695,0.0052815448,-0.015832549,-0.009831891,-0.0017600113,-0.007366365,0.056223676,0.0062907184,0.0249695,0.026734043,0.017077398,0.0060369144,-0.009402841,0.0037859126,-0.02014722,-0.014116349,0.018854028,-0.024401462,0.006230289,0.035774305,0.0067499834,-0.014781074,0.027773432,-0.017669607,0.028039321,0.07038837,-0.021053663,-0.011451405,0.007728942,-0.0034747005,0.05907595,0.0015046963,-0.004565454,-0.0010084185,-0.0030018392,-0.009360541,0.009227596,-0.03504915,-0.020497711,-0.016074266,-0.016932366,-0.002961049,0.0015983622,-0.030915769,-0.024123486,0.012110086,-0.032607798,-0.034178965,-0.013862544,-0.0066049523,0.025356248,-0.03579848,-0.008012962,0.0047346572,0.043388434,0.03896499,0.0040880605,0.008442012,-0.005396361,-0.015627088,-0.004057846,0.02351919
