sign,0,1,2,3,4,5,6,7,8,9,10,11,12,13,14,15,16,17,18,19,20,21,22,23,24,25,26,27,28,29,30,31,32,33,34,35,36,37,38,39,40,41,42,43,44,45,46,47,48,49,50,51,52,53,54,55,56,57,58,59,60,61,62,63,64,65,66,67,68,69,70,71,72,73,74,75,76,77,78,79,80,81,82,83,84,85,86,87,88,89,90,91,92,93,94,95,96,97,98,99,100,101,102,103,104,105,106,107,108,109,110,111,112,113,114,115,116,117,118,119,120,121,122,123,124,125,126,127,128,129,130,131,132,133,134,135,136,137,138,139,140,141,142,143,144,145,146,147,148,149,150,151,152,153,154,155,156,157,158,159,160,161,162,163,164,165,166,167,168,169,170,171,172,173,174,175,176,177,178,179,180,181,182,183,184,185,186,187,188,189,190,191,192,193,194,195,196,197,198,199,200,201,202,203,204,205,206,207,208,209,210,211,212,213,214,215,216,217,218,219,220,221,222,223,224,225,226,227,228,229,230,231,232,233,234,235,236,237,238,239,240,241,242,243,244,245,246,247,248,249,250,251,252,253,254,255,256,257,258,259,260,261,262,263,264,265,266,267,268,269,270,271,272,273,274,275,276,277,278,279,280,281,282,283,284,285,286,287,288,289,290,291,292,293,294,295,296,297,298,299,300,301,302,303,304,305,306,307,308,309,310,311,312,313,314,315,316,317,318,319,320,321,322,323,324,325,326,327,328,329,330,331,332,333,334,335,336,337,338,339,340,341,342,343,344,345,346,347,348,349,350,351,352,353,354,355,356,357,358,359,360,361,362,363,364,365,366,367,368,369,370,371,372,373,374,375,376,377,378,379,380,381,382,383,384,385,386,387,388,389,390,391,392,393,394,395,396,397,398,399,400,401,402,403,404,405,406,407,408,409,410,411,412,413,414,415,416,417,418,419,420,421,422,423,424,425,426,427,428,429,430,431,432,433,434,435,436,437,438,439,440,441,442,443,444,445,446,447,448,449,450,451,452,453,454,455,456,457,458,459,460,461,462,463,464,465,466,467,468,469,470,471,472,473,474,475,476,477,478,479,480,481,482,483,484,485,486,487,488,489,490,491,492,493,494,495,496,497,498,499,500,501,502,503,504,505,506,507,508,509,510,511,512,513,514,515,516,517,518,519,520,521,522,523,524,525,526,527,528,529,530,531,532,533,534,535,536,537,538,539,540,541,542,543,544,545,546,547,548,549,550,551,552,553,554,555,556,557,558,559,560,561,562,563,564,565,566,567,568,569,570,571,572,573,574,575,576,577,578,579,580,581,582,583,584,585,586,587,588,589,590,591,592,593,594,595,596,597,598,599,600,601,602,603,604,605,606,607,608,609,610,611,612,613,614,615,616,617,618,619,620,621,622,623,624,625,626,627,628,629,630,631,632,633,634,635,636,637,638,639,640,641,642,643,644,645,646,647,648,649,650,651,652,653,654,655,656,657,658,659,660,661,662,663,664,665,666,667,668,669,670,671,672,673,674,675,676,677,678,679,680,681,682,683,684,685,686,687,688,689,690,691,692,693,694,695,696,697,698,699,700,701,702,703,704,705,706,707,708,709,710,711,712,713,714,715,716,717,718,719,720,721,722,723,724,725,726,727,728,729,730,731,732,733,734,735,736,737,738,739,740,741,742,743,744,745,746,747,748,749,750,751,752,753,754,755,756,757,758,759,760,761,762,763,764,765,766,767,768,769,770,771,772,773,774,775,776,777,778,779,780,781,782,783,784,785,786,787,788,789,790,791,792,793,794,795,796,797,798,799,800,801,802,803,804,805,806,807,808,809,810,811,812,813,814,815,816,817,818,819,820,821,822,823,824,825,826,827,828,829,830,831,832,833,834,835,836,837,838,839,840,841,842,843,844,845,846,847,848,849,850,851,852,853,854,855,856,857,858,859,860,861,862,863,864,865,866,867,868,869,870,871,872,873,874,875,876,877,878,879,880,881,882,883,884,885,886,887,888,889,890,891,892,893,894,895,896,897,898,899,900,901,902,903,904,905,906,907,908,909,910,911,912,913,914,915,916,917,918,919,920,921,922,923,924,925,926,927,928,929,930,931,932,933,934,935,936,937,938,939,940,941,942,943,944,945,946,947,948,949,950,951,952,953,954,955,956,957,958,959,960,961,962,963,964,965,966,967,968,969,970,971,972,973,974,975,976,977,978,979,980,981,982,983,984,985,986,987,988,989,990,991,992,993,994,995,996,997,998,999,1000,1001,1002,1003,1004,1005,1006,1007,1008,1009,1010,1011,1012,1013,1014,1015,1016,1017,1018,1019,1020,1021,1022,1023,1024,1025,1026,1027,1028,1029,1030,1031,1032,1033,1034,1035,1036,1037,1038,1039,1040,1041,1042,1043,1044,1045,1046,1047,1048,1049,1050,1051,1052,1053,1054,1055,1056,1057,1058,1059,1060,1061,1062,1063,1064,1065,1066,1067,1068,1069,1070,1071,1072,1073,1074,1075,1076,1077,1078,1079,1080,1081,1082,1083,1084,1085,1086,1087,1088,1089,1090,1091,1092,1093,1094,1095,1096,1097,1098,1099,1100,1101,1102,1103,1104,1105,1106,1107,1108,1109,1110,1111,1112,1113,1114,1115,1116,1117,1118,1119,1120,1121,1122,1123,1124,1125,1126,1127,1128,1129,1130,1131,1132,1133,1134,1135,1136,1137,1138,1139,1140,1141,1142,1143,1144,1145,1146,1147,1148,1149,1150,1151,1152,1153,1154,1155,1156,1157,1158,1159,1160,1161,1162,1163,1164,1165,1166,1167,1168,1169,1170,1171,1172,1173,1174,1175,1176,1177,1178,1179,1180,1181,1182,1183,1184,1185,1186,1187,1188,1189,1190,1191,1192,1193,1194,1195,1196,1197,1198,1199,1200,1201,1202,1203,1204,1205,1206,1207,1208,1209,1210,1211,1212,1213,1214,1215,1216,1217,1218,1219,1220,1221,1222,1223,1224,1225,1226,1227,1228,1229,1230,1231,1232,1233,1234,1235,1236,1237,1238,1239,1240,1241,1242,1243,1244,1245,1246,1247,1248,1249,1250,1251,1252,1253,1254,1255,1256,1257,1258,1259,1260,1261,1262,1263,1264,1265,1266,1267,1268,1269,1270,1271,1272,1273,1274,1275,1276,1277,1278,1279,1280,1281,1282,1283,1284,1285,1286,1287,1288,1289,1290,1291,1292,1293,1294,1295,1296,1297,1298,1299,1300,1301,1302,1303,1304,1305,1306,1307,1308,1309,1310,1311,1312,1313,1314,1315,1316,1317,1318,1319,1320,1321,1322,1323,1324,1325,1326,1327,1328,1329,1330,1331,1332,1333,1334,1335,1336,1337,1338,1339,1340,1341,1342,1343,1344,1345,1346,1347,1348,1349,1350,1351,1352,1353,1354,1355,1356,1357,1358,1359,1360,1361,1362,1363,1364,1365,1366,1367,1368,1369,1370,1371,1372,1373,1374,1375,1376,1377,1378,1379,1380,1381,1382,1383,1384,1385,1386,1387,1388,1389,1390,1391,1392,1393,1394,1395,1396,1397,1398,1399,1400,1401,1402,1403,1404,1405,1406,1407,1408,1409,1410,1411,1412,1413,1414,1415,1416,1417,1418,1419,1420,1421,1422,1423,1424,1425,1426,1427,1428,1429,1430,1431,1432,1433,1434,1435,1436,1437,1438,1439,1440,1441,1442,1443,1444,1445,1446,1447,1448,1449,1450,1451,1452,1453,1454,1455,1456,1457,1458,1459,1460,1461,1462,1463,1464,1465,1466,1467,1468,1469,1470,1471,1472,1473,1474,1475,1476,1477,1478,1479,1480,1481,1482,1483,1484,1485,1486,1487,1488,1489,1490,1491,1492,1493,1494,1495,1496,1497,1498,1499,1500,1501,1502,1503,1504,1505,1506,1507,1508,1509,1510,1511,1512,1513,1514,1515,1516,1517,1518,1519,1520,1521,1522,1523,1524,1525,1526,1527,1528,1529,1530,1531,1532,1533,1534,1535,1536,1537,1538,1539,1540,1541,1542,1543,1544,1545,1546,1547,1548,1549,1550,1551,1552,1553,1554,1555,1556,1557,1558,1559,1560,1561,1562,1563,1564,1565,1566,1567,1568,1569,1570,1571,1572,1573,1574,1575,1576,1577,1578,1579,1580,1581,1582,1583,1584,1585,1586,1587,1588,1589,1590,1591,1592,1593,1594,1595,1596,1597,1598,1599,1600,1601,1602,1603,1604,1605,1606,1607,1608,1609,1610,1611,1612,1613,1614,1615,1616,1617,1618,1619,1620,1621,1622,1623,1624,1625,1626,1627,1628,1629,1630,1631,1632,1633,1634,1635,1636,1637,1638,1639,1640,1641,1642,1643,1644,1645,1646,1647,1648,1649,1650,1651,1652,1653,1654,1655,1656,1657,1658,1659,1660,1661,1662,1663,1664,1665,1666,1667,1668,1669,1670,1671,1672,1673,1674,1675,1676,1677,1678,1679,1680,1681,1682,1683,1684,1685,1686,1687,1688,1689,1690,1691,1692,1693,1694,1695,1696,1697,1698,1699,1700,1701,1702,1703,1704,1705,1706,1707,1708,1709,1710,1711,1712,1713,1714,1715,1716,1717,1718,1719,1720,1721,1722,1723,1724,1725,1726,1727,1728,1729,1730,1731,1732,1733,1734,1735,1736,1737,1738,1739,1740,1741,1742,1743,1744,1745,1746,1747,1748,1749,1750,1751,1752,1753,1754,1755,1756,1757,1758,1759,1760,1761,1762,1763,1764,1765,1766,1767,1768,1769,1770,1771,1772,1773,1774,1775,1776,1777,1778,1779,1780,1781,1782,1783,1784,1785,1786,1787,1788,1789,1790,1791,1792,1793,1794,1795,1796,1797,1798,1799,1800,1801,1802,1803,1804,1805,1806,1807,1808,1809,1810,1811,1812,1813,1814,1815,1816,1817,1818,1819,1820,1821,1822,1823,1824,1825,1826,1827,1828,1829,1830,1831,1832,1833,1834,1835,1836,1837,1838,1839,1840,1841,1842,1843,1844,1845,1846,1847,1848,1849,1850,1851,1852,1853,1854,1855,1856,1857,1858,1859,1860,1861,1862,1863,1864,1865,1866,1867,1868,1869,1870,1871,1872,1873,1874,1875,1876,1877,1878,1879,1880,1881,1882,1883,1884,1885,1886,1887,1888,1889,1890,1891,1892,1893,1894,1895,1896,1897,1898,1899,1900,1901,1902,1903,1904,1905,1906,1907,1908,1909,1910,1911,1912,1913,1914,1915,1916,1917,1918,1919,1920,1921,1922,1923,1924,1925,1926,1927,1928,1929,1930,1931,1932,1933,1934,1935,1936,1937,1938,1939,1940,1941,1942,1943,1944,1945,1946,1947,1948,1949,1950,1951,1952,1953,1954,1955,1956,1957,1958,1959,1960,1961,1962,1963,1964,1965,1966,1967,1968,1969,1970,1971,1972,1973,1974,1975,1976,1977,1978,1979,1980,1981,1982,1983,1984,1985,1986,1987,1988,1989,1990,1991,1992,1993,1994,1995,1996,1997,1998,1999,2000,2001,2002,2003,2004,2005,2006,2007,2008,2009,2010,2011,2012,2013,2014,2015,2016,2017,2018,2019,2020,2021,2022,2023,2024,2025,2026,2027,2028,2029,2030,2031,2032,2033,2034,2035,2036,2037,2038,2039,2040,2041,2042,2043,2044,2045,2046,2047,2048,2049,2050,2051,2052,2053,2054,2055,2056,2057,2058,2059,2060,2061,2062,2063,2064,2065,2066,2067,2068,2069,2070,2071,2072,2073,2074,2075,2076,2077,2078,2079,2080,2081,2082,2083,2084,2085,2086,2087,2088,2089,2090,2091,2092,2093,2094,2095,2096,2097,2098,2099,2100,2101,2102,2103,2104,2105,2106,2107,2108,2109,2110,2111,2112,2113,2114,2115,2116,2117,2118,2119,2120,2121,2122,2123,2124,2125,2126,2127,2128,2129,2130,2131,2132,2133,2134,2135,2136,2137,2138,2139,2140,2141,2142,2143,2144,2145,2146,2147,2148,2149,2150,2151,2152,2153,2154,2155,2156,2157,2158,2159,2160,2161,2162,2163,2164,2165,2166,2167,2168,2169,2170,2171,2172,2173,2174,2175,2176,2177,2178,2179,2180,2181,2182,2183,2184,2185,2186,2187,2188,2189,2190,2191,2192,2193,2194,2195,2196,2197,2198,2199,2200,2201,2202,2203,2204,2205,2206,2207,2208,2209,2210,2211,2212,2213,2214,2215,2216,2217,2218,2219,2220,2221,2222,2223,2224,2225,2226,2227,2228,2229,2230,2231,2232,2233,2234,2235,2236,2237,2238,2239,2240,2241,2242,2243,2244,2245,2246,2247,2248,2249,2250,2251,2252,2253,2254,2255,2256,2257,2258,2259,2260,2261,2262,2263,2264,2265,2266,2267,2268,2269,2270,2271,2272,2273,2274,2275,2276,2277,2278,2279,2280,2281,2282,2283,2284,2285,2286,2287,2288,2289,2290,2291,2292,2293,2294,2295,2296,2297,2298,2299,2300,2301,2302,2303,2304,2305,2306,2307,2308,2309,2310,2311,2312,2313,2314,2315,2316,2317,2318,2319,2320,2321,2322,2323,2324,2325,2326,2327,2328,2329,2330,2331,2332,2333,2334,2335,2336,2337,2338,2339,2340,2341,2342,2343,2344,2345,2346,2347,2348,2349,2350,2351,2352,2353,2354,2355,2356,2357,2358,2359,2360,2361,2362,2363,2364,2365,2366,2367,2368,2369,2370,2371,2372,2373,2374,2375,2376,2377,2378,2379,2380,2381,2382,2383,2384,2385,2386,2387,2388,2389,2390,2391,2392,2393,2394,2395,2396,2397,2398,2399,2400,2401,2402,2403,2404,2405,2406,2407,2408,2409,2410,2411,2412,2413,2414,2415,2416,2417,2418,2419,2420,2421,2422,2423,2424,2425,2426,2427,2428,2429,2430,2431,2432,2433,2434,2435,2436,2437,2438,2439,2440,2441,2442,2443,2444,2445,2446,2447,2448,2449,2450,2451,2452,2453,2454,2455,2456,2457,2458,2459,2460,2461,2462,2463,2464,2465,2466,2467,2468,2469,2470,2471,2472,2473,2474,2475,2476,2477,2478,2479,2480,2481,2482,2483,2484,2485,2486,2487,2488,2489,2490,2491,2492,2493,2494,2495,2496,2497,2498,2499,2500,2501,2502,2503,2504,2505,2506,2507,2508,2509,2510,2511,2512,2513,2514,2515,2516,2517,2518,2519,2520,2521,2522,2523,2524,2525,2526,2527,2528,2529,2530,2531,2532,2533,2534,2535,2536,2537,2538,2539,2540,2541,2542,2543,2544,2545,2546,2547,2548,2549,2550,2551,2552,2553,2554,2555,2556,2557,2558,2559,2560,2561,2562,2563,2564,2565,2566,2567,2568,2569,2570,2571,2572,2573,2574,2575,2576,2577,2578,2579,2580,2581,2582,2583,2584,2585,2586,2587,2588,2589,2590,2591,2592,2593,2594,2595,2596,2597,2598,2599,2600,2601,2602,2603,2604,2605,2606,2607,2608,2609,2610,2611,2612,2613,2614,2615,2616,2617,2618,2619,2620,2621,2622,2623,2624,2625,2626,2627,2628,2629,2630,2631,2632,2633,2634,2635,2636,2637,2638,2639,2640,2641,2642,2643,2644,2645,2646,2647,2648,2649,2650,2651,2652,2653,2654,2655,2656,2657,2658,2659,2660,2661,2662,2663,2664,2665,2666,2667,2668,2669,2670,2671,2672,2673,2674,2675,2676,2677,2678,2679,2680,2681,2682,2683,2684,2685,2686,2687,2688,2689,2690,2691,2692,2693,2694,2695,2696,2697,2698,2699,2700,2701,2702,2703,2704,2705,2706,2707,2708,2709,2710,2711,2712,2713,2714,2715,2716,2717,2718,2719,2720,2721,2722,2723,2724,2725,2726,2727,2728,2729,2730,2731,2732,2733,2734,2735,2736,2737,2738,2739,2740,2741,2742,2743,2744,2745,2746,2747,2748,2749,2750,2751,2752,2753,2754,2755,2756,2757,2758,2759,2760,2761,2762,2763,2764,2765,2766,2767,2768,2769,2770,2771,2772,2773,2774,2775,2776,2777,2778,2779,2780,2781,2782,2783,2784,2785,2786,2787,2788,2789,2790,2791,2792,2793,2794,2795,2796,2797,2798,2799,2800,2801,2802,2803,2804,2805,2806,2807,2808,2809,2810,2811,2812,2813,2814,2815,2816,2817,2818,2819,2820,2821,2822,2823,2824,2825,2826,2827,2828,2829,2830,2831,2832,2833,2834,2835,2836,2837,2838,2839,2840,2841,2842,2843,2844,2845,2846,2847,2848,2849,2850,2851,2852,2853,2854,2855,2856,2857,2858,2859,2860,2861,2862,2863,2864,2865,2866,2867,2868,2869,2870,2871,2872,2873,2874,2875,2876,2877,2878,2879,2880,2881,2882,2883,2884,2885,2886,2887,2888,2889,2890,2891,2892,2893,2894,2895,2896,2897,2898,2899,2900,2901,2902,2903,2904,2905,2906,2907,2908,2909,2910,2911,2912,2913,2914,2915,2916,2917,2918,2919,2920,2921,2922,2923,2924,2925,2926,2927,2928,2929,2930,2931,2932,2933,2934,2935,2936,2937,2938,2939,2940,2941,2942,2943,2944,2945,2946,2947,2948,2949,2950,2951,2952,2953,2954,2955,2956,2957,2958,2959,2960,2961,2962,2963,2964,2965,2966,2967,2968,2969,2970,2971,2972,2973,2974,2975,2976,2977,2978,2979,2980,2981,2982,2983,2984,2985,2986,2987,2988,2989,2990,2991,2992,2993,2994,2995,2996,2997,2998,2999,3000,3001,3002,3003,3004,3005,3006,3007,3008,3009,3010,3011,3012,3013,3014,3015,3016,3017,3018,3019,3020,3021,3022,3023,3024,3025,3026,3027,3028,3029,3030,3031,3032,3033,3034,3035,3036,3037,3038,3039,3040,3041,3042,3043,3044,3045,3046,3047,3048,3049,3050,3051,3052,3053,3054,3055,3056,3057,3058,3059,3060,3061,3062,3063,3064,3065,3066,3067,3068,3069,3070,3071
aquarius,-0.03407857,-0.012230314,-0.025731515,-0.013862069,0.020334173,-0.013093262,-0.010857444,0.02147954,0.029261753,-0.0055307066,-0.003963673,0.0604063,0.0077116094,0.023754582,-0.056923132,-0.0087628355,-0.019424155,0.02392717,0.016395995,-0.049517475,-0.00032360517,-0.031113166,-0.022436626,3.625236e-05,0.028430186,-0.0073272055,0.020334173,0.026280662,-0.046348106,0.037938293,0.031050406,0.008409812,-0.013681634,7.771427e-05,-0.037938293,-0.0087157665,0.008268602,0.024664598,-0.015564429,-0.019957613,-0.0055267843,0.0054169544,0.019330015,0.02676705,0.01798068,-0.0270024,-0.015242784,-0.0066407705,0.02970107,-0.02992073,-0.047101226,-0.032446813,0.015791932,-0.001708243,0.006338739,0.03640068,0.062132195,-0.055448275,0.03555342,0.0086843865,-0.0086843865,0.008354898,-0.029073473,0.02105591,2.8024331e-05,-0.013916984,0.06721574,0.0025986477,-0.02380165,-0.02722206,-0.02071073,0.012669633,-0.016113577,-0.016898073,0.028085006,0.011516422,-0.003924448,0.040480066,0.0120185,-0.031615246,0.052561324,0.006409344,0.0054326444,-0.0024456705,0.008284292,-0.020522453,0.0066329255,-0.06366981,0.03354511,0.07154616,0.015180024,-0.050050933,-0.007892044,-0.024240969,0.019894853,0.022781804,0.019533984,0.016819624,-0.020616591,-0.029293133,0.02383303,0.0087785255,0.00910017,-0.043147355,0.02682981,0.0101043265,0.003745975,0.033670627,0.014332768,0.0031791758,0.004581465,-0.0075704,0.020004684,0.0050050933,0.0054012644,0.021918857,0.028822435,-0.014160178,0.024743048,0.015948832,-0.02086763,0.0052718227,0.044057373,0.014732861,0.013289386,0.028681224,0.020632282,-0.013697324,0.035271004,0.052310288,-0.032133013,0.036996897,-0.043429777,0.02102453,0.027881037,0.0023554536,0.029559862,-0.019126046,-0.0047697444,0.03040712,-0.0076959194,-0.040417306,-0.0017749254,-0.028430186,-0.05701727,-0.02104022,-0.00900603,0.016678415,-0.040417306,-0.0023064225,-0.021275569,0.0043147355,0.012685323,-0.0087785255,0.030642468,-0.058021426,0.00523652,0.022844564,-0.040448684,-0.0066093905,0.01805913,-0.023315262,-0.008645161,0.009155084,0.05742521,0.0055346293,-0.0015611498,-0.008276448,0.0015729173,0.0666509,-0.03341959,-0.010928049,-0.019596744,-0.031081786,-0.004565775,0.017588431,0.045783266,0.018765178,-0.016866693,0.043367017,-0.0013885604,0.0068996544,0.009343364,0.011947895,-0.02693964,0.058366608,0.043837715,0.016992213,0.011249693,-0.0033458814,0.04186078,-0.02147954,0.018984837,0.017196182,0.023456473,-0.024523389,-0.019706575,0.007103624,-0.00013213878,-0.03357649,-0.025464786,-0.01507804,-0.045061532,0.029434342,-0.031222997,0.009602248,0.029512793,0.02405269,0.01805913,-0.0010747614,0.008754991,-0.034047186,0.011108483,0.02391148,-0.008707921,0.0043814178,-0.014528892,-0.006413266,0.016348926,0.003310579,-0.032289915,0.018623969,0.02697102,-0.008064633,0.023111293,0.024931327,0.017415842,0.031913355,0.029748142,-0.042613897,-0.020036064,0.017102044,0.055793457,-0.025339266,0.02094608,0.015988057,0.00676629,0.0010728001,-0.033670627,0.0037518588,0.0071467715,-0.019330015,0.003979363,0.016027281,0.0043225805,-0.04782296,-0.06627434,0.08315673,0.03640068,0.027300509,-0.0017062818,0.018655349,0.038095195,-0.018780869,0.03671448,0.014246473,-0.010010187,0.026484633,0.011571337,0.03897383,0.034298226,-0.015799778,0.0427708,0.031850595,0.018827938,-0.014575962,-0.0004611374,0.05695451,0.004616767,-0.009845442,0.0301247,0.0059582577,0.065395705,-0.020208653,-0.016019437,0.010559335,0.012324454,-0.0055150166,-0.0006222045,-0.031866286,-0.009892512,-0.023174053,0.04283356,-0.036620338,-0.012606873,-0.0071310815,-0.029167613,-0.018655349,-0.060971137,-0.027677068,-0.029810902,0.006562321,0.008723611,-0.0064799483,0.008276448,0.015603653,-0.0021122592,0.005636614,-0.03859727,0.015117265,0.00021831092,-0.014026813,-0.039005212,-0.020224342,-0.015305544,0.042802177,0.032133013,-0.036557578,-0.022562144,-0.025794275,-0.0043500382,0.022012997,-0.050364733,-0.037844155,-0.016458755,0.0050678533,-0.0013905216,0.0212285,0.0043186583,-0.008692231,-0.02725344,-0.026029624,-0.014364148,0.019471226,-0.0035263158,0.008245068,-0.019235875,0.008166618,0.028540015,-0.017698262,-0.031034717,-0.00451086,0.008645161,0.046661906,0.0038479597,-0.03988385,0.001228719,0.011163398,0.025935484,-0.017054973,-0.021401089,-0.061316315,0.0070251743,-0.04851332,0.008166618,-0.002061267,-0.0027633922,0.008754991,-0.0053934194,-0.014850535,0.000865889,0.0032517416,0.012261694,0.0130697265,0.02420959,-0.0029732452,0.017541362,0.015658569,0.0016425414,0.025135297,-0.012622563,-0.022515075,-0.050301973,0.0037087114,0.014575962,-0.06715298,-0.014128799,-0.017007904,0.027975177,0.0024515544,-0.02100884,0.03338821,0.038691413,-0.019957613,-0.036745857,0.017368773,0.009916048,-0.0069781044,-0.023534922,0.018608278,-0.056107253,-0.034643404,-0.04804262,0.0020887244,-0.004098999,0.040291786,-0.027771208,-0.010080792,0.0026300275,0.019628124,-0.035522044,-0.0029183303,-0.045846026,-0.006825127,0.03947591,0.020240033,0.00097473804,0.025966864,0.015485979,0.028618464,0.011335988,0.0062799016,0.015242784,0.0056091566,0.0009634609,0.009790528,0.0062877466,-0.022122826,0.016647035,0.009327674,-0.0029222528,-0.009555179,0.016395995,-0.030485569,0.013022657,0.005711141,0.040040746,-0.0033262689,0.013971899,-0.034925826,-0.001148308,0.043272875,0.0042951233,0.0058915755,-0.0020671505,0.009814062,-0.0116027165,0.03241543,-0.011351678,-0.0018710264,-0.013281541,-0.0012728471,0.028210526,0.024962706,0.009712078,-0.02704947,-0.004958024,0.016694104,0.0017062818,0.014623032,-0.036683097,0.013171711,-0.04857608,0.012010655,-0.024617529,0.020569522,-0.014215093,-0.04512429,-0.0144582875,-0.020224342,-0.032070253,0.019785024,0.0058837305,0.034800306,-0.024727358,-0.015038815,0.0035243547,0.0048521166,-0.019330015,0.021761958,0.050678533,0.016584275,0.015721329,-0.02071073,0.044873253,-0.028461566,-0.014772086,0.030767988,0.011900825,0.063010834,-0.0051266905,-0.03903659,-0.0074723377,0.041170422,0.016364615,-0.026782742,-0.031583864,0.009586559,0.013038347,-0.013093262,0.025919793,0.009798372,-0.002110298,0.012559803,0.0059072655,0.0043539605,-0.02709654,-0.0102926055,-0.0039577894,-0.0103396755,-0.009696388,-0.06966337,-0.00031281833,-0.003445905,-0.01799637,-0.014591652,-0.030736608,-0.0102926055,0.04540671,0.020036064,0.031646624,0.009633628,-0.0065819332,0.025339266,-0.06483086,0.0058758855,0.038503133,-0.035396524,0.00066927436,-0.0057307533,-0.019126046,0.03316855,0.042802177,-0.008166618,0.005589544,0.03310579,0.02409976,0.00533066,-0.0005594447,-0.0063897315,-0.015101575,-0.0026319888,0.022248346,0.010998653,-0.03859727,0.011430128,0.004561852,0.003238013,-0.043774955,0.0031693694,0.01783947,0.026359113,-0.019439846,0.03919349,-0.012701013,0.0040205494,0.010849599,0.005734676,0.0077586793,-0.004848194,-0.010590715,-0.0014640683,0.021840408,-0.009539489,0.0078057493,0.023566302,0.022907324,0.008441192,-0.00895896,0.0022142439,0.0028477255,-0.01195574,-0.026610151,0.006942802,-0.017462913,-0.015360459,-0.011594872,0.032133013,-0.015595809,-0.04195492,0.015744863,-0.013061882,-0.006852585,0.035019964,0.007970493,-0.0065897782,0.00678198,0.057111412,0.009963117,-0.020004684,-0.002288771,0.010229846,-0.0014944675,-0.012638253,0.0041029216,0.005397342,0.0017209912,-0.00070997013,-0.025449095,0.0008972689,-0.0009487515,-0.018435689,0.011908671,0.026296353,-0.007644927,-0.0116340965,-0.003777355,-0.046097066,0.013336455,-0.004142146,-0.0301247,0.01361103,0.037906915,0.0074174227,-0.00060602423,0.03307441,0.00049643975,0.012834378,0.009641473,-0.032384053,-0.025198057,0.0152977,0.024648909,-0.0052875127,-0.0416725,0.016160646,-0.0048756516,0.004267666,0.011477197,0.013744394,-0.043210115,-0.019173117,0.0029771677,0.013540425,0.0029497102,0.001965166,-0.029371582,0.04459083,-0.019533984,-0.0017611966,-0.00758609,0.0144269075,0.023644751,-0.025292195,-0.012669633,-0.019047597,-0.012904982,-0.005444412,-0.006456414,0.0069074994,-0.053000644,0.008488262,-0.03696552,0.0062289094,0.006864352,-0.011547802,-0.013885604,0.030328669,0.015344769,0.0025260816,0.0077586793,0.044873253,-0.004616767,0.02712792,-0.0021044142,-0.004518705,-0.0054718694,0.006425034,0.02096177,-0.013446285,0.0035478894,-0.023581991,0.0055856216,0.04741502,-0.0070487093,0.014371992,-0.0038930683,0.0051188455,-0.04226872,-0.005805281,0.0008315672,0.0065780105,0.007193841,0.009916048,-0.008582401,-0.008135238,0.009633628,0.02676705,-0.005342427,0.028304666,0.020020373,0.031991802,0.0013493355,0.0033262689,-0.005452257,-0.024947017,0.005318892,-0.0037597038,0.00895896,-0.0036518355,-0.007848896,-0.009013875,-3.729427e-05,-0.00058984396,-0.013273696,-0.008582401,-0.014301388,0.026108073,0.046536386,0.011916515,0.015870383,-0.0027477022,-0.025951173,-0.018545518,0.019392775,0.009257069,-0.019549675,-0.06872197,0.03010901,-0.0101670865,-0.020569522,0.0077861366,-0.021526609,0.0030811136,0.05708003,0.052906506,0.01198712,-0.028320355,-0.031034717,-0.012810842,0.001361103,0.022734735,-0.02392717,0.010018032,0.022295415,-0.003930332,0.0011090832,0.0360555,0.0019583015,0.018875007,0.0037557813,-0.004938411,-0.01832586,0.009429659,-0.02992073,0.035333764,0.016301855,0.024397869,-0.0010384785,-0.01195574,0.0074056555,-0.0036126105,0.0035125872,-0.00299678,0.0051266905,-0.022468006,0.0066525377,0.03994661,-0.008935425,0.026719982,0.0027810433,-0.021542298,-0.0013258005,0.044622213,0.026657222,0.006758445,0.016207715,-0.018514138,0.000119881006,0.011673321,-0.011571337,4.20748e-05,0.010159241,-0.027849657,-0.024962706,-0.0015121187,-0.008574557,-0.0062445994,-0.014285698,0.014921141,-0.004985481,0.007864586,0.0043265033,-0.039726947,0.04226872,0.013744394,-0.010253381,-0.0014601458,0.049925413,0.008135238,-0.004534395,0.025449095,0.009515953,-0.03363925,-0.022452315,0.0025417716,0.009264914,0.020616591,-0.0031144547,0.015054505,-0.011045723,-0.020334173,-0.013916984,-0.011838065,0.007162461,-0.0101670865,0.014120953,-0.022970084,-0.0035694633,0.0039519058,-0.0014601458,-0.0051031555,-0.005797436,0.038220715,0.018843628,-0.032054562,-0.028100697,0.00604063,-0.010433815,0.016019437,-0.02141678,-0.02441356,0.014654411,-0.007111469,-0.034172706,-0.015117265,-0.0038773783,-0.018937767,0.041013524,-0.0038401147,-0.006911422,0.016913764,-0.023472162,0.019565364,-0.0033086177,0.010575025,0.0012247965,0.02693964,-0.017321702,-0.013046192,0.012481353,-0.028383115,0.007087934,0.0066839177,-0.012489199,-0.0025711902,0.012418594,-0.020491073,-0.00018227307,-0.050176453,-0.00082176103,-0.03056402,0.008692231,0.011916515,-0.008472572,0.026468942,0.006315204,-0.03272923,0.0034733622,0.01838862,-0.027457409,0.0070643993,-0.014222938,0.020820562,0.016097886,0.0012561765,0.009861132,-0.017070664,-0.012614719,-0.030516949,0.014285698,0.0029712839,-0.0088569755,-0.0042872783,-0.03420409,0.0044520227,-0.0182631,-0.005711141,0.0146151865,0.008982495,0.014638722,0.031128857,-0.017415842,-0.016144957,0.011328142,-0.049548857,0.014113109,-0.008096013,0.036683097,-0.013367835,-0.015933143,0.011783151,-0.020161584,0.0120185,0.028210526,0.019345706,0.012755928,0.0025849189,0.015415374,0.0145367365,0.0016170453,-0.0040048594,-0.005311047,0.0072762133,-8.292383e-05,0.013971899,-0.012026345,0.0048599616,-0.006636848,-0.020287102,0.015391839,-0.011351678,-0.036620338,-0.0101984665,-0.0037263627,0.008409812,-0.018749489,-0.009468883,0.008001873,-0.02406838,-0.0116968565,-0.02104022,-0.004816814,-0.014128799,-0.011994965,-0.026625842,0.0069545694,0.0019455536,-0.0062642116,0.007668462,0.00462069,-0.034549266,0.011641941,-0.0047697444,0.00686043,-0.0063034366,0.017117733,0.009759148,0.015980212,0.00056140596,0.025276506,-0.0009075654,0.01845138,0.0014689714,-0.009311984,0.02711223,0.020522453,0.01048873,0.007629237,0.0047736666,-0.011885135,0.038816933,0.019800715,0.011814531,-0.01815327,-0.025166677,-0.037781395,0.03037574,-0.00052561326,0.0027359347,0.004581465,0.011006499,-0.039789706,-0.016333235,0.0029516714,-0.010041567,-0.00528359,0.028853815,0.007923423,0.0015601692,-0.0047265966,-0.0058680405,0.04264528,0.043931853,0.009617938,0.01048873,-0.028759675,-0.030783677,0.015988057,0.031254377,0.012630408,-0.018718109,-0.02367613,-0.0050913882,-0.024868568,-0.030799368,-0.004373573,0.010465195,-0.014819155,0.0087942155,0.015642878,0.0051345355,-0.035522044,0.02706516,0.028916575,0.021777648,-0.005436567,0.011155553,-0.017290322,0.004173526,0.019330015,0.009500263,0.037247937,-0.013367835,0.006605468,-0.05133751,0.010371055,0.032823373,-0.02411545,0.024303729,-0.017290322,0.0038146186,-0.026186524,0.0010943739,-0.010190621,-0.023723202,-0.03046988,-0.00094384846,0.015344769,-0.0103396755,0.008205843,-0.03031298,0.018216029,0.026421873,0.013909139,0.0059386455,0.05171407,0.053000644,-0.024947017,-0.016348926,-0.0041029216,-0.008551022,0.026751362,0.011477197,-0.03018746,-0.00048761416,-0.0069545694,-0.0025535391,0.01359534,-0.00028389,-0.0025300041,0.0073507405,0.00086785026,-0.0011100639,0.004816814,-0.008998185,-0.027959486,-0.011022189,-0.0019229993,-0.049894035,0.011030033,0.009468883,0.007178151,-0.0035557344,-0.015940987,0.020365553,-0.027269129,-0.059496284,-0.026170833,0.018184649,0.027708448,0.009374744,0.0031536797,0.022044377,0.006974182,0.028445875,-0.0070526316,0.01050442,-0.0018474914,-0.020444002,0.0032929278,0.0086216265,0.009108014,-0.019439846,-0.0043892628,0.02966969,-0.0035498508,-0.01223816,0.00223974,-0.009382589,-0.006452491,-0.005322815,-0.024837188,0.005644459,-0.003061501,0.040825244,-0.015666412,-0.016364615,-0.0021220655,0.008558867,-0.011516422,-0.0070290966,0.017478602,0.007990106,0.01056718,0.014607342,-0.029434342,-0.008629471,-0.0008742243,0.011296762,0.023362333,0.029465722,-0.017149113,0.005460102,-0.0362124,-0.0019690886,-0.013077572,0.0035616183,0.032054562,-0.016097886,-0.03969557,0.0067780577,-0.0011590949,0.013281541,-0.017682571,-0.016364615,0.033858906,0.049172297,-0.005365962,0.0019279023,0.020318482,-0.024601838,0.008935425,-0.0033517652,0.008323518,0.0054091094,0.026217904,0.013995433,0.010841754,-0.016584275,0.028414495,-0.029654002,0.010041567,-0.02416252,0.013203091,0.0146151865,-0.006162227,-0.007852819,-0.012842222,0.0005437548,0.032258533,0.011139863,-0.004624612,-0.0101827765,-0.008021486,-0.024648909,-0.010316141,0.018341549,0.016913764,-0.008229378,0.008880511,-0.0011600755,0.019659504,-0.014505357,9.689769e-05,0.011704701,0.005358117,-0.008237223,-0.007515485,-0.043523915,-0.015956677,-0.009735613,-0.005597389,0.0078057493,-0.022891633,-0.025339266,0.028320355,-0.0010129822,0.010975119,0.007833206,-0.007660617,-0.021338329,0.052122008,-0.0025535391,-0.0074958727,0.01220678,0.017698262,0.015995901,-0.03360787,-0.024601838,-0.0075586326,-0.032886133,-0.012685323,-0.011359522,-0.025574615,-0.016725484,0.0017347198,-0.020177273,0.008347052,-0.00047609187,0.015713483,-0.01056718,0.007907734,0.0038303086,0.0067231427,0.005675839,-0.0055542416,0.018372929,0.008739301,0.010873134,0.02116574,2.4454255e-05,-0.017274633,-0.0076645394,-0.014772086,0.008464727,-0.0055032494,-0.02425666,-0.001550363,-0.0060877,-0.008449037,0.032321293,-0.01044166,0.01801206,0.01373655,-0.0023770272,0.020553831,-0.0021926702,-0.0076802294,0.009594403,-0.0007433113,-0.010559335,-0.013108952,-0.028477255,-0.006836895,0.008888355,-0.025951173,-0.046379488,-0.029654002,0.009892512,-0.0030968036,-0.016011592,-0.006177917,0.00894327,0.023064224,-0.03018746,0.010096481,-0.00092668756,0.021526609,0.0077429893,0.011657631,0.016709795,0.017682571,-0.018749489,-0.017117733,0.000859515,0.017525671,0.03624378,0.0072683683,0.00679767,0.009382589,-0.0051031555,-0.008245068,-0.0057856683,0.021809028,0.036494818,0.0032674316,-0.014246473,0.0067035304,0.0014062116,0.010998653,-0.0018729875,-0.027661378,-0.018796558,-0.002626105,0.01815327,-0.006872197,-0.016835313,-0.01070839,0.017415842,0.005879808,0.01787085,-0.0051816055,0.005864118,-0.0032674316,-0.023126984,0.00033806934,0.0146465665,0.010300451,-0.021683509,0.01219109,-0.008245068,-3.5608828e-05,0.0010894708,0.064768106,0.016929453,-0.007868509,0.0007197764,0.008692231,-0.029340202,0.02438218,-0.011304608,-0.0032576255,-0.004816814,0.021809028,-0.0044481005,0.019486915,0.011249693,-0.008417657,0.018498449,0.009461039,0.018890698,-0.019847784,0.0074841054,-0.03389029,0.011147708,0.019706575,0.0018337626,0.022122826,0.0019720304,0.0047069844,0.020679351,0.04556361,-0.025260815,-0.009829752,0.002312306,0.016427375,-0.015752709,-0.0036204555,0.022044377,0.021824718,0.01812189,0.02425666,0.029340202,0.007256601,0.027802588,0.0030948422,-0.0059543354,0.0018386658,0.00046824687,0.016458755,-0.007346818,-0.0006133789,0.007346818,0.008456882,-0.000559935,0.012936362,0.0037793163,-0.012873602,-0.0116654765,-0.014081729,-0.024868568,0.026688602,-0.0028771441,-0.029371582,-0.020851942,-0.004703062,0.02706516,0.001220874,-0.03354511,-0.0020416544,-0.018780869,-0.014434752,0.0014022891,-0.023503542,0.0061975294,0.005326737,-0.003416486,0.016505824,0.014528892,0.00017982151,0.020444002,-0.00019158897,0.009853288,-0.010065102,0.011571337,-0.01807482,0.014238628,0.015587963,0.020538142,0.0052639777,-0.0020651894,-0.0005221811,-0.01367379,-0.013375681,-0.02373889,0.014238628,-0.012551959,0.014834845,-0.0025005855,0.020444002,-0.017007904,0.02383303,-0.010033722,0.003212517,0.01798068,0.0062524443,-0.00058003777,0.011367368,-0.0070918566,-0.017384462,-0.005338505,-0.01208126,-0.0004868787,-0.022122826,0.024805808,-0.00031281833,-0.021887477,-0.028508635,-0.0102926055,-0.012332299,-0.0077704466,0.020695042,-0.013407061,0.006338739,-0.00020323385,-0.003665564,0.022499386,-0.025072537,0.004193139,0.0030261988,-0.0043029683,0.012198934,0.021667818,0.03241543,-0.015454599,-0.0029085241,0.0022358175,0.0151408,0.020349862,0.009515953,-0.04446531,-0.0033517652,0.028712604,-0.02982659,-0.004703062,0.0074213454,0.009539489,-0.018671038,-0.00760178,0.017133424,0.003487091,0.022154206,-0.022373866,0.008503952,0.00264964,-0.0051266905,-0.016803935,0.014905451,0.020145893,-0.012559803,-0.0038675722,0.001441514,0.009610093,-0.016929453,-0.01200281,-0.0044402555,-0.02400562,0.0009766993,-0.0023750658,0.008197998,0.006613313,0.015462444,-0.011524267,0.019816404,-0.00047682732,0.006523096,-0.007166384,0.0037263627,-0.03301165,-0.0036459516,0.00037876514,-0.008966805,-0.0025378491,-0.013524735,-0.0035714244,0.019282946,0.004051929,0.018247409,0.00753902,0.02689257,0.0063034366,0.031850595,0.005644459,-0.001602336,-0.0059111877,-0.012779463,0.0016356771,0.008511797,-0.0025711902,-0.0075272527,-0.016254786,-0.0012434283,-0.035082724,-0.003310579,-0.013281541,-0.006064165,-0.00064721034,-0.01203419,0.019565364,0.016254786,0.009978807,0.031599555,0.009688543,0.0014768164,0.010394591,-0.016584275,0.0072212988,-0.0034910135,-0.00911586,-0.007080089,0.0066525377,-0.004969791,-0.0090531,-0.016976524,0.012983432,0.009406124,0.0016552896,-0.011210468,0.017102044,0.025260815,0.015721329,-0.028273286,0.03014039,0.015917452,0.0064877933,0.025794275,0.019722264,-0.012489199,0.007641005,0.0036341841,-0.004687372,-0.004098999,0.012230314,0.0054875594,-0.017729642,0.0006893771,-0.01512511,-0.005573854,-0.003020315,-0.00019514373,0.028414495,-0.012418594,0.023503542,-0.026406182,0.010943739,-0.00895896,0.010928049,0.02701809,0.016223406,0.004887419,-0.0014523008,0.014654411,0.031662315,-0.0006712356,0.00449517,-0.016960833,-0.038691413,-0.02386441,0.036683097,-0.040385924,0.011932205,-0.00034076607,0.008347052,-0.021981617,0.0005545416,-0.00041799003,0.006401499,0.0065897782,-0.014183713,0.0026123764,-0.0030242375,0.025857035,-0.0146465665,-0.007915579,0.035019964,0.027771208,0.009696388,-0.017729642,-0.011437972,0.0061739944,0.010786839,0.0033576488,-0.023378022,-0.028602775,0.01356396,-0.0035792694,0.01047304,-0.037467595,-0.007715532,0.03884831,-0.009727768,-0.0028947955,-0.015917452,0.0004157836,0.0022005152,0.016521515,0.0116027165,-0.015948832,-0.026719982,0.01219109,0.009774838,-0.01047304,-0.0007315438,0.0050364733,0.009531643,-0.022012997,0.009759148,-0.0051541477,-0.012355834,0.014387682,0.009680698,0.043774955,0.01206557,-0.00458931,0.0043382705,0.00032826312,0.009523799,0.0087628355,-0.020789182,-0.02132264,-0.011422282,-0.002441748,0.009963117,-0.0018494526,0.0007438016,0.015517359,0.0031066097,0.013093262,0.020663662,-0.011241848,0.013697324,0.017321702,0.008347052,0.006417189,-0.021495229,0.015580119,0.022483695,0.0182631,0.0030732686,-0.003463556,0.018404309,0.017039284,0.012528423,0.0016915725,0.011775306,0.0063348166,-0.0116968565,0.004236286,0.004824659,0.0040793866,-0.021605058,-0.0010786839,-0.015023125,0.007994029,-0.013038347,0.012599029,0.007386043,-0.01499959,-0.0037479363,0.001897503,0.0033458814,0.0044755577,0.003053656,-0.0088412855,0.022201277,0.0062838243,-0.011814531,0.01848276,-0.021652129,0.034706164,-0.0051541477,0.012544113,-0.015195714,-0.0023397636,-0.035239622,-0.012449974,0.012167554,-0.007280136,-0.01070839,0.008503952,0.009570869,-0.0077665243,-0.021871788,0.016254786,0.004863884,0.0036792927,0.01512511,-0.00031723114,0.012975587,0.020820562,-0.016552895,0.014709326,0.015572273,-0.0102769155,-0.013054037,-0.00024944567,-0.018686729,0.01197143,-0.013210936,0.012324454,0.016819624,-0.0014728939,0.01073977,0.032823373,-0.006832972,0.01375224,-0.0010600521,-0.0010041567,-0.015815469,-0.011092793,0.015007435,0.020475382,-0.0013944441,-0.0013346262,0.02697102,0.024774428,0.008574557,0.019894853,0.015878227,0.015399684,0.01807482,-0.016490135,-0.0047618994,-0.007393888,0.0014621071,-0.017211873,-0.009359054,-0.022405246,-0.012120484,-0.0057229083,-0.015517359,-0.0004224028,-0.0028849891,0.010935894,-0.0034949358,0.014881915,-0.023079913,0.031097477,-0.004585387,0.010896669,0.0042872783,0.0027418183,0.023330953,-0.0035969205,-0.0017445261,-0.01212833,-0.0033498039,-0.014968211,-0.007331128,-0.0042794333,0.019910544,0.0040715416,0.014395528,-0.000858044,0.013210936,-0.012826532,-0.0015915491,0.0018553364,0.024790118,0.015697792,-0.01064563,-0.0033968738,-0.008598091,-0.011343832,0.008496107,-0.0066721505,-0.015352614,-0.00021132399,-0.011736081,-0.0006226948,0.031128857,0.022468006,-0.030971957,0.005652304,-0.004275511,0.0030634624,0.023205433,0.013422751,0.014034659,-0.0036636028,0.019204495,0.026625842,0.020538142,0.0073664305,-0.015878227,0.018372929,0.010818219,-0.018514138,-0.013273696,0.027881037,0.011783151,-0.022624904,-0.0002897737,0.009013875,0.0050953105,0.021934547,-0.0048207366,-0.0362124,-0.02992073,-0.02104022,0.0009904279,0.0025300041,-0.0059229555,0.0025378491,-0.0076645394,0.0033458814,0.005460102,0.0036361455,0.0036341841,0.03326269,-0.0014248434,-0.023519233,0.015376149,-0.0063269716,0.004157836,0.005683684,0.0050756983,0.010857444,0.006170072,-0.01209695,0.02402131,-0.015242784,-0.013399215,0.0013964054,-0.0055699316,-0.0011973392,0.006032785,0.008966805,-0.028179146,-0.0020122358,0.018655349,-0.0036518355,-0.016317546,-0.034957204,0.014528892,-0.01055149,0.0030752297,0.013493355,0.0062132194,0.015085885,-0.015399684,-0.019533984,-0.022138517,0.015980212,0.003761665,0.011210468,-0.010143551,-0.0012865757,0.009704233,-0.019926233,-0.008331362,0.016851004,0.0116654765,0.0031399508,0.009319829,0.008190153,-0.0088255955,0.013493355,0.0038813008,-0.038032435,-3.444434e-05,-0.004926644,0.011610562,-0.01075546,-0.028681224,-0.0013336455,0.021699198,-0.012591183,0.008527487,0.0050286283,0.005389497,0.032572333,-0.011194778,-0.022750424,0.008488262,-0.015737018,-0.008425502,0.010731924,-0.0073154382,0.00451086,0.025103917,0.026202213,0.0036675252,0.0022024764,0.016113577,0.0077194544,-0.01796499,-0.0062759793,-0.031709384,0.038157955,-0.004169604,0.0027261286,0.0062053744,-0.0020730344,0.0044912477,-0.022781804,-0.0012424478,0.016552895,0.005001171,0.0054993266,0.01056718,-0.005742521,0.022530766,-0.022483695,0.015289854,0.006836895,-0.028210526,-0.00028315454,0.00052463263,0.011798841,0.005687606,-0.018561209,0.0031477958,0.003971518,0.003430215,0.013775774,-0.024962706,0.006428956,0.0031458347,0.017039284,0.008048943,-0.0014856419,-0.016552895,0.014827001,0.0077743693,-0.006079855,0.009963117,0.020020373,-0.0078096716,-0.0021201042,-0.0055542416,-0.017682571,-0.0029085241,-0.024617529,-0.0016886307,0.0046756044,-0.020491073,0.0022770036,-0.014018969,-0.0031693694,-0.010222001,-0.018608278,-0.0066172355,-0.00190829,-0.0023848722,-0.019737955,-4.5629557e-05,-0.026500322,-0.014042503,-0.0053855744,0.016678415,0.013540425,-0.018435689,-0.0050913882,-0.01048873,0.014175868,0.02086763,-0.014905451,0.0054091094,-0.010080792,0.0048521166,-0.012850068,-0.0103239855,0.023785962,0.016082197,0.0014483783,-0.03602412,0.010363211,0.019722264,-0.015619343,0.016694104,0.02692395,-0.023126984,-0.011116328,0.014685791,-0.03866003,-0.0055856216,0.012748083,0.0087314565,0.0181062,-0.0030830747,0.0043971078,-0.01790223,-0.015784089,0.013477665,-0.0022417014,0.00014562233,-0.0003405209,-0.017290322,0.029136233,-0.014073883,6.9991875e-05,-0.0051737605,0.0115870265,0.008488262,0.0069388794,-0.028712604,-0.009806218,-0.005032551,-0.018655349,-0.008268602,-0.024240969,-0.008935425,0.003932293,0.011900825,-0.00040548708,-0.0061661494,0.009672853,0.014246473,0.0012885369,0.01370517,0.014403372,0.007072244,-0.011516422,-0.00911586,-0.022624904,0.011147708,0.0050835432,-0.0040950766,-0.010222001,-0.027818277,-0.015587963,-0.016380306,0.018875007,-0.016097886,0.011830221,0.014936831,0.030705228,0.0066799955,0.0037047889,-0.0044167205,0.011453662,-0.0039675958,-0.013665944,0.008645161,0.019533984,-0.0019641854,0.04283356,0.022122826,-0.023079913,-0.028163457,0.022216966,0.011877291,0.016207715,-0.0048756516,-0.0038518822,-0.02386441,-0.014866225,-0.014921141,-6.257593e-05,-0.0055267843,-0.022248346,0.01816896,0.0016052778,0.010480885,0.011155553,0.0055463966,0.0063348166,-0.006209297,0.0007756718,-0.004550085,0.009641473,0.001622929,0.015988057,-0.020459693,-0.016819624,-0.0019122125,0.010543645,0.01783947,-0.005381652,0.012293074,0.020491073,0.02115005,0.012504889,0.0025456941,0.0060053277,0.028430186,-0.03909935,-0.004640302,0.0045383177,0.019706575,0.0073664305,0.0010178854,0.012920672,0.009461039,-0.0051737605,0.028571395,0.00019330507,0.0115870265,0.0035576958,0.010920204,-0.029481413,-0.002561384,-0.010763304,-0.0066250805,0.038157955,-0.0074527254,-0.0036518355,0.0016925532,-0.00093110034,-0.02100884,-0.005311047,0.010912359,-0.0050639305,0.001389541,-0.018718109,0.0052129854,0.00090854603,-0.029716762,-0.0013444325,0.0011414437,-0.025700135,-0.016725484,0.0019926233,0.010794684,0.024335109,0.0021083367,-0.0038695335,-0.00600925,-0.016490135,-0.0035047422,0.0027163222,-0.023142673,-0.015925298,-0.013744394,-0.032258533,-0.005718986,-0.006401499,0.0019945847,0.028602775,-0.022342486,-0.010174931,0.0014434753,0.0008845208,-0.007217376,-0.013979743,0.008182308,0.0013120719,-0.022750424,-0.016490135,-0.009060945,0.0002944317,-0.0146465665,-0.028351735,0.00011350697,0.0025182366,-0.013422751,-0.02686119,0.01813758,0.019565364,-0.03947591,0.0005515997,0.0044088755,-0.00013569354,-0.014168023,0.008237223,-0.030548329,0.001148308,0.0032733155,-0.034894444,-0.00900603,-0.011759616,-0.0035086647,0.009955272,0.009892512,0.0035537733,0.0054718694,0.0006727065,0.016160646,-0.009108014,0.02414683,0.008605937,-0.007927346,-0.010174931,-0.0071075466,-0.00096836395,0.017541362,0.013446285,-0.013171711,-0.0025555003,-0.01805913,-0.016756864,0.013956209,0.00061534013,-0.0001518738,-0.012748083,0.02394286,-0.015533049,0.0047305194,-0.00066829374,0.0078881215,0.015509513,0.008064633,-0.003188982,0.019722264,-0.004189216,-0.019769335,-0.0009379647,0.0062053744,0.018623969,-0.008582401,-0.010237691,0.004703062,0.028665535,-0.016239095,0.020192962,0.008158773,-0.007911656,-0.0036851766,-0.010802529,-0.040260408,-0.027394649,-0.0019553597,-0.0014846614,0.009492419,-0.005781746,0.032054562,0.0022671975,0.0020338094,-0.00610339,-0.0004015646,-0.028587086,-0.017086353,-0.0033380364,-0.0074841054,0.019282946,0.009814062,-0.0065819332,-0.0011757655,-0.0033478427,0.007962649,-0.009547333,-0.016474446,-0.0086843865,-0.0077272994,-0.012465663,-0.013822844,-0.0014601458,0.013681634,-0.022985773,-0.0058288155,-0.0058209705,0.0034106025,-0.0050756983,0.0021965927,-0.0010757421,0.00031477958,0.02113436,-0.0051541477,-0.022138517,0.0063740415,-0.026516013,0.005122768,-0.007943036,-0.0016749019,-0.0060445527,0.0029810902,-0.008056789,-0.013038347,0.01829448,0.0012669633,0.008213688,0.028288975,-0.011539957,-0.0006271076,0.0002173303,0.014097419,-0.009217844,0.0047815116,0.02380165,0.006825127,0.014693636,0.0023319186,-0.0032635091,-0.017086353,0.0044402555,0.025966864,0.00261826,-0.020381242,0.0017484486,-0.022012997,0.00599356,-0.0065897782,0.0045147827,-0.012481353,0.0069977166,-0.016427375,0.008786371,-0.0066015455,-0.01044166,0.017619811,0.009665008,0.00016854436,0.010010187,0.025339266,-2.164263e-06,-0.0018896582,-0.0038871847,-0.011084949,0.008833441,-0.0073742755,0.0010090598,0.014960365,-0.014693636,0.013571805,0.015352614,-0.0145367365,0.021542298,0.0030713072,0.011720391,-0.015901763,-0.011390902,-0.018592589,0.02389579,0.0039577894,-0.0014150372,-0.013273696,0.01354827,-0.020020373,0.0032556641,0.009994497,-0.02144816,-0.003269393,-0.0060210177,0.022028686,0.014842691,-0.002029887,0.00024209099,0.010888824,0.0066682277,0.0054797144,0.006060242,0.012528423,0.021824718,0.016678415,-0.00022713651,-0.004926644,0.017133424,0.017823782,0.006515251,-0.0009355132,0.0017003982,0.025370646,-0.014489667,0.003222323,0.023189744,0.0069624144,0.01798068,-0.0003731266,-0.0050560855,0.005766056,-0.0029908963,-0.0036577191,0.011218313,0.007185996,0.006629003,0.007170306,-0.01195574,0.012834378,0.0014876032,-0.00902172,-0.024899948,-0.018765178,-0.009908202,-0.0043068905,0.016082197,-0.014654411,0.008072479,0.0030713072,-0.0087314565,0.03928763,0.0037400913,0.014003279,0.012904982,0.003416486,0.013916984,-0.012701013,0.0062720566,-0.007338973,-0.0014405333,0.00051531673,-0.0035812305,0.020161584,0.011414438,-0.016788244,-0.011414438,0.020114513,0.0072840583,0.011626251,-0.015148644,0.026657222,0.0103396755,-0.031521104,-0.0070290966,-0.010331831,0.006448569,-0.0067192204,-0.0059190327,-0.010716234,0.019235875,0.013838534,-0.012410749,0.021542298,-0.0010659358,-0.009359054,-0.0016258708,0.016960833,-0.0029300977,-0.014976055,-0.023644751,0.0073232832,-0.02102453,-0.012277384,-0.010033722,-0.012379369,0.005566009,-0.0021161817,0.024601838,0.0007918521,-0.007621392,-0.00458931,0.017086353,-0.009727768,0.0013669868,0.018953457,0.013352145,0.00018080213,-0.02405269,0.0044598677,-0.00048173044,0.0021965927,-0.03345097,0.018655349,-0.012136174,-0.009963117,-0.009625783,-0.006405421,-0.013940519,0.011139863,0.0029634389,-0.003963673,0.014528892,0.018498449,-0.0069859494,-0.009806218,0.02737896,0.0038793397,0.011775306,0.00010167822,0.017761022,0.0028300744,-0.0016474446,-0.007892044,0.007739067,0.025700135,-0.0050992332,6.153402e-05,0.0029791289,-0.009735613,0.0074527254,-0.011838065,0.014976055,0.021871788,-0.0013385487,-0.015211404,-0.0026300275,0.0032517416,0.010920204,-0.004985481,0.016882384,-0.015038815,-0.020459693,-0.019110357,0.026170833,0.001586646,0.004950179,0.0065113283,0.011798841,0.002841842,-0.00451086,0.0065897782,-0.005405187,0.007684152,0.004134301,0.016286166,-0.018545518,-0.0068996544,0.012551959,0.014215093,0.0062485216,0.0101827765,-0.020114513,-0.001361103,-0.008464727,0.010410281,0.00525221,0.0009090364,-0.015242784,0.0032752766,-0.0030065863,-0.0055032494,0.0010718196,0.00040082913,-0.0074174227,-0.0031870208,-0.028320355,0.014670101,0.0015180025,0.015901763,0.01215971,-0.0060877,0.004848194,0.002133833,0.020428313,0.0029242141,0.009413969,0.003640068,0.025605995,-0.017729642,-0.016411686,-0.001397386,0.006868275,-0.01528201,0.0021495228,0.0043814178,-0.0020034101,0.005664071,-0.0005638575,0.014066039,0.014803466,-0.006613313,-0.0014219015,-0.013893449,-0.0018072859,-0.008966805,-0.0039656344,0.015431064,0.02411545,0.00029908965,-0.00910017,0.0035969205,0.0072056088,-0.0018837744,-0.009625783,0.008519642,-0.02408407,0.011704701,0.0030830747,0.0020073326,0.010402435,0.0029183303,0.010982963,-0.013430595,0.0101513965,0.016929453,-0.0037165564,-0.016851004,0.01528201,-0.0071467715,-0.006079855,-0.004969791,-6.38017e-05,-0.00228681,0.014842691,0.03903659,-0.012371524,0.0016464639,-0.013477665,-0.0066564605,-0.013681634,0.0058013583,0.012489199,-0.004577542,0.008158773,-0.020114513,0.00089628826,-0.015485979,-0.004895264,-0.03329407,-0.0027457408,-0.009327674,-0.00523652,0.025590304,0.021244189,0.005322815,0.010480885,-0.006911422,0.0043892628,0.015321234,-0.019926233,-0.0007781234,-0.0057935133,0.0029536327,0.014254318,-0.007927346,0.010841754,-0.020114513,-0.0026084539,-0.007962649,0.005664071,-0.006432879,0.019832095,0.0034968972,-0.017478602,0.036494818,0.0101200165,0.0023829108,0.0054091094,-0.0043421932,-0.0077979043,0.01521925,-0.026249284,0.0069937943,-0.017290322,0.00302816,0.0077939816,3.3364122e-06,-0.0029987413,-0.0076880744,-0.018765178,-0.013493355,0.0073428955,0.019016217,-0.0074370354,0.021338329,-0.008292138,0.0045304727,0.025778584,-0.00022811713,-0.010127861,0.0002189238,0.017400153,0.014207248,0.0075507876,-0.01072408,-0.0055542416,-0.0040793866,0.006138692,0.015776243,-0.0033007727,0.0069624144,-0.013414905,-0.012653943,-0.010669164,0.01226954,-0.015705638,-0.0131167965,0.0022220889,0.015556583,-0.0055032494,0.013352145,-0.022326795,-0.02080487,0.0019259411,0.009343364,0.0027712372,0.0102926055,0.023142673,0.021777648,0.022907324,0.023126984,-0.0058680405,0.008394122,0.009108014,-0.022373866,-0.011312452,-0.022875944,-0.013846379,-0.012708858,0.011390902,-0.0144425975,0.009790528,-0.00048736902,-0.01793361,-0.0028869505,0.016050817,-0.022985773,0.029512793,-0.025088226,-0.0057778233,-0.02704947,-0.03903659,-0.012512733,-0.022766115,0.0073272055,0.006523096,0.004907031,-0.006895732,0.00016376383,-0.008315672,-0.0005079621,-0.0003020315,0.0088569755,0.016662724,-0.020663662,-0.005244365,0.0062445994,-0.0045383177,0.013524735,-0.017572742,-0.008456882,0.01799637,-0.023001464,0.016960833,0.01829448,-0.019957613,0.0072919033,-0.007707687,0.0026398338,0.004648147,0.016042972,-0.009617938,-0.0042715883,0.0039185644,-0.00014733842,0.0034419824,-0.005679761,0.009484573,0.003802851,-0.013587495,-0.007915579,-0.0019798754,0.007393888,0.014246473,0.0075704,-0.0063348166,-0.015658569,-0.00028021267,0.018184649,0.0006888868,-0.0009943504,-0.011673321,0.013665944,-0.01195574,-0.008174463,-0.0032321294,0.019220186,0.007162461,0.013822844,0.0056091566,0.015258474,-0.0046599144,0.021746268,0.009249224,-0.009508109,-0.0027359347,-0.001768061,-0.015839003,0.0019318248,0.0017729641,-0.016615655,0.008213688,0.0019916429,-0.0043068905,0.008966805,0.025809964,0.011351678,0.015501669,0.030783677,0.00071095076,0.0009884668,-0.018953457,0.0033596102,-0.012402904,-0.0066682277,-0.00033071468,-0.021918857,0.009476729,-0.00536204,-0.031128857,0.011900825,0.004969791,-0.011030033,-0.0025025466,0.008166618,0.0075194077,-0.02119712,-0.016301855,0.0067780577,0.0023613372,-0.0008972689,0.012497043,-0.014042503,0.0014748551,-0.0026025702,0.032509573,-0.007158539,0.004146069,-0.0131481765,-0.019628124,-0.017007904,-0.0062445994,-0.025574615,-0.014874071,-0.008080323,0.004581465,-0.0008565731,-0.0030948422,-0.007240911,-0.029654002,0.008551022,-0.019518295,0.024554769,-0.0046677594,-0.010841754,0.0052169077,0.008103858,-0.015493823,2.1711578e-05,0.0036714477,-0.010700544,0.021934547,0.013869914,-0.018686729,0.016725484,-0.019863473,0.015023125,-0.009155084,0.021730578,-0.003696944,0.0031536797,-0.031207306,-0.0365262,0.01802775,0.014866225,0.0038616885,0.015674258,0.012457819,-0.0005981793,0.02670429,-0.01052011,-0.008354898,0.009892512,0.013391371,-0.00064819097,0.0022260114,-0.008441192,-0.01346982,-0.002273081,0.009531643,-0.0044598677,0.005001171,0.0033890288,0.0010090598,-8.562054e-05,-0.017635502,0.0039087585,0.026406182,-0.009759148,0.0010433815,0.01359534,-0.005789591,-0.00134051,0.01783947,0.0016474446,-0.010622094,0.0072840583,-0.004871729,0.008864821,-0.010606404,0.015839003,-0.00900603,-0.029842282,-0.002424097,-0.0019690886,0.019973304,0.021824718,0.0120185,-0.0016239096,-0.008464727,0.0054954044,0.009508109,0.0043618055,0.014811311,-0.025919793,0.0065858555,0.0088412855,0.015509513,0.013940519,-0.018827938,-0.008072479,0.025056846,0.025417715,0.013869914,-0.025025466,-0.016082197,-0.017102044,0.008747146,-0.006840817,0.027331889,-0.008441192,0.0088412855,0.020491073,-0.0131011065,-0.002231895,0.014191558,-0.013477665,0.047038466,-0.0028320355,0.0013836573,-0.007593935,0.0052482877,0.0029281366,0.005307125,0.0270024,-0.01204988,0.010284761,-0.050333355,-0.006934957,0.0144112175,-0.0026045314,-0.031254377,0.0028320355,0.0009644415,-0.00913155,-0.009092324,0.010912359,-0.017133424,-0.012332299,-0.014968211,0.002841842,0.008005796,0.012277384,-0.02725344,-0.011594872,0.0034988583,-0.01055149,0.012402904,-0.0058994205,-0.008127393,-0.0073585855,0.012363679,-0.021542298,7.415952e-05,0.005420877,-0.002818307,0.02097746,-0.031725075,-0.0052796677,-0.0044441777,0.015619343,-0.0031752533,-0.03272923,0.007684152,0.007386043,-0.009045255,0.021840408,0.01783947,-0.024774428,0.00021916896,-0.00599356,-5.7611527e-05,0.017447222,-0.0018572976,-0.0018906387,0.008833441,-0.018529829,-0.014356302,-0.013344301,-0.002657485,0.0016454833,-0.00911586,0.019643815,-2.0041458e-05,0.017149113,-0.023597682,-0.024868568,-0.034423746,0.0011061414,-0.008315672,0.002890873,-0.0061896844,-0.024947017,-0.0043892628,0.016207715,0.01805913,-0.016537204,-0.0024123294,0.0031046486,-0.00062808825,-0.019330015,-0.018780869,0.016066507,-0.007597857,-0.012897138,-0.014434752,-0.0019896815,-0.009531643,0.0067270654,-0.01058287,0.006126925,-0.013250161,-0.010810374,-0.02395855,0.016160646,0.0116340965,0.0030811136,0.009625783,-0.0026476788,-0.014026813,0.0005638575,0.005573854,-0.014466132,0.004887419,0.0017729641,0.003069346,-0.0007300729,0.0074174227,-0.0024907792,0.0012051841,0.012395059,0.022405246,-0.00024466513,0.016011592,-0.008919735,0.017290322,-0.034768924,-0.007303671,0.003543967,0.032164395,-0.022311106,-0.002320151,0.016992213,0.01378362,0.012622563,-0.0009801314,-0.01048873,0.026013933,0.00924138,-0.0086216265,-0.00921,-0.00749195,-0.013038347,0.017572742,-0.01809051,-0.023064224,0.0022260114,-0.015572273,-0.03260371,0.03025022,0.023581991,-0.006742755,0.022577835,0.01791792,-0.022107137,0.005750366,0.03037574,-0.025276506,0.020161584,-0.019392775,-0.008299982,0.0049815583,0.01348551,-0.0036596805,-0.025715824,0.0028653766,-0.015391839,-0.0035714244,0.009202154,0.0025260816,-0.0054326444,-0.019502606,0.005032551,-0.011226158,-0.010857444,0.01805913,-0.0021828641,-0.00018129245,0.022342486,0.019110357,-0.006032785,0.0005212005,-1.529157e-05,0.004130379,-0.004146069,-0.01816896,0.016976524,0.0043029683,-0.0029281366,-0.010559335,-0.017274633,-0.0043931855,-0.021275569,0.008166618,0.0079038115,0.0058523505,0.009939582,0.0074174227,-0.0357417,0.01785516,0.002084802,-0.020663662,-0.0010845676,0.003398835,-0.009335519,-0.0005001171,0.0031772144,0.023613371,-0.019988993,-0.007178151,-0.005275745
aries,-0.018776698,-0.0041522454,-0.023570098,0.0077816434,-0.0069954647,0.020425383,-0.010258488,-0.0023795266,-0.027386501,-0.02749336,0.031966183,0.036057364,-0.00446519,0.008762459,-0.030500684,-0.026165253,-0.019417854,0.020181134,0.017906558,-0.03743127,0.020120071,-0.009884481,0.012601759,-0.0019215584,0.010250855,0.0022516772,0.019906353,0.030668607,-0.026226314,0.025493566,0.039812706,0.022547303,-0.002202064,-0.024333378,-0.021784022,-0.0056062946,-0.0103195505,0.024974534,0.0020570406,0.008335022,0.008228162,-0.020959679,-0.00071557536,0.013189485,0.031477682,0.015288507,0.0006125325,-0.01845612,0.003058846,-0.06417662,-0.05901684,0.009060138,0.019234667,-0.004877362,0.011151526,-0.0037362576,0.047567636,-0.07950328,0.010487473,0.066863365,-0.010273754,0.016257873,-0.030531216,0.01608995,-0.031447154,0.0033870568,0.019127807,0.0014082523,-0.026653752,-0.033584338,-0.0072206324,0.027508626,0.0020742144,0.0032229514,-0.012632291,0.04414814,-0.031294495,0.02828717,0.01699062,0.01932626,0.037797645,-0.02422652,0.011166792,0.014273344,-0.012265916,-0.016624248,-0.0043697804,-0.0724811,0.010731722,0.035782583,-0.0133574065,-0.067168675,-0.0017994335,-0.048330914,0.074923605,-0.010746988,0.01755545,0.010983605,-0.02047118,-0.017189074,0.027615484,0.013151322,-0.017005887,-0.044331327,0.03260734,-0.0037629723,0.007999179,0.02207407,0.020852821,-0.027615484,-0.0074076364,-0.01486107,0.030042715,-0.007625171,-0.01699062,0.013113157,0.018746166,-0.016013622,-0.036820646,0.021784022,0.0038870054,-0.021921413,0.058436748,-0.007907585,-0.011151526,0.030714404,-0.014716046,0.0074763317,0.025692018,0.012899439,0.005583396,0.02550883,-0.0017526826,0.03492771,0.03996536,-0.009319654,0.002742085,-0.045430448,0.017326465,-0.0061673056,0.009388349,-0.028042922,0.011937706,-0.017677573,-0.007899952,-0.017463855,0.009189896,-0.0051826737,0.013571125,0.00917463,-0.027936062,-0.018547714,0.0077053155,0.035080366,0.042285733,-0.038988363,0.03532462,0.006781746,-0.0163342,-0.006350493,0.0058314623,-0.012380408,-0.006381024,0.005442189,0.048819415,0.009655497,-0.028851999,-0.032576807,-0.023905942,0.04973535,0.010143996,-0.037583925,-0.006739766,-0.0018280565,0.009922645,0.014487062,0.044056546,0.017189074,0.029493155,0.012265916,-0.020990212,-0.0072473474,0.05129244,0.014364937,-0.02071543,0.02825664,0.025493566,-0.0037572477,0.01480764,0.008579272,0.02850089,-0.0047552367,-0.0029405376,0.013647454,0.028623015,-0.027752874,-0.00079142634,0.008037343,0.0312487,-0.01706695,-0.008617436,-0.01908201,-0.040118016,0.04946057,-0.032057777,0.018501917,0.0014120687,-0.01480764,0.014227547,-0.008098405,0.013021563,-0.011510269,0.00955627,0.0068313596,-0.0043163504,0.0016696758,-0.022501506,0.03639321,-0.0016982988,-0.012998665,-0.005583396,0.014464163,0.01744859,0.025249315,0.020639101,-0.0090372395,-0.0020360504,0.029462622,-0.009021974,-0.013968031,-0.00941888,0.00032439418,0.041308735,0.032424152,-0.028806202,0.011876643,0.002211605,-0.012105627,-0.010540903,-0.020959679,0.026546892,-0.033431683,-0.01167819,0.026546892,0.021539772,-0.0014740853,-0.030912856,0.08731928,0.006426821,0.035049837,0.010182161,0.013395571,0.0071557537,-0.0002459194,-0.025600424,0.00022206688,-0.0057703997,0.014441265,0.0009674579,0.028088719,0.022577833,-0.03193565,0.014555757,0.014983194,0.032424152,-0.032210432,-0.0034786505,0.030195372,-0.016624248,-0.028623015,0.030775465,-0.02763075,0.061062433,-0.009479943,-0.027981859,0.03159981,0.023188459,-0.010197426,-0.023020538,-0.029981654,-0.002629501,0.00470944,0.06289431,-0.018120276,-0.042499453,0.004869729,0.017051684,-0.04387336,-0.030470153,-0.03514143,-0.004862096,-0.0653368,-0.008541107,-0.014624452,0.02123446,0.0057398686,-0.03669852,0.012273549,-0.052635815,-0.013143688,-0.03103498,0.020944415,0.018089745,-0.015395366,0.009960809,0.01608995,0.03138609,0.005316248,-0.02324952,0.0044957213,-0.009426513,0.028775671,-0.031691402,-0.0041789603,0.03166087,0.03816402,-0.011983502,-0.013036829,0.006942035,-0.013670352,-0.026852204,0.0033050042,0.018685104,-0.024180723,-0.0076862336,0.006827543,0.003568336,-0.019891087,0.024791347,-0.009105935,-0.03398124,0.02915731,-0.012029299,0.018440854,0.010647762,-0.00624745,0.034042306,0.023676958,0.019555245,-0.0638713,0.008938014,0.009121201,0.011945338,-0.023661692,0.00043936327,0.009029607,0.027875,-0.00990738,-0.010395879,0.0021638998,0.0008023985,-0.030882325,-0.034011774,0.013601657,0.027462829,0.0070107304,0.0102661215,-0.0038221267,-0.0067626643,0.017112747,0.028088719,-0.01911254,-0.039018895,0.008251061,0.058619935,-0.03141662,0.026333174,-0.045766294,0.03544674,-0.011853744,-0.03642374,0.037034366,0.03141662,0.00051044376,-0.0066710706,-0.006545129,-0.012243018,-0.0036084082,-0.014456531,0.028714608,-0.05306325,-0.05474247,-0.010342449,0.010762254,0.022806818,0.03862199,-0.047353916,-0.031126574,-0.04521673,0.014051992,-0.052880067,-0.014387836,-0.025081394,0.002698196,0.011098097,-0.010060036,0.053124316,0.018257666,-0.005667357,-0.030928122,0.026058393,-0.0015752199,-0.018242402,0.026943797,0.044911418,-0.0022593099,-0.00042266652,0.0013500522,0.007537394,0.021677162,0.010029504,0.0029119146,0.0036904607,-0.016700575,0.038072426,0.034775056,0.039782174,0.022791553,-0.029554216,0.027798671,0.0054269237,0.04573576,0.013769578,-0.0070412615,-0.03663746,-0.017189074,0.0142122805,-0.0026161436,0.019066744,-0.056421686,-0.0019864372,-0.046132665,0.04677382,-0.0068008285,0.016792169,-0.027615484,-0.0018223319,0.037309147,-0.029203108,-0.021738226,-0.027157517,-0.031187637,-0.008724295,-0.006949668,-0.0006530818,0.031966183,0.009182263,-0.022501506,-0.039354738,0.017372262,0.007251164,0.035233025,-0.020516977,0.0067550316,-0.044758763,-0.040453862,-0.013578759,0.0112278545,-0.008380819,0.023417443,0.0021410014,-0.0014464164,-0.003066479,-0.029951124,0.00077616074,0.0034958243,-0.023676958,0.041522454,0.0058543608,0.054956187,-0.014609187,-0.025798878,-0.03743127,0.021493975,0.0192194,-0.005442189,-0.027875,0.020059008,0.010434043,0.00034562292,0.025356175,0.027997125,0.0064916997,0.013006298,-0.0004281526,-0.015448795,0.009426513,0.02898939,-0.037614457,-0.016288403,0.028684078,-0.02575308,-0.0055108843,-0.016563185,-0.024073863,-0.0326684,-0.00307602,-0.045125138,0.025951533,-0.0017259677,0.024944004,-0.020318525,0.02912678,0.042377327,-0.057368156,0.07217579,0.021890882,-0.042591047,-0.014677882,0.00495369,0.014777108,0.02269996,0.033584338,-0.030683871,0.01987582,-0.008258694,0.060909774,-0.0028184128,-0.025524097,-0.031477682,-0.006369575,-0.019891087,0.011670557,0.012655189,-0.008907482,-0.02610419,-0.028729875,-0.016105216,-0.035355147,-0.0027325437,-0.022928944,-0.01744859,-0.032271493,0.007102324,-0.00928149,0.041552983,0.0011735436,-0.0036961853,-0.0057551344,-0.04320167,-0.022058804,-0.02134132,0.032973714,0.009060138,0.0072473474,-0.006060446,-0.012189588,-0.023371646,0.014838171,0.0031103676,-0.0033775158,0.0026371337,-0.0029844264,0.021509241,-0.00822053,0.003455752,0.006094794,0.02408913,-0.015860967,-0.007567925,0.019631572,-0.021142866,0.007621355,0.00039046563,-0.009327287,-0.024104394,-0.009983707,0.022013007,0.0009579169,-0.00966313,0.009594435,-0.01230408,0.028058188,-0.016425794,-0.013090258,-0.00051998475,0.0071137734,-0.010434043,0.006797012,0.0197079,0.026501095,-0.001319521,-0.0028851999,0.00696875,-0.045552574,-0.028958859,0.0109072765,0.013059728,0.00990738,0.006598559,-0.030332763,0.006045181,-0.012937603,-0.00028718426,0.0014988919,0.009350184,0.0014769476,-0.01766231,0.024730286,-0.030882325,-0.04943004,-0.0054154745,-0.025600424,-0.00343667,-0.050590225,-0.020837555,0.022196194,0.0049804044,0.02673008,0.014845803,0.016135747,-0.029004656,-0.024791347,-0.011594229,0.017601246,0.026333174,-0.040972892,0.0038221267,-0.0020856636,-0.01205983,-0.00014228023,-0.0014321049,-0.0019959782,-0.021432914,-0.0070221797,0.00533533,-0.0029767936,0.016120482,-0.0093578175,-0.0008739561,-0.060360212,-0.0037400739,-0.009243325,-0.012846009,0.008205264,-0.013258181,0.0025779796,0.010227957,0.01772337,0.010518004,-0.029920591,0.004472823,0.03141662,0.039721113,-0.007262613,-0.0070985076,0.017311199,0.020639101,0.020898618,0.019784227,0.001224111,-0.01932626,0.011136261,0.028241375,-0.012212486,0.005194123,-0.012907071,0.006010833,-0.051658817,-0.0040873666,0.0028451276,-0.021402381,-0.0022612181,-0.004213308,0.014769476,0.03437815,-0.007754929,0.02047118,-0.0029958754,-0.00952574,0.018914089,-0.013845907,0.012540697,0.022959474,-0.0017364629,-0.022959474,-0.008655599,-0.03489718,0.0039614253,0.007861788,0.016395263,-0.010892011,0.009998973,0.00013405112,0.0043812296,-0.0033641583,-0.0056940718,0.014250445,0.00298061,-0.026638485,0.021249726,-0.011288917,0.01755545,-0.037767112,0.020654367,-0.035202492,0.0024940188,-0.03233256,0.002743993,0.0139451325,-0.024211254,-0.0102661215,0.009373083,0.010769886,0.040087488,0.04240786,0.002829862,-0.039782174,0.005232287,-0.02550883,0.0016925742,0.018501917,-0.03532462,-0.0035072735,-0.004823932,-0.0034309453,-0.009876848,0.02137185,-0.038744114,-0.016028889,-0.012403307,-0.0010304286,-0.044361856,0.022913678,-0.005800931,0.020700164,-0.010037137,0.03566046,0.01350243,-0.0021848902,0.0069382186,0.0064955163,0.031477682,-0.020028478,-0.0008515347,-0.011739252,0.012174322,0.03138609,-0.0050529162,0.015799904,0.010701191,0.021585569,0.0076557025,0.043384857,0.007747296,0.033065308,-0.002535999,0.0005094897,-0.0015027083,0.0321799,-0.029828997,-0.007537394,-0.02033379,0.005839095,0.010731722,0.009166998,-0.016731106,-0.018929353,-0.011777417,-0.011830846,-0.008953279,0.004217124,0.023676958,-0.039660048,0.0027401766,-0.010930175,0.016639512,-0.019234667,0.019555245,4.5282504e-06,-0.024440238,-0.00091212004,0.010540903,-0.021036008,-0.047262322,0.01647159,-0.011418675,-0.009647864,0.016899029,0.02488294,0.01696009,-0.017128011,-0.022822084,-0.017845495,0.005991751,-0.034561336,0.02561569,-0.006484067,-0.0074648825,0.01450996,0.022226725,0.041705642,-0.008151835,0.0036389392,-0.00042004275,0.005556681,-0.0071710194,-0.0012746783,-0.03471399,-0.004541518,0.013548227,0.012204854,0.013655086,-0.0076747844,-0.011960603,-0.010556168,0.0028642097,-0.029706873,0.012281181,0.015509858,-0.009922645,-0.010624863,0.0070717926,-0.001584761,0.0046063974,-0.003635123,-0.03837774,0.056024782,-0.010716457,0.020410119,0.02248624,0.006228368,-0.0024176906,0.00015349091,-0.0063352273,-0.00030722035,-0.007243531,-0.02384488,0.003617949,-0.020684898,-0.019372057,-0.039049424,0.022516772,0.007109957,0.021539772,0.020135337,-0.02297474,-0.016608981,-0.040972892,0.00059201935,-0.012410939,0.0069229533,-0.022196194,0.022257255,0.023738021,0.0048926272,0.018105011,-0.025890471,-0.029691607,-0.022257255,0.009846317,0.012464369,0.026546892,-0.018853026,-0.010739355,0.017021153,0.007491597,-0.0063352273,0.018272933,-0.0019511355,0.028913062,0.030577013,-0.0046789087,-0.02964581,-0.014792374,-0.05974959,0.010350082,-0.025264582,0.023035802,-0.019478915,-0.01532667,0.027203314,-0.0040110387,0.013807742,0.018074479,-0.0021219195,-0.0068466254,-0.04500301,0.004442292,0.028531421,-0.010991238,0.021295523,-0.0139985625,-0.0144259995,-0.019310994,0.014708413,-0.0004412715,0.0054269237,-0.009144099,-0.0155480215,0.00020334267,-0.021646632,-0.016776903,0.009541005,-0.007090875,0.029569482,-0.0023947922,-0.026317907,-0.024547098,-0.0037858707,-0.011189691,-0.0013557768,-0.04268264,-0.02863828,0.016761638,-0.017051684,0.02276102,0.0050834473,-0.005968853,0.0014206556,-0.0026619404,-0.03166087,0.014624452,0.024867674,0.02234885,-0.011670557,-0.014525226,0.0057780324,0.0060986103,-0.013258181,0.027050657,0.016318934,0.0020952048,0.033584338,0.013197118,0.0192194,0.02648583,0.02999692,0.027340705,0.023631161,0.031294495,0.033492744,-0.0065832934,0.000578662,-0.049277384,0.0076747844,-0.018883556,0.025463033,0.0071443045,-0.009922645,0.005087264,0.009861583,-0.039568454,0.0076022726,-0.0032630237,-0.012746783,0.0163342,0.03944633,-0.0051521426,0.012983399,-0.0009951268,0.003816402,0.008014444,0.011166792,0.034011774,0.010418777,-0.042255204,-0.040056955,-0.005751318,0.019799493,0.00050185685,-0.0022898412,-0.030256435,-0.0145328585,0.003816402,0.0032553908,-0.025707284,0.005457455,0.0055986615,0.013029196,-0.022547303,-0.014197015,0.005259002,0.027951328,-0.0046979906,0.021646632,0.0054460056,-0.004984221,0.0029176392,0.010899644,0.027859734,-0.010456941,0.032637868,0.0036332146,-0.0065069655,-0.027050657,0.01268572,0.002677206,-0.00808314,0.03181353,-0.020791758,3.8670885e-05,-0.018807229,0.008373186,-0.011258386,-0.017616512,-0.007006914,-0.034744523,0.009861583,-0.02286788,0.030882325,-0.015028991,-0.00041264846,0.017112747,-0.022562569,0.030836528,0.033767525,0.010243223,-0.0154411625,0.0014578656,-0.01235751,-0.012143791,0.002211605,0.010243223,0.008487678,-0.0031924204,-0.021906147,-0.00093549554,-0.006545129,0.014143585,0.0040034056,0.001139196,0.023585364,0.029767936,-0.00026428583,0.007953382,-0.008289225,-0.003816402,-0.01783023,-0.006827543,-0.0015714035,-0.024776082,0.0035645193,-0.02276102,-0.0072320816,0.0065069655,-0.007384738,-0.03791977,-0.030973919,0.014357304,0.016914293,-0.0077930926,-0.029401561,0.016715841,0.011204956,-0.0014864886,-0.025630957,-0.0022993821,0.0139985625,-0.013990929,-0.007945749,-0.007747296,0.024501301,0.003980507,-0.004224757,0.023936473,0.0040873666,-0.008876951,0.006911504,0.0007046032,-0.004629296,-0.021020742,-0.022150397,-0.012670455,-0.020150602,0.051567223,0.008243429,-0.004114081,-0.01908201,-0.0034347617,-0.013601657,-0.0177997,0.026302643,-0.0028909245,-0.0044270265,0.004690358,-0.029538952,-0.008365553,0.0004293452,0.01499846,0.019570509,0.010510371,-0.02193668,0.008067873,-0.025310379,0.0018824403,-0.004175144,-0.0024424973,0.024898207,0.029828997,-0.041766703,0.0052437363,0.017219605,-0.041583516,-0.004262921,-0.026943797,0.020196399,0.042285733,-0.0014683607,0.0053009824,-0.034622397,-0.012533064,0.007938116,-0.024333378,-0.014395468,-0.009640232,0.018639307,0.013303977,0.020028478,-0.0034672013,0.014364937,-0.008396084,-0.020013211,0.000116996576,-0.017387528,0.012502532,-0.00046679366,0.00082386576,-0.023203723,-0.022013007,0.02613472,-0.016837966,-0.021875616,-0.023814349,0.0015876233,-0.021799289,-0.0095181065,-0.012151424,0.01350243,-0.00879299,0.011403409,-0.0019043846,0.026791142,0.0013882162,-0.01960104,-0.005220838,0.006281798,-0.0033469845,0.011212589,-0.035355147,-0.027951328,-0.010525636,-0.016624248,0.010182161,-0.0120064,-0.00026881782,0.027218578,-0.015044256,-0.0016916202,-0.0059803016,0.00898381,-0.022013007,0.02648583,-0.005678806,-0.031569276,-0.010380614,-0.0008935151,-0.0021200113,0.0004758576,0.00092070695,-0.015998358,-0.029477889,0.010411144,-0.006827543,-0.009594435,-0.026928533,0.013761945,-0.0025302744,0.010876746,0.009617333,0.023234256,-0.02909625,0.020120071,0.0026638485,0.024287581,-0.007197734,-0.01096834,-0.0059039737,0.0057551344,0.0033832404,0.008510577,-0.002963436,-0.0064344537,-0.023707489,0.015433529,0.01570831,0.00037615412,-0.013105525,0.01096834,0.022501506,0.029538952,0.013426102,-0.03996536,0.015540388,0.015418264,-0.002791698,0.019127807,-0.02915731,-0.0046865414,-0.00037376885,-0.0021429097,-0.014395468,-0.0054269237,-0.019280463,-0.0011754518,0.004469007,0.011174425,-0.029386295,-0.031187637,-0.017326465,-0.028073452,-0.007148121,0.017173808,0.018120276,0.014845803,-0.013891703,0.036362678,0.0031847875,0.031966183,0.009968442,0.00059488165,0.010739355,0.022577833,0.021051273,0.0027096453,0.0053887595,0.032057777,0.01450996,-0.024944004,-0.00066500803,-9.445595e-05,0.0051674084,0.003085561,-0.016425794,-0.0013834457,0.01720434,-0.002203972,-0.035049837,0.005323881,-0.033767525,-0.0024062414,0.0098921135,-0.012181955,8.2112274e-05,-0.020852821,0.002564622,0.013983297,-0.03159981,-0.030699138,-0.020074274,-0.004148429,0.021142866,0.032210432,-0.0036694705,-0.017647043,0.0027115536,-0.007663335,0.02828717,-0.014616819,0.00097079726,0.005793298,-0.03233256,0.003976691,0.0026924715,0.057215497,-0.005999384,-0.0039079958,-0.003825943,-0.008922747,-0.047323383,0.0022574018,-0.008342654,-0.024577629,0.017494386,0.00928149,0.0106401285,-0.00495369,0.008785358,0.0032229514,0.014654984,0.0075602923,0.023875412,-0.024195988,0.013006298,-0.022303052,-0.016532654,0.004537702,0.010151629,0.04570523,0.0037477068,0.01028902,0.0038373922,0.018685104,0.0051674084,0.010624863,0.037400737,0.031752463,-0.015631983,0.0059192395,0.022272522,0.013059728,0.015631983,1.416243e-05,0.023722755,0.018608777,-0.003427129,-0.007140488,0.014120688,0.022409912,0.008357921,0.02662322,-0.028623015,-0.017876027,-0.00091689057,-0.009365451,0.007342757,-0.0020742144,-0.006407739,0.013761945,0.02697433,-0.015044256,-0.032790527,0.008938014,-0.0015122492,0.004778135,0.0005051962,0.0100524025,-0.009571536,0.0068962383,-0.020211665,0.024165457,-0.024211254,-0.021631366,-0.017112747,0.0009359726,0.020364322,-0.01960104,0.0109607065,0.020745961,0.01720434,-0.011952971,0.009838684,-0.00015945405,-0.012189588,0.012044565,0.0024558546,-0.0110523,-0.00088635937,-0.02134132,-0.0045148036,-0.0075068627,0.0019053387,-0.015181647,-0.0067245,-0.030393826,-0.006018466,0.0058352784,-0.010166895,-0.00624745,-0.002868026,0.027310172,-0.039568454,0.023707489,0.023035802,0.009395981,-0.0044880887,-0.0038469331,-0.00023363536,-0.02297474,-0.028348234,0.00046035348,0.001404436,-0.028760405,0.030867059,-0.01570831,0.0027478095,0.0009531464,-0.011578963,-0.04943004,0.01706695,-0.019570509,-0.01475421,0.024195988,0.00041646487,0.004869729,0.0022230542,0.012571228,0.018166073,0.016914293,0.0122964475,-0.0028031473,-0.0032611154,-0.02109707,-0.0069382186,0.034622397,-0.01908201,-0.019387322,0.038286146,0.025875205,0.00035158603,-0.004320167,-0.022150397,0.002316556,0.007747296,-0.015425897,-0.00802971,0.0040949993,0.004530069,-0.0012784946,-0.013349774,-0.00023041527,-0.014822905,0.011556065,0.009388349,0.025539363,-0.0041789603,-0.0033946896,-0.014044359,-0.004140796,0.0141054215,-0.007441984,0.022898411,0.0067893793,0.0018977058,-0.016654778,0.0070985076,-0.008312124,0.007999179,-0.02888253,0.0056253765,-0.00990738,0.014441265,-0.0052361037,-0.013235282,0.024791347,0.008945646,-0.0073732887,-0.028699342,-0.00073942787,-0.021845086,-0.006075712,-0.036301617,0.008441881,-0.00952574,-0.0076671517,0.018120276,0.03187459,-0.0013767671,-0.0028470359,-0.0036809198,0.028790936,-0.0033565254,0.018257666,0.034988772,0.013235282,-0.005571947,0.0003360819,0.007758745,0.0077320305,0.016105216,-0.004938424,-0.004640745,0.014937397,-0.0042094914,-0.02408913,0.01636473,-0.0016505938,-0.035233025,-0.0007585099,-0.0018118368,-0.008006811,0.013624555,0.00096793496,0.0063657584,0.00050137984,-0.017021153,-0.020654367,0.006381024,0.0067435824,-0.013586391,0.009426513,-0.04115608,-0.02673008,0.006472618,-0.0001595733,0.01692956,0.015845701,0.027233845,-0.010884378,-0.017173808,0.00653368,0.03193565,-0.017616512,0.00922806,0.014578655,0.01699062,0.0059764856,0.01692956,0.009579169,0.008655599,0.006445903,-0.00070126384,0.019921618,0.008556373,0.01028902,0.018761432,-0.00639629,0.022043537,-0.024486035,-0.015082421,0.003656113,-0.009563903,-0.013181852,-0.016349467,-0.0033813321,-0.0057589505,-0.0005953587,0.0044957213,-0.00049804046,0.022608366,0.014883968,0.021555038,0.006350493,-0.008449514,0.015525123,0.020364322,-0.0073160427,-0.020547507,-0.00581238,0.024730286,-0.036545865,0.013449,-0.011365245,0.025569893,-0.016975356,0.006648172,-0.023005271,0.007907585,-0.0065107816,-0.008289225,0.007861788,-0.02686747,-0.0034958243,-0.0148534365,0.010525636,0.009640232,0.010327184,0.0068466254,-0.012388041,-0.0037820544,0.0031580727,0.022165664,0.0057207868,-0.012784947,-0.01134998,0.0038297593,-0.00047204123,0.013891703,-0.03312637,-0.004350698,0.027646016,-0.0073923706,0.02286788,0.020684898,0.023035802,-0.003056938,0.019433118,-0.015074788,0.02338691,-0.010113466,-0.0012489175,0.0040911827,-0.010464574,0.00028789983,0.006484067,0.032851588,-0.0041522454,0.0033488928,-0.018669838,-0.011258386,0.0192194,-0.007930484,0.026821673,0.0032153185,0.009915012,-0.0026142353,0.010342449,-0.011983502,0.0049346075,-0.005278084,-0.0058810753,-0.006663438,-0.001453095,-0.0036408475,0.027432296,-0.010174528,-0.020349056,0.002742085,0.011495003,-0.011746885,0.019723166,0.019570509,0.012456736,0.011556065,-0.00088111183,0.0037477068,0.007331308,0.017036417,-0.00017722417,-0.003930894,0.010159262,0.01720434,-0.006571844,0.0060680793,0.010937808,-0.01268572,0.0027210945,0.0035473455,-0.007579374,0.0074458,-0.00586581,-0.021020742,0.0030111412,-0.026363704,0.008006811,-0.022669427,0.012166689,0.003949976,-0.0008620298,-0.0007623263,-0.011456839,0.00078188535,0.0016782627,-0.001205983,0.0062703486,0.00480485,0.0129299695,-0.0025856122,0.012868907,0.0008739561,0.0020646735,0.00841135,0.013464266,-0.0023623528,-0.014601554,-0.027203314,0.025127191,-0.01273915,0.0037915953,0.00042123537,-0.009060138,0.018150808,-0.010647762,-0.013288711,-0.0040949993,0.005800931,0.016792169,-0.0015151115,0.012212486,0.036087897,0.0011344255,-0.012479634,0.005022385,0.017524919,-0.0055528646,-0.003427129,0.0012222028,0.012052197,0.02050171,-0.02408913,0.0049231583,0.0031828792,0.0074229017,0.0011382418,0.011250753,-0.0053124316,0.0035721522,-0.03334009,-0.012517799,0.0007475377,0.02599733,-0.006655805,-0.0005705521,-0.007564109,0.01431914,0.031325027,0.018730901,-0.0036370312,0.0025111926,0.023280052,-0.02044065,0.022883147,-0.049277384,0.016944826,-0.019448385,-0.014006196,-0.021814553,0.0023470873,-0.026791142,0.01129655,-0.017189074,-0.011220221,0.024440238,0.0095181065,0.01383064,0.0017326465,-0.019478915,-0.0113881435,0.008128936,-0.026012596,0.0034061389,-0.00037830084,-0.017189074,0.029706873,-0.026027862,-0.009655497,-0.0038564743,0.0030168658,0.0074839643,-0.0029729772,-0.00759464,0.0044193934,0.007006914,0.007327492,0.0045529674,0.021921413,-0.011059933,0.006503149,0.0054345564,-0.0062436336,-0.008770091,-0.0007055573,-0.008731928,-0.01023559,-0.028332967,0.00952574,-0.012731517,0.0006020374,-0.014250445,0.003930894,-0.0015217903,-0.016944826,-0.004556784,-0.024241785,0.0035645193,-0.0036771032,0.0197079,0.00941888,-0.002535999,-0.004575866,0.0015694953,0.021402381,0.0009727054,0.00854874,0.0053620446,-0.017005887,0.0004517666,0.004720889,-0.0067283167,0.016151013,0.0036313066,0.0050262013,-0.0010695467,-0.0036389392,-0.013777211,-0.013059728,-0.01570831,-0.0070794257,-0.00706416,-0.014593921,-0.0027134619,-0.004114081,-0.030195372,0.017479122,-0.0015351477,0.017173808,-0.012151424,0.011334714,-0.013914602,0.0027020127,-0.00064926536,-0.0095181065,-0.009563903,0.013334508,0.0031676136,-0.0010237498,-0.008724295,0.0012107536,-0.008541107,-0.03239362,-0.006751215,0.005820013,-0.0109072765,-0.01894462,-0.006029915,0.014983194,-0.021631366,0.01758598,0.0024005168,0.0108538475,-0.0017822597,-0.006411555,-0.029920591,-0.0015647248,-0.023738021,-0.016517388,-0.017402792,0.03294318,-0.015082421,-0.014441265,0.010395879,-0.000892084,0.0078083584,0.009189896,0.028790936,0.0065374966,-0.0035110898,-0.011105729,0.020013211,-0.0034996406,-0.025142455,-0.024806613,-0.000280267,0.020150602,0.008976177,0.019768963,0.01932626,-0.0076099057,-0.003923261,0.0039079958,-0.0027382683,-3.4049463e-05,-0.016731106,0.022211459,-0.004919342,0.0020894802,0.011372878,0.0048582796,0.007831257,0.0030321314,0.0055948454,-0.0075602923,0.029905327,-0.010411144,0.0033584337,0.036515333,0.0043277997,0.015586185,0.026333174,-0.0050643655,-0.021295523,0.024470769,0.020059008,-0.0129299695,0.006087161,0.0033641583,0.0013500522,-0.031966183,-0.029981654,0.0009455136,0.021585569,-0.02673008,-0.010685925,-0.026852204,-0.0017698564,0.004320167,-0.012075095,-0.016425794,0.018181339,0.011777417,0.010365347,-0.014288609,0.0025512648,0.030057982,-0.023967003,0.009205162,0.0073084095,-0.0071061403,0.012151424,-0.0054078414,0.011403409,0.012945236,-0.015227444,-0.011861377,0.004766686,0.021784022,-0.010113466,-0.0090372395,0.020639101,0.0001395372,0.01350243,-0.0074114525,-0.013013931,0.0077205813,-0.0030836528,0.015219811,-0.02047118,0.010777519,0.0049040765,0.0015809445,0.013036829,0.003190512,0.0028603934,-0.0098921135,-0.035233025,-0.008396084,-0.017402792,0.0025856122,-0.005923056,-0.011777417,-0.0048430143,-0.031508215,0.003749615,-0.0056711733,0.00586581,-0.0056368257,-0.009388349,-0.02109707,-0.010395879,-0.004602581,0.00668252,0.020700164,0.024302848,-0.014235179,0.004098816,0.0074572493,0.014197015,-0.0007441984,0.0006864753,-0.021493975,0.0046789087,-0.0011592321,-0.0064916997,-0.014540492,0.0069801994,-0.00028789983,-0.007331308,-0.022455709,-0.012212486,-0.015349569,-0.0075144954,-0.022883147,0.035080366,0.030164842,-0.024684489,0.029493155,-0.015357202,0.002639042,-0.0013968031,0.011304183,0.0064649847,-0.013303977,0.01173162,0.005316248,-0.014967929,0.004785768,-0.015349569,-0.002240228,-0.012433837,-0.0025932451,0.010975972,-0.000503288,-0.0017049776,0.0108004175,0.016883763,0.0016982988,-0.0042705536,-0.01834926,0.0016458234,0.0011306091,0.0048735454,-0.0072015505,0.012449103,0.008052608,0.0037954117,0.0033107288,0.0025970615,0.005999384,0.00030364248,0.0110523,0.0047590532,0.023371646,0.017265402,0.020364322,0.012472002,0.009708927,0.012189588,-0.02408913,-0.011372878,-0.01622734,-0.009960809,-0.026943797,-0.018272933,-0.014555757,0.015540388,-0.020837555,0.014357304,0.023478504,0.009922645,0.016899029,-7.298869e-05,0.007251164,-0.03538568,0.004717073,0.00476287,0.032210432,0.018654574,0.017082214,0.016944826,0.00013691343,-0.012991033,-0.025188252,0.013296344,-0.0043277997,-0.011006503,-0.020669634,0.0032401253,-0.0074648825,-0.021493975,-0.0050376505,0.0017402793,-0.002600878,-0.028913062,0.010869113,-0.0075259446,0.012815478,-0.007766378,0.008938014,0.002934813,-0.0075564757,0.0033469845,-0.0135176955,0.0037992282,0.0032592074,0.016700575,-0.023585364,0.019173604,0.014097789,-0.012716251,0.0032763812,0.006976383,0.016120482,0.0022077886,0.017769167,-0.0014979377,-0.010098199,0.016731106,0.02839403,-0.019127807,-0.009953177,0.0012336519,0.0028603934,0.015967825,-0.00056721276,0.0061940206,-0.008655599,-0.02811925,0.009327287,0.007510679,-0.00423239,0.01755545,0.027905531,0.006010833,0.0155480215,-0.016318934,0.010334817,0.012617025,-0.0148916,-0.013449,0.019677369,-0.0077014994,-0.027539156,-0.02071543,0.011510269,-0.017494386,0.010647762,-0.016502121,0.0027687997,0.0023585365,-0.018624041,-0.0018471385,0.016563185,-0.0042285733,-0.0032439416,-0.01350243,-0.004247655,-0.004510987,0.009998973,-0.013891703,0.02321899,-0.014403101,0.002963436,-0.0051979395,-0.0065374966,0.014792374,-0.00898381,-0.0060375477,-0.023570098,-0.0014960296,0.0001385831,-0.013777211,-0.00668252,0.0027993307,0.0016105216,0.012220119,-0.0071252226,0.006060446,4.153319e-05,0.013975664,-0.04188883,-0.021264993,-0.015799904,0.0047705024,-0.008991443,-0.009098303,-0.01350243,-0.005381127,-0.030348029,-0.023020538,0.013868805,0.010388246,-0.015067155,0.0022268705,-0.010716457,0.004850647,-0.0163342,0.016654778,-0.0059345053,-0.001842368,-0.006606192,0.0064916997,-0.0019616305,-0.0149602955,0.0039576087,0.0054345564,0.028058188,-0.016654778,-0.0016916202,-0.026959063,-0.01706695,0.0004138411,0.024638692,-0.011418675,-0.01099887,-0.002079939,0.0048010335,0.022196194,0.0129299695,0.019265197,-0.017173808,0.008869318,-0.046346385,-0.015937295,0.016028889,0.0045987642,-0.008869318,-0.0177997,0.014868702,-0.01518928,-0.010808051,0.00849531,0.010663027,0.011472104,0.025005065,-0.0077434797,0.00548417,0.00016291266,0.035049837,0.00778546,0.02749336,0.017540183,-0.033523276,-0.000674072,0.017311199,-0.00081480184,-0.005800931,0.017158544,0.024516566,-0.0012431929,-0.00013035398,-0.0053773103,-0.011853744,-0.019646836,0.0105866995,-0.0022077886,0.009205162,-0.006285614,0.023615895,0.00298061,-0.0010972156,-0.01608995,-0.00074562954,0.00495369,0.009220427,-0.024302848,0.010884378,0.0043163504,-0.00023745176,-0.019585775,-0.0020360504,0.001054281,0.032576807,-0.023509037,-0.008510577,0.017143277,-0.004056835,-0.018043948,-0.003864107,-0.005136877,-0.008709029,-0.008525842,0.018853026,0.01772337,0.0028470359,-0.025081394,-0.00082052645,-0.007709132,-0.008785358,-0.007930484,0.009617333,-0.030363293,0.0019482732,-0.012670455,0.012082729,-0.019524712,0.02395174,0.006228368,-0.014227547,-0.012891806,0.0027039207,0.023005271,-0.017738637,0.017433325,0.010945441,-0.0074000033,-0.0020723063,0.016883763,0.008418983,0.007953382,0.020181134,0.027920797,0.007770194,0.0120064,-0.003938527,-0.0013405111,-0.0034156798,0.0035816932,0.0022669428,-0.010601965,-0.010838581,0.009441778,-0.0029271804,-0.01918887,-0.0044003115,0.012319346,-0.008197632,0.023402177,0.005987935,0.00051139784,-0.017647043,-0.008800623,0.018379793,0.020913882,0.007529761,0.0014788557,0.008586904,5.217737e-08,0.016273137,-0.020944415,-0.0029080983,-0.01205983,-0.025417237,0.004304901,-0.026195783,2.5984331e-05,-0.009220427,-0.0005939276,-0.0052170213,0.023676958,0.008304491,0.011105729,-0.017937088,-0.0021867983,-0.0047972174,0.012105627,-0.004530069,0.016731106,-0.0005562406,0.008731928,-0.02234885,-0.008258694,-0.0017164268,-0.018257666,-0.026027862,-0.02182982,0.004262921,0.0038679233,-0.016792169,0.0005118749,-0.010021872,0.018379793,0.02700486,0.009724192,0.020822288,0.0384388,0.027310172,-0.00985395,-0.012143791,0.031996716,-0.0005118749,0.010991238,0.016395263,-0.016670045,0.0023432707,-0.036576398,-0.0058734426,0.004919342,0.006976383,0.010746988,-0.011327081,-0.006445903,0.011113362,-0.012746783,-0.018105011,-0.004171327,-0.021845086,0.007961014,-0.0029653443,-0.013960399,-0.009266224,0.017769167,-0.025524097,-0.03791977,0.0079762805,-0.0122964475,0.003161889,0.022089334,-0.0014502327,-0.0004338772,0.0022574018,0.0003294032,0.032515746,0.010594332,0.0013433734,0.0042781867,0.020898618,0.007235898,-0.011777417,0.013258181,-0.0016572726,0.008457147,-0.001595256,0.00854874,0.015433529,-0.002182982,-0.012594126,-0.014288609,0.008197632,0.014013828,0.03596577,-0.0027993307,0.0025989697,0.0017221514,-0.008205264,0.008731928,-0.002564622,-0.006048997,0.011792682,-0.006648172,-0.0014654984,0.028302437,0.022440443,-0.0037248083,0.027279641,-0.0030111412,-0.0154411625,-0.0032057776,-0.002515009,0.016410528,-6.917229e-05,-0.0151205845,0.0061367746,0.014059625,-0.019799493,-0.00029577114,0.008189999,0.0141054215,0.002829862,0.034103367,0.0012804029,-0.009266224,0.009350184,0.020990212,-0.007090875,0.005381127,0.029386295,-0.0027859735,-0.016670045,0.0075602923,0.003369883,-0.0104798395,0.0072473474,-0.034042306,0.009884481,0.0029844264,0.0056635407,-0.01450996,0.014548125,-0.01696009,-0.013983297,-0.010563801,-0.02332585,-0.011609495,0.0019616305,0.0044613737,-0.012479634,0.014731311,0.018471386,0.0027401766,-0.015288507,0.016257873,-0.013296344,0.0054078414,-0.007075609,0.002032234,0.014708413,-0.0049727717,0.002032234,0.0103195505,-0.00615204,-0.0071901013,-0.01758598,0.0136779845,0.0067741135,0.0011287009,-0.01831873,-0.0072129997,0.017876027,-0.010227957,-0.016654778,0.007796909,0.01608995,-0.011914807,-0.004301085,-0.0011439665,-0.020196399,-0.015341936,-0.0146397175,-0.009586802,0.0049460568,-0.013052095,0.00068599824,-0.0068962383,-0.007270246,0.02047118,-0.012991033,-0.01374668,0.010754621,0.019662103,0.012639923,0.01306736,0.033065308,-0.0039995895,-0.0049498733,0.018715635,0.009617333,0.013029196,0.00016994915,-0.008144202,-0.01605942,-0.004282003,-0.0029767936,-0.008861685,0.009243325,-0.010685925,0.011952971,-0.010601965,0.0039347103,0.0010094383,0.013876437,-0.007102324,0.00562156,0.013739047,0.0019454109,0.0115484325,0.0023413626,0.008327389,-0.0074267182,0.040514924,-0.01527324,0.00993791,0.018807229,0.015502225,0.003352709,0.016776903,-0.0013700883,-0.007861788,-0.007915217,-0.00658711,0.0021314605,0.017326465,0.004602581,0.007522128,-0.00018545329,0.003095102,-0.0025531729,-0.03663746,0.012540697,-0.016318934,0.006407739,0.011754518,0.0039423434,0.011785049,0.013342141,-0.014029094,0.0037381658,0.010708824,0.0029787018,-0.0090372395,0.0067016017,0.0070527107,0.005365861,0.0031580727,0.0027840652,-0.016273137,0.0057589505,0.0034538438,-0.013769578,0.007991546,-0.0029443542,2.4672443e-05,-0.011907174,0.0046216627,0.014135953,0.01706695,0.03917155,0.0049804044,0.008075506,-0.010708824,-0.0024234152,-0.014601554,0.0109607065,0.0038717398,-0.02360063,-0.010991238,-0.009350184,0.0036141328,-0.0037438904,-0.0074648825,-0.019005682,-0.006178755,-0.014357304,-0.00063066045,0.008281592,0.023157926,0.0197079,0.008396084,-0.002116195,-0.018181339,0.015906764,-0.018761432,-0.0053429627,-0.027340705,0.01499846,0.011655292,0.0006029915,0.0045491513,-0.0063733915,-0.005365861,-0.025783611,0.012807845,0.036515333,0.0045796824,0.0032229514,-0.013639821,0.013189485,0.016700575,0.010838581,0.007003098,0.017524919,-0.021570304,0.025905736,-0.014654984,0.020287992,-0.018471386,0.0033050042,-0.03103498,0.010456941,-0.016517388,0.013128423,-0.015257975,-0.030912856,0.013136055,0.009159365,0.0012460552,0.026027862,-0.010601965,0.017341731,0.012571228,0.013143688,0.0153343035,-0.012563596,0.019341525,0.013227649,0.018181339,-0.0040339367,0.0032344006,0.0064344537,0.015166381,0.020852821,-0.012204854,-0.005129244,-0.010945441,-0.011182058,0.0017030694,0.015090053,-0.0056559076,0.00052570936,0.018227136,-0.0024844776,-0.0037935036,0.0018223319,-0.00822053,0.00018473771,0.024974534,0.0034233127,0.017677573,0.0012260191,0.013006298,-0.0029787018,0.0029119146,-0.014235179,-0.0044880887,-0.015998358,0.013532962,-0.012914704,0.0062131025,0.0025913368,-0.01148737,-0.0023337298,0.010250855,-0.014571022,0.027691813,0.0151205845,0.005953587,-0.0032534827,0.018578244,0.0069076875,0.012769681,-0.023768552,-0.015059522,-0.015196913,-0.020196399,0.00046583958,-0.008457147,0.016257873,-0.001584761,0.024623426,0.007327492,-0.013036829,-0.016257873,0.0056406423,0.010731722,0.008136569,0.025539363,-0.011304183,-0.0077625616,0.0016763546,-0.00802971,0.010594332,0.0007141442,0.0007108049,-0.012372775,-0.030668607,0.012670455,0.008922747,-0.013532962,0.005201756,0.014838171,-0.003656113,0.028210843,-0.0049994867,0.0038965463,-0.008075506,-0.0017479121,0.0069267694,0.018242402,-0.004881178,0.004594948,-0.0036465721,-0.012090362,0.00048778387,0.006121509,-0.005678806,0.025768345,-0.01918887,0.008556373,-0.007461066,-0.00552615,0.015754107,0.015937295,0.0053467792,-0.013685618,0.02057804,-0.028042922,0.0059383214,-0.013548227,0.018501917,0.0017479121,-0.008243429,0.003570244,0.0047972174,0.0063314107,-0.005800931,-0.0050185686,-0.020623837,-0.009716559,0.019509448,-0.032515746,0.0048468304,0.013777211,-0.010136364,0.020669634,-0.012678088,-0.017295934,0.0016305577,0.01023559,0.017647043,0.026119456,0.0023108313,0.01341847,-0.0041942257,0.011914807,0.0033736993,-0.024913471,-0.0032477581,-0.0063581257,-0.01897515,0.01772337,-0.010082934,-0.005648275,0.007831257,0.014174117,0.0012279273,-0.0021276441,0.0054002088,0.01946365,-0.00336225,-0.019402588,0.018929353,-0.01984529,0.024562363,0.026119456,-0.012044565,0.014929765,-0.01096834,0.0141054215,-0.0015876233,0.007884687,-0.003720992,-0.012907071,-0.009342552,-0.013807742,-0.01475421,-0.011495003,-0.015494592,0.012540697,0.03181353,-0.017708106,0.004778135,-0.035782583,-0.0073503903,-0.021539772,0.015181647,0.011495003,-0.0045529674,0.002137185,0.022562569,-0.003949976,-0.007991546,0.01383064,-0.0068122777,0.025676752,0.021753492,-0.014143585,0.0054002088,-0.009701294,-0.0006211194,-0.0017192891,0.028424561,0.0059459545,-0.013235282,-0.0019673551,-0.009838684,-0.0028451276,0.0038507497,-0.0007899952,0.0015923937,0.002431048,-0.004289636,-0.0067245,-0.010037137,-0.016151013,0.01766231,-0.011037035,-0.0027783406,-0.009724192,0.008709029,0.01138051,-0.013807742,0.0077930926,0.0006349539,-0.006277981,0.018715635,0.0014235179,-4.93747e-05,-0.031508215,0.008876951,0.008999076,-0.025524097,-0.014051992,-0.005068182,-0.01167819,0.015364834,0.014723679,-0.0011267926,-0.025111925,-0.0030550298,0.0021352768,0.028974123,0.0075831907,-0.010685925,0.0001433536,-0.020165868,-0.008586904,-0.02384488,-0.011517901,0.005800931,0.026638485,-0.009479943,0.0137848435,-0.0013968031,0.009708927,-0.0022764837,0.01699062,-0.008762459,0.010579066,0.0023241888,0.011151526,-0.000674072,-0.016837966,-0.01096834,-0.017295934,-0.005278084,0.001453095,-0.014830538,0.00019702176,-0.023615895,-0.00051426014,0.015128218,0.011884276,-0.0063199615,-0.00715957,0.012067463,-0.028470358,-0.008403718,0.021738226,-0.017509652,0.04799507,-0.0021810737,0.0040949993,0.0003379901,0.010663027,0.00069172285,0.0028603934,0.007861788,-0.02297474,-0.010281387,-0.009044873,-0.00095266936,0.024470769,-0.0076671517,-0.039721113,-0.0007227311,0.010304285,-0.020532243,0.010739355,-0.008319756,-0.022058804,-0.020272728,-0.024959268,-0.0048391977,-0.004530069,0.0075144954,-0.038469333,-0.021753492,0.0032592074,-0.046407446,-0.004919342,-0.012143791,-0.010220325,0.005762767,0.013380305,-0.010708824,0.001054281,0.008472413,0.0015599543,0.013647454,0.012014033,0.0004112173,0.00889985,0.012891806,-0.0019158338,-0.0081671,0.017082214,-0.011609495,-0.0149602955,0.009876848,-0.00056435046,-0.010685925,0.023295317,-0.020135337,-0.007331308,-0.0177997,0.011823214,-0.003976691,0.007651886,-0.014670249,-0.018853026,-0.017937088,-0.007083242,0.021570304,-0.01758598,0.013906969,0.0341339,0.011411042,-0.0072206324,-0.02269996,-0.0106401285,-0.011342347,-0.023432707,0.007503046,0.01981476,0.007090875,0.014487062,0.02395174,-0.016212076,-0.015891498,0.0028527605,-0.0012641832,-0.0067588477,-0.01570831,-0.012227752,-0.003980507,-0.030577013,0.0002032234,-0.0067283167,0.011670557,-0.024195988,0.0141054215,-0.002515009,-0.012746783,-0.009571536,-0.026501095,0.00070126384,0.015876232,0.00495369,-0.0031065512,9.9763136e-05,0.013975664,0.0003029269,0.0032267678,0.009884481,-0.012624658,-0.0011248845,-0.00069076876,-0.0021848902,0.0019148797,-0.025692018,0.028592484,0.002249769,0.012891806,0.028607748,-0.0008534429,0.019784227,-0.021036008,-0.011632393,-0.009044873,-0.0036961853,0.00040310746,0.013143688,-0.01138051,-0.0027325437,-0.0017975253,0.00326684,0.020211665,0.008044975,-0.015059522,0.031325027,0.00041074026,-0.0023871595,-0.017036417,-0.0060375477,-0.010067669,0.013708516,-0.0006416326,-0.022318318,0.011647658,-0.017265402,-0.07089348,-0.0023623528,0.01557092,0.0008973315,-0.00769005,0.024821877,-0.0057742163,0.022303052,0.0010456941,-0.016715841,0.011983502,0.001120114,0.007812175,-0.007148121,0.00062493584,0.003512998,0.003598867,-0.0051521426,0.010350082,-0.00849531,0.005743685,8.02637e-05,0.004537702,-0.015738841,0.017982885,0.02276102,-0.017753903,0.01856298,0.011594229,-0.014761843,0.0197079,-0.0013996654,-0.01995215,0.0076938663,-0.0037057262,0.0040110387,-0.009747091,-0.01557092,-0.007510679,-0.0021963394,0.012800212,-0.0149068665,-0.014029094,-0.0007131901,-0.025172988,0.012181955,0.003825943,-0.014326773,0.014174117,0.006835176,-0.004820116,0.0021104703,0.01129655,-0.018654574,0.028439827,0.0055795796,-0.012372775,0.0019511355,0.030867059,0.030348029,-0.022287788,0.0076099057,-0.01644106
