sign,0,1,2,3,4,5,6,7,8,9,10,11,12,13,14,15,16,17,18,19,20,21,22,23,24,25,26,27,28,29,30,31,32,33,34,35,36,37,38,39,40,41,42,43,44,45,46,47,48,49,50,51,52,53,54,55,56,57,58,59,60,61,62,63,64,65,66,67,68,69,70,71,72,73,74,75,76,77,78,79,80,81,82,83,84,85,86,87,88,89,90,91,92,93,94,95,96,97,98,99,100,101,102,103,104,105,106,107,108,109,110,111,112,113,114,115,116,117,118,119,120,121,122,123,124,125,126,127,128,129,130,131,132,133,134,135,136,137,138,139,140,141,142,143,144,145,146,147,148,149,150,151,152,153,154,155,156,157,158,159,160,161,162,163,164,165,166,167,168,169,170,171,172,173,174,175,176,177,178,179,180,181,182,183,184,185,186,187,188,189,190,191,192,193,194,195,196,197,198,199,200,201,202,203,204,205,206,207,208,209,210,211,212,213,214,215,216,217,218,219,220,221,222,223,224,225,226,227,228,229,230,231,232,233,234,235,236,237,238,239,240,241,242,243,244,245,246,247,248,249,250,251,252,253,254,255,256,257,258,259,260,261,262,263,264,265,266,267,268,269,270,271,272,273,274,275,276,277,278,279,280,281,282,283,284,285,286,287,288,289,290,291,292,293,294,295,296,297,298,299,300,301,302,303,304,305,306,307,308,309,310,311,312,313,314,315,316,317,318,319,320,321,322,323,324,325,326,327,328,329,330,331,332,333,334,335,336,337,338,339,340,341,342,343,344,345,346,347,348,349,350,351,352,353,354,355,356,357,358,359,360,361,362,363,364,365,366,367,368,369,370,371,372,373,374,375,376,377,378,379,380,381,382,383,384,385,386,387,388,389,390,391,392,393,394,395,396,397,398,399,400,401,402,403,404,405,406,407,408,409,410,411,412,413,414,415,416,417,418,419,420,421,422,423,424,425,426,427,428,429,430,431,432,433,434,435,436,437,438,439,440,441,442,443,444,445,446,447,448,449,450,451,452,453,454,455,456,457,458,459,460,461,462,463,464,465,466,467,468,469,470,471,472,473,474,475,476,477,478,479,480,481,482,483,484,485,486,487,488,489,490,491,492,493,494,495,496,497,498,499,500,501,502,503,504,505,506,507,508,509,510,511,512,513,514,515,516,517,518,519,520,521,522,523,524,525,526,527,528,529,530,531,532,533,534,535,536,537,538,539,540,541,542,543,544,545,546,547,548,549,550,551,552,553,554,555,556,557,558,559,560,561,562,563,564,565,566,567,568,569,570,571,572,573,574,575,576,577,578,579,580,581,582,583,584,585,586,587,588,589,590,591,592,593,594,595,596,597,598,599,600,601,602,603,604,605,606,607,608,609,610,611,612,613,614,615,616,617,618,619,620,621,622,623,624,625,626,627,628,629,630,631,632,633,634,635,636,637,638,639,640,641,642,643,644,645,646,647,648,649,650,651,652,653,654,655,656,657,658,659,660,661,662,663,664,665,666,667,668,669,670,671,672,673,674,675,676,677,678,679,680,681,682,683,684,685,686,687,688,689,690,691,692,693,694,695,696,697,698,699,700,701,702,703,704,705,706,707,708,709,710,711,712,713,714,715,716,717,718,719,720,721,722,723,724,725,726,727,728,729,730,731,732,733,734,735,736,737,738,739,740,741,742,743,744,745,746,747,748,749,750,751,752,753,754,755,756,757,758,759,760,761,762,763,764,765,766,767,768,769,770,771,772,773,774,775,776,777,778,779,780,781,782,783,784,785,786,787,788,789,790,791,792,793,794,795,796,797,798,799,800,801,802,803,804,805,806,807,808,809,810,811,812,813,814,815,816,817,818,819,820,821,822,823,824,825,826,827,828,829,830,831,832,833,834,835,836,837,838,839,840,841,842,843,844,845,846,847,848,849,850,851,852,853,854,855,856,857,858,859,860,861,862,863,864,865,866,867,868,869,870,871,872,873,874,875,876,877,878,879,880,881,882,883,884,885,886,887,888,889,890,891,892,893,894,895,896,897,898,899,900,901,902,903,904,905,906,907,908,909,910,911,912,913,914,915,916,917,918,919,920,921,922,923,924,925,926,927,928,929,930,931,932,933,934,935,936,937,938,939,940,941,942,943,944,945,946,947,948,949,950,951,952,953,954,955,956,957,958,959,960,961,962,963,964,965,966,967,968,969,970,971,972,973,974,975,976,977,978,979,980,981,982,983,984,985,986,987,988,989,990,991,992,993,994,995,996,997,998,999,1000,1001,1002,1003,1004,1005,1006,1007,1008,1009,1010,1011,1012,1013,1014,1015,1016,1017,1018,1019,1020,1021,1022,1023,1024,1025,1026,1027,1028,1029,1030,1031,1032,1033,1034,1035,1036,1037,1038,1039,1040,1041,1042,1043,1044,1045,1046,1047,1048,1049,1050,1051,1052,1053,1054,1055,1056,1057,1058,1059,1060,1061,1062,1063,1064,1065,1066,1067,1068,1069,1070,1071,1072,1073,1074,1075,1076,1077,1078,1079,1080,1081,1082,1083,1084,1085,1086,1087,1088,1089,1090,1091,1092,1093,1094,1095,1096,1097,1098,1099,1100,1101,1102,1103,1104,1105,1106,1107,1108,1109,1110,1111,1112,1113,1114,1115,1116,1117,1118,1119,1120,1121,1122,1123,1124,1125,1126,1127,1128,1129,1130,1131,1132,1133,1134,1135,1136,1137,1138,1139,1140,1141,1142,1143,1144,1145,1146,1147,1148,1149,1150,1151,1152,1153,1154,1155,1156,1157,1158,1159,1160,1161,1162,1163,1164,1165,1166,1167,1168,1169,1170,1171,1172,1173,1174,1175,1176,1177,1178,1179,1180,1181,1182,1183,1184,1185,1186,1187,1188,1189,1190,1191,1192,1193,1194,1195,1196,1197,1198,1199,1200,1201,1202,1203,1204,1205,1206,1207,1208,1209,1210,1211,1212,1213,1214,1215,1216,1217,1218,1219,1220,1221,1222,1223,1224,1225,1226,1227,1228,1229,1230,1231,1232,1233,1234,1235,1236,1237,1238,1239,1240,1241,1242,1243,1244,1245,1246,1247,1248,1249,1250,1251,1252,1253,1254,1255,1256,1257,1258,1259,1260,1261,1262,1263,1264,1265,1266,1267,1268,1269,1270,1271,1272,1273,1274,1275,1276,1277,1278,1279,1280,1281,1282,1283,1284,1285,1286,1287,1288,1289,1290,1291,1292,1293,1294,1295,1296,1297,1298,1299,1300,1301,1302,1303,1304,1305,1306,1307,1308,1309,1310,1311,1312,1313,1314,1315,1316,1317,1318,1319,1320,1321,1322,1323,1324,1325,1326,1327,1328,1329,1330,1331,1332,1333,1334,1335,1336,1337,1338,1339,1340,1341,1342,1343,1344,1345,1346,1347,1348,1349,1350,1351,1352,1353,1354,1355,1356,1357,1358,1359,1360,1361,1362,1363,1364,1365,1366,1367,1368,1369,1370,1371,1372,1373,1374,1375,1376,1377,1378,1379,1380,1381,1382,1383,1384,1385,1386,1387,1388,1389,1390,1391,1392,1393,1394,1395,1396,1397,1398,1399,1400,1401,1402,1403,1404,1405,1406,1407,1408,1409,1410,1411,1412,1413,1414,1415,1416,1417,1418,1419,1420,1421,1422,1423,1424,1425,1426,1427,1428,1429,1430,1431,1432,1433,1434,1435,1436,1437,1438,1439,1440,1441,1442,1443,1444,1445,1446,1447,1448,1449,1450,1451,1452,1453,1454,1455,1456,1457,1458,1459,1460,1461,1462,1463,1464,1465,1466,1467,1468,1469,1470,1471,1472,1473,1474,1475,1476,1477,1478,1479,1480,1481,1482,1483,1484,1485,1486,1487,1488,1489,1490,1491,1492,1493,1494,1495,1496,1497,1498,1499,1500,1501,1502,1503,1504,1505,1506,1507,1508,1509,1510,1511,1512,1513,1514,1515,1516,1517,1518,1519,1520,1521,1522,1523,1524,1525,1526,1527,1528,1529,1530,1531,1532,1533,1534,1535,1536,1537,1538,1539,1540,1541,1542,1543,1544,1545,1546,1547,1548,1549,1550,1551,1552,1553,1554,1555,1556,1557,1558,1559,1560,1561,1562,1563,1564,1565,1566,1567,1568,1569,1570,1571,1572,1573,1574,1575,1576,1577,1578,1579,1580,1581,1582,1583,1584,1585,1586,1587,1588,1589,1590,1591,1592,1593,1594,1595,1596,1597,1598,1599,1600,1601,1602,1603,1604,1605,1606,1607,1608,1609,1610,1611,1612,1613,1614,1615,1616,1617,1618,1619,1620,1621,1622,1623,1624,1625,1626,1627,1628,1629,1630,1631,1632,1633,1634,1635,1636,1637,1638,1639,1640,1641,1642,1643,1644,1645,1646,1647,1648,1649,1650,1651,1652,1653,1654,1655,1656,1657,1658,1659,1660,1661,1662,1663,1664,1665,1666,1667,1668,1669,1670,1671,1672,1673,1674,1675,1676,1677,1678,1679,1680,1681,1682,1683,1684,1685,1686,1687,1688,1689,1690,1691,1692,1693,1694,1695,1696,1697,1698,1699,1700,1701,1702,1703,1704,1705,1706,1707,1708,1709,1710,1711,1712,1713,1714,1715,1716,1717,1718,1719,1720,1721,1722,1723,1724,1725,1726,1727,1728,1729,1730,1731,1732,1733,1734,1735,1736,1737,1738,1739,1740,1741,1742,1743,1744,1745,1746,1747,1748,1749,1750,1751,1752,1753,1754,1755,1756,1757,1758,1759,1760,1761,1762,1763,1764,1765,1766,1767,1768,1769,1770,1771,1772,1773,1774,1775,1776,1777,1778,1779,1780,1781,1782,1783,1784,1785,1786,1787,1788,1789,1790,1791,1792,1793,1794,1795,1796,1797,1798,1799,1800,1801,1802,1803,1804,1805,1806,1807,1808,1809,1810,1811,1812,1813,1814,1815,1816,1817,1818,1819,1820,1821,1822,1823,1824,1825,1826,1827,1828,1829,1830,1831,1832,1833,1834,1835,1836,1837,1838,1839,1840,1841,1842,1843,1844,1845,1846,1847,1848,1849,1850,1851,1852,1853,1854,1855,1856,1857,1858,1859,1860,1861,1862,1863,1864,1865,1866,1867,1868,1869,1870,1871,1872,1873,1874,1875,1876,1877,1878,1879,1880,1881,1882,1883,1884,1885,1886,1887,1888,1889,1890,1891,1892,1893,1894,1895,1896,1897,1898,1899,1900,1901,1902,1903,1904,1905,1906,1907,1908,1909,1910,1911,1912,1913,1914,1915,1916,1917,1918,1919,1920,1921,1922,1923,1924,1925,1926,1927,1928,1929,1930,1931,1932,1933,1934,1935,1936,1937,1938,1939,1940,1941,1942,1943,1944,1945,1946,1947,1948,1949,1950,1951,1952,1953,1954,1955,1956,1957,1958,1959,1960,1961,1962,1963,1964,1965,1966,1967,1968,1969,1970,1971,1972,1973,1974,1975,1976,1977,1978,1979,1980,1981,1982,1983,1984,1985,1986,1987,1988,1989,1990,1991,1992,1993,1994,1995,1996,1997,1998,1999,2000,2001,2002,2003,2004,2005,2006,2007,2008,2009,2010,2011,2012,2013,2014,2015,2016,2017,2018,2019,2020,2021,2022,2023,2024,2025,2026,2027,2028,2029,2030,2031,2032,2033,2034,2035,2036,2037,2038,2039,2040,2041,2042,2043,2044,2045,2046,2047,2048,2049,2050,2051,2052,2053,2054,2055,2056,2057,2058,2059,2060,2061,2062,2063,2064,2065,2066,2067,2068,2069,2070,2071,2072,2073,2074,2075,2076,2077,2078,2079,2080,2081,2082,2083,2084,2085,2086,2087,2088,2089,2090,2091,2092,2093,2094,2095,2096,2097,2098,2099,2100,2101,2102,2103,2104,2105,2106,2107,2108,2109,2110,2111,2112,2113,2114,2115,2116,2117,2118,2119,2120,2121,2122,2123,2124,2125,2126,2127,2128,2129,2130,2131,2132,2133,2134,2135,2136,2137,2138,2139,2140,2141,2142,2143,2144,2145,2146,2147,2148,2149,2150,2151,2152,2153,2154,2155,2156,2157,2158,2159,2160,2161,2162,2163,2164,2165,2166,2167,2168,2169,2170,2171,2172,2173,2174,2175,2176,2177,2178,2179,2180,2181,2182,2183,2184,2185,2186,2187,2188,2189,2190,2191,2192,2193,2194,2195,2196,2197,2198,2199,2200,2201,2202,2203,2204,2205,2206,2207,2208,2209,2210,2211,2212,2213,2214,2215,2216,2217,2218,2219,2220,2221,2222,2223,2224,2225,2226,2227,2228,2229,2230,2231,2232,2233,2234,2235,2236,2237,2238,2239,2240,2241,2242,2243,2244,2245,2246,2247,2248,2249,2250,2251,2252,2253,2254,2255,2256,2257,2258,2259,2260,2261,2262,2263,2264,2265,2266,2267,2268,2269,2270,2271,2272,2273,2274,2275,2276,2277,2278,2279,2280,2281,2282,2283,2284,2285,2286,2287,2288,2289,2290,2291,2292,2293,2294,2295,2296,2297,2298,2299,2300,2301,2302,2303,2304,2305,2306,2307,2308,2309,2310,2311,2312,2313,2314,2315,2316,2317,2318,2319,2320,2321,2322,2323,2324,2325,2326,2327,2328,2329,2330,2331,2332,2333,2334,2335,2336,2337,2338,2339,2340,2341,2342,2343,2344,2345,2346,2347,2348,2349,2350,2351,2352,2353,2354,2355,2356,2357,2358,2359,2360,2361,2362,2363,2364,2365,2366,2367,2368,2369,2370,2371,2372,2373,2374,2375,2376,2377,2378,2379,2380,2381,2382,2383,2384,2385,2386,2387,2388,2389,2390,2391,2392,2393,2394,2395,2396,2397,2398,2399,2400,2401,2402,2403,2404,2405,2406,2407,2408,2409,2410,2411,2412,2413,2414,2415,2416,2417,2418,2419,2420,2421,2422,2423,2424,2425,2426,2427,2428,2429,2430,2431,2432,2433,2434,2435,2436,2437,2438,2439,2440,2441,2442,2443,2444,2445,2446,2447,2448,2449,2450,2451,2452,2453,2454,2455,2456,2457,2458,2459,2460,2461,2462,2463,2464,2465,2466,2467,2468,2469,2470,2471,2472,2473,2474,2475,2476,2477,2478,2479,2480,2481,2482,2483,2484,2485,2486,2487,2488,2489,2490,2491,2492,2493,2494,2495,2496,2497,2498,2499,2500,2501,2502,2503,2504,2505,2506,2507,2508,2509,2510,2511,2512,2513,2514,2515,2516,2517,2518,2519,2520,2521,2522,2523,2524,2525,2526,2527,2528,2529,2530,2531,2532,2533,2534,2535,2536,2537,2538,2539,2540,2541,2542,2543,2544,2545,2546,2547,2548,2549,2550,2551,2552,2553,2554,2555,2556,2557,2558,2559,2560,2561,2562,2563,2564,2565,2566,2567,2568,2569,2570,2571,2572,2573,2574,2575,2576,2577,2578,2579,2580,2581,2582,2583,2584,2585,2586,2587,2588,2589,2590,2591,2592,2593,2594,2595,2596,2597,2598,2599,2600,2601,2602,2603,2604,2605,2606,2607,2608,2609,2610,2611,2612,2613,2614,2615,2616,2617,2618,2619,2620,2621,2622,2623,2624,2625,2626,2627,2628,2629,2630,2631,2632,2633,2634,2635,2636,2637,2638,2639,2640,2641,2642,2643,2644,2645,2646,2647,2648,2649,2650,2651,2652,2653,2654,2655,2656,2657,2658,2659,2660,2661,2662,2663,2664,2665,2666,2667,2668,2669,2670,2671,2672,2673,2674,2675,2676,2677,2678,2679,2680,2681,2682,2683,2684,2685,2686,2687,2688,2689,2690,2691,2692,2693,2694,2695,2696,2697,2698,2699,2700,2701,2702,2703,2704,2705,2706,2707,2708,2709,2710,2711,2712,2713,2714,2715,2716,2717,2718,2719,2720,2721,2722,2723,2724,2725,2726,2727,2728,2729,2730,2731,2732,2733,2734,2735,2736,2737,2738,2739,2740,2741,2742,2743,2744,2745,2746,2747,2748,2749,2750,2751,2752,2753,2754,2755,2756,2757,2758,2759,2760,2761,2762,2763,2764,2765,2766,2767,2768,2769,2770,2771,2772,2773,2774,2775,2776,2777,2778,2779,2780,2781,2782,2783,2784,2785,2786,2787,2788,2789,2790,2791,2792,2793,2794,2795,2796,2797,2798,2799,2800,2801,2802,2803,2804,2805,2806,2807,2808,2809,2810,2811,2812,2813,2814,2815,2816,2817,2818,2819,2820,2821,2822,2823,2824,2825,2826,2827,2828,2829,2830,2831,2832,2833,2834,2835,2836,2837,2838,2839,2840,2841,2842,2843,2844,2845,2846,2847,2848,2849,2850,2851,2852,2853,2854,2855,2856,2857,2858,2859,2860,2861,2862,2863,2864,2865,2866,2867,2868,2869,2870,2871,2872,2873,2874,2875,2876,2877,2878,2879,2880,2881,2882,2883,2884,2885,2886,2887,2888,2889,2890,2891,2892,2893,2894,2895,2896,2897,2898,2899,2900,2901,2902,2903,2904,2905,2906,2907,2908,2909,2910,2911,2912,2913,2914,2915,2916,2917,2918,2919,2920,2921,2922,2923,2924,2925,2926,2927,2928,2929,2930,2931,2932,2933,2934,2935,2936,2937,2938,2939,2940,2941,2942,2943,2944,2945,2946,2947,2948,2949,2950,2951,2952,2953,2954,2955,2956,2957,2958,2959,2960,2961,2962,2963,2964,2965,2966,2967,2968,2969,2970,2971,2972,2973,2974,2975,2976,2977,2978,2979,2980,2981,2982,2983,2984,2985,2986,2987,2988,2989,2990,2991,2992,2993,2994,2995,2996,2997,2998,2999,3000,3001,3002,3003,3004,3005,3006,3007,3008,3009,3010,3011,3012,3013,3014,3015,3016,3017,3018,3019,3020,3021,3022,3023,3024,3025,3026,3027,3028,3029,3030,3031,3032,3033,3034,3035,3036,3037,3038,3039,3040,3041,3042,3043,3044,3045,3046,3047,3048,3049,3050,3051,3052,3053,3054,3055,3056,3057,3058,3059,3060,3061,3062,3063,3064,3065,3066,3067,3068,3069,3070,3071
aries,-0.039243396,-0.01279006,-0.0040418385,-0.017323082,0.040707316,0.007968104,0.01198747,0.02225419,0.032103565,-0.0047320654,-0.034620482,0.02117551,0.011184881,0.007614965,-0.039936833,-0.0450734,0.00021128157,0.0010698512,0.031230345,-0.053933986,0.008346926,-0.008308402,-0.016449865,0.015152882,0.004170253,-0.017605593,0.027737478,0.014087044,-0.010870267,0.005425502,0.020957205,-0.027994307,0.013046888,-0.004873321,-0.044405647,0.00414778,-0.013496337,0.04242807,-0.02694131,-0.029766424,-0.0071398322,0.01540971,0.010163988,-0.0018122462,0.04830944,-0.03372158,0.009110991,-0.008969735,-0.005746538,-0.049721997,0.015075834,-0.017066253,0.0011966603,0.008462499,0.01793947,0.019210773,0.051750943,-0.046794154,0.007685593,0.0077498,0.008481761,-0.015705062,0.01793947,0.034646165,0.010459341,-0.034286603,0.0477701,-0.01936487,-0.0007407897,-0.04515045,0.0050916253,0.01728456,-0.02495089,-0.052752573,-0.040193662,0.020212403,-0.00963749,-0.007287509,-0.002261696,-0.054088082,0.08747579,0.0025666798,0.022369763,-0.03318224,0.008956894,-0.032540172,-0.013355082,-0.062357962,0.033464752,0.01496026,0.02784021,-0.048258077,-0.019994099,-0.030588275,-0.015550965,0.018504493,-0.005297088,0.014896053,-0.0012737089,-0.017053412,-0.016693853,-0.0030145245,-0.0060611526,-0.03559643,0.06163884,0.031204663,0.0063083502,0.019454759,0.0005718447,-0.040527537,0.03477458,-0.021124145,0.024668377,-0.015602332,0.04854059,0.017579911,0.008205671,0.064669415,0.0069151074,0.0013804532,-0.02153507,-0.0014960261,0.039346125,0.027532015,0.010651962,-0.0060772044,0.013599069,-0.014369555,-0.004738486,0.06271752,0.004228039,-0.001009657,-0.047872834,-0.0075122337,0.009271509,-0.0069985767,0.021483704,0.0028010358,4.6023466e-05,0.028533647,0.030870786,-0.014703432,0.0124818655,-0.0018941102,-0.03323361,-0.03875542,0.013085412,0.027814526,-0.03297678,0.01855586,-0.0008266668,0.01603894,0.0024543174,-0.0077626416,0.016347134,-0.021316765,0.0038363757,0.04029639,-0.024578488,0.017721167,0.026286397,0.002314667,0.002829929,0.018761322,0.005746538,0.02117551,0.0051686736,-0.01198105,0.041477803,0.044842258,-0.019313503,-0.04289036,0.0012391976,-0.015717905,-0.020854475,0.021560753,0.018709956,0.05794051,-0.008327664,0.025451705,-0.019724429,0.02098289,0.019801477,0.02809704,-0.032822683,0.047050983,0.03081942,0.0100484155,-0.01846597,0.020045465,0.03631555,-0.046023667,0.009618227,0.037830837,0.000761657,-0.0075443373,-0.007614965,0.005804324,0.028764792,-0.034748897,-0.017194668,0.023551174,-0.028122721,0.051596846,-0.039217714,0.05377989,0.02171485,0.029766424,0.017823897,0.010119043,-0.032668587,-0.0062666154,-0.011737063,0.01621872,-0.00028592235,0.020058306,-0.0029792106,-0.013920105,-0.0066261753,0.012006733,-0.011069308,-0.0016950681,-0.0190952,-0.015615173,0.023679588,0.010799639,0.051750943,0.0067353277,0.032797,-0.01765696,-0.02927845,-0.026376287,0.025772741,-0.0100355735,0.03559643,0.024013465,-0.008334085,-0.032771315,-0.060508795,-0.018915419,0.019069517,-0.0027095408,-0.009663172,0.034286603,-0.011056467,-0.037779473,-0.026324922,0.08182556,0.03271995,0.023987781,-0.031256028,0.0548072,-0.0065651787,0.015872002,0.0068958453,0.008597334,-0.010228195,0.014125568,0.01659112,0.03883247,0.04027071,-0.033207927,0.044893622,0.036238503,-0.011409606,0.00075322983,0.0013940972,0.04332697,-0.0035923887,-0.010125464,0.02441155,-0.012597438,0.061484743,-0.019994099,0.0034575537,0.004606861,0.0154996,-0.020199561,0.0066004926,0.0037368548,0.012192933,-0.030048935,0.027891576,-0.03955159,-0.0006970486,-0.019929891,-0.024539964,0.0022793529,-0.0058364277,-0.004834797,-0.020957205,0.037008986,0.02072606,0.006552337,0.045176134,0.016835108,0.0063500847,-0.024668377,-0.0074287644,-0.010806059,0.021740533,0.018042203,-0.038061984,-0.024206087,-0.010838163,0.029304132,-0.0008956894,-0.02297331,-0.03469753,-0.0063821883,0.0129955225,0.017695485,-0.029483913,-0.029509595,-0.021933153,-0.020970047,-0.005367716,-0.0077883243,0.019698747,-0.02730087,-0.051006142,-0.039346125,-0.026530385,0.014099885,-0.011499496,-0.018132092,-0.035262555,-0.018067885,0.020918682,0.00014255989,-0.008404713,-0.009740221,0.0054319226,0.0181963,-0.0020241297,-0.029894838,-0.039962515,0.029483913,0.009053205,-0.014677749,-0.0126038585,-0.042838994,0.027814526,-0.015807794,0.027737478,0.040681634,-0.012327768,-0.02884184,0.0041766735,0.020777427,0.0005285049,0.017271716,0.0488231,0.009078887,-9.355179e-05,-0.028302502,-0.011961788,-0.0022665116,-0.005290667,0.029304132,0.0059841042,-0.026209349,-0.04666574,-0.030434178,0.03739423,-0.018658591,0.0018989258,0.0054832883,0.014716273,0.002036971,-0.03456912,0.048514903,0.028225452,-0.02017388,-0.030536909,0.035750527,-7.263431e-05,0.026556067,-0.024360184,0.0015570228,-0.028687743,-0.01451081,0.0064303437,-0.020803109,-0.027506333,0.04245375,0.0003922654,0.0013764403,-0.028276818,-0.05568042,-0.036469646,-0.03169264,-0.053420328,-0.019942733,0.012809321,0.019197932,0.0030145245,0.009258668,0.020918682,0.005666279,-0.009432027,0.020494914,0.003521761,-0.005939159,0.026093775,0.0057240655,-0.003306667,0.003406188,0.0020706798,0.028328184,0.031564225,-0.028174087,-0.002423819,-0.0026983044,0.0016790164,0.011749904,0.017271716,-0.017952312,-0.0036501752,-0.026196508,-0.0028636379,0.027275188,-0.002008078,-0.0038395862,-0.037856523,0.007801166,-0.011364661,0.0398341,0.004388557,0.020584805,0.013046888,0.03197515,0.035493698,0.00078292564,0.065902196,-0.016347134,0.023730954,-0.016295768,0.0051140976,0.034081142,-0.032206293,-0.018273348,-0.0004010939,0.017631277,-0.06430986,-0.0013724273,-0.014343872,0.03397841,0.0132523505,0.010960156,-0.00028511978,-0.009220143,0.005020997,0.047616005,-0.03711172,-0.019030992,-0.00058267964,0.076894455,0.026992675,0.0345948,0.035930306,-0.0052681947,0.028764792,-0.0024543174,0.0726311,-0.0019181878,0.0055988613,-0.007903897,0.026838578,0.02784021,-0.00096471206,-0.02873911,0.0155766485,0.002261696,0.042556483,-0.033644535,-0.07211744,-0.014202616,0.042582165,0.00829556,-0.0185687,-0.0274036,-1.24589415e-05,0.013688959,-0.013027626,0.027583381,0.0047705895,-0.009239405,0.007595703,-0.010395134,0.03664943,-0.043224238,-0.021458022,-0.0035185504,-0.025297608,-0.005287457,-0.024090514,-0.015332662,0.0176698,0.00909815,0.002683858,0.03071669,-0.032591537,0.027429285,-0.031487174,0.02848228,0.031076249,-0.034158193,0.000689424,-0.016950682,-0.033567484,0.012192933,0.027788844,-0.0148061635,-0.011685696,0.009785166,0.004224829,0.0017191458,-0.0038684793,-0.0047513274,-0.008192829,0.009162357,0.019146565,-0.0009767509,0.00028030423,-0.011859057,-0.008976156,0.0031124405,0.0318981,0.00468712,0.004584389,0.034286603,-0.03587894,0.044097453,-0.0040450487,-0.0230632,0.017348764,-0.00012440131,0.00025161167,-0.02307604,0.011435289,0.0078075863,-0.0074030817,0.011390344,0.0008371004,0.0117242215,0.008282719,-0.021316765,-0.001451081,0.003370874,0.004568337,0.016257245,-0.0018299031,0.0060868356,-0.013804532,0.03372158,-0.05850553,0.04199146,-0.019621698,-0.03741991,0.015281296,-0.027326552,0.00783969,0.03372158,-0.016514072,0.0027175667,-0.0031926993,0.024539964,0.017412972,-0.009232985,-0.016912157,0.021458022,-0.005990525,0.005874952,0.019891368,-0.0009799612,-0.0006456829,0.0018828739,-0.004224829,0.0120902015,-0.01659112,-0.016629646,0.008571651,0.024976572,0.006741748,-0.004488078,-0.029869154,-0.031307396,-0.00077931397,0.024745427,-0.027275188,0.0023082462,0.01901815,0.034928676,-0.0032906153,0.010972998,0.00955402,-0.010786797,0.034158193,-0.018119251,0.010613438,-0.007101308,-0.0008009839,-0.023153089,-0.015435393,0.031769685,0.012025994,-0.0020064728,0.0043307706,-0.025978204,-0.029715057,-0.004491288,-0.0066903825,0.047102347,0.017823897,0.0015682591,-0.0023676378,0.045278866,-0.016616805,0.00082586415,0.002134887,0.0017977995,0.021779057,-0.016642487,0.026427653,0.005451185,-0.010677645,-0.0028058514,-0.028328184,-0.015075834,-0.057786413,-0.014215457,-0.012019574,-0.015730746,-0.005142991,-0.01279648,0.00648813,0.051776625,0.017785374,-0.039500225,0.015178565,0.027917258,0.021971678,-0.015204247,-0.0007046732,-0.023281503,0.013522021,0.022677956,0.018787006,-0.009412765,-0.01099868,-0.008269878,-0.00963749,0.037625376,-0.011294033,0.016783742,-0.02199736,0.016924998,-0.008706486,0.0009526732,0.02694131,0.018157775,0.022767847,0.017682642,-0.031256028,0.010324506,0.032822683,0.028790476,-0.0012367897,0.017862422,0.026607433,0.033618852,-0.016167354,0.00856523,-0.004908635,-0.00901468,-0.0021685956,-0.0007869386,-0.024604172,0.018119251,-0.0059712627,0.018388921,0.007614965,-0.017528545,-0.009425606,0.0050723627,-0.0132523505,0.041246656,0.016565438,0.02324298,0.01442092,-0.0029695795,-0.0042023566,-0.004892583,-0.013586228,0.011948946,-0.020238087,0.00039748225,0.033002462,-0.006831638,-0.01234703,0.0047513274,0.0020706798,-0.0032569065,0.060406063,0.043301284,0.004125308,-0.021072779,-0.01469059,-0.00024559227,0.013278034,-0.00090692565,-0.016000416,-0.007460868,0.032206293,0.016976364,-0.015538124,0.018350396,0.0008234564,0.017425815,-0.02351265,0.008879845,-0.01036303,-0.009708118,-0.03857564,0.008501023,0.012835004,0.02468122,-0.02226703,-0.0114545515,0.014099885,-0.034671847,0.011127095,0.000105540465,0.038061984,-0.0072040395,-0.019133724,0.036033038,-0.011191302,0.010677645,-0.0012086992,-0.028662061,0.011762746,0.024719743,0.0019872105,-0.008944052,-0.009875056,-0.037060354,0.011794849,0.01846597,-0.01702773,0.0008395082,0.03143581,-0.026209349,-0.03865269,0.01540971,0.015807794,-0.0012440131,-0.0106327,-0.0029968675,-0.012019574,0.0047095926,0.04001388,-0.05747822,-0.009207302,0.030511227,-0.011338978,0.010125464,0.04586957,0.03613577,-0.0025795214,0.021881789,0.0042023566,-0.032206293,-0.039063614,0.020482073,0.014896053,0.031384442,0.011172039,0.042556483,-0.0074737095,-0.049336754,-0.00792958,-0.030023253,-0.0010947315,0.0006605308,0.0027657219,0.016475549,0.00026866668,0.022639433,-0.0023564014,0.0042858254,0.01198105,-0.008757852,-0.001527327,-0.027044041,-0.013534863,0.026504701,0.0053484538,0.020250928,-0.0016501232,-0.025939679,0.011660014,-0.009618227,-0.010176829,-0.0016204274,0.01594905,-0.025336131,0.026915627,-0.012096623,-0.02180474,0.025336131,-0.0095347585,-0.007191198,-0.011377502,-0.015538124,0.016437024,0.012835004,-0.024026306,-0.0102924025,0.0071655153,-0.018055044,0.024347343,0.006298719,-0.0056020715,-0.011692118,-0.0007736959,-0.008346926,-0.0020931524,-0.0381904,-0.014151251,-0.019210773,-0.026735848,0.014485127,-0.014343872,0.03523687,-0.008147884,0.024527121,0.021689167,0.011037205,-0.0024382656,0.025798423,-0.025772741,0.0038331654,-7.639645e-05,-0.006388609,0.009412765,-0.013894422,-0.025978204,-0.029997569,0.016603963,0.015075834,-0.023371393,-0.023371393,0.0006561166,0.009631068,-0.050749313,-0.011428868,0.0133294,-0.0033548223,0.010639121,0.020764584,-0.027583381,-0.006019418,0.034081142,-0.01225714,0.037702423,-0.027377918,0.0010770746,-0.003846007,-0.015178565,0.0110628875,-0.01585916,0.02098289,0.04371221,-0.0035024986,0.013586228,-0.012289244,0.019608857,-0.005595651,-0.01963454,-0.0030418127,0.000630835,-0.036700793,0.011878318,-0.018260507,-0.008944052,0.019942733,-0.026324922,-0.0137660075,-0.016077464,0.03045986,-0.050415434,-0.025541594,0.010729011,0.009810849,0.012565334,0.021368131,-0.026350604,-0.0061927773,0.0060579423,-0.04063027,0.0012777218,0.013547704,0.009509075,-0.009688855,-0.02730087,0.0015802978,-0.0072618257,-0.0027737478,0.007987366,-0.013663276,0.0013090228,0.009881477,0.016026098,-0.0106840655,0.027044041,0.02748065,0.02514351,0.0037882205,0.0137018,-0.02090584,0.015371186,0.0051847254,-0.010234616,0.016000416,-0.022960467,0.013868739,0.026504701,-0.018697115,0.003958369,0.010972998,0.0082249325,0.043404017,-0.011281192,0.008809217,-0.02307604,-0.011961788,0.00065130106,-0.022742163,0.009310033,-0.008032312,-0.04345538,-0.023307187,-0.04332697,-0.009618227,-0.0137660075,0.030870786,2.4315941e-05,0.0051686736,-0.0067610103,-0.012308506,0.039500225,0.019750113,-0.002675832,0.000106744345,0.0020112882,-0.010228195,0.024796791,0.018607225,0.016501231,-0.001617217,-0.029509595,-0.009470551,0.0381904,-0.011460972,0.021650642,-0.016090306,-0.0016597542,0.00070186413,0.01584632,0.01740013,0.01198747,-0.011152778,0.021612119,0.027352236,0.0012865503,0.0024912364,-0.053831253,0.007614965,0.03271995,0.0024880262,0.032386076,-0.008597334,-0.026093775,-0.014151251,0.009213722,0.016706694,0.007351716,0.014985943,-0.008809217,0.029740741,-0.004199146,-0.03551938,-0.0027609065,-0.016000416,-0.01711762,-0.00648813,0.0025377867,0.005361295,0.008623017,0.009964946,0.0013186538,0.026055252,0.026735848,-0.0026966992,0.037342865,0.02423177,-0.019454759,-0.0090082595,0.00603547,0.0042023566,0.011313296,0.0006902266,0.0010521943,0.010863845,-0.03161559,0.019596014,0.018132092,-0.0100484155,-0.0025538385,0.033464752,0.0029326605,-0.019159406,0.002359612,-0.025464546,-0.008841321,0.011794849,0.008725748,-0.030613957,0.014228299,0.0023531911,0.0008443237,0.012661645,-0.025336131,-0.033130877,-0.0032296185,-0.029355498,-0.008674382,0.006741748,0.019788636,0.0069343694,-0.024938047,-0.008770693,-0.025978204,-0.015384028,-0.0033805051,0.014472286,-0.002333929,-0.012989102,-0.02730087,-0.009791587,0.009310033,-0.0051333597,-0.0031060197,0.026196508,0.0063115605,-0.01567938,0.019557491,-0.011178461,0.0049696313,-0.00027869907,-0.026966993,-0.0029856313,-0.0055988613,0.01793947,0.01225714,-0.019711588,-0.002667806,0.0031108353,-0.016603963,-0.012263561,0.01576927,0.0067610103,0.000837903,-0.007557179,-0.03071669,0.0036630165,-0.016835108,-0.00495358,-0.000105038846,0.037445597,-0.014176933,0.0024318448,-0.015152882,-0.0012913658,-0.0024575277,-0.016385658,0.03377295,-0.0132523505,-0.029150035,-0.0024703692,0.017515704,0.0023178773,-0.018119251,-0.023153089,0.04196578,-0.059686944,-0.012308506,0.0057208547,0.020122513,-0.010639121,-0.0068958453,-0.026376287,0.0024173984,0.0035153402,0.017361607,0.017772533,0.008186408,0.011634331,0.021162668,-0.01686079,0.0061028874,-0.019030992,0.0034286606,-0.012584597,0.025747057,-0.0032874048,-0.050980456,0.011287613,0.016629646,0.007968104,0.008000208,0.013432131,0.0047898516,-0.013406448,-0.01126835,0.021124145,-0.004459185,-0.0009310033,-0.009393503,-0.0145493345,0.012192933,-0.026812896,0.003685489,0.014870371,0.005939159,-0.037240133,-0.008777114,-0.0389352,-0.02837955,-0.012051677,0.015743587,-0.017708326,-0.013920105,-0.012578176,0.0065651787,0.008809217,0.0067160656,-0.0026886733,0.015974732,-0.034029778,0.0003298641,0.01632145,0.007037101,0.0039294763,0.01775969,-0.00059712626,-0.03225766,0.011448131,-0.0021364922,-0.031923782,0.003181463,0.014754797,-0.006054732,-0.025284765,-0.019762954,-0.02504078,0.003749696,-0.019891368,0.012186512,-0.0042408807,0.0020032623,-0.020199561,-0.013509179,0.006526654,-0.00086037547,0.0088349,0.03433797,0.0036630165,0.008077256,-0.0088734245,-0.0013900843,-0.0007046732,-0.024809634,0.00459402,0.0033805051,-0.012822163,-0.027326552,-0.03372158,0.020571964,0.031666953,-0.035493698,0.020533439,-0.00030839484,0.0137788495,0.00829556,-0.0072425636,-0.026684482,0.0044013984,-0.018902577,-0.021136986,-0.010517127,-0.023795161,0.00126167,0.02017388,-0.004857269,-0.006722486,-0.0110757295,-0.020135354,0.004224829,-0.014138409,-0.008777114,-0.012025994,0.031307396,-0.025284765,0.023024675,-0.022562385,0.015692221,0.0007122978,0.016180195,-0.004208777,-0.006972894,-0.0061382013,0.012565334,-0.022870578,0.013496337,0.042145558,0.0172974,-0.004305088,-0.015037308,-0.0153198205,0.013111095,0.0018347186,0.033387706,0.017207509,0.031410124,-0.011191302,-0.01567938,-0.010729011,0.0009494629,-0.006513813,-0.015730746,-0.019249296,0.01027314,0.012571755,0.04235102,-0.0014061361,-0.011570124,-0.0036694373,0.024206087,0.027352236,0.009990629,0.0063083502,-0.005191146,-0.006090046,-0.0022055148,0.022947626,0.0073196124,-0.0011316506,0.010883108,0.004838007,-0.0054030297,-0.012700169,0.06759726,0.016295768,-0.0037272237,-0.018632907,0.016629646,-0.026068093,0.009791587,-0.026556067,-0.017772533,-0.012289244,0.023987781,0.01424114,-0.012032416,0.030870786,-0.003396557,0.030228715,0.021188352,0.036187135,-0.012180092,0.013380765,-0.021612119,0.008218512,0.016924998,-0.029098669,0.006449606,0.00757002,0.010767535,0.016642487,0.012122305,-0.018979626,-0.009772325,-0.0012512364,0.00810936,-0.028867524,-0.0032745635,0.0111977225,0.014318189,0.010009891,-0.0063276123,0.04091278,0.018517336,0.012989102,0.0077883243,-0.015088675,0.00029475085,0.005297088,-0.0011460972,-0.006298719,0.018363237,0.0026517543,0.017913789,-0.007730538,0.005261774,-0.0014205826,-0.005810745,-0.0020594436,-0.024899524,-0.009053205,0.031281713,-0.0040964144,-0.0062569845,0.0027801686,0.016655328,0.031744003,0.0031910941,-0.012892791,-0.0015217089,-0.028790476,0.0097338,0.010523548,-0.022870578,-0.017104778,0.009066046,-0.0014093464,0.028071355,0.008847742,-0.006433554,0.00739024,-0.0001880065,-0.005236091,0.00023355342,0.0010337348,-0.025092145,-0.009939263,0.024989413,0.008789956,0.0037689584,-0.007711276,0.032334708,-0.0074351854,-0.008436817,-0.0027994306,-0.0022328028,0.0057336963,0.022896262,0.019493284,0.02730087,-0.013367924,-0.0005345243,-0.020892998,-0.01035661,-0.010099781,0.010382292,-0.009688855,0.0036180716,-0.004947159,-0.021329608,-0.029586643,-0.01659112,-0.004552285,-0.01225072,0.021971678,-0.0090082595,-0.022189982,0.01540971,-0.012199354,0.0038909519,-0.02081595,0.01243692,0.009027522,-0.024629854,0.0057786414,0.018363237,0.018992469,0.017464338,0.009425606,-0.006472078,-0.030331446,0.010131884,-0.0051108873,0.042042825,-0.01684795,0.00522646,0.030048935,0.0034543434,0.012231457,0.012186512,-0.0416319,0.008051573,0.005159043,-0.02938118,-0.013342241,-0.005964842,-0.0009815664,-0.016950682,-0.02324298,0.009489813,-0.005255353,0.007351716,0.0079809455,0.008468919,0.0029310554,-0.01126835,0.0044078194,-0.019429076,-0.00066374114,0.015191406,-0.023641063,0.02071322,0.012391975,-0.023769477,-0.01514004,0.020764584,-0.007852531,0.013444972,-0.014176933,0.01666817,0.00964391,0.006199198,-0.012552493,0.019326344,-0.0077819037,-0.025528753,0.01802936,-0.014382396,-0.030768055,0.0034832365,-0.03611009,-0.0056052823,-0.018016519,0.0084946025,0.0025618642,0.02307604,0.018311873,0.02487384,-0.012404817,0.016154513,0.049336754,0.018761322,-0.013663276,0.0055860197,-0.030793738,-0.0099007385,0.015422552,0.010433658,0.005839638,0.0053388225,0.0033805051,0.0225367,-0.020199561,-0.0026196507,0.006093256,-0.013200985,0.0031300974,-0.019608857,0.019159406,0.0405789,0.00015700649,0.02658175,0.01035661,-0.007916738,-0.018311873,-0.027686113,0.009791587,-0.010806059,-0.018003678,-0.005650227,0.010311664,0.028585013,-0.02198452,-0.01404852,-0.018979626,0.0016156118,0.0053580846,0.006510603,0.0007857347,0.0045041298,0.04037344,-0.023217296,0.024976572,0.009939263,-0.0017319872,0.029252766,0.024655536,-0.013624752,-0.0002526149,0.0018202721,-0.016000416,0.009412765,0.0057593794,-0.00016703884,-0.004606861,0.013509179,0.013881581,0.00069825246,-0.023795161,0.0067610103,0.024295976,0.011685696,0.008545969,0.004838007,0.005380557,-0.021560753,0.008950474,0.010536389,0.021933153,0.023576856,0.0017464338,-0.0055539166,0.0011444921,-0.014164092,0.0185687,-0.00432435,-0.016064623,-0.029252766,0.023217296,-0.0017191458,0.010112623,0.023024675,0.010472182,-0.017579911,0.0032777737,-0.003008104,0.0024928416,0.016539756,-0.014613542,0.0019165827,-0.003977631,0.0047738,-0.00047914567,0.0041670427,0.021958837,-0.01252681,-0.0154996,-0.008045153,0.012822163,-0.00783969,0.012398396,-0.0016180195,-0.024796791,-0.007422344,-0.0038235344,0.008057994,0.017913789,-0.017451497,0.006029049,0.011242668,-0.0051301494,-0.018132092,-0.0016244403,0.023011833,-0.01198105,0.033130877,0.016514072,-0.015961891,0.0026918838,0.009393503,0.0004847638,0.011660014,-0.0027175667,-0.0015746797,0.015332662,-0.020507757,0.032052197,0.017849581,0.009155937,-0.0018299031,0.008911949,0.014395238,0.018363237,0.009541179,0.011146357,0.0047898516,0.015615173,0.017592752,0.0041220975,-0.004748117,-0.016835108,0.0018523756,0.025515912,-0.024976572,0.01008694,0.021368131,0.011338978,-0.005595651,0.005062732,0.011204143,0.007666331,0.021830423,0.014754797,0.011961788,-0.013804532,-0.018003678,0.0058621108,0.009720959,-0.0045651267,-0.00955402,1.1023059e-05,0.008077256,0.01576927,0.0013001943,0.0030658902,0.0046710684,0.01711762,0.0065715993,-0.011204143,0.011730642,-0.020533439,-0.009663172,0.0017994047,0.010350188,-0.02388505,0.00015459872,0.0110757295,-0.010157567,-0.0011316506,0.00072794827,0.026607433,0.010517127,0.03315656,-0.010074098,0.014343872,0.010754693,-0.007415923,0.016706694,-0.015422552,0.0079809455,0.013483496,0.025824105,-0.005216829,-0.009175198,-0.0055699684,-0.001036945,0.010099781,-0.008045153,-0.008154305,0.008436817,-0.0037978515,0.0024880262,-0.009663172,-0.0038139033,0.025528753,0.018979626,0.0058781626,-0.004016156,0.003550654,0.01054281,0.0020931524,0.018902577,0.010099781,-0.010324506,-0.01775969,0.0026694112,0.0026405181,-0.005441554,-0.013316558,0.014485127,-0.006070784,-0.022896262,-0.002359612,0.027095407,0.013046888,0.028790476,0.012854267,-0.015538124,-0.014253982,-0.012591017,0.033028144,0.0008563625,0.007640648,0.0073196124,0.0079937875,0.023628222,0.0031830682,0.025361815,0.018042203,-0.0060964664,-0.006459237,-0.008391871,-0.025978204,-0.0038363757,-0.0114417095,-0.018607225,-0.006279457,-0.016706694,-0.0028186927,-0.0132651925,-0.005290667,0.0015778901,-0.004552285,-0.008404713,-0.012025994,0.0021043885,-0.0059680524,0.018260507,-0.011043626,0.01198747,-0.00019252105,0.0035024986,-0.017528545,0.003035392,-0.0038620585,0.0126167005,-0.0054351334,-0.011332558,-0.0017416183,-0.0007452039,0.000520479,-0.010690486,0.027146773,-0.023486966,-0.0037464858,-0.017246034,-0.0056983824,-0.009175198,0.019775795,-0.017091937,0.0013619936,-0.0037817997,0.018132092,-0.00019803885,-0.0034126088,0.0016083885,-0.0018331135,-0.0014045308,0.025913997,-0.010703328,0.012571755,0.017515704,-0.012051677,0.016051782,0.0057786414,0.0049696313,0.012719432,0.0064817094,0.024347343,0.01198747,0.031872418,0.011788428,0.044174504,-0.0115893865,-0.00837903,0.011891159,-0.014613542,-0.008988998,-0.0005730486,0.0118462145,0.022292715,-0.011255509,0.0039519486,-0.0062409327,0.014729114,0.020045465,0.0065812306,-0.023204455,0.008070836,-0.009053205,0.00026044017,0.007332454,0.01585916,-0.00119345,-0.0011011522,0.0046903305,-0.006199198,-0.018144934,0.011435289,0.008218512,0.006613334,-0.012578176,0.019852843,-0.018170618,-0.018928261,0.0019294241,-0.005386978,0.0038106928,-0.005329191,-0.0029631588,0.01576927,0.021380972,0.003361243,-0.011493076,-0.0127515355,0.007891056,-0.031795368,0.012912053,-0.03793357,-0.005935949,0.027865892,0.0033676638,-0.022356922,-0.015037308,0.008436817,-0.0010112622,-0.0017400131,-0.00030157284,-0.0024366605,-0.00053091266,-0.0072425636,-0.013303717,-0.01099226,-0.00040550812,-0.025426023,0.023474125,-0.011306874,-0.0127515355,-0.002587547,-0.0008330875,0.0052489326,0.017862422,0.02189463,-0.00010047412,0.027454967,-0.014022836,-0.008064415,0.016693853,0.012501127,-0.013509179,-2.2485034e-05,0.0047095926,-0.0022793529,-0.006144622,-0.0011155988,0.008411134,0.010889528,0.009592544,-0.00053131394,0.019673062,-0.0117178,0.013098254,0.004337191,-0.016051782,-0.011518759,-0.013881581,-0.0147933215,0.0058685313,0.005325981,-0.006298719,0.010305244,0.02658175,0.017554227,0.01936487,0.021612119,-0.0021734112,-0.011236247,0.010773956,-0.018414604,0.026864262,0.010221775,0.010478603,-0.0067353277,-0.011255509,-0.018286189,0.0058974246,0.0045651267,0.015165723,-0.008173567,-0.022549542,-0.0026244663,-0.0062473533,0.011602228,-0.00045587058,0.022087252,0.0011452946,-0.023987781,0.0032376442,0.0017608805,0.012308506,0.009181619,-0.009155937,-0.006696803,0.007948842,-0.014189775,0.03649533,-0.013008364,0.0062377225,-0.0014615147,0.005178305,0.0102924025,0.025734216,-0.015615173,0.019788636,0.002921424,0.00056903565,0.0008266668,0.023409918,-0.0037143822,-0.004093204,-0.013149619,-0.017695485,-0.008911949,-0.022408286,0.012276403,-0.0030787317,-0.017746849,0.0049022143,-0.015512441,0.0018908998,0.015628014,0.006359716,0.00077570236,-0.016270086,-0.011011522,0.013014784,-0.011769166,-0.032103565,-0.016449865,-0.0018523756,0.013830215,0.006683962,0.0060611526,0.0027881945,0.0061125183,0.012892791,0.0023756637,0.0035153402,-0.014061361,-0.007236143,0.01469059,-0.0048861625,0.01594905,0.018144934,0.029201401,0.009842953,-0.03929476,0.007897477,0.015332662,-0.038781103,0.009541179,0.02902162,-0.011319716,-0.000761657,0.009181619,-0.03182105,-0.008308402,-0.00012500325,0.012867108,0.019416235,-0.010671224,0.011281192,0.005640596,0.018388921,0.019852843,-0.0014358319,-0.00333235,0.014112726,0.005894214,0.010825321,-0.018709956,0.017220352,-0.002062654,0.013496337,0.0021268611,0.001265683,-0.0064303437,-0.0033387705,-0.009425606,-0.026376287,-0.0077498,-0.024539964,0.011114254,0.013393606,0.01675806,-0.004712803,0.005653437,0.011364661,0.01657828,0.0006388609,0.005126939,0.023499807,0.010491445,-0.019673062,-0.009027522,-0.0031461492,-0.0010265114,0.02072606,0.0030145245,-0.010478603,-0.016372817,0.0058364277,-0.02000694,-0.012475445,-0.0037817997,0.017323082,0.030768055,0.019891368,-0.0056181233,-0.0057818517,0.020045465,0.0061414116,-0.0057914825,-0.008205671,0.00513978,-0.0038684793,0.008944052,0.023307187,-0.0021332817,-0.016295768,-0.04116961,0.015217089,-0.002341955,-0.0040867836,0.0079809455,-0.0036726475,-0.01810641,-0.0008740195,-0.043121506,-0.007550758,-0.018401762,-0.038344495,0.014908895,-0.005810745,0.018388921,-0.0087514315,-0.0065940716,0.011993891,0.00061879616,-0.007634227,-0.02505362,0.026183667,-0.016526913,0.025541594,-0.024899524,0.004584389,-0.010208933,0.017053412,0.013162461,0.0062345117,0.010748273,0.035185505,-0.00064688677,0.005252143,-0.005081994,0.0070692045,0.0070499424,-0.026209349,0.010337347,0.0024430812,-0.0057722204,0.011769166,0.012385555,0.008321243,0.011178461,-0.0071398322,0.015794953,-0.0025474178,0.018774163,0.0016774111,0.00033327512,-0.017618435,-0.004028997,-0.00089889974,-0.0004117282,-0.011839794,-0.011923263,0.0027464598,-0.0045458646,-0.010163988,0.011165619,0.02226703,-0.005476868,-0.005614913,0.005964842,-0.017900947,0.021124145,0.0109280525,-0.008931211,0.0010546021,-0.013316558,-0.019390551,0.0035346022,0.0034382916,0.022035886,0.0084946025,0.0027657219,-0.0027320131,-0.006019418,-0.008944052,-0.02992052,0.036777843,-0.0017994047,0.0022937995,-0.028302502,-0.012732273,0.012192933,0.017952312,0.00059190945,0.020058306,0.0036822786,0.014831846,0.009380661,-0.0010200907,-0.007634227,-0.009515496,-0.00091334636,0.0040129456,0.013843057,-0.0066325963,0.012135147,0.0038749,-0.021599278,-0.0060868356,-0.014446603,0.0039070034,0.00044583823,-0.004362874,0.011627911,0.007082046,-0.02902162,-0.0067481687,-0.010972998,-0.0014671328,-0.00045506802,-0.008924791,-0.0060451007,0.012147988,0.0037143822,-0.0147933215,-0.011685696,-0.008513865,0.0029743952,0.004134939,-0.0001647314,0.005964842,-0.001613204,0.0064046606,0.0058524795,-0.02144518,0.015384028,0.024398709,-0.013740325,-0.016141672,-0.012847845,-0.006639017,0.01657828,0.03539097,-0.0021926733,0.012180092,-0.0225367,-0.009830111,0.01404852,-0.0045201816,0.003000078,-0.014074202,0.010401554,-0.014331031,0.03757401,-0.014382396,-0.006683962,0.010446499,0.00414778,-0.020302294,0.002720777,0.017746849,-0.0008667962,-0.005557127,-0.009432027,0.024706902,-0.0148061635,-0.013104674,0.007345295,0.021817582,0.006947211,-0.00058709393,-0.001017683,-0.005666279,0.009361399,-0.0069407905,-0.009489813,-0.019416235,0.0024462915,-0.0036180716,-0.008629438,-0.010009891,0.023230137,0.012905632,0.016501231,0.0029920521,-0.020482073,-0.027172456,-0.0024896313,-0.0064239227,0.013534863,-0.0074095023,0.018311873,0.0006737735,0.01829903,-0.008301982,-0.005525023,-0.029483913,-0.020212403,-0.007191198,0.00025883497,-0.02207441,-0.0133294,0.006019418,0.004154201,-0.0026228612,-0.007062784,-0.0016725956,0.0022392236,-0.0051494115,-0.0015554177,0.009708118,0.015987575,-0.006812376,-0.0142796645,-0.0034768158,0.0007732946,-0.02487384,0.011191302,-0.008025891,-0.022241348,-0.015512441,0.0072810883,0.0057336963,-0.01910804,0.006134991,-0.014164092,0.0045201816,0.008160725,-0.004712803,0.013586228,-0.0049214764,-0.008160725,0.011929684,0.00058508746,0.01000347,0.012411238,0.010202512,-0.006741748,-0.006224881,-0.02071322,-0.0020032623,-0.0066004926,0.024899524,-0.007595703,0.010786797,-0.021316765,0.004992104,0.007826849,0.004019366,-0.015075834,0.0176698,-0.005261774,0.0029663693,-0.0045651267,0.009753062,-0.0075828615,0.024167562,0.0012496312,0.004992104,0.003910214,-3.9126217e-06,0.008423975,-0.008481761,-0.017965153,0.029946204,0.00621846,-0.012732273,0.017695485,0.01108215,0.025066461,-0.0064752884,-0.0047095926,0.0029888416,0.00055418775,0.012693749,-0.00030578644,-0.00639503,-0.01505015,0.020379342,-0.011050046,-0.0126038585,-0.0014727509,-0.0017175407,0.0077754827,0.0004091198,0.013753166,-0.003415819,0.023769477,0.004549075,0.012905632,0.022511018,0.0023852948,0.0023291134,0.0012969839,0.001288958,0.0051237284,-0.009881477,0.0036469647,0.035545066,0.003072311,-0.017695485,0.018530177,0.013278034,0.008013049,0.006186357,0.0028796897,-0.007692014,0.0060065766,-0.020032624,-0.02297331,0.004622913,0.0021942784,0.015743587,-0.008526706,0.0004329968,0.015692221,-0.0067289067,-0.011371082,0.029175717,0.029304132,0.01594905,-0.002845981,0.013367924,-0.008391871,-0.0014173723,-0.014189775,-0.009220143,-0.02387221,0.0011364662,-0.0008314823,0.0043307706,-0.0038684793,0.018620066,0.017079096,0.0005561942,0.00829556,0.011428868,0.0077176965,0.02559296,0.0067995344,-0.0051108873,-0.016642487,0.019056674,-0.0058621108,-0.0029647641,-0.01711762,-0.012449762,0.009239405,-0.002550628,-0.003009709,-0.013432131,0.01901815,0.0010778771,0.0061574634,-0.03426092,0.020058306,0.008070836,-0.017079096,0.002008078,-0.013046888,-0.009117411,-0.010054836,-0.0181963,-0.020571964,0.026684482,0.0077562206,-0.0058171656,0.004911845,-0.014099885,0.0037336443,0.026029568,0.0022633013,-0.00901468,-0.0019775794,-0.011916842,0.0110628875,0.003749696,-0.030048935,-0.009130253,-0.018620066,-0.007871794,-0.008179988,0.008250616,0.014446603,-0.009451289,0.010600597,0.02388505,-0.012501127,0.013907263,0.003759327,0.016976364,0.0069600525,-0.014716273,0.015730746,0.0009911975,0.010401554,-0.0013435341,0.0015417736,-0.019300662,-0.0062409327,0.019146565,-0.009059626,-0.008513865,-0.007724117,-0.020507757,0.0010602202,0.006908687,0.015910525,-0.008334085,-0.01198747,0.002144518,0.007936001,0.018620066,-0.008700065,0.01954465,0.019878525,-0.0017865633,-0.007056363,-0.00033849195,0.021881789,-0.00083549524,0.0061382013,0.011460972,0.00078934635,0.0050916253,0.0020851265,0.004931107,0.029227084,-0.004289036,-0.0045266026,-0.008449658,-0.005801114,-0.0043853465,0.0011444921,0.014639225,-0.0053388225,-0.025207717,-0.0069215284,0.015088675,0.024103355,0.005576389,0.009573283,-0.010485023,0.007518654,-0.02658175,0.013483496,-0.009964946,-0.00067578,0.00621846,0.022279873,-0.015884843,-0.007852531,-0.007351716,0.00029214242,-0.0033451912,-0.010581334,-0.02505362,0.022061568,-0.01207094,-0.013997153,0.019711588,0.006838059,-0.02270364,-0.012693749,-0.0019021361,-0.01713046,0.004712803,0.006513813,0.00075242727,-0.008995418,-0.016745219,0.01207094,-0.016809426,0.0027528806,0.007537917,0.00073838193,0.011364661,-0.013958629,0.01243692,0.0070692045,0.005367716,-0.0027159613,-0.045741156,-0.013984312,0.00049118453,0.0011220195,0.015872002,-0.005630965,0.0020112882,0.005521813,0.0020401813,0.010703328,-0.008032312,-0.0016180195,0.0118462145,-0.009676014,0.009810849,-0.013920105,-0.005669489,0.002236013,-0.006029049,0.024077673,0.008879845,0.012822163,-0.008462499,-0.00021930746,-0.012924895,-0.00079416187,0.008822059,0.01793947,-0.01478048,0.027326552,-0.0070884665,-0.0025169193,0.008847742,-0.0067610103,0.0060226284,-0.016334293,0.03559643,0.015101516,-0.0033837156,-0.011685696,0.0041317283,-0.00045506802,0.008584493,-0.013444972,0.0021011783,0.006173515,0.0004767379,0.015396869,-0.0014294111,0.024925206,0.022716481,-0.0031926993,0.0060675736,-0.008436817,0.019711588,-0.013637594,-0.0019085568,-0.0014735535,0.0027609065,0.015345503,-0.011204143,-0.031307396,-0.0110757295,0.0014245956,-0.024283135,0.026003886,0.023910733,0.01585916,-0.005839638,0.00044182528,-0.012969839,0.019030992,-0.0017335924,0.0033259292,-0.006793114,0.0079937875,-0.013920105,-0.004533023,0.012122305,-0.026864262,0.0027593013,-0.00964391,-0.009964946,0.0029888416,0.015756428,-0.009772325,-0.024180403,0.009226564,0.0006970486,0.012597438,-0.008276299,-0.018645748,-0.003370874,-0.0071398322,-0.018183459,-0.019493284,-0.03919203,-0.005846059,0.0024302397,0.010459341,-0.027377918,0.0073131914,-0.01882553,0.0029743952,0.0073838197,0.021599278,-0.0018716378,0.0067481687,-0.02559296,-0.008436817,0.024732584,0.015384028,-0.005200777,-0.0014438578,0.010735432,0.015371186,0.0009462525,-0.012879949,0.0062858774,0.00612536,0.0067481687,0.02423177,0.014652066,0.0022119356,-0.005422292,0.0022231718,-0.011242668,0.008449658,-0.009579703,-0.009476972,0.021483704,-0.005823586,-0.0016645697,0.020019783,-0.01225714,-0.018607225,0.0057593794,-0.009708118,-0.0032312237,0.011377502,-0.009541179,-0.004279405,0.010202512,0.018337555,-0.0052938773,0.008115781,0.009714538,-0.01765696,0.0013138383,0.0025121039,-0.014022836,-0.008552389,0.0014783691,-0.0061028874,0.0016180195,0.011570124,0.023653906,-0.024745427,0.0028170876,-0.015255613,0.0043917676,0.00216057,0.0054832883,-0.03664943,-0.028636377,0.002648544,-0.011172039,-4.4317967e-05,-0.011961788,0.004799483,0.0027994306,-0.0002237217,0.0053002983,0.0036180716,0.00014546927,0.012314927,0.030074617,-0.0028170876,-0.006947211,0.0068252175,-0.014022836,0.007833269,-0.001536958,-0.0029438967,0.014343872,-0.01584632,0.0034832365,-0.0044302917,-0.016475549,0.018388921,-0.013509179,-0.02297331,0.01451081,0.023525491,-0.0005417476,0.0018138513,0.0032970358,-0.007178357,0.001748039,-0.016385658,0.013432131,0.009624648,-0.0026533594,-0.0114417095,-0.002730408,0.009438448,0.01576927,0.0030562591,-0.014369555,-0.0036244923,0.01954465,0.027275188,0.0028957413,-0.006414292,-0.009438448,0.007518654,-0.012025994,0.0072297226,0.0049567902,0.0027849842,0.0036919098,-0.00042818126,0.0026742269,0.016385658,-0.015101516,0.016115988,-0.0027865893,-0.0007267444,-0.013316558,0.0030305763,0.005444764,0.004972842,0.013714642,-0.008513865,0.0131303575,0.015037308,0.0050145765,0.0115316,0.028713427,0.0051333597,0.017066253,0.0024816054,-0.007505813,-0.008423975,0.0057625896,0.013355082,0.0037432755,-0.012269982,0.0067096446,-0.019762954,0.003144544,-0.012430499,-0.031410124,0.019531807,-0.0068894248,0.0027239872,0.010131884,0.0017239613,-0.00075804535,-0.016411342,-0.012565334,0.0036405441,-0.015987575,-0.0016485179,0.029483913,0.009123833,0.0007500195,0.01108215,0.02414188,-0.00909815,0.012565334,-0.01675806,-0.007062784,-0.0013595859,-0.028970255,-0.004308298,-0.004645386,-0.010799639,-0.017143302,-0.009181619,-0.0045169713,-0.008976156,-0.023448443,0.002322693,-0.0044013984,0.012783639,-0.011043626,-0.0031108353,-0.015730746,0.0124818655,-0.001666175,0.004099625,0.0005132557,0.01765696,0.012231457,0.023525491,-0.014176933,0.013008364,-0.0049985247,0.014176933,0.016732376,0.0007054758,-0.003000078,-0.016424183,-0.022035886,-0.019454759,0.0035538643,0.003820324,0.01632145,0.011127095,0.012507549,0.005685541,0.021547912,-0.011191302,0.0016284533,-0.00468712,-0.010337347,-0.007255405,0.012944156,-0.00097193534,-0.025978204,0.0129955225,-0.003361243,-0.012462603,0.00193745,-0.0019583174,0.00076807773,-0.0038010618,-0.010041994,0.0033580328,0.008250616,-0.020250928,-0.02071322,-0.01062628,-0.018016519,-0.011871898,0.0023082462,-0.011294033,-0.021149827,-0.007037101,0.007948842,0.007152674,-0.008931211,0.0073773987,0.01738729,-0.024629854,0.0030691007,-0.008128623,0.0014815794,-0.001072259,-0.006542706,0.015884843,-0.011775587,-0.01225714,-0.0060772044,0.0016533335,0.0077176965,-0.01657828,-0.008777114,-0.00027027188,0.00028873142,0.0028989518,0.0020787057,-0.016090306,-0.0015016441,0.011743483,0.01442092,-0.024090514,0.012424079,-9.545794e-05,-0.0030658902,0.021098461,-0.019788636,-0.008796376,-0.008218512,-0.0034350813,-0.027634747,-0.0071334117,0.013522021,0.0026068094,0.029124353,0.0039070034,0.00079777354,0.0025634696,0.02361538,-0.012135147,0.015473917,0.015692221,-0.012417658,0.024257451,-0.031923782,-0.0019615276,0.0015971522,-0.021753374,-0.011467393,0.003939107,0.015910525,0.00094304216,-0.012835004,-0.003046628,-0.0128735285,-0.019955575,-0.010298823,-0.007730538,-0.004549075,-0.008501023,-0.028970255,-0.007518654,-0.003271353,0.08578072,0.0077562206,-0.009528337,-0.01584632,0.0106327,0.0026244663,-0.016835108,-0.018183459,0.0036694373,-0.016257245,0.013496337,-0.021586435,0.008045153,-0.0019775794,0.03315656,-0.01234703,-0.006504182,0.005297088,-0.004016156,0.009354978,0.006173515,0.012867108,-0.021316765,0.01451081,0.0008547574,0.014973102,0.024565646,-0.0074480264,-0.020225246,0.0038267446,-0.01973727,0.026170824,-0.017823897,0.002550628,-0.0019631328,-0.0054543954,0.009759483,0.0058685313,0.021072779,-0.009451289,-0.011223406,-0.022767847,0.0018363238,0.017323082,-0.0001396505,0.010568493,-0.034389336,0.0006328415,0.0019984469,0.01072259,-0.028045673,0.015127199,0.0137660075,0.0025570488,-0.0090082595,0.00025582526,0.028328184,-0.008167147,-0.0014165697,0.002396531,-0.0027849842,0.010440079,0.0035281815,0.015486759,-0.010067677,-0.0056373854,0.02837955,-0.03947454,0.022151459,0.0019454759,-0.009040363,0.004821955,-0.014215457,0.002036971,-0.0012472235,0.0076085445,-0.016295768,-0.009541179,-0.013342241,0.00748013,-0.006314771,0.0035249712,0.0054576057,0.01657828,0.013522021,0.0002742848,-0.012905632,0.032129247,0.008796376,0.010960156,-0.022177141,-0.0041574114,0.015268454,0.020584805,-0.013599069,0.022215666,0.019043833,0.01496026,0.007197619,-0.0007171133,-0.0067289067,-0.0047866413,0.006070784,0.0019149776,-0.012757956,-0.006199198,-0.009714538,-0.0010080519,-0.0033805051,-0.003560285,-0.013053308,-0.0104272375,-0.08598618,0.014369555,0.015615173,-0.008770693,0.008905528,0.013496337,-0.03423524,-0.0003348803,0.01738729,-0.021496546,0.015345503,0.0028251135,-0.0036501752,-0.011152778,0.018543018,0.0020947575,-0.00014908092,-0.0052200393,-0.008944052,-0.015217089,-0.002900557,-0.005955211,-0.00026164405,-0.013932946,-0.0040835734,-0.009194461,-0.016193038,0.019981258,-0.0044656056,-0.0221643,0.029072987,0.01686079,-0.0012576571,0.0057561686,-0.01675806,0.00052730105,-0.019454759,0.0008940842,0.009810849,0.00080539816,-0.005830007,-0.02198452,-0.022960467,0.03741991,-0.008122201,0.013753166,-0.0020867316,-0.0029262397,-0.0030787317,0.0055186027,-0.013830215,0.0043468224,0.014331031,-0.0003386926,0.0017271717,-0.002398136,-0.0027914047,0.0034190295,0.03153854,-0.012809321,-0.013046888,0.0008627832,-0.013014784
gemini,-0.043400872,-0.006336196,-0.024652056,0.010624329,-0.014660219,0.009577708,-0.0038514133,-0.01315429,-0.0063286666,-0.0074468185,0.018733757,0.056863878,0.0149388155,-0.022061858,-0.019802965,-0.03117273,-0.035088144,0.00058684166,0.018492807,-0.025600793,-0.020058973,0.0022645406,-0.0040848325,-0.021022769,0.011738716,-0.007936246,0.023868974,0.024862887,-0.009720772,0.015202353,0.026097748,0.018176563,0.02754344,-0.007717886,-0.02670012,0.002669259,-0.0035690516,0.038039766,-0.047527116,-0.005014743,-0.0058731227,0.0080943685,0.0075559984,0.008162135,0.0153002385,0.01862834,0.018056087,0.011045989,0.012438973,-0.044665854,-0.07692285,-0.013869606,0.03602182,-0.009562649,0.03300996,0.0035972877,0.01760431,-0.077344514,0.02097759,0.060749173,0.007145633,0.013922313,-0.030193875,0.001185919,0.01778502,0.00667503,0.015977906,0.034274943,0.008824743,-0.020857116,0.0020612401,0.019441543,-0.010240316,-0.0011143874,0.0165351,0.017830199,0.0009769714,0.047195815,0.0069611566,-0.019592136,0.03352198,-0.011136345,0.008162135,0.0039116503,0.0026843185,-0.0044236663,-0.038491543,-0.061321426,0.0001427103,0.050508857,0.004796384,-0.062285222,-0.0056246445,-0.052225616,0.05213526,-0.022724468,0.011761305,0.028943954,-0.022739528,-0.006946097,0.06336949,0.011851661,0.002627846,-0.06210451,-0.012484151,-0.005364872,-0.007311285,0.010737274,0.04153352,-0.04285874,0.01908012,-0.016610397,0.042075656,0.0030118579,-0.015797194,0.007966364,0.019652372,-0.010586681,-0.015767077,0.021971503,-0.0019087649,-0.0029384438,0.039786644,0.0051389826,0.020781819,0.009186166,0.008839803,0.009276522,0.028446998,0.017739844,-0.011151404,0.019998737,0.0012028607,0.028853599,0.047225934,-0.014050317,0.011091167,-0.011173992,0.008290139,0.005888182,-0.012401325,-0.035118263,-0.011633301,-0.0143364435,-0.0027859686,-0.018522926,-0.012378736,-0.009140989,0.02310095,0.030841425,-0.0025807857,-0.006125366,0.031112492,0.007503291,0.030630594,-0.05749637,0.056291625,-0.006479259,-0.018251859,-0.015435772,-0.011061048,0.0046307314,-0.018778933,-0.022107037,0.041714232,0.021113124,-0.00730752,-0.014306325,-0.011686008,0.047225934,-0.022076918,0.0078835385,-0.01526259,-0.012529328,-0.011264348,0.0077103563,0.026579646,0.018116325,-0.008139546,-0.014321384,-0.017905496,0.011045989,0.029922808,-0.029742097,-0.022799764,0.032799132,0.034003876,-0.007631295,0.008011542,-0.0046156724,0.039937235,0.006799269,-0.04472609,0.011354704,-0.007815771,0.00039201212,0.017227827,0.013831957,0.038852967,-0.023552729,-0.0080642495,0.0165351,-0.04599107,0.046262138,-0.010074665,0.027422966,0.01652004,0.01441927,0.010473736,-0.013372649,-0.0007200223,0.005993597,0.014140673,-0.00047577944,-0.0036085823,0.005809121,-0.011618242,0.004788854,-0.0039455337,-0.010037016,0.015157175,0.00825249,0.029742097,0.0009581473,0.036714546,0.022107037,-0.010127372,0.04686451,0.00063625496,-0.022152215,-0.002925267,-0.008448262,0.06168285,-0.004596848,-0.021083005,0.0143966805,0.010119842,-0.0053309887,-0.018824112,-0.028281346,0.030208934,-0.038009647,-0.011701068,0.030058341,0.023658143,-0.02584174,-0.0296668,0.032136522,0.0081546055,0.024817709,0.010330672,0.019953558,0.044756208,-9.882659e-05,0.0041902475,0.0040810676,-0.005342283,0.026353756,0.01802597,0.04219613,0.052436445,-0.0069799805,-0.015812254,0.026926009,0.02185103,-0.022076918,0.019336129,0.051442534,-0.020284863,-0.004329546,0.022739528,-0.015947787,0.033552095,-0.008199783,-0.050358266,0.02670012,0.029034311,0.0032321,-0.018161504,-0.044214074,-0.026127867,-0.008741917,0.058430042,-0.03243771,-0.04032878,-0.026398934,0.0069235084,-0.02478759,-0.021369131,-0.025269488,-0.01250674,-0.023778617,-0.011241759,-0.004751206,0.038461424,0.0008640267,-0.02267929,0.027633796,-0.05093052,-0.009863835,-0.00055107585,0.0031793925,-0.021745615,0.020525811,-0.012559447,0.025299607,0.03216664,-0.009886423,-0.041623875,-0.0037685873,-0.015172234,-0.0024734882,-0.030901661,-0.02096253,0.023146128,-0.0022024212,-0.015352946,0.0053535774,0.003062683,-0.010601739,-0.026564587,-0.021188421,0.03557004,-0.0182368,-0.013741601,0.019577077,-0.0059823026,-0.034425534,0.01377925,0.011226701,-0.03288949,0.02307083,-0.0062194867,0.021881148,0.012182965,-0.026413994,-0.012205554,0.00911087,0.00953253,-0.05665305,0.0023906622,0.004498963,0.016640514,-0.026218222,0.009916542,0.0063926685,0.011369764,0.010059605,-0.010390909,0.010089724,0.0008748506,0.0027577323,-0.006294783,-0.009653005,0.021670317,-0.012551918,0.010488795,-0.029079488,0.01230344,0.016128499,-0.0033299853,-0.04785842,-0.043581583,0.023688262,0.014163262,-0.033973757,0.0048001483,-0.030419765,0.036985613,-0.016776048,-0.025615852,0.009253933,0.010037016,-0.027227195,-0.031232966,0.00034001053,0.009344289,-0.0053949906,-0.0047323816,0.03457613,-0.087163165,-0.047316287,0.0042730733,-0.015435772,0.009562649,0.009095811,-0.025962215,0.009065692,-0.017062174,-0.00783836,-0.031775102,0.0012988637,-0.015179764,0.029757155,0.006505613,0.015066819,0.049514946,0.014961404,0.013485594,-0.00487168,-0.010556562,0.011768835,-0.0015332239,0.0059258305,0.036774784,-0.015390594,0.015601424,-0.008817214,-0.0027200843,0.038340952,0.0056547634,-0.04346111,0.01632427,-0.04641273,-0.0033996345,0.0385819,0.028160872,0.009171107,0.004977095,-0.012536858,-0.022558816,0.027678974,0.008621443,-0.01780008,-0.01865846,0.0018871172,0.024215337,0.032738894,-8.47085e-05,-0.026609765,0.011158934,-0.0005543701,0.06336949,0.019531898,0.01377172,-0.016610397,-0.004849091,0.04918364,-0.004977095,0.00827508,-0.057918027,0.029621622,-0.034907434,0.0030382117,-0.0072397534,0.034305062,-0.02013427,0.005534289,-0.0146978665,0.01187425,-0.013847017,0.0127401585,-0.03008846,0.02587186,-0.017453717,-0.01739348,0.020510752,0.008749447,-0.02924514,0.03222688,0.029471029,0.005586996,0.021459488,-0.025389962,0.02605257,-0.0016226384,-0.0033130436,0.021564903,0.016399566,0.019562017,-0.008598854,-0.037377156,-0.04809937,0.03535921,0.030254113,-0.01781514,-0.038100004,0.026097748,-0.00249043,-0.025736326,0.035690516,0.029290318,0.010006898,0.015541187,0.009374408,-0.036594074,-0.012280851,0.006102777,-0.0149086965,-0.013741601,-0.002925267,-0.03608206,-0.0026504348,-0.006569615,-0.033461742,-0.0173483,-0.017634427,-0.0131317,0.028160872,0.018553045,0.023823796,-0.004322016,0.022573875,0.025284547,-0.085476525,0.059423957,0.029290318,-0.01271757,-0.011143874,-0.04297921,0.011686008,0.023853915,0.028251227,0.005553113,0.01781514,0.027377788,0.043792415,-0.0076049413,-0.012905811,-0.022438342,-0.010119842,-0.0069235084,0.024079803,-0.0021327718,-0.026353756,-0.009419586,-0.028552413,0.015413183,-0.021278776,0.0043333108,0.013741601,-0.015202353,0.004073538,0.025329726,-0.01652004,0.012822985,0.0072774016,-0.035961583,0.01038338,-0.027844626,-0.005699941,0.0027577323,0.017559132,-0.009208756,-0.010006898,0.00051672186,0.011354704,-0.0148334,-0.0036085823,0.0024847828,-0.0020386514,-0.012408854,0.0068519767,0.015435772,0.007013864,0.009705712,0.008071779,0.026082689,-0.01548095,-0.009818656,0.012386265,-0.0141256135,0.0035426978,0.043099687,0.00024188984,-0.017032057,0.021489605,0.028868658,0.03198593,-0.009238875,0.023387076,0.006991275,0.011648361,-0.0087268585,-0.025118895,0.015232472,0.008425673,0.017453717,0.010021958,0.0020066504,-0.0068632714,0.010797511,0.022016682,0.0020122975,-0.051412415,-0.008711799,0.02349249,-0.011286938,0.00313045,0.0005811945,-0.00477003,0.03156427,8.900275e-05,0.017077234,-0.008952748,0.0016104027,0.01674593,0.01441927,0.018402452,0.004514022,-0.057767436,-0.010842688,0.013862076,0.034064114,-0.042346723,-0.002957268,-0.011113755,0.023387076,0.017107353,0.03222688,-0.013756661,-0.012378736,-0.002627846,0.015736958,0.038069885,0.0070477473,-0.027302492,0.0138545465,-0.030374587,0.010217728,-0.018568104,0.015977906,0.0052255737,-0.034305062,0.000744023,-0.014223499,-0.027950041,-0.0051465123,0.005172866,0.00012612155,-0.059815496,0.019034943,-0.015812254,-0.014652689,0.022965416,-0.015330357,-0.024667116,0.012220614,0.04201542,0.011648361,-0.010195139,0.0059408895,-0.005368637,0.013478064,-0.0018551162,0.00082684914,0.009140989,0.011520357,0.02331178,0.009788538,-0.015646601,-0.016158618,0.026986247,0.035750754,0.0036594074,-0.0013741602,-0.026956128,0.004299427,-0.049876366,0.0030871544,0.021866089,0.018387392,-0.00086543855,-0.02395933,0.0057112356,0.0241551,0.006275959,0.01569178,0.012469091,0.01208508,0.033371385,-0.014584922,0.01822174,0.010134902,0.0034071642,-0.022332927,0.023236483,-0.01718265,-0.0042655435,0.007352698,0.0047361464,-0.025751386,0.007928716,-0.003113508,0.006001127,-0.009781009,-0.014780693,0.014494566,0.033371385,-0.004860386,0.016188737,-0.024245456,0.01865846,-0.028763242,0.027302492,0.009306641,-0.017483834,-0.054574866,0.012393795,-0.020209566,-0.031413678,0.0033262207,-0.009050633,0.020811938,0.021369131,0.032949727,0.004175188,-0.048792098,-0.017483834,-0.0072774016,0.001982179,-0.00720587,-0.044997156,0.019110238,0.015142116,-0.0041902475,0.019818025,0.03264854,-0.018507866,0.024456287,0.010104783,-0.015887551,-0.03963605,0.010654448,-0.018553045,0.030118579,0.00094685284,0.022287749,0.022438342,0.0011972135,0.009043103,0.0034071642,0.026383875,-0.00954006,0.0050523914,0.023597907,-0.0072849314,0.039726406,0.0061968975,0.01758925,-0.002454664,-0.018116325,-0.019953558,0.036323007,0.022875061,0.014163262,0.033401504,-0.024320753,-0.0014315738,0.0016762872,-0.018056087,0.007401641,-0.018071147,0.010375851,-0.0018212328,0.011317056,0.005684882,-0.023673203,-0.015797194,0.0064905537,-0.01356089,0.006125366,0.0060500694,-0.011716127,0.006163014,0.016414626,-0.0052481624,-0.0046119075,0.020932412,0.019215653,-0.045750123,-0.0082148425,-0.015872492,-0.005233103,-0.020284863,0.0012348618,0.020330042,-0.018793993,0.0173483,-0.00217042,0.0155110685,-0.034033995,-0.007732945,-0.0030137403,0.027904863,-0.039756525,0.017498894,-0.018553045,-0.011670949,0.005895712,0.011911898,-0.0033525743,-0.005937125,0.017694665,0.0003197746,-0.0015906375,0.010993281,0.02543514,-0.034033995,0.011979665,0.006637382,-0.012604625,0.011716127,-0.016791107,-0.015977906,0.0038231772,-0.006799269,-0.022784704,0.040810674,0.028657828,-0.031473916,-0.0071268086,-0.02227269,0.0150592895,-0.005617115,0.022122096,-0.01356089,0.022122096,0.012815455,0.00026659647,0.025706207,-0.014584922,-0.015917668,-0.01377172,0.003858943,-0.02965174,-0.0037554102,-0.038431305,-0.0006489612,-0.059815496,-0.0077931825,-0.028055456,0.018733757,0.0045893183,0.036533836,0.03370269,-0.016414626,-0.035841107,0.0013035698,0.025751386,0.003433518,-0.008764506,-0.025344783,0.034485772,0.022965416,0.0063512553,-0.0037347039,-0.005534289,-0.040810674,-0.010405969,0.023853915,-0.008523558,0.019381305,-0.012220614,-0.036142293,0.017574191,0.037828933,-0.00434084,0.014012669,0.018613283,0.013304883,0.03770846,-0.010805041,-0.048611388,-0.00021894796,-0.05087028,0.03544957,-0.015029171,0.03816024,-0.01804103,-0.015021641,0.049906485,-0.010443618,0.017016998,0.01761937,-0.002688083,-0.0140352575,-0.019546958,0.016399566,0.009404526,0.015947787,-0.0017986438,-0.010104783,-0.010948104,-0.008418143,-0.004702263,0.00031459797,0.0054175793,-0.022784704,-0.024124982,-0.0012216849,0.0008607325,-0.017754903,0.0075559984,-0.0002877736,0.029561386,-0.02055593,-0.0258568,-0.029802334,0.013237115,-0.006739032,0.010255376,-0.05084016,-0.009705712,0.008960277,-0.030043282,0.011558005,0.013741601,0.016038144,-0.0068783304,0.0051352177,-0.036503717,0.008109427,0.011738716,-0.0058768876,-0.0040170653,0.009562649,-0.021489605,0.00017141706,-0.019998737,0.011738716,0.0369555,0.0030833895,-0.008403083,0.002944091,0.021173362,-0.011045989,0.017950673,-0.0012489798,0.012777807,0.034274943,0.028266286,-0.01802597,-0.020089092,-0.057104826,-0.024290634,-0.018839171,0.035329092,-0.0035464626,-0.010360791,0.014532214,0.025118895,-0.015240001,-0.021926325,-0.009645475,-0.0027407906,-0.00062213687,0.01420844,-0.012672392,0.0028443234,0.015375535,0.0025977273,0.03876261,0.03788917,0.035931464,0.010345732,-0.040148064,-0.011520357,0.014893637,0.015646601,-0.0015972259,-0.007013864,-0.010481265,-0.009284052,-0.0076011764,-0.008960277,-0.0141557325,-0.01650498,0.0049319174,-0.0057526487,-0.0014776927,-0.0016744047,-0.02563091,0.020796878,-0.01292087,0.020330042,-0.0018278213,0.00055107585,-0.0343653,0.0042580143,0.05577961,0.005274516,0.021308895,0.025073716,0.0083051985,-0.029124666,0.007740475,0.028371701,-0.012175435,0.029395733,0.009284052,-0.014509626,-0.035268854,-0.0058354745,-0.034033995,-0.04297921,-0.004453785,-0.0079437755,0.026745299,-0.0013591009,0.024456287,0.0027069072,0.031082373,0.021911265,-0.00021459488,0.009713242,0.04093115,0.02648929,-0.008433202,-0.024983361,-0.015586365,-0.024275575,0.0057074707,0.023040714,0.0013365119,0.005481581,-0.018824112,-0.024094863,-0.008636503,0.030058341,0.0034372828,-0.014750574,-0.00667503,0.020465575,-0.0017299359,-0.005801591,-0.02013427,-0.001790173,-0.0029836218,-0.05195455,-0.0052632215,-0.009238875,0.0053912257,-0.0012075668,-0.016233914,0.021926325,-0.010887866,-0.049695656,-0.034305062,-0.011309527,0.014743044,-0.01336512,-0.002893266,0.0203451,0.015368005,0.002925267,-0.017559132,0.021866089,0.018613283,-0.028793361,-0.0009139106,-0.0072246944,0.014464447,-0.0011012106,-0.019652372,0.005131453,0.008945218,-0.011542945,0.011972135,-0.010586681,-0.019802965,-0.012536858,-0.01862834,0.00019600606,-0.0070176288,0.039334863,0.001593461,-0.0034071642,-0.002746438,-0.014968934,-0.0010645036,-0.050358266,0.012122728,-0.0044161365,0.013229586,0.006460435,-0.010805041,-0.03201605,6.970804e-05,0.023206364,0.00043436637,0.003986947,-0.038069885,0.010285495,-0.0079136565,0.014313854,-0.025164073,0.00069696276,0.0066562057,0.01776996,-0.03788917,0.000535546,-0.009419586,-0.0143665625,-0.016279092,0.00025741974,0.018312097,0.026413994,-0.008034131,0.022844942,-0.029576445,-0.020058973,-0.022498578,-0.038340952,-0.0042542494,0.00423919,0.028160872,0.015006582,0.0074919965,-0.03285937,0.026594706,-0.013847017,-0.0021440664,-0.0057601784,0.013109111,0.023974389,-0.0022344221,-0.0014588686,-0.012122728,-0.030028224,0.04942459,-0.0030890368,-0.008568736,-0.017649487,0.0050938046,-0.011896838,-0.009931602,0.0138545465,0.016836286,-0.005583232,-0.012634744,-0.004815208,0.028853599,-0.010195139,-0.015187293,0.007269872,0.021640198,0.007860949,0.0055004056,-0.044033363,-0.034907434,-0.016218854,-0.020058973,0.02307083,-0.014599981,0.0016132264,0.024124982,-0.020736642,-0.021369131,0.012476621,0.01504423,-0.04177447,0.041653994,-0.020194506,-0.00045083748,-0.006001127,-0.0009167342,0.013447946,-0.01315429,-0.009600297,-0.0034843432,-0.038943324,0.015006582,-0.01228838,-0.010345732,-0.015405653,-0.014328914,-0.0250436,0.013432886,0.014946345,0.023567788,-0.02353767,0.031232966,0.015797194,0.0014391034,0.0007360228,-0.0062834886,-0.0068708006,0.004024595,-0.0021064181,0.015962847,-0.0077103563,-0.015526127,-0.019110238,-0.008433202,0.00022424223,0.0016151088,-0.024426168,0.0023473667,0.016068261,0.002513019,0.022122096,-0.03282925,0.005688647,0.016881464,-0.012152847,0.042286485,-0.022935297,-0.009163578,-0.021278776,0.013455475,-0.028793361,0.012973578,-0.00046095543,-0.017845258,0.0038212948,0.0054100496,-0.014103024,0.0029422087,0.0041676583,-0.00076755317,-0.023462374,0.0043333108,0.013018756,0.0035897582,-0.00730752,0.034877315,-0.0039718878,0.031052254,-0.010654448,-0.0025054894,0.018718697,0.038069885,-0.005797826,-0.021926325,-0.0018184092,0.021519724,0.020013796,-0.027528381,0.021067945,-0.014020199,-0.002449017,0.0031116258,-0.0150894085,0.028236168,0.0022325397,0.0040170653,-0.019818025,0.027166959,-0.015240001,0.004698498,0.0021854793,-0.02647423,-0.0036970556,0.0013101582,0.016248973,0.0057790023,-0.037377156,-0.034666486,-0.005846769,0.0077705933,0.0133425305,0.014057847,-0.008772036,-0.0068595065,-0.010549032,0.01145259,0.01633933,-0.026097748,-0.016068261,0.012431444,-0.022001622,-0.0012216849,-0.0258568,0.053731546,0.013425357,-0.008147076,0.009901483,-0.011143874,-0.055869963,0.034877315,-0.018598223,-0.029019251,0.03117273,0.021655258,0.016444745,-0.010232788,0.021670317,0.003548345,0.007582352,0.005379931,-0.0056020557,-0.029139725,0.0155110685,-0.015021641,-0.0032885724,-0.0031097434,-0.0021497135,0.038280714,0.0080943685,0.0012245085,0.016565219,0.029832453,0.018281978,0.047527116,0.032769013,0.0148484595,-0.00302127,0.01419338,0.019772846,0.01737842,0.019607196,-0.012250732,0.008425673,0.009201226,0.007823301,0.004600613,-0.0031436267,0.003580346,-0.0010635623,0.016640514,-0.020646285,-0.0049319174,-0.0014052199,0.027663914,-0.0009986191,-0.0069837454,-0.016896524,-0.02460688,0.008320257,-0.008802155,-0.027091661,0.018281978,0.008312728,0.009231345,-0.014268677,8.388495e-05,9.076751e-05,0.0093217,-0.03219676,0.0008932041,-0.006381374,-0.022634111,-0.021444429,-0.01804103,0.014968934,-0.019622255,0.0027727918,0.022935297,0.01399761,-0.0024396048,0.016911581,-7.282578e-05,0.0077705933,0.0145171555,0.0068067987,-0.0029083253,0.00042707202,0.0053460477,0.013892194,0.02433581,0.0026899655,-0.016700752,-0.018568104,-0.014042787,0.007898597,-0.0022814823,-0.0060312455,0.011633301,-0.003986947,0.0165351,-0.02733261,0.024471346,-0.011309527,0.011512827,0.0018315861,-0.005696176,-0.0069235084,0.0022005388,-0.03689526,-0.008403083,0.0038438838,-0.049635418,0.03861202,-0.016821226,0.019607196,-0.0017562896,0.016248973,-0.048009016,-0.009073222,-0.035901345,-0.034455653,0.0065583205,-0.01844763,0.018281978,-0.016399566,-0.0010616799,0.015111997,-0.012341088,0.001904059,0.025495376,-0.008440732,-0.012642274,0.0074543483,0.025374902,-0.021745615,-0.0014983993,0.030675773,0.02141431,0.004532846,0.022438342,-0.041834705,0.0012292145,0.010654448,-0.022603994,0.007996483,-0.0023266603,-0.0013327472,-0.0138846645,0.010759862,-0.0029083253,-0.0073188148,-0.0037045851,-0.020676404,-0.0029911513,-0.010609269,0.013169348,-0.017529013,0.010774922,0.031112492,-0.014765633,0.019802965,0.010496325,-0.005575702,-0.011550475,0.0054062847,-0.007484467,-0.0065131425,-0.0043973126,0.006099012,-0.013184408,0.0046344963,0.011317056,-0.007420465,0.026353756,-0.0075108204,0.017062174,-0.032347355,-0.0037252917,-0.027663914,-0.006415257,-0.037196446,-0.00022977182,0.0012122728,-0.021173362,-0.006848212,0.017664546,5.7531193e-05,0.0053121643,-0.0055644074,0.018613283,0.011053518,0.030419765,0.025691148,-0.02436593,0.0016235797,0.008124487,-0.003983182,0.02310095,0.0013016873,-0.019170476,0.021610081,0.019155417,-0.016248973,-0.005150277,-0.016610397,0.032287117,-0.017830199,-0.014080436,0.00689339,0.022799764,0.013500653,0.027588619,0.014133143,-0.008418143,-0.022543756,-0.030344468,-0.009306641,-0.004118716,-0.02076676,0.0037252917,-0.004284368,-0.009984309,0.0027953805,-0.019396365,0.011618242,0.0031398619,-0.0013600421,-0.014110554,-0.016354388,0.0036104647,0.020721583,-0.007740475,0.019757789,0.010646918,-0.0029742096,0.020646285,0.024667116,-0.011558005,0.00996172,-0.005221809,0.0016085204,0.019968618,0.015842373,0.003968123,-0.006787975,-0.004604378,0.008915099,0.0017722901,-0.004386018,0.0018372333,0.0220468,-0.0040509487,-0.0010277965,-0.03285937,0.0152098825,0.0037610575,-0.010571621,0.021098064,-0.0017675841,0.00085226167,-0.0014682807,0.014569863,0.0152701195,0.007860949,0.015526127,0.0036914083,-0.033130437,-0.012017313,0.023868974,-0.023763558,0.00477003,-0.012461562,0.021775732,-0.014471977,-0.001584049,-0.011957075,-0.00092191086,-0.009261463,-0.00058213563,-0.006147955,-0.014072906,0.0127401585,-0.010398439,0.005809121,0.019004824,0.011219171,0.019682491,-0.015842373,-0.013432886,0.011776364,0.015322827,0.02185103,-0.013831957,-0.021670317,0.017529013,-0.005632174,0.028687946,-0.03710609,-0.0061366605,0.026685061,-0.0037704697,0.011738716,0.0011529769,0.006321137,0.0013129818,0.0039907116,-0.0033977523,-0.008794625,-0.0064303167,-0.010308084,4.6089663e-05,-0.015496009,0.0069159786,0.008967807,0.013583479,-0.031263083,0.01611344,-0.010323143,-0.028085575,0.029275259,-0.019034943,0.027874745,0.0029365614,-0.010827629,0.014931286,0.005319694,-0.0014871048,-0.0035426978,-0.0033958699,0.010820099,-0.00974336,-0.0023379547,-0.0041601285,-0.015842373,-0.020480633,0.010021958,-0.016038144,-0.009901483,0.02460688,-0.009449705,0.007996483,0.016625457,0.021339012,0.0025299606,0.0014296913,0.005368637,0.031443797,-0.0043333108,0.0027050248,-0.001812762,0.004958271,0.006272194,0.022573875,0.0066562057,0.007266107,0.0031436267,-0.0041827178,0.009268993,-0.0018560574,-0.0058241803,-0.014818341,-0.0019708846,-0.0080040125,0.0036725842,-0.013959961,0.010006898,0.008282609,-0.00021518313,0.0005637822,-0.014863519,0.0039455337,-0.0067277374,1.0691508e-05,-0.0035916406,0.02013427,0.017273005,-0.006377609,0.009125929,-0.011738716,0.003002446,0.001034385,0.01165589,-0.023582848,0.0018033499,-0.032979842,-0.0032848075,-0.0033563392,0.0047625005,-0.0044236663,-0.0043333108,0.0014071023,-0.01145259,0.0021083006,-0.005481581,0.007081631,0.002659847,-0.005210514,0.028055456,0.008440732,0.009043103,-0.00932923,0.012137787,0.017257946,-0.0009816774,-0.010097253,-0.011226701,-0.019230712,0.007563528,-0.008772036,0.025540555,-0.009404526,0.021489605,0.017303124,0.017001938,-0.00572253,0.0052895756,-0.023236483,-0.008297669,0.0037968233,0.00888498,0.0007887303,0.0033676336,-0.018387392,0.0022061858,0.03791929,0.00423919,0.0012047432,0.019140357,0.02096253,-0.0061404253,0.009585238,-0.026956128,0.00344293,-0.020194506,-0.006373844,-0.013598538,-0.008229902,-0.016489921,-0.0007129632,-0.0137641905,-0.028763242,-0.005236868,-0.01293593,0.020842057,0.018974705,0.0054100496,-0.024124982,0.022016682,-0.01972767,-0.01804103,0.017754903,-0.011038459,0.044003244,-0.0013261586,-0.0024132512,0.00051342766,0.009095811,-0.0030043283,-0.002417016,-0.011015871,0.009374408,0.0076990617,-0.0008757918,-0.009427115,0.017092293,-0.0022588933,-0.01249921,0.010978222,0.017664546,-0.011271878,-0.009058163,-0.021564903,-0.0061931326,-0.014652689,-0.0019520604,-0.004073538,-0.01590261,-0.0147581035,-0.017559132,0.0043182513,0.00042777794,-0.00019506486,-0.021549843,0.029019251,0.007055277,0.00635502,0.024727354,0.027859686,0.006373844,-0.0015896963,0.0173483,0.029034311,0.013274764,-0.011000811,-0.023206364,2.5412552e-05,0.007906127,-0.010142432,0.007251048,0.0041864826,-0.0079437755,0.0155110685,-0.0074054054,0.0016565218,-0.001565225,0.0022457165,-0.0009129694,-0.027904863,-0.0030739775,-0.01567672,-0.01207755,0.007081631,0.003190687,0.018522926,-0.0037384685,-0.0057300595,0.001291334,-0.032708775,0.01633933,0.027694033,0.008869922,-0.022860002,0.0056660576,-0.0013299235,0.013116641,-0.0024847828,0.00752588,0.013907254,-0.003680114,-0.011512827,-0.0022325397,-0.0038212948,0.0016715812,0.0046721445,0.017001938,-0.008606384,0.0018438217,-0.0024113688,-0.011362234,0.005120158,0.01906506,-0.025706207,-0.013335001,-0.039124034,0.004977095,-0.012220614,0.017318184,0.0074317595,0.0052029844,0.007051512,0.0150367,-0.023823796,-0.009246403,0.01611344,0.0011586241,-0.008531087,0.0058731227,0.0135533605,0.002353014,-0.00059484196,-0.013455475,-0.012318498,0.0067955046,0.00847085,0.0330702,0.008817214,-0.006038775,0.021941384,0.0016254621,-0.022513637,-3.5559922e-05,-0.010970692,-0.008741917,0.008169665,-0.015413183,-0.0007755534,-0.0014259265,0.019185536,0.018071147,0.011987194,0.0017280534,0.03553992,-0.011723657,-0.024079803,0.020074032,-0.0018466454,-0.0044801384,0.026850713,-0.001776055,0.0024396048,0.020405337,0.014080436,0.010240316,0.0056208796,0.010684566,-0.0005176631,0.00048519147,-0.019983677,-0.020089092,0.010082195,-0.021896208,0.016008025,-0.0049507413,-0.03031435,-0.0031210377,-0.01847775,-0.03454601,0.01484093,0.0006555497,-0.0067540915,-0.00487168,0.0037798816,0.03608206,-0.011851661,0.012491681,0.004299427,-0.02076676,0.0035784636,0.00975089,0.0066034985,0.021128183,-0.021519724,-0.010165021,0.0074957614,0.012032372,-0.0025619615,-0.022543756,0.018809052,0.018613283,0.011189052,0.022061858,0.0063964333,0.006336196,0.002138419,0.01567672,-0.006106542,0.00051672186,-0.0069762156,-0.008192253,0.0015501656,0.0015143998,-0.0009633239,-0.008034131,-0.044033363,0.013289823,-0.014667748,0.0010334437,-0.00053319294,-0.013214527,-0.009622886,-0.01546589,-0.00015200471,-0.014223499,0.022091977,-0.011829072,-0.018944586,0.0060952473,-0.015142116,-0.0011040341,-0.018387392,0.019637313,-0.001267804,-0.009735831,-0.00847085,-0.0032791602,0.018146444,0.0007788476,-0.011618242,-0.018914467,-0.016384507,0.015646601,-0.010940574,-0.010232788,0.0010428558,0.01336512,-0.008576266,-0.035268854,-0.0015962847,-0.0010277965,0.0012310969,-0.008787096,0.028657828,0.016414626,-0.017062174,0.01145259,-0.019381305,0.004133775,0.009818656,0.005530524,0.0038740023,0.008508499,-0.0064642,-0.008598854,-0.004261779,0.009434645,0.0023191306,0.0030043283,-0.022378104,-0.004536611,0.019592136,-0.021098064,-0.013440416,0.004288133,0.0053912257,0.0016631103,0.0028895012,-0.035660397,0.003254689,-0.011535415,0.008425673,0.0012310969,-0.0011275643,0.0043973126,0.0008564971,0.007815771,-0.0001088269,-0.006099012,-0.006441611,0.0065357317,0.018387392,0.017935613,-0.001249921,0.02841688,0.0018033499,-0.004754971,-0.00075155264,-0.000388012,0.0015191059,-0.013643716,0.0032321,-0.042918976,-0.015096937,-0.010767392,0.013719013,-0.013425357,-0.0025412552,0.021956444,0.03620253,-0.0071305735,0.009637945,0.0062834886,-0.016218854,0.014901167,0.0024320753,0.013033815,0.031293202,0.0083654355,0.04216601,0.014532214,-0.017197708,-0.022965416,0.013116641,-0.0149388155,-0.0031398619,-0.010240316,0.0019520604,-0.0018024087,-0.006106542,-0.010225258,0.0022137156,0.0083654355,-0.01273263,0.011347175,0.010127372,0.026429053,-0.004299427,0.012536858,0.010315613,-0.0063926685,-0.003136097,-0.005703706,0.018191623,-0.012905811,0.012145317,-0.023296721,-0.005428874,0.01144506,-0.0047286167,0.011211641,0.008147076,0.023131069,0.021534784,0.015556246,0.009163578,-0.006321137,0.019245772,0.033341266,-0.026971187,-0.0056020557,-0.00031318617,0.00847085,0.018824112,-0.010270435,-0.004453785,-0.0056133503,-0.011414941,0.0013525124,0.0039304746,-0.0030344469,0.011573064,0.032076288,-0.015157175,-0.005583232,-0.0035464626,-0.0020951238,0.024260515,-0.004532846,-0.011460119,0.019802965,0.0008287315,-0.009464763,0.0038551781,0.00045977894,-0.0022777175,-0.004905564,-0.016188737,0.0069799805,-0.0019106474,-0.033612333,-0.012446503,0.006426552,-0.023146128,-0.007973894,-0.01781514,-0.00041201274,0.0143966805,0.010692095,0.009291582,0.008410613,-0.019381305,-0.008553676,0.002947856,0.002688083,0.009886423,-0.0141858505,-0.017574191,-0.008410613,0.014087966,-0.018281978,0.024636997,-0.021263717,-0.01038338,-0.0032810427,0.0030513885,-0.022212451,0.011279408,0.0037723521,0.00953253,-0.03367257,-0.032076288,-0.011113755,-0.0028311464,-0.0001587108,0.0036895259,-0.0059860675,-0.019396365,-0.008824743,-0.0052519273,0.008395554,0.031142611,-0.0309619,0.007800712,-0.00045554352,-0.011173992,0.0038702374,0.026790475,-0.026670001,-0.005745119,0.005131453,-0.013229586,-0.01692664,-0.014886107,0.009562649,0.01505176,0.005150277,-0.015172234,-0.004913093,-0.02435087,-0.0038702374,0.0011520357,0.018191623,-0.009826186,-0.017242886,-0.005846769,0.027648855,0.030284232,0.023372017,0.018492807,-0.024847828,0.0028085576,-0.039304744,-0.029395733,0.0069611566,0.0049469764,0.0015031053,0.004118716,0.016595338,-0.008372965,-0.012649803,0.0048377966,-8.064955e-05,0.011610712,0.011595652,-0.014720456,0.006400198,-0.006690089,-0.0017958203,-0.0058204154,0.03879273,0.0037441158,-0.017679606,-0.008079309,-0.006780445,-0.0038627076,-0.010255376,0.0064566704,0.019471662,-0.0015755781,-0.0066524413,-0.0005073098,-0.031504035,-0.019682491,0.0047737947,0.008538617,0.020811938,0.00030236228,0.0152701195,-0.003360104,0.007262342,0.0039116503,-0.0070063346,-0.010405969,0.0019407659,-0.010285495,-0.001016502,-0.00888498,-0.005489111,-0.011008341,0.0015755781,-0.02055593,0.00033342207,-0.019757789,-0.009675593,-0.0014023964,-0.0033299853,-0.011008341,-0.005120158,0.005014743,0.0023116008,-0.008011542,-0.0013741602,0.02924514,-0.004276838,-0.009223815,0.0014362797,0.008116957,-0.014878578,0.0057074707,-0.0011407412,-0.023296721,0.0034994024,-0.022347985,0.026157986,-0.011324585,0.013937373,0.0016273445,-0.016023085,-0.023402136,0.0041827178,0.022995535,-0.023447314,0.009615356,0.029365614,-0.013493123,0.0039568283,0.006057599,0.011723657,-0.013545831,-0.0043107215,0.00487168,0.0024941948,0.02648929,0.009464763,-0.00016506393,-0.00572253,0.016188737,0.0024979596,-0.009178637,-0.011768835,0.00025694913,-0.008561206,-0.005937125,0.011678479,0.01608332,-0.0065018483,0.0015398123,-0.008177194,0.0021252423,-0.0151496455,-0.007672708,0.0143364435,0.00519169,0.01652004,0.008071779,0.027407907,1.5441654e-07,0.006693854,-0.005466522,0.003676349,-0.016399566,-0.014268677,0.0021628905,-0.0059408895,0.006163014,0.009005455,-9.870894e-05,-0.0010767392,0.033220794,0.006569615,0.018146444,-0.024832768,-0.0063926685,-0.0131919375,-0.0011896839,-0.0028273817,-0.0021120654,-0.032769013,-0.004171423,-0.025540555,0.012115198,0.010082195,-0.022860002,-0.011836601,-0.03310032,0.009193696,0.0062834886,-0.018522926,0.00023977213,-0.0029873867,0.0009807362,0.022724468,0.00018953528,0.01335006,0.02838676,0.01780008,0.00455167,0.0018965292,0.011791424,0.0082148425,-0.0019614724,0.0016461685,-0.026248341,0.017453717,-0.014667748,-0.0049733305,0.019863203,0.016399566,0.02310095,-0.0147279855,-0.0068595065,0.019004824,-0.0066072633,-0.005899477,-0.002403839,-0.02246846,0.00847838,-0.011934487,-0.007059042,-0.0074054054,0.010692095,-0.00402836,-0.043220162,-0.0038024706,-0.018372333,-0.008026602,0.0042053065,-0.0009553237,-0.008523558,0.018417511,-0.0032038637,0.04129257,0.0042693084,0.011610712,0.004156364,0.013056404,0.015096937,-0.0028857363,0.028266286,0.0042278953,-0.016294152,0.007412935,-0.0051389826,0.02222751,0.015526127,-0.003676349,0.0006663736,0.0039116503,-0.0010588563,0.03523874,-0.0136738345,0.01971261,-0.0022513638,-0.03304008,0.0022268924,-0.03370269,-0.0021252423,-0.002563844,-0.014268677,0.006121601,0.024862887,0.017107353,-0.008659092,0.0153604755,0.00054401683,-0.011542945,-0.0047813244,0.019802965,0.011301997,0.0032584537,-0.02014933,0.029109607,0.0015285179,-0.016294152,-0.009909012,-0.019818025,0.017559132,-0.002343602,0.020661345,0.0047286167,-0.0005567231,-0.008380495,0.013447946,-0.0020198273,0.014509626,0.0071908105,0.01801091,-0.024320753,0.0017882907,-0.012988637,-0.012966048,0.009088282,-0.023612967,-0.0011736833,-0.037196446,0.0032942195,0.0006884919,0.0016198148,-0.027814507,0.009502412,0.0080943685,-0.0076614134,-0.00413001,-0.00015800488,-0.011670949,-0.00868168,0.0137039535,-0.009193696,-0.024847828,-0.011693538,0.025284547,-0.01313923,0.0026071395,3.420694e-05,-0.010865278,0.009690653,-0.006739032,0.011768835,-0.018297037,-0.017739844,-0.0073903464,-0.00954006,0.007254813,0.03049506,0.011776364,-0.022287749,-0.012694981,0.009276522,0.007589882,-0.018583164,0.014359033,0.012883222,-0.0057564136,-0.00068237406,-0.002174185,-0.0165351,-0.013161819,-0.011678479,0.0029855042,0.007371522,-0.018056087,0.010247846,-0.012755218,-0.0018645283,0.01546589,0.014133143,-0.023718381,-0.013440416,0.0030965663,0.013944902,0.007823301,0.024712294,-0.0028029103,0.0022852472,0.0011783894,0.008222372,0.015157175,-0.00010359144,0.004299427,-0.00069272734,-0.004024595,0.002509254,0.01399008,0.0032622186,0.003983182,0.01546589,-0.009186166,0.008824743,0.013078993,0.022167275,0.021248657,0.008644032,0.0060312455,0.00014706337,-0.0019972383,-0.008741917,-0.0034579893,-0.011143874,0.017016998,-0.019260831,-0.004649556,0.0001701229,0.0026033747,0.0052255737,0.0032471593,-0.0026127868,-0.008997926,0.009653005,0.017197708,0.0060877176,-0.012363677,-0.0049281525,0.015992966,-0.01761937,-0.0081546055,-0.011098696,-0.011904368,0.0040547135,0.01778502,0.003200099,0.001249921,0.017137472,0.0150592895,0.008207313,-0.017950673,0.008222372,-0.011000811,-0.011798954,-0.00033130436,-0.010277965,-0.001643345,0.00021200656,0.022875061,-0.01888435,-0.01145259,0.018959645,-0.00026024334,-0.018131385,-0.0014325149,0.017016998,0.0005891947,0.0043521347,-0.0056133503,0.012627214,0.0154207125,0.025917036,-0.013011226,0.010857748,0.006309842,0.0066449116,-0.0146978665,0.02097759,0.005376166,-0.018914467,-0.0010739156,-0.002769027,0.0045855534,-0.013636187,0.011768835,-0.013267234,-0.0048377966,-0.017694665,0.005368637,0.0142159695,0.0002889501,0.027046483,0.0011294467,-0.0016668751,-0.0143665625,0.019471662,-0.028522294,0.00783836,-0.005172866,0.0020612401,0.0019614724,-0.0087268585,0.012002254,-0.010744803,-0.021323955,-0.009140989,0.002321013,0.005172866,0.0152098825,0.0134630045,-0.02016439,0.015541187,0.010789981,0.0057300595,0.008704269,0.0220468,-0.0165351,0.017197708,-0.02141431,-0.0045253164,-0.015375535,0.01292087,0.0023567788,0.017965732,-0.028974073,0.019245772,7.088455e-05,-0.010556562,0.021715496,0.015398123,-0.017438658,0.019998737,-0.0011520357,0.029727038,0.031684745,0.011994724,0.0057150004,-0.008448262,0.018553045,-0.0031153904,0.012152847,-0.0041488344,0.0050975694,0.0015407535,-0.0073489333,0.016655574,0.0050975694,-0.006061364,-0.011467649,0.001566166,-0.001291334,0.012243202,-0.019667432,0.0023567788,-0.011045989,0.0036387008,-0.010684566,0.014050317,0.0045667295,-0.00931417,0.019878263,0.006211957,-0.00487168,0.0025299606,0.00636255,0.007571058,0.0032076286,0.0048641507,-0.025751386,-0.010277965,0.010948104,-0.002595845,-0.016730871,-0.005684882,-0.011896838,-0.0019652373,0.021564903,-0.023161188,0.029019251,0.0041864826,-0.0020932413,0.0024471346,-0.00051578064,-0.014765633,0.013304883,-0.01739348,-0.021790791,-0.010195139,-0.020254744,-0.0037441158,-0.025540555,0.027934982,0.002509254,0.013327471,0.00080896623,-0.01209261,-0.01017255,-0.01760431,-0.002710672,0.014381621,0.0042956625,-0.0024320753,-0.0047737947,0.0020405338,-0.0007270813,-0.00030236228,-0.018327156,-0.0066223224,-0.0017449951,-0.025149014,0.009359349,0.013726543,-0.0137641905,-0.0031624509,0.012100139,-0.0039907116,0.026941068,-0.006633617,0.0063249017,-0.008192253,0.0037328214,0.0036292889,-0.0018221741,-0.0075371745,0.01822174,0.0010419146,0.0044199014,-0.0013355707,0.0022099507,0.004593083,0.0049281525,-0.0052481624,0.0002364779,-0.0138545465,-0.010074665,0.01865846,-0.003452342,0.0005044862,-0.027016366,0.010639388,0.0022419516,0.012491681,-0.018959645,0.008101897,-0.001652757,0.002769027,-0.008824743,-0.010805041,0.004066008,0.002558197,-0.00583171,-0.023206364,-0.004540376,0.0067540915,-0.027242254,0.00487168,0.0054552276,0.0028575002,0.013809368,0.008342846,-0.014238558,0.0051578064,0.019577077,0.0040020063,0.0145773925,0.017694665,0.0024847828,0.0059295953,-0.0022607758,0.006528202,-0.021218538,-0.010586681,-0.0036179943,-0.030344468,0.014946345,0.010451147,-0.024697235,-0.003337515,0.007966364,0.008937689,-0.004288133,0.0015228706,0.010390909,-0.0075484687,-0.019095179,0.001043797,-0.0060274806,0.01504423,0.0343653,-0.020661345,0.008199783,0.024124982,0.019230712,-0.00077037676,0.009547589,-0.012115198,-0.02989269,-0.0017468776,-0.0034297532,-0.011723657,0.00048283846,-0.016911581,-0.009201226,0.01930601,-0.016640514,0.012152847,-0.01633933,-0.007672708,-0.022302808,0.021775732,0.012416384,-0.024561701,0.016173678,0.009299112,-0.021369131,-0.01208508,0.0030457412,-0.009291582,0.024471346,0.017920554,0.0043596644,-0.004920623,-0.009276522,0.026173046,-0.0068632714,0.017001938,-0.010014428,-0.0040170653,-0.0040170653,-0.020405337,0.007164457,0.0087268585,-0.011542945,0.0053083994,0.019682491,0.0039342395,0.0042090714,-0.006053834,-0.0036876434,0.017453717,-0.006931038,-0.00037789406,0.012160377,0.00423919,0.012777807,-0.0154207125,0.0012310969,-0.0026109044,0.00667503,0.006441611,0.007612471,0.0071832812,-0.019622255,0.0020179448,0.016685693,-0.034154467,-0.016384507,0.0013525124,-0.0309619,-0.002842441,-0.01017255,-0.009043103,-0.025811622,0.007668943,-0.0056058206,0.020375218,0.0072322236,-0.01847775,-0.006403963,-0.0250436,0.009705712,-0.010134902,0.020947471,0.010021958,0.0017158178,-0.007717886,-0.015827313,0.0060086567,0.004544141,0.002238187,0.0008212019,-0.016173678,0.0004249543,0.00081979006,0.020089092,0.002944091,-0.011339645,-0.0029685625,0.017905496,0.016369447,0.024320753,-0.022784704,-0.0047323816,0.0008536735,0.0064905537,0.008192253,0.016143559,-0.0074279946,-0.0016273445,0.026007393,-0.013395238,-0.017333243,0.027784389,-0.0039380044,0.048792098,-0.014389151,0.0028123222,-0.010165021,0.008177194,-0.0011812131,0.023612967,0.012642274,-0.0127251,0.018191623,-0.030028224,0.005684882,0.021625139,0.0026749063,-0.03052518,-0.007800712,0.0013666305,-0.015631542,0.008440732,0.00014623982,-0.020465575,-0.013222056,-0.020887235,-0.0036650547,-0.013086523,0.0077856528,-0.02733261,-0.010315613,-0.01566166,-0.022332927,0.0042090714,-0.010774922,-0.0140954945,-0.0025412552,0.0125218,-0.011768835,-0.01758925,0.009698182,0.0037761168,0.01611344,-0.004118716,0.0146301,0.0028123222,0.023341898,-0.011399882,-0.012996167,0.014795752,0.002819852,-0.00867415,0.0137641905,-0.0045215515,-0.011610712,0.015398123,-0.009434645,0.012070021,0.028582532,0.023582848,-0.015345416,-0.00317751,-0.023040714,-0.009878894,-0.022393163,-0.007356463,0.0040509487,-0.018839171,-0.0012423914,0.005123923,0.0026786712,-0.028898777,-0.021459488,-0.008282609,0.0029779745,0.0063474905,0.0035671692,0.009344289,-0.017529013,0.00826002,0.009848775,-0.0075559984,-0.019938499,0.008862392,0.017016998,-0.014479507,-0.017303124,-0.015021641,0.01398255,-0.02460688,0.01524753,0.0048905043,0.002509254,-0.0143966805,0.0026579646,-0.009818656,-0.015450831,-0.010481265,-0.0275585,-0.0046232017,0.008523558,0.01484093,-0.0148484595,0.0038344716,0.008553676,0.0078534195,0.004578024,0.010541502,-0.021866089,4.9648595e-05,-0.019667432,0.010157491,0.017905496,-0.0051879254,0.007036453,0.002142184,0.0138846645,0.011738716,-0.0023925446,0.011798954,-0.016444745,0.0070853955,-0.013847017,0.0014729868,-0.0020744172,0.031413678,-0.009140989,0.004683439,0.0060801883,0.0241551,0.0040547135,-0.001341218,0.0003355398,0.016023085,0.0017666429,-0.0044801384,-0.021323955,-0.019998737,-0.019607196,-0.0015125173,-0.00056237035,-0.032949727,0.0237485,-0.00051013345,-0.04210577,0.028040398,0.028703006,0.00096755935,0.0009520295,0.030901661,-0.012416384,0.013643716,0.019456603,-0.0067578563,0.009781009,0.025977274,-0.013538301,-0.0035539924,-0.015947787,-0.015435772,-0.010353262,0.010240316,0.009479823,-0.018778933,0.014321384,0.0056208796,0.012408854,-0.030705892,-0.0014212205,0.01888435,-0.011460119,0.016565219,0.011422471,0.0052406327,0.0150592895,0.008071779,-0.022498578,0.014773163,0.006848212,-0.00020518282,-0.0144267995,0.012009784,-0.0065169074,0.012875693,0.005214279,-0.010940574,-0.005790297,-0.009811128,-0.017860318,0.010293025,-0.009728301,-0.0182368,0.034666486,0.009419586,-0.016309211,0.027784389,0.021188421,-0.0142762065,0.018778933,-0.0032490417,-0.008199783,0.000122003774,0.020826997,0.035329092,-0.027739212,-0.010895396,-0.021233598
